{
  "Layers": [
    {
      "_wInc": 1,
      "_wDec": 1,
      "_wNothing": 336562682664,
      "EnableNNUE": true,
      "Weights": [
        [
          -0.33574644,
          -0.12960443,
          0.10891801,
          -0.46106267,
          0.28068304,
          -0.34313473,
          0.35582763,
          0.067732595,
          0.26705974,
          -0.2179408,
          -0.47935665,
          0.42769474,
          -0.064120226,
          -0.11591662,
          0.03521069,
          -0.14334904
        ],
        [
          0.21717049,
          -0.0039860415,
          -0.21574491,
          0.5979797,
          -0.36630595,
          -0.06976199,
          -0.21428092,
          -0.031956047,
          0.030362157,
          0.11021196,
          0.60400873,
          -0.1688691,
          0.15305012,
          0.118751936,
          -0.11032253,
          0.28123403
        ],
        [
          0.4223419,
          0.051391546,
          -0.112526774,
          0.55406576,
          -0.35364342,
          0.21429929,
          -0.18556486,
          -0.073843025,
          0.01635546,
          0.010098589,
          0.3348508,
          -0.30684555,
          0.17721716,
          0.039233837,
          -0.022338472,
          0.078303106
        ],
        [
          -0.0032844439,
          -0.80554116,
          0.08089031,
          -0.37497786,
          -1.4746562,
          -1.0672078,
          0.71465945,
          -0.98684794,
          0.11050099,
          1.103,
          -0.4066747,
          -0.89400494,
          1.4377676,
          0.17674579,
          0.61619306,
          -0.2919829
        ],
        [
          0.1803392,
          0.16308047,
          -0.1194709,
          -0.5096455,
          -0.44707263,
          -0.07768863,
          0.007848896,
          -0.072163396,
          0.21590613,
          -0.11883761,
          -0.7301886,
          -0.64913034,
          0.18335684,
          0.0747353,
          0.19060887,
          -0.85863096
        ],
        [
          0.23382199,
          0.11164749,
          0.14390647,
          -0.5302362,
          -0.19575126,
          0.20631504,
          0.030676117,
          -0.07034636,
          0.31340197,
          -0.5001037,
          0.028200984,
          -0.16002882,
          -0.86255336,
          0.07969225,
          0.16586362,
          -0.36349726
        ],
        [
          -0.0105408775,
          -0.04390581,
          0.16785207,
          -0.38595584,
          -0.15930066,
          -0.0038425047,
          -0.42650354,
          -0.12762615,
          -0.21160103,
          -0.062877245,
          -0.3548558,
          -0.15993373,
          -0.567637,
          0.2799518,
          0.09820295,
          0.006306746
        ],
        [
          -0.22832206,
          0.19008063,
          0.31969053,
          -0.022674367,
          -0.24683721,
          -0.030799428,
          -0.4091737,
          0.30764514,
          -0.12856647,
          -0.67566293,
          0.08096485,
          0.045251697,
          -0.3927536,
          0.04749623,
          -0.11077368,
          0.09679484
        ],
        [
          1.9359671,
          -0.5003143,
          -1.1441436,
          -0.9350154,
          0.89779353,
          1.7275361,
          -1.1497432,
          -0.23645614,
          0.521575,
          -0.78606117,
          1.5104401,
          -0.09061238,
          -1.5427219,
          0.5868703,
          0.36304015,
          -0.4298824
        ],
        [
          0.21702838,
          0.023937937,
          0.014967207,
          -0.018089237,
          0.27075422,
          0.22325884,
          0.10543616,
          -0.13554016,
          0.17478432,
          0.12376705,
          0.33484983,
          0.059731938,
          0.31665674,
          0.02146107,
          -0.035008803,
          -0.1071031
        ],
        [
          0.021590196,
          0.16449043,
          -0.2074653,
          0.25232273,
          0.14979835,
          0.055880673,
          0.44372737,
          -0.039816696,
          -0.13027875,
          0.3635377,
          -0.040836968,
          0.2641223,
          0.34144118,
          -0.009395491,
          0.025838114,
          0.15824774
        ],
        [
          0.6228186,
          -0.053381447,
          0.17590292,
          0.2747428,
          0.15838666,
          0.5817823,
          0.106750615,
          -0.1438082,
          0.28554896,
          0.09917298,
          0.81366014,
          -0.040884644,
          0.11885819,
          0.08748324,
          0.034755643,
          -0.031439807
        ],
        [
          0.53799736,
          -0.03801374,
          0.0041748313,
          0.054082535,
          0.27724224,
          0.56941396,
          0.02893728,
          -0.04772264,
          0.061416484,
          0.28670648,
          0.71658283,
          0.15640454,
          0.087812014,
          -0.014300594,
          0.074541315,
          -0.017877469
        ],
        [
          0.31353533,
          -0.058974206,
          0.010102261,
          0.102671236,
          0.09807632,
          0.55769634,
          0.2159237,
          -0.064089715,
          0.058556814,
          0.18183926,
          0.44486636,
          0.16499026,
          0.13378984,
          0.14499913,
          0.06605097,
          -0.08623271
        ],
        [
          0.14638653,
          0.017781476,
          -0.07098277,
          0.18220758,
          0.107794814,
          0.4276841,
          0.18050739,
          0.07931423,
          0.09115045,
          0.30836758,
          0.28277352,
          0.19694145,
          0.27657038,
          0.021215258,
          0.022703085,
          0.0729039
        ],
        [
          -0.023489246,
          0.097576395,
          -0.13912632,
          0.17999622,
          0.25044414,
          0.23090346,
          0.23709297,
          -0.08139622,
          0.027125413,
          0.2944182,
          0.18081278,
          0.017709145,
          0.24874978,
          -0.13418739,
          0.092851736,
          -0.082887694
        ],
        [
          0.051084373,
          -0.025336983,
          -0.20654504,
          0.070307486,
          0.08853046,
          0.24606337,
          0.3240973,
          -0.14520219,
          0.121324755,
          0.1050048,
          0.13324696,
          0.09038097,
          0.2431626,
          0.03103236,
          0.022864372,
          0.0891785
        ],
        [
          0.06450416,
          0.020772642,
          -0.19504432,
          0.1909205,
          0.1962676,
          0.10402907,
          0.26550296,
          -0.110078946,
          -0.077500656,
          0.13297877,
          0.37642363,
          0.03466326,
          0.20554711,
          0.03201369,
          0.041003596,
          -0.076604515
        ],
        [
          0.17246187,
          0.023692505,
          -0.08566119,
          0.22398144,
          0.25234914,
          0.29863128,
          0.22257382,
          -0.0744614,
          0.1433918,
          0.17223495,
          0.24440369,
          0.18311994,
          0.2292532,
          -0.06724996,
          0.1303283,
          -0.0614979
        ],
        [
          0.19867182,
          -0.06539753,
          -0.09380779,
          0.14585473,
          0.14961755,
          0.17677374,
          0.1281302,
          -0.08280258,
          -0.05560636,
          0.21244285,
          0.15094492,
          0.088365674,
          0.23802817,
          -0.07989933,
          0.033467162,
          0.040855285
        ],
        [
          0.10781129,
          -0.085370705,
          -0.10539152,
          0.05231583,
          0.19812167,
          0.27689657,
          0.15727374,
          -0.09966089,
          0.024821064,
          0.33581027,
          0.268779,
          0.22145753,
          0.28171176,
          -0.14949979,
          -0.057398785,
          0.05637675
        ],
        [
          0.12876835,
          -0.08807264,
          -0.29225203,
          0.14256951,
          0.08787068,
          0.16661026,
          0.18575007,
          -0.08553253,
          0.042815413,
          0.29468122,
          0.29071048,
          0.22312845,
          0.25447243,
          0.076156,
          0.07843035,
          -0.03867166
        ],
        [
          0.118159205,
          0.078682095,
          -0.19093971,
          -0.061364993,
          0.10480406,
          0.20409144,
          0.24169993,
          -0.05446127,
          0.15892674,
          0.2036865,
          0.1393561,
          0.027559677,
          0.4841705,
          0.064675115,
          0.057193052,
          0.040150676
        ],
        [
          0.10020745,
          0.082964346,
          -0.17380892,
          0.06892413,
          0.1781925,
          0.5105192,
          0.31413892,
          -0.21373242,
          0.114657074,
          0.1469177,
          0.091945425,
          0.1506197,
          0.32032883,
          -0.099634595,
          -0.0032723937,
          -0.09584901
        ],
        [
          0.07443291,
          -0.057221852,
          -0.18909378,
          0.083403386,
          0.20593244,
          0.10811729,
          0.31399742,
          0.05748537,
          0.022159876,
          0.19098592,
          0.25152603,
          0.19917814,
          0.26292235,
          -0.091824286,
          -0.041885678,
          0.08054322
        ],
        [
          -0.048442245,
          -0.2772888,
          0.21147865,
          0.3216471,
          -0.12701929,
          -0.32799163,
          0.9948873,
          0.002445877,
          -0.1020078,
          0.14521708,
          -0.2540049,
          -0.2103482,
          0.9098959,
          -0.1591708,
          0.14014965,
          0.20873153
        ],
        [
          0.15672117,
          -0.043232456,
          0.15015629,
          0.20952004,
          0.15479316,
          -0.116973124,
          0.6815773,
          0.10131901,
          0.13670042,
          0.06668397,
          -0.10582058,
          0.018819926,
          0.70731825,
          -0.22280945,
          0.077374645,
          0.16954793
        ],
        [
          0.27932572,
          -0.05579152,
          0.0036597766,
          0.12548167,
          0.095041074,
          0.09651653,
          0.32109264,
          0.0034561907,
          -0.10744247,
          0.22697508,
          0.041997824,
          0.1720859,
          0.21908462,
          -0.2063077,
          0.15365502,
          0.017850382
        ],
        [
          0.043494236,
          0.02979949,
          -0.13836883,
          0.16561761,
          0.13454744,
          0.018607825,
          0.31849667,
          0.017822694,
          -0.10819414,
          0.18640867,
          0.25012589,
          0.17033516,
          0.19604628,
          -0.037983935,
          0.15670842,
          0.12307639
        ],
        [
          0.081670135,
          0.14655378,
          -0.14460208,
          0.12551035,
          0.2976301,
          0.14785281,
          0.2588738,
          -0.03356611,
          -0.04474965,
          0.22256088,
          0.11307974,
          0.24123903,
          0.2394941,
          -0.11382932,
          0.12176902,
          0.10545406
        ],
        [
          0.11642757,
          0.04955492,
          -0.15188397,
          0.16221744,
          0.31015876,
          0.1845669,
          0.2697225,
          0.06618099,
          0.06166578,
          0.2715315,
          0.078523874,
          0.057648897,
          0.16951407,
          -0.079425596,
          0.029336384,
          0.10652897
        ],
        [
          0.21883944,
          0.14384738,
          -0.19621892,
          0.2465949,
          0.3230901,
          0.1806116,
          0.19274908,
          0.0041961516,
          0.10167822,
          0.2624794,
          0.18131068,
          0.160935,
          0.19651486,
          0.038763296,
          -0.025439627,
          0.1009136
        ],
        [
          0.1490741,
          0.05525685,
          -0.26334226,
          0.08459035,
          0.2843773,
          0.110977836,
          0.36067197,
          -0.10422692,
          0.06816788,
          0.21953696,
          0.02496079,
          0.2428322,
          0.17416333,
          -0.07133479,
          0.048132088,
          -0.0050951215
        ],
        [
          0.031528026,
          -0.033277743,
          -0.07318496,
          0.13254358,
          0.231594,
          0.021581858,
          0.26145062,
          -0.10763724,
          -0.0015030772,
          0.24782418,
          0.16885456,
          0.2338591,
          0.23063043,
          0.02941744,
          -0.010363893,
          0.032515656
        ],
        [
          0.117292956,
          -0.007533418,
          -0.1973962,
          0.10747698,
          0.24173748,
          0.17348705,
          0.16841155,
          0.041606553,
          -0.017188504,
          0.29454234,
          0.21181485,
          0.2093278,
          0.20127235,
          -0.17321862,
          -0.058812324,
          0.01660462
        ],
        [
          0.00022167932,
          -0.02723102,
          -0.13321228,
          0.18043476,
          0.36160317,
          0.20110251,
          0.10335231,
          0.065301806,
          0.050167385,
          0.19323558,
          0.19530454,
          0.24304315,
          0.17088704,
          -0.08713173,
          0.15864849,
          -0.008885941
        ],
        [
          0.14510047,
          0.019113373,
          -0.21818925,
          0.07692069,
          0.34661332,
          0.19345354,
          0.17500013,
          -0.07747239,
          0.04994947,
          0.16623196,
          0.08834082,
          0.31708774,
          0.1922582,
          -0.1075727,
          -0.053758863,
          0.090808704
        ],
        [
          0.033090454,
          0.08528803,
          -0.17826076,
          0.18549848,
          0.209068,
          0.07117954,
          0.16032964,
          -0.11585437,
          -0.12242642,
          0.036025025,
          0.08548537,
          0.2690147,
          0.036185205,
          0.0020763455,
          -0.03108085,
          -0.06222326
        ],
        [
          0.19275495,
          -0.049842797,
          -0.115289286,
          0.20453766,
          0.102741875,
          0.13274185,
          0.33236048,
          -0.05311574,
          0.055763233,
          0.2166202,
          0.17858756,
          0.35266665,
          0.14365642,
          -0.025600998,
          -0.0036803954,
          0.0112892
        ],
        [
          -0.03872345,
          0.04912165,
          -0.22437717,
          0.5988699,
          -0.3790683,
          -0.30320147,
          -0.8544968,
          0.22136077,
          -0.27623624,
          0.16139197,
          0.066303395,
          -1.6459255,
          1.0264194,
          -0.09359955,
          0.18017724,
          0.02044604
        ],
        [
          -0.51775277,
          0.3861035,
          -0.28033173,
          0.71467674,
          0.33430222,
          -0.9193267,
          1.6282932,
          0.4712034,
          -0.48375645,
          -0.33419463,
          -0.60495514,
          -0.37941846,
          0.9650475,
          -0.09574742,
          -0.108333446,
          -0.21693103
        ],
        [
          -0.072738454,
          0.4255864,
          -0.69582283,
          -0.039468627,
          0.10130704,
          -0.26412138,
          0.55515796,
          0.048677452,
          -0.25010285,
          -0.20274065,
          -0.17139697,
          -0.16204631,
          0.45401102,
          -0.028823107,
          -0.118115366,
          0.0114626065
        ],
        [
          0.0073523447,
          -0.06273257,
          -0.32057697,
          0.0033329534,
          -0.07963101,
          0.05732991,
          0.60520077,
          -0.07958914,
          -0.03555351,
          0.13496159,
          -0.24560234,
          -0.004993663,
          0.3984219,
          -0.07604615,
          0.011504316,
          0.07524011
        ],
        [
          0.0716072,
          0.07574412,
          -0.1392122,
          0.0479919,
          0.22795707,
          0.023177873,
          0.20818591,
          0.0051784115,
          -0.08024117,
          0.13801119,
          0.15036482,
          0.10971315,
          0.2938531,
          -0.027415937,
          0.059681986,
          -0.0843821
        ],
        [
          0.12880768,
          0.1438677,
          -0.12653786,
          0.021172218,
          0.0683698,
          0.24800669,
          0.11945115,
          -0.0465741,
          0.08880253,
          0.26305106,
          0.20539823,
          0.067756,
          0.15738203,
          -0.12446708,
          -0.022505801,
          0.03659075
        ],
        [
          0.8461947,
          0.07057999,
          -0.12470855,
          -0.23538193,
          1.0037934,
          0.5964846,
          -0.37953562,
          -0.23234825,
          -0.060351245,
          -0.24681342,
          0.15188792,
          -0.29779413,
          -0.51130325,
          0.0016969105,
          0.19213553,
          -0.25200817
        ],
        [
          1.2464285,
          -0.08840607,
          -0.24957645,
          -0.4146467,
          1.0286906,
          0.8816129,
          -0.5031079,
          -0.39489925,
          -0.19442308,
          0.11054616,
          0.99210143,
          -0.21844809,
          -0.3394195,
          0.23055309,
          0.08118102,
          -0.22701304
        ],
        [
          0.4246043,
          0.07866353,
          -0.19235693,
          -0.024540812,
          0.29187727,
          0.4321135,
          -0.0148745105,
          -0.17307931,
          0.14518167,
          -0.056922548,
          0.3661058,
          0.015004783,
          -0.058696404,
          0.032159183,
          0.32499242,
          -0.19492255
        ],
        [
          0.16111475,
          0.040074438,
          -0.096794665,
          0.08031155,
          0.13952914,
          0.16911106,
          0.31886008,
          -0.056665696,
          -0.11984669,
          0.3026562,
          0.10175803,
          0.11733216,
          0.08042619,
          -0.14187168,
          0.12055499,
          -0.069977835
        ],
        [
          0.022994535,
          -0.053339593,
          -0.025222788,
          0.22297594,
          0.058450434,
          0.11627365,
          0.31544408,
          0.006833239,
          -0.046579327,
          0.18583909,
          0.04473346,
          0.115207046,
          0.14081372,
          0.04314131,
          -0.052202534,
          -0.08612341
        ],
        [
          0.21185896,
          -0.07874465,
          -0.09355171,
          0.19737282,
          0.10343359,
          0.03694806,
          0.30307105,
          -0.072083265,
          0.02021225,
          0.23557153,
          0.031900484,
          0.11009334,
          0.075345546,
          0.08460086,
          0.05046111,
          0.038152914
        ],
        [
          0.18105675,
          0.19025017,
          -0.041702185,
          -0.36727753,
          -0.03880913,
          0.17577586,
          -0.38967833,
          0.10166417,
          0.19676334,
          -0.2771648,
          -0.18058576,
          -0.20856585,
          -0.63185346,
          -0.055737272,
          0.16286229,
          -0.058563784
        ],
        [
          -0.033622455,
          -0.034694955,
          0.70299697,
          -0.208611,
          -0.2749219,
          0.30385026,
          -0.44000205,
          0.3483433,
          0.5321672,
          0.5645279,
          0.36697888,
          0.26354688,
          -0.81394047,
          -0.0008842284,
          0.30698955,
          -0.88540703
        ],
        [
          0.5375627,
          0.36430332,
          0.28060114,
          0.09099275,
          0.62835425,
          1.1945933,
          -0.757352,
          0.50859946,
          0.058405846,
          0.71295315,
          1.0722456,
          0.782829,
          -0.9313416,
          -0.78436786,
          -0.20174961,
          0.59949386
        ],
        [
          -0.40779328,
          -0.037743248,
          0.20472178,
          -0.038651858,
          -0.3548233,
          -0.09035766,
          -0.18963619,
          0.109221086,
          -0.101519324,
          -0.62210196,
          0.51837033,
          -0.2087807,
          -0.35125163,
          -0.051459964,
          -0.66860354,
          0.17791001
        ],
        [
          -0.91188383,
          0.4195572,
          0.14445922,
          -0.52711505,
          -1.1452445,
          -0.8524767,
          1.1292024,
          -0.061203554,
          0.1629483,
          0.47085616,
          -1.5784242,
          0.122727804,
          -0.008132607,
          -0.3233628,
          0.13750371,
          0.24161328
        ],
        [
          -0.9381101,
          0.66746074,
          0.1610593,
          -1.0659199,
          -2.1713946,
          -0.63681984,
          -0.079846546,
          -0.93293387,
          -0.15875012,
          0.030897506,
          -0.17511614,
          0.13152032,
          0.5226292,
          0.27501893,
          -0.40329206,
          0.35343617
        ],
        [
          0.23150875,
          0.11221772,
          0.21031214,
          0.29034254,
          -0.37971127,
          0.09756486,
          0.19631602,
          -0.274308,
          0.56921947,
          -0.15333286,
          -0.048873793,
          -0.44134697,
          -0.0009606752,
          -0.2812577,
          0.22869906,
          -0.29844642
        ],
        [
          -0.12822498,
          0.27302566,
          -0.04220075,
          0.09553752,
          0.5051287,
          0.5818401,
          -1.2741996,
          0.18111789,
          0.12091411,
          0.681345,
          -0.15315801,
          -0.018793851,
          -1.0045862,
          0.10290338,
          -0.6801901,
          0.34167713
        ],
        [
          -0.65286523,
          -0.17839095,
          -0.06563001,
          -0.43788582,
          -0.2366899,
          -0.13332367,
          0.094744734,
          -0.23210971,
          -0.08976619,
          -0.5165102,
          -0.9928123,
          -0.94433784,
          0.16306968,
          0.24824175,
          0.5239113,
          -0.022278989
        ],
        [
          0.43266207,
          0.39332628,
          0.06339632,
          -0.14528063,
          0.56294024,
          0.14581059,
          -0.67285836,
          0.18582322,
          0.10352645,
          -0.65839356,
          0.12552343,
          -0.6674082,
          -0.83496153,
          -0.014745744,
          -0.023892473,
          -0.2948044
        ],
        [
          -0.2052265,
          0.30695358,
          -0.49345532,
          -0.053090006,
          0.72249275,
          0.22587422,
          -0.4253557,
          -0.19108534,
          -0.52757436,
          -0.25108954,
          -0.43282667,
          -0.03789061,
          -0.4727708,
          0.017853215,
          -0.037061278,
          0.1505426
        ],
        [
          0.661106,
          0.06108573,
          0.011914752,
          -0.4659945,
          0.4281885,
          0.38898736,
          -1.0434595,
          -0.015715849,
          -0.052611124,
          -0.1602669,
          0.18815082,
          -0.02774442,
          -0.71993434,
          0.113452345,
          0.12023748,
          -0.86363137
        ],
        [
          -0.4146436,
          0.053488553,
          -0.115270264,
          -0.40083486,
          -0.16654177,
          -0.12917908,
          0.23241971,
          -0.312276,
          0.076172516,
          -0.43173715,
          -0.8278173,
          -0.7143397,
          0.066513404,
          0.12117357,
          0.31516507,
          0.08750588
        ],
        [
          0.37727484,
          0.21673907,
          0.17117994,
          -0.33633536,
          0.6116821,
          0.13212268,
          -0.7653243,
          0.25735244,
          0.08244909,
          -0.86929786,
          -0.015329006,
          -0.45623812,
          -0.7993724,
          -0.056646474,
          0.104761995,
          -0.06199357
        ],
        [
          -0.08691667,
          -0.084706664,
          0.18440036,
          -0.0136477575,
          -0.016504971,
          -0.0505432,
          -0.28039476,
          -0.01748833,
          -0.00010688372,
          -0.18465394,
          -0.123644106,
          -0.12017685,
          -0.37763554,
          0.025962705,
          -0.1753602,
          -0.08563897
        ],
        [
          0.2964059,
          -0.11404494,
          -0.061152097,
          -0.7012513,
          0.39835536,
          0.5796886,
          -0.3989679,
          -0.16342159,
          -0.11272667,
          -0.020100262,
          0.25670776,
          -0.17409436,
          -0.5130768,
          0.085493885,
          0.12137973,
          -0.022447683
        ],
        [
          -0.1226837,
          -0.2489238,
          0.18990052,
          -0.27738085,
          0.7979778,
          0.33274016,
          -0.6085438,
          -0.57526666,
          0.19525523,
          -0.7322579,
          0.20161295,
          0.30577266,
          -1.4437674,
          -0.1791318,
          0.12829204,
          0.09533216
        ],
        [
          -0.28531343,
          -0.072411455,
          0.15016155,
          0.63225764,
          -0.74949354,
          0.07048599,
          -0.17976171,
          0.17858306,
          0.28239018,
          -0.09293681,
          -0.26947874,
          0.5629043,
          -0.36249745,
          -0.050659765,
          0.2740919,
          -0.030904906
        ],
        [
          0.6180879,
          -0.030338947,
          -0.033844095,
          -0.0027523711,
          0.3221754,
          0.7642768,
          -0.120229445,
          0.07467161,
          0.055385273,
          -0.037416495,
          0.9721778,
          0.0950201,
          -0.27458647,
          0.01527619,
          0.09605095,
          0.052653186
        ],
        [
          0.08528799,
          0.0038127531,
          -0.22976504,
          0.07761456,
          0.062121186,
          0.19020982,
          0.28017977,
          -0.14792672,
          0.077222064,
          0.13251503,
          0.25150776,
          0.10295504,
          0.09566,
          -0.043013748,
          0.119686194,
          -0.02885733
        ],
        [
          -0.072426125,
          -0.044092096,
          0.15565686,
          -0.107776955,
          -0.14738938,
          -0.11688756,
          -0.2804456,
          0.15952593,
          -0.016608542,
          -0.10539525,
          0.029915728,
          -0.11835411,
          -0.08134931,
          0.03530998,
          -0.07240627,
          0.01645107
        ],
        [
          -0.51898974,
          0.34262148,
          -0.31092304,
          -0.30070737,
          -0.072631024,
          -0.45596337,
          0.41394764,
          0.37956443,
          0.044055138,
          -0.45213145,
          -0.32022727,
          -0.33192047,
          0.1343523,
          -0.09041673,
          0.26823777,
          0.05518074
        ],
        [
          -0.16785714,
          -0.049249154,
          0.025066096,
          0.4217658,
          -0.85659367,
          -1.1848418,
          0.2487235,
          0.24572678,
          -0.048963755,
          -0.20969144,
          0.5539646,
          -0.6717489,
          -0.12140141,
          0.029951105,
          0.14349805,
          0.40857035
        ],
        [
          -0.09671897,
          -0.008818631,
          -0.12871903,
          0.23955725,
          -0.5580103,
          -0.5636385,
          -0.6194276,
          0.20553145,
          0.050694834,
          0.13672017,
          -0.03653948,
          -0.41732904,
          -0.46097785,
          -0.016620977,
          0.117035866,
          0.061258417
        ],
        [
          0.087506615,
          -0.1255408,
          0.1286742,
          0.077447996,
          0.02695156,
          0.21053967,
          0.34259304,
          -0.038151477,
          0.11211278,
          -0.05474665,
          0.14256842,
          -0.22563076,
          0.62441105,
          -0.1790835,
          -0.10141987,
          -0.012260884
        ],
        [
          0.17884403,
          -0.06660698,
          -0.11174987,
          0.10093556,
          0.30175522,
          0.09351518,
          0.31726715,
          0.07176401,
          0.057885874,
          0.27156428,
          0.04614726,
          0.064915285,
          0.08579798,
          -0.05998047,
          0.14980322,
          -0.09518188
        ],
        [
          0.2366889,
          0.11376181,
          0.010671999,
          0.041984316,
          0.27789646,
          0.6687742,
          -0.03899026,
          -0.085517235,
          0.01828652,
          0.2824554,
          0.081026174,
          -1.3261352,
          -0.47349796,
          -0.1355357,
          -0.21218078,
          -0.06536228
        ],
        [
          0.23796077,
          -0.0044225273,
          0.02123362,
          -0.8383698,
          0.22540283,
          0.4477575,
          -0.017727604,
          -0.12996909,
          -0.009739126,
          0.2884559,
          0.010810505,
          -0.24972357,
          -0.6038281,
          -0.11741755,
          -0.1370169,
          0.1404942
        ],
        [
          -0.10613069,
          0.029183125,
          0.03720286,
          -0.012476608,
          0.27486417,
          0.50892913,
          -0.059359655,
          -0.053213254,
          0.14604019,
          -0.05646425,
          -0.68485737,
          -0.68016267,
          0.121802986,
          -0.051959556,
          0.08296783,
          0.061033245
        ],
        [
          0.5409103,
          -0.1342552,
          -0.08516924,
          -0.8497846,
          0.4194509,
          0.70589966,
          0.3042841,
          -0.13777559,
          0.042308252,
          0.51324165,
          -0.2748505,
          -0.35614744,
          -0.15800157,
          0.095282376,
          0.123396836,
          0.100895055
        ],
        [
          0.51646537,
          -0.19856161,
          -0.10162439,
          0.685086,
          0.009233997,
          -0.24757001,
          -0.30999467,
          0.079128884,
          0.2525682,
          0.6313672,
          0.05606334,
          -0.51315504,
          0.51321214,
          0.07454255,
          -0.038239088,
          0.2938372
        ],
        [
          0.27516586,
          0.029067064,
          -0.030733125,
          -0.753163,
          0.08014371,
          0.5995981,
          0.18783791,
          -0.03437989,
          0.002011704,
          0.47376588,
          -0.115720384,
          -0.7567977,
          -0.24663898,
          0.17407353,
          -0.09273037,
          -0.13320003
        ],
        [
          -0.033743817,
          0.061182067,
          0.1137371,
          -0.5546715,
          -0.24339743,
          0.19714238,
          0.57322955,
          -0.052590944,
          -0.08662395,
          -0.06987527,
          -0.29166397,
          -0.098845154,
          0.2879221,
          0.07659197,
          -0.15301783,
          0.16042562
        ],
        [
          -0.5714245,
          -0.2214524,
          -0.068449326,
          0.50318235,
          0.3742037,
          0.23580246,
          0.39780983,
          0.2993875,
          0.0825763,
          -0.25501528,
          -0.06462832,
          0.63713133,
          0.14215913,
          0.06866809,
          0.20908405,
          0.023592051
        ],
        [
          -0.6246919,
          -0.11877546,
          -0.022066798,
          -0.5363041,
          0.064029396,
          0.094795026,
          -0.15463853,
          0.08786907,
          -0.04488476,
          -0.7075944,
          0.3821439,
          0.50828815,
          -0.062332388,
          -0.0828333,
          0.03934274,
          -0.13281439
        ],
        [
          0.49044824,
          -0.34036762,
          -0.14602005,
          0.7066738,
          0.14493452,
          -0.014266657,
          0.43147844,
          0.17744313,
          0.07905998,
          -0.6223939,
          0.65473783,
          -0.14416908,
          0.7356434,
          0.02314956,
          -0.10560073,
          0.056944598
        ],
        [
          0.5712211,
          0.109316304,
          -0.12165093,
          -0.58478725,
          -0.074488476,
          -0.018664362,
          -0.08959492,
          -0.087528214,
          0.015664624,
          -0.11187268,
          -0.2537522,
          -0.005745102,
          0.41119212,
          -0.093201265,
          -0.05082594,
          0.006293167
        ],
        [
          0.20838833,
          0.1638168,
          -0.08419521,
          0.60409796,
          -0.08343625,
          0.36627087,
          0.5983595,
          -0.07221855,
          -0.12031911,
          0.06717466,
          -0.26215565,
          -0.04365447,
          0.25903288,
          -0.22544311,
          0.037515163,
          -0.095952176
        ],
        [
          -0.56172657,
          0.07488091,
          -0.075897515,
          -0.17332472,
          -0.110819705,
          -0.4631906,
          -0.153255,
          0.07540547,
          -0.123015806,
          -0.021297703,
          -0.94385886,
          -0.035133794,
          -0.039522342,
          -0.12460359,
          -0.023754764,
          -0.09110678
        ],
        [
          -0.0005025076,
          0.13417651,
          -0.22623068,
          -0.23175167,
          0.1932911,
          0.32681736,
          -0.97268677,
          -0.15285556,
          0.044991273,
          -0.3428355,
          0.29868454,
          0.087779135,
          -0.81023043,
          0.14134431,
          -0.023199713,
          -0.24611425
        ],
        [
          -0.009485006,
          -0.14095676,
          0.030657677,
          -0.33661857,
          -0.004305212,
          0.050068956,
          0.25069183,
          -0.057675257,
          0.00932018,
          -0.46831632,
          -0.32512066,
          -0.36431295,
          -0.23266238,
          0.14961287,
          0.116977714,
          0.20450547
        ],
        [
          0.6365354,
          -0.41013283,
          -0.012181419,
          -0.24496141,
          0.12905292,
          0.15122555,
          -0.15875036,
          -0.3173439,
          0.18655062,
          -0.53323114,
          0.079680726,
          -0.008983832,
          -0.5149811,
          0.14650463,
          0.19873054,
          -0.3215341
        ],
        [
          -0.57807064,
          0.13547885,
          0.19631043,
          -0.093825184,
          -1.037046,
          -0.23053043,
          0.13265513,
          -0.238397,
          0.15185149,
          0.57986116,
          -0.25218093,
          -0.33249226,
          0.052667808,
          0.07695236,
          0.22104278,
          -0.20342182
        ],
        [
          0.16994725,
          0.40492406,
          0.014842902,
          0.46711117,
          0.02971714,
          -0.25566188,
          -0.36488274,
          -0.07684382,
          0.09164522,
          -0.40710443,
          -0.1210116,
          -1.3147541,
          -0.5734236,
          -0.14005245,
          0.4489741,
          -0.3244216
        ],
        [
          -0.60560083,
          0.18207216,
          -0.6337148,
          -0.864986,
          0.45991388,
          -0.3932283,
          0.6025585,
          -0.028637778,
          0.62977195,
          -0.24754043,
          -0.57796735,
          -0.61719054,
          1.0243193,
          -0.020254841,
          0.5208014,
          0.16751705
        ],
        [
          -0.12028261,
          -0.08814896,
          -0.042129505,
          -0.039761532,
          0.057715986,
          -0.039538816,
          0.08401385,
          -0.07237381,
          0.022647655,
          -0.10722097,
          -0.044798005,
          -0.0807836,
          -0.1047392,
          -0.029552745,
          0.07040111,
          0.0797411
        ],
        [
          -0.016807567,
          0.007922625,
          0.14068745,
          0.18251836,
          -0.2227106,
          -0.72515756,
          0.23499486,
          -0.08301108,
          -0.013969883,
          -0.2142472,
          -0.19182207,
          -0.0099025685,
          0.072587505,
          -0.07480057,
          -0.026408317,
          -0.013033427
        ],
        [
          -0.5839111,
          -0.15497665,
          -0.0389589,
          0.19155543,
          -0.15971309,
          -0.5784122,
          0.19724509,
          0.4055906,
          0.036144186,
          -0.3685006,
          -0.2262143,
          0.32688588,
          -0.36116776,
          -0.19696702,
          -0.2720035,
          0.22886056
        ],
        [
          0.09379052,
          0.23010312,
          -0.042105213,
          0.3354167,
          0.23648283,
          0.20449118,
          -0.20342652,
          -0.04860564,
          0.029513981,
          -0.14106394,
          0.18060742,
          0.38009,
          -0.38765597,
          -0.05787854,
          0.03158469,
          0.09777566
        ],
        [
          -0.11446677,
          0.2174533,
          0.007998961,
          -0.092806436,
          -0.3391496,
          -0.5421285,
          -0.40091088,
          -0.14692846,
          -0.2007587,
          0.09084773,
          -0.63545215,
          0.100550845,
          -0.31982344,
          -0.007470722,
          0.11458516,
          0.46690294
        ],
        [
          -0.27545995,
          -0.49421322,
          -0.6540118,
          0.19592378,
          0.09804195,
          0.38163573,
          -0.34778097,
          -0.19485553,
          -0.81714267,
          0.18585822,
          1.1442498,
          -0.40833086,
          0.94405884,
          -0.023622852,
          -0.028604025,
          0.16945812
        ],
        [
          0.03198912,
          0.06964637,
          -0.046042684,
          0.10391566,
          -0.08014559,
          0.11861364,
          0.09197363,
          -0.024457842,
          -0.026381671,
          0.07177842,
          0.12158863,
          -0.0017425653,
          -0.045674372,
          0.021950891,
          -0.039089214,
          0.06517152
        ],
        [
          -0.2590674,
          1.06186,
          0.027040927,
          0.10807679,
          0.075469784,
          0.59401953,
          -0.49169502,
          -2.0904756,
          0.20999755,
          -0.678002,
          -0.021826832,
          1.5482527,
          -1.2736374,
          -0.14204332,
          -1.3764024,
          0.34621945
        ],
        [
          0.30389214,
          -0.31954277,
          0.09702999,
          -0.070519224,
          1.8846099,
          0.87853867,
          -0.72390246,
          -2.0690112,
          0.6437619,
          -1.4952985,
          1.1890063,
          0.7295768,
          -0.7292939,
          0.49462578,
          -0.4581013,
          0.1511935
        ],
        [
          0.2797523,
          0.6993782,
          -0.24822284,
          -0.3951794,
          -0.4703447,
          0.19334573,
          -0.9466772,
          -0.16406952,
          1.0565858,
          -0.51741874,
          0.6525322,
          0.49341598,
          0.17644879,
          0.31651792,
          0.31906447,
          -1.1503329
        ],
        [
          -0.052002717,
          0.029815687,
          0.1258493,
          -0.11651247,
          -0.011835065,
          0.02670852,
          -0.05148647,
          0.12029928,
          0.11069041,
          0.06904273,
          -0.12628578,
          -0.08567972,
          0.048037115,
          -0.03128867,
          -0.03024515,
          -0.1230478
        ],
        [
          0.0735364,
          0.07300975,
          -0.0010514369,
          0.12156996,
          0.0438132,
          -0.1182894,
          0.04112601,
          -0.062478382,
          0.12080888,
          0.10226815,
          -0.06374428,
          0.03436657,
          -0.03999233,
          -0.00746837,
          0.0011355276,
          -0.009537398
        ],
        [
          -0.0006467882,
          -0.06075151,
          0.053322475,
          0.11787156,
          -0.09652517,
          0.114536874,
          -0.041587222,
          -0.003986691,
          -0.026724553,
          -0.09330603,
          0.0017685526,
          0.075408064,
          0.056175843,
          0.004808956,
          0.111047536,
          -0.10080698
        ],
        [
          -0.5256135,
          0.2663275,
          0.26639485,
          -0.20321956,
          -0.42425945,
          -0.41115603,
          -0.53745013,
          0.08308246,
          0.07791157,
          -0.48325244,
          0.5766446,
          -0.19920713,
          0.33000892,
          -0.42129448,
          -0.23454107,
          -0.5759465
        ],
        [
          -0.033864528,
          1.1060531,
          0.57534003,
          -0.4526703,
          -0.7009666,
          -0.0020607752,
          0.96430147,
          0.14790927,
          0.26867333,
          -0.31618074,
          -0.89501923,
          -0.6371529,
          1.250988,
          -0.3779312,
          -0.6103007,
          -0.51412594
        ],
        [
          -0.2084947,
          0.3914742,
          0.21627901,
          -0.0044679735,
          0.040278096,
          -0.37012357,
          -0.02267462,
          -0.16377054,
          0.51951915,
          -0.43571624,
          0.09251556,
          0.08878565,
          -0.43339697,
          0.61437976,
          -0.7156724,
          -0.15299805
        ],
        [
          0.029027686,
          0.00068025873,
          0.078207396,
          -0.1127184,
          -0.009437924,
          -0.05230353,
          0.026062656,
          -0.06354241,
          0.11603591,
          0.10877853,
          -0.083492674,
          -0.11749573,
          -0.04716971,
          -0.030627988,
          -0.034921095,
          0.124208614
        ],
        [
          -0.090774156,
          -0.050159067,
          0.063729525,
          -0.11482441,
          -0.102729626,
          -0.121403,
          0.07143262,
          0.027288256,
          0.00733334,
          -0.0677496,
          0.009476105,
          -0.018262768,
          -0.059384752,
          -0.028588463,
          -0.117952146,
          0.0888899
        ],
        [
          -0.03922641,
          0.07406386,
          -0.0995822,
          0.09866372,
          -0.099550225,
          -0.059338287,
          0.040659286,
          0.100144744,
          0.043684997,
          -0.052653156,
          -0.09047113,
          -0.07630605,
          -0.04102589,
          0.09200569,
          -0.046826117,
          0.047055602
        ],
        [
          -0.39045542,
          0.06586749,
          -0.039066825,
          -0.7583302,
          -0.51626927,
          0.05691639,
          0.19371152,
          -0.1668204,
          0.17996003,
          0.081761405,
          -0.69950116,
          -0.987683,
          0.39839777,
          0.2286052,
          -0.029796077,
          -0.22733007
        ],
        [
          -0.36300248,
          -0.027086003,
          -0.3332064,
          -0.5520978,
          -0.40433073,
          -0.33759642,
          0.19862401,
          -0.23251767,
          0.05335615,
          -0.33051866,
          -0.35517204,
          -0.19020063,
          0.23943879,
          0.154137,
          -0.0003002596,
          -0.06220333
        ],
        [
          -0.016379284,
          0.08511478,
          0.038630746,
          -0.28243953,
          -0.4893223,
          -0.4041673,
          -0.15673396,
          0.0781009,
          -0.55407083,
          0.21367386,
          0.07622203,
          0.009118104,
          0.3166757,
          0.22581391,
          0.25977996,
          -0.24674276
        ],
        [
          0.02176062,
          -0.41020355,
          -0.29935437,
          -0.38343045,
          -0.008648571,
          0.3767343,
          -0.1343224,
          0.37266096,
          -0.10447306,
          0.1347144,
          -0.38616616,
          0.017177697,
          0.0039162147,
          0.19011964,
          -0.11183891,
          -0.018039675
        ],
        [
          -0.20829229,
          -0.00806494,
          -0.06977902,
          -0.1304941,
          -0.27213398,
          0.019424452,
          0.050143626,
          0.34073955,
          -0.19516829,
          -0.18394841,
          -0.23799507,
          -0.3346747,
          0.4199659,
          0.117023945,
          -0.18342826,
          0.045368515
        ],
        [
          -0.5951763,
          -0.20736067,
          -0.12116395,
          -0.22517765,
          -0.38967773,
          -0.08175734,
          0.45876542,
          0.11922803,
          -0.16842762,
          0.32404128,
          -0.68063045,
          -0.06631097,
          0.4764996,
          0.13722177,
          -0.14789405,
          -0.18649355
        ],
        [
          -0.35894325,
          -0.15571417,
          -0.14315814,
          -0.20929955,
          0.5028843,
          0.0032528357,
          -0.15998934,
          0.0042987103,
          -0.0354083,
          -0.015151903,
          -0.37466985,
          0.0056154374,
          -0.58821195,
          -0.101498194,
          -0.354293,
          -0.030277768
        ],
        [
          0.18855807,
          -0.15672098,
          0.24316047,
          -0.009817006,
          0.26327255,
          0.018604001,
          0.09295715,
          0.005412708,
          0.0039026635,
          -0.4103949,
          0.16259591,
          0.12954298,
          0.21508218,
          -0.13479708,
          -0.029505229,
          -0.35309818
        ],
        [
          -0.2210406,
          -0.14495775,
          0.13993968,
          0.058675963,
          -0.22685526,
          -0.25720587,
          -0.49460787,
          0.023448577,
          -0.28584352,
          -0.026516056,
          0.3609208,
          -0.09333978,
          -0.1258162,
          -0.1294616,
          -0.042878423,
          0.075652584
        ],
        [
          0.022274991,
          -0.10421026,
          0.17044197,
          -0.7172162,
          0.3141819,
          -0.081825346,
          -0.53042716,
          -0.004664275,
          -0.121843435,
          0.5229891,
          0.34028813,
          -0.034846533,
          -0.38905874,
          0.17314543,
          0.011363039,
          0.14172277
        ],
        [
          -0.42092174,
          0.046381295,
          0.08809741,
          -0.44020513,
          -0.020831425,
          -0.29217693,
          -0.28930947,
          0.102627225,
          -0.23992613,
          0.012367812,
          0.014744271,
          0.19466001,
          -0.6120009,
          0.17937738,
          0.16048267,
          0.08118441
        ],
        [
          -0.2834287,
          0.044037234,
          0.18498106,
          -0.114126734,
          -0.055057943,
          0.06083496,
          0.020984601,
          0.048745703,
          0.0033339409,
          -0.44868937,
          -0.113465086,
          -0.38869277,
          -0.030642103,
          0.03525595,
          -0.11478941,
          -0.11294394
        ],
        [
          0.34169665,
          0.31026024,
          0.19315384,
          0.37223855,
          -0.31025118,
          -0.31855837,
          -0.41469872,
          0.24521692,
          0.02433541,
          -0.69443065,
          -0.00877601,
          0.2748066,
          -0.20186797,
          0.005452075,
          -0.07438402,
          -0.043246686
        ],
        [
          -0.014946804,
          0.011617985,
          0.038645834,
          0.17492394,
          -0.1979409,
          -0.32269922,
          -0.24602766,
          0.11257953,
          0.09080633,
          -0.583513,
          0.5352368,
          -0.06978529,
          -0.23670202,
          0.12127519,
          0.16730088,
          0.092572615
        ],
        [
          -0.3538897,
          0.31119016,
          0.08329112,
          -0.12653801,
          0.092933536,
          0.03458118,
          -0.20610894,
          0.16543941,
          0.08778083,
          -0.05617675,
          0.50087404,
          0.4782295,
          -0.56470627,
          0.17208408,
          0.078791775,
          -0.0049855607
        ],
        [
          -0.0935494,
          -0.14921407,
          0.09174816,
          0.5693583,
          0.3894328,
          -0.28230554,
          -0.18076657,
          0.12760937,
          -0.09700805,
          -0.12584916,
          0.1406198,
          0.4960663,
          -0.13674021,
          0.12147825,
          0.077789396,
          -0.005160694
        ],
        [
          -0.5079999,
          -0.028963218,
          0.20952995,
          0.086587034,
          0.017843999,
          0.1474807,
          -0.24286292,
          -0.10214049,
          0.058793366,
          -0.44957215,
          0.07873263,
          0.02070702,
          -0.31731132,
          -0.0387546,
          -0.45809013,
          -0.023784174
        ],
        [
          -0.37355292,
          -0.08588359,
          0.22371204,
          -0.27713403,
          0.05836894,
          0.10622834,
          -0.2416642,
          -0.034957603,
          -0.2502258,
          -0.111648045,
          -0.22719097,
          0.036008857,
          -0.6288546,
          -0.27243584,
          0.069401905,
          0.06727377
        ],
        [
          0.22843242,
          0.10890428,
          -0.06796828,
          -0.039462723,
          -0.33397347,
          -0.447678,
          -0.4162277,
          -0.023833888,
          0.033430513,
          -0.2877942,
          0.08549235,
          0.06816346,
          -0.3095026,
          -0.16893964,
          -0.18669648,
          0.04334023
        ],
        [
          0.3585659,
          0.041909695,
          -0.08100963,
          -0.15196492,
          -0.20683457,
          -0.4546739,
          -0.1148398,
          0.030840607,
          -0.17682546,
          0.36839435,
          -0.07834984,
          -0.42756495,
          -0.018699583,
          -0.21143915,
          -0.10056042,
          -0.023928966
        ],
        [
          -0.238952,
          -0.0021363418,
          0.029616805,
          0.07201189,
          -0.02238684,
          -0.6193819,
          -0.42149094,
          0.20584732,
          -0.23550317,
          -0.64375645,
          -0.5473817,
          -0.22953576,
          -0.28776416,
          0.22445066,
          0.22301093,
          -0.049462803
        ],
        [
          0.7438596,
          -0.21935968,
          0.23704645,
          -0.58650225,
          -0.096727535,
          0.41819546,
          -0.14766453,
          0.12970302,
          -0.18584992,
          -0.38551068,
          0.06209137,
          -0.42595428,
          -0.21808402,
          0.06931664,
          0.16238335,
          0.106272936
        ],
        [
          0.33758435,
          -0.06732135,
          0.14430791,
          0.18429232,
          0.009166444,
          -0.5683838,
          -0.95095193,
          0.18458892,
          0.0668648,
          -0.49716207,
          0.34120283,
          0.2253372,
          -0.5232467,
          -0.032021992,
          -0.041106563,
          0.07858357
        ],
        [
          0.00410751,
          0.025957227,
          0.05596967,
          -0.46163136,
          -0.11569703,
          0.5845053,
          -0.37307236,
          -0.12611218,
          0.077512965,
          -0.34974393,
          -0.11864764,
          -0.9361716,
          -0.30227166,
          -0.13184918,
          -0.19554499,
          -0.10510078
        ],
        [
          -0.30320796,
          0.14485791,
          0.051055044,
          -0.25039935,
          0.44148466,
          -0.3039566,
          0.3892876,
          0.104230724,
          0.16656277,
          -0.17663318,
          -1.0387523,
          -0.09680586,
          0.19539098,
          -0.2927612,
          0.095317714,
          -0.06280609
        ],
        [
          0.39213637,
          -0.18378472,
          0.040000115,
          0.09787213,
          0.010251358,
          -0.5039775,
          0.5077782,
          -0.11857622,
          -0.035346802,
          -0.07972022,
          -0.24907362,
          -0.14506666,
          0.1765411,
          -0.18102567,
          -0.083600044,
          0.08447394
        ],
        [
          0.058020417,
          0.008123516,
          0.006498612,
          0.1364334,
          -0.40233257,
          0.22970238,
          0.19352747,
          0.046743184,
          -0.21668035,
          0.014161087,
          0.31193107,
          -0.3738284,
          0.0111047095,
          0.0925661,
          0.06596162,
          0.07218937
        ],
        [
          -0.06184808,
          -0.028083628,
          -0.08406438,
          0.65916824,
          -0.88453954,
          -0.42817953,
          -0.8042237,
          0.02164308,
          -0.09440436,
          -0.51381546,
          0.16617617,
          0.18062575,
          0.16933703,
          0.053075902,
          -0.08946716,
          -0.027904207
        ],
        [
          -0.24421392,
          -0.20457572,
          0.1963359,
          -0.31155318,
          -0.514998,
          -0.7256943,
          -0.18770215,
          0.026504356,
          0.243144,
          -0.12148738,
          0.2784155,
          -0.056242548,
          0.15625182,
          -0.102368556,
          0.31512997,
          -0.20743538
        ],
        [
          -0.23159489,
          -0.007982278,
          -0.08799349,
          -0.37690905,
          -0.4299662,
          -0.22633111,
          -0.13642384,
          -0.092917785,
          0.14566128,
          -0.2783899,
          -0.15581147,
          -0.5878677,
          0.33481848,
          -0.06320685,
          0.10059916,
          -0.28226227
        ],
        [
          0.40977752,
          -0.10450571,
          0.14888573,
          -0.16096236,
          -0.05824551,
          -0.047484867,
          -0.23014922,
          -0.115300454,
          -0.0149735045,
          -0.6375503,
          -0.22285023,
          0.090931214,
          -0.5731393,
          -0.123474725,
          -0.08124345,
          -0.081510305
        ],
        [
          -0.16173892,
          -0.06535638,
          0.12512755,
          -0.8239628,
          -0.30438286,
          0.2612036,
          0.63037044,
          0.14262024,
          0.04180693,
          0.05087995,
          -0.0020667883,
          -0.2500177,
          0.17368491,
          0.2461597,
          0.19432987,
          -0.06365602
        ],
        [
          -0.7073306,
          -0.032554194,
          0.15281856,
          -0.08962459,
          -0.39513627,
          -0.48556742,
          -0.21491548,
          0.12156649,
          -0.035235066,
          0.26281923,
          -0.3703489,
          -0.5727362,
          0.7410189,
          0.41909704,
          0.21325292,
          0.029321192
        ],
        [
          -0.06130213,
          -0.17256296,
          0.081781924,
          0.049838312,
          -0.2125563,
          -0.104404524,
          0.3472429,
          0.07633072,
          -0.005976516,
          -0.09341342,
          -0.88564366,
          0.18915945,
          0.21622105,
          0.21575364,
          0.17372954,
          0.12196709
        ],
        [
          -0.32882866,
          -0.0065831495,
          0.098071106,
          -0.46941763,
          -0.39519256,
          -0.31988585,
          0.19695915,
          -0.015610202,
          -0.21629767,
          -0.3271107,
          -0.19531715,
          -0.395582,
          0.05017122,
          -0.014975052,
          -0.045436323,
          -0.13509624
        ],
        [
          -0.4237899,
          -0.10153185,
          0.13576531,
          -0.09247457,
          -0.89523643,
          -0.03677716,
          0.1757601,
          0.052134816,
          0.0321814,
          0.12873517,
          0.065354,
          0.49465534,
          -0.24847944,
          0.037208956,
          -0.09273496,
          -0.106787585
        ],
        [
          0.23978975,
          -0.05765972,
          -0.06361565,
          -0.1616151,
          0.057211023,
          0.060779475,
          0.59921044,
          0.16767274,
          -0.24549004,
          0.104812436,
          -0.16674513,
          0.047812972,
          -0.6709525,
          0.22817315,
          -0.11156454,
          0.029852057
        ],
        [
          0.23906612,
          -0.31507757,
          0.07292775,
          0.17648913,
          -0.6633038,
          -0.5208993,
          0.037596345,
          -0.015335469,
          0.14051813,
          -0.07463408,
          0.0007691254,
          -0.078365624,
          0.111989,
          0.042507697,
          -0.11322947,
          -0.046379756
        ],
        [
          -0.12119177,
          -0.24148162,
          0.049674854,
          -0.09630812,
          0.10251556,
          -0.14924249,
          0.027548393,
          0.026245652,
          0.04370866,
          -0.6961347,
          -0.088205166,
          0.33011383,
          0.5869988,
          -0.17429191,
          0.1741026,
          -0.051858854
        ],
        [
          -0.31532064,
          -0.16825432,
          0.28008106,
          0.2975135,
          -0.43436417,
          0.2856754,
          0.02124148,
          -0.1455977,
          -0.3482721,
          0.08355136,
          -0.6716372,
          0.107377045,
          0.33984783,
          0.043228995,
          -0.19147006,
          -0.37631965
        ],
        [
          0.031312916,
          -0.2541931,
          0.038711622,
          -0.5504256,
          -0.4546246,
          -0.6345298,
          -0.2250191,
          0.05116016,
          0.026073193,
          -1.2896808,
          0.6244808,
          -0.21091917,
          0.057976216,
          0.1131773,
          0.042301223,
          -0.33636355
        ],
        [
          -0.14609598,
          -0.19374792,
          -9.22857E-05,
          -0.10175494,
          -0.42542365,
          -0.10381347,
          0.63765675,
          -0.1730273,
          0.14304455,
          0.33614704,
          -0.2704785,
          -0.5715288,
          0.78066736,
          0.05610592,
          -0.09157986,
          -0.064880446
        ],
        [
          0.06862352,
          4.8236692E-05,
          -0.08267809,
          0.10625152,
          0.20097572,
          0.19277288,
          0.06606601,
          0.11336613,
          -0.39801735,
          -0.440259,
          -0.28407398,
          0.7287237,
          -0.37393394,
          0.06454742,
          0.042788826,
          0.21148625
        ],
        [
          -0.25568187,
          0.241291,
          0.032674953,
          -0.008999869,
          0.2308914,
          -0.6323513,
          -0.5878728,
          -0.17219418,
          -0.020690616,
          -0.44729108,
          -0.15944175,
          0.017697912,
          -0.389945,
          0.22798641,
          0.14743146,
          -0.03168152
        ],
        [
          -0.24123053,
          0.016496586,
          -0.08092197,
          -0.3254579,
          -0.40226513,
          0.26198566,
          -0.44254783,
          0.116155155,
          -0.2790482,
          -0.05640953,
          0.34863198,
          0.0554137,
          -0.04012407,
          0.2214121,
          0.17839023,
          0.062053084
        ],
        [
          0.102954194,
          0.100248106,
          0.06865748,
          -0.31785944,
          0.03365198,
          -0.21623857,
          -0.4443577,
          -0.10956228,
          -0.15259945,
          -0.6580587,
          0.08072147,
          -0.7014795,
          -0.29581332,
          -0.15191308,
          0.039520297,
          0.09138105
        ],
        [
          -0.1965864,
          0.0054336493,
          -0.19367279,
          -0.17386466,
          0.19778757,
          -0.3589799,
          -0.34547564,
          0.08411021,
          0.08705371,
          -0.58338803,
          -0.069957174,
          -0.025917301,
          -0.39183435,
          0.042752925,
          -0.15689088,
          -0.075344495
        ],
        [
          -0.23781003,
          -0.04743588,
          0.119029194,
          -0.37586752,
          0.22487901,
          0.16158539,
          -0.25783935,
          0.13524051,
          -0.09157211,
          -0.84415954,
          -0.01850638,
          -0.35374382,
          -0.7109667,
          -0.19106808,
          -0.1119468,
          0.058942076
        ],
        [
          -0.024137054,
          -0.24318893,
          -0.19376276,
          -0.38537696,
          -0.06871597,
          -0.19321,
          -0.28416368,
          0.22876553,
          0.049864974,
          0.13049719,
          -0.57832944,
          -0.7974522,
          0.13459232,
          0.2891254,
          0.06448885,
          -0.19336371
        ],
        [
          -0.04764051,
          0.09532524,
          -0.026496133,
          -0.15019915,
          -0.38929445,
          -0.63468117,
          0.42796677,
          0.0118226595,
          -0.2655415,
          0.40123084,
          -0.58317715,
          -1.095915,
          0.62538755,
          0.06896156,
          -0.0208691,
          -0.31543353
        ],
        [
          -0.5406585,
          0.23663199,
          -0.045719087,
          0.14722763,
          0.18286133,
          0.212445,
          0.44096044,
          -0.07238305,
          0.056304507,
          1.3356228,
          0.10059983,
          0.048644576,
          0.031224502,
          -0.26902544,
          0.021062579,
          -0.26834542
        ],
        [
          -0.22174905,
          0.48806968,
          -0.44102478,
          -0.077700004,
          -0.09821761,
          -0.20199323,
          1.2305228,
          -0.25416565,
          -0.22398496,
          0.13151583,
          -0.6532556,
          0.6395672,
          0.64305145,
          -0.24374872,
          -0.45873424,
          0.2208821
        ],
        [
          0.2301793,
          -0.18362942,
          0.14888713,
          0.3517136,
          -0.3777053,
          -0.5014506,
          0.06965652,
          0.19928257,
          -0.16897464,
          -0.19303511,
          0.20215558,
          0.50609046,
          0.4295152,
          0.07328354,
          -0.23215093,
          0.11523317
        ],
        [
          -0.24161404,
          0.17198478,
          0.05598667,
          0.44063437,
          0.00576214,
          -0.13250245,
          -0.52236736,
          0.11401086,
          0.0378177,
          -0.078501604,
          0.5989943,
          0.39935598,
          0.34539315,
          -0.07922316,
          -0.317566,
          -0.16921669
        ],
        [
          0.56188375,
          0.22339354,
          0.04588154,
          0.50006014,
          0.26486653,
          0.020056682,
          0.23111975,
          0.316396,
          0.09023375,
          -0.35957247,
          0.4941119,
          -0.94400287,
          1.0228484,
          0.015147518,
          -0.15349749,
          -0.079634115
        ],
        [
          -1.0064945,
          -0.5364498,
          0.1861616,
          -0.08315169,
          0.62705004,
          0.19534492,
          0.12172177,
          0.00071140984,
          0.016537389,
          -0.049712643,
          -0.23685025,
          -0.97718304,
          -0.01625532,
          -0.13048409,
          0.09544317,
          0.16094439
        ],
        [
          0.11198301,
          0.21716326,
          0.14194392,
          0.19469203,
          -0.29268733,
          0.10804834,
          -0.3250737,
          -0.001280693,
          -0.027211258,
          -0.40380755,
          0.6090743,
          0.15811007,
          -0.4744368,
          0.17910312,
          -0.11648853,
          0.08807998
        ],
        [
          -0.07994191,
          0.040858254,
          -0.14114858,
          0.107071236,
          0.61858743,
          -0.04172486,
          0.3030804,
          0.08113506,
          0.0729196,
          -0.40370512,
          -0.508014,
          -0.38183403,
          -0.17922318,
          0.04758789,
          -0.013448626,
          0.20701952
        ],
        [
          0.12740839,
          -0.13824596,
          -0.052373942,
          -0.1377018,
          0.11346196,
          -0.10757937,
          0.12675598,
          -0.072421096,
          -0.20551783,
          -0.5041761,
          -0.3545216,
          -0.089894764,
          0.002480894,
          0.19176348,
          -0.18392596,
          0.03474266
        ],
        [
          -0.041278455,
          0.124763854,
          -0.0394149,
          -0.31198493,
          -0.23633355,
          -0.16025041,
          -0.2389924,
          -0.056312323,
          0.17984663,
          -0.21253552,
          -0.03424076,
          -0.14876674,
          -0.24030408,
          -0.009462517,
          -0.10872947,
          -0.089384764
        ],
        [
          -0.24822815,
          -0.27417862,
          -0.008017268,
          -0.28303343,
          -0.5722826,
          0.18817411,
          0.013029278,
          0.18862878,
          0.06229735,
          -0.014158295,
          -0.03822601,
          0.20847335,
          -0.040629797,
          -0.031050406,
          0.08988099,
          0.32391563
        ],
        [
          -0.10026182,
          -0.08165645,
          0.26075095,
          -0.05189356,
          0.047013994,
          0.08436114,
          -0.17975354,
          0.10231294,
          0.067347236,
          -0.05570672,
          -0.06773024,
          -0.014703757,
          -0.06504307,
          0.16203603,
          -0.09516332,
          -0.1012767
        ],
        [
          -0.060514715,
          -0.18901846,
          0.27984408,
          0.28800845,
          -0.4807708,
          -0.48047128,
          -0.13371694,
          0.016855083,
          -0.11446285,
          -0.55759466,
          -0.22126642,
          -0.013362517,
          0.082441196,
          0.07002514,
          -0.08972552,
          -0.065318644
        ],
        [
          -0.12359522,
          -0.03579063,
          0.5290248,
          0.17941734,
          -0.38741055,
          -0.4023611,
          -0.21495914,
          0.03699326,
          -0.093387306,
          0.07040187,
          0.079036854,
          0.0018254471,
          -0.1848025,
          0.10788644,
          -0.09350092,
          -0.05107329
        ],
        [
          -0.28420782,
          -0.046999387,
          0.24071118,
          0.14774038,
          -0.22997567,
          -0.2988745,
          -0.74912655,
          0.33906764,
          0.12559395,
          -0.41572732,
          0.1830692,
          0.06677742,
          -0.29533288,
          -0.017390607,
          -0.04909188,
          -0.07729583
        ],
        [
          -0.061879646,
          -0.155679,
          -0.02025787,
          -0.4788498,
          0.37205207,
          0.0015688719,
          -0.9329048,
          0.05814462,
          0.017954744,
          0.23219731,
          0.05325413,
          0.14969632,
          -0.58878666,
          -0.2349277,
          -0.21943447,
          -0.025181774
        ],
        [
          0.06851972,
          -0.060461767,
          0.13712747,
          -0.2739554,
          -0.032091014,
          -0.12636699,
          -0.3723304,
          -0.015294056,
          -0.018396461,
          -0.17838056,
          -0.002678846,
          -0.3021372,
          -0.30471697,
          0.07940065,
          0.012544994,
          0.009753591
        ],
        [
          -0.097422004,
          0.04165262,
          0.14417993,
          0.089815356,
          -0.009862151,
          0.009346956,
          -0.5140485,
          0.4317601,
          -0.2928749,
          -0.13704973,
          -0.10684016,
          -0.062060833,
          -0.23266995,
          -0.19823925,
          0.15189087,
          0.19242032
        ],
        [
          -0.42770803,
          0.0012181237,
          -0.09072271,
          0.4717689,
          -0.36129197,
          -0.25724325,
          -0.69373494,
          0.029702142,
          0.24886465,
          -0.81298804,
          0.4373507,
          0.10418001,
          -0.32959002,
          -0.06606791,
          -0.042726904,
          -0.124767624
        ],
        [
          -0.2962789,
          -0.15637366,
          0.27300045,
          0.13440844,
          -0.23750865,
          -0.007943853,
          -0.28170896,
          0.042569753,
          0.12201219,
          0.06725156,
          -0.111039706,
          0.12527485,
          -0.65065694,
          -0.04080442,
          -0.13507079,
          0.07572346
        ],
        [
          -0.21432662,
          0.107697494,
          0.35453132,
          -0.030560963,
          0.13645276,
          0.11742485,
          0.08712376,
          -0.06503288,
          0.20071189,
          -0.15415679,
          0.19083808,
          0.08115115,
          0.10147506,
          0.19768606,
          0.051559035,
          -0.33479398
        ],
        [
          0.5398973,
          -0.13356213,
          0.2169517,
          -0.4473764,
          0.29667166,
          0.5197427,
          -0.37381974,
          -0.20219485,
          0.592362,
          0.23489973,
          0.5483517,
          -0.1254637,
          -0.42592004,
          -0.2493135,
          0.39091635,
          -0.33177468
        ],
        [
          -0.6005702,
          -0.03151751,
          0.10115997,
          0.24294986,
          0.081485376,
          -0.45553508,
          0.62006515,
          0.25479642,
          -0.23910564,
          -0.48847067,
          0.07775224,
          -0.10060234,
          0.18770415,
          0.024383113,
          -0.4857915,
          0.38213217
        ],
        [
          -1.3418907,
          0.24990614,
          0.2736312,
          -0.059301626,
          -0.15395409,
          0.30190554,
          0.08429529,
          0.45216763,
          -0.07370188,
          -0.5356715,
          0.003905775,
          0.058966663,
          0.040877756,
          0.050694197,
          -0.18081929,
          0.42216584
        ],
        [
          0.11446379,
          -0.4177041,
          -0.024608264,
          0.46049526,
          0.1707377,
          -0.27312073,
          -0.005157563,
          0.2405123,
          0.2051023,
          -0.38011014,
          -0.32263932,
          -0.68204296,
          -0.17624952,
          0.18843913,
          0.12608226,
          0.010049966
        ],
        [
          0.042206325,
          0.26187795,
          -0.026559997,
          0.12333805,
          0.11449906,
          0.009406202,
          -0.32823262,
          0.015118308,
          0.07427659,
          0.47017908,
          -0.07812472,
          -0.15453495,
          -0.2800993,
          0.18690039,
          -0.02990085,
          0.36322147
        ],
        [
          0.53248984,
          0.17638674,
          -0.2444212,
          0.022987384,
          -0.058211852,
          0.4080836,
          0.09788435,
          -0.2670208,
          0.058114346,
          0.13679327,
          0.15870969,
          -0.11526556,
          0.30942088,
          -0.19020143,
          -0.039419446,
          0.09244256
        ],
        [
          0.11401768,
          -0.11655985,
          -0.034076467,
          -0.061052956,
          -0.068950444,
          -0.1435616,
          -0.30804536,
          -0.06352381,
          -0.027380025,
          -0.19413044,
          -0.001683711,
          0.1675242,
          -0.30111325,
          -0.080157034,
          -0.031261224,
          0.050214473
        ],
        [
          -0.20482445,
          -0.1309444,
          -0.1963679,
          -0.30012804,
          -0.55485034,
          -0.47523013,
          0.08941107,
          -0.025384447,
          0.23308262,
          0.43326673,
          -0.134689,
          -0.35011896,
          0.6549713,
          -0.1574465,
          0.14536136,
          -0.15396357
        ],
        [
          -0.41346684,
          0.060438544,
          0.3477849,
          0.07155719,
          -0.4404569,
          -0.42177477,
          0.0027337968,
          -0.081016384,
          -0.055524614,
          -0.37682438,
          -0.05045621,
          -0.4022396,
          0.074023046,
          0.10508924,
          0.09630591,
          0.008340345
        ],
        [
          -0.16497652,
          0.081670314,
          0.21681252,
          -0.2606888,
          -0.4019258,
          -0.42177996,
          -0.0067663407,
          -0.048532173,
          -0.010896874,
          -0.3630565,
          -0.14465408,
          -0.6217213,
          0.13991179,
          0.15832685,
          0.040316872,
          -0.01575059
        ],
        [
          0.18205187,
          -0.23796079,
          0.0669756,
          -0.3456458,
          -0.34635457,
          -0.12344152,
          -0.0045864945,
          0.00096750405,
          0.056217056,
          0.12536916,
          -0.023994531,
          0.14082456,
          -0.22213633,
          0.09564651,
          0.19923681,
          0.0056049787
        ],
        [
          -0.18765524,
          -0.036115304,
          0.09036862,
          -0.11242902,
          -0.35181952,
          -0.03691845,
          -0.16280049,
          -0.029643716,
          -0.0632348,
          -0.11430052,
          -0.16402183,
          -0.12975937,
          -0.01077259,
          0.09578671,
          -0.27957022,
          0.033642627
        ],
        [
          0.5197825,
          -0.1752616,
          -0.14547874,
          -0.24408922,
          -0.8995188,
          0.009468663,
          -0.5330869,
          -0.1282295,
          0.083649464,
          0.3440313,
          0.33439144,
          -0.05966642,
          -0.410253,
          -0.08450929,
          -0.09451931,
          -0.07222059
        ],
        [
          0.020769963,
          -0.35271147,
          0.045353893,
          -0.44364288,
          -0.16640192,
          -0.07646565,
          -0.44465557,
          0.06456678,
          0.0212564,
          -0.13387775,
          -0.095847026,
          -0.020151205,
          -0.26723227,
          -0.08790574,
          -0.11443794,
          -0.15180887
        ],
        [
          -0.34239107,
          0.119599864,
          -0.143802,
          -0.16056412,
          -0.69614416,
          0.07003647,
          -0.6414172,
          0.054507565,
          0.13330047,
          0.023487808,
          -0.2744825,
          0.029932411,
          0.04440327,
          -0.15730669,
          0.030026227,
          -0.4699435
        ],
        [
          -0.20752165,
          0.13384879,
          -0.07348929,
          0.34705615,
          0.47476897,
          -0.5745319,
          -0.0727246,
          0.110503495,
          0.104311116,
          -0.068845704,
          -0.45144168,
          -0.4367761,
          -0.06377528,
          0.1694971,
          0.016170548,
          -0.114744395
        ],
        [
          -0.5212768,
          -0.07763321,
          0.22048026,
          0.18511282,
          -0.5438294,
          -0.5368455,
          -0.30079034,
          -0.058757905,
          0.20225169,
          0.34279948,
          -0.4782291,
          -0.7420182,
          0.30014032,
          0.15181325,
          0.026342187,
          -0.22216174
        ],
        [
          -0.20135388,
          -0.22621982,
          0.27585256,
          -0.4936101,
          0.473287,
          0.17503828,
          0.00082978245,
          -0.035617754,
          -0.05878278,
          0.3384755,
          -0.11598102,
          -0.45506755,
          0.4322162,
          0.17258452,
          0.05832282,
          0.011477028
        ],
        [
          0.04688389,
          -0.25879678,
          0.09652996,
          -0.32633182,
          0.82704693,
          0.4035024,
          0.45611525,
          -0.10289163,
          0.09398109,
          0.2500095,
          -0.9693671,
          -0.39739808,
          -0.2579548,
          0.11069652,
          -0.27969933,
          -0.18630475
        ],
        [
          -0.45021832,
          0.09981356,
          -0.29151157,
          -0.6031982,
          0.1598618,
          0.38510463,
          -0.27019325,
          0.03968007,
          0.0605118,
          0.53921586,
          0.111946516,
          -0.08732274,
          -0.29715735,
          0.041885786,
          -0.036353976,
          -0.0689094
        ],
        [
          0.3425088,
          0.028967623,
          0.20708215,
          0.28980803,
          -0.074132696,
          0.38045344,
          -0.055765707,
          -0.04461421,
          0.15145177,
          1.2131084,
          -0.19191752,
          -0.25406882,
          0.36069486,
          0.12438695,
          -0.15108839,
          0.12503909
        ],
        [
          0.9606356,
          -0.45778245,
          -0.2917865,
          -0.345044,
          0.9450698,
          1.2519387,
          -0.76676387,
          -0.20856643,
          0.11862731,
          0.22207075,
          0.008485211,
          0.6537594,
          -0.3801978,
          0.1547587,
          -0.20830601,
          -0.089112066
        ],
        [
          -0.18507116,
          -0.12724125,
          0.048891235,
          0.08614108,
          0.49025247,
          -0.025336426,
          -0.37798053,
          -0.2421191,
          -0.42054534,
          -0.1909909,
          0.1628181,
          0.87666833,
          0.26333255,
          -0.16000769,
          0.21785185,
          0.1073708
        ],
        [
          0.58189875,
          0.13468571,
          -0.27751574,
          0.020155784,
          -0.20848864,
          0.27074847,
          -0.32009447,
          -0.13000838,
          -0.44299632,
          -0.34298995,
          0.24679151,
          0.42575666,
          -0.38909382,
          0.22958551,
          -0.14275722,
          0.08174554
        ],
        [
          -0.0895096,
          0.291124,
          -0.1616743,
          0.06455033,
          0.5679743,
          -0.33705822,
          -0.01830346,
          0.18250133,
          -0.25917158,
          -0.36200172,
          -0.3626686,
          -0.015179954,
          -0.52316934,
          0.31922904,
          0.005167098,
          0.10369843
        ],
        [
          -1.0693398,
          0.37087098,
          0.33007908,
          1.4993123,
          -0.2689052,
          -0.9602037,
          0.14462823,
          -0.04990162,
          0.2409698,
          -0.12033505,
          -1.0399492,
          0.9971481,
          -0.8798774,
          0.21853448,
          -1.1204467,
          0.06598164
        ],
        [
          -1.2671214,
          0.6841254,
          0.12698022,
          0.713504,
          -0.1742486,
          -0.6826763,
          0.3202634,
          0.18513444,
          -0.33990774,
          -0.04680608,
          -0.2324575,
          0.26171,
          -0.52057433,
          -0.5269587,
          -0.9825123,
          0.23057382
        ],
        [
          -0.32783863,
          -0.14898002,
          0.055140954,
          -0.18187219,
          -0.0028265943,
          -0.14398003,
          -0.07316958,
          0.9668618,
          0.0132299615,
          0.16236822,
          0.13103212,
          0.06343335,
          -0.37115186,
          -0.18026546,
          -0.22262476,
          0.7481019
        ],
        [
          0.5290257,
          0.7188584,
          -0.3514757,
          -0.5225925,
          0.7900598,
          1.879977,
          -1.057958,
          -0.35890377,
          0.46003747,
          1.2574897,
          0.058402866,
          0.78536886,
          -0.90937746,
          0.51252574,
          0.473092,
          -0.067002356
        ],
        [
          0.25937688,
          0.4071874,
          -0.43302292,
          1.2138305,
          0.24350743,
          0.46369222,
          -2.0019686,
          0.16297744,
          -0.045581426,
          -0.44638303,
          -0.005100601,
          0.5988274,
          -0.3222105,
          -0.13844883,
          0.093571104,
          0.18882431
        ],
        [
          0.51610124,
          0.47347802,
          -0.727349,
          0.14426187,
          -0.32225698,
          0.13034168,
          -0.62982947,
          -0.30697367,
          1.0462778,
          0.645342,
          0.44955358,
          -0.21613355,
          -0.36313745,
          0.7691662,
          -0.42738745,
          -0.7193501
        ],
        [
          -1.1832346,
          1.2201463,
          0.5391847,
          -0.13934974,
          0.7036973,
          0.64157885,
          -0.15183486,
          -0.79642916,
          -0.72116035,
          -0.75669456,
          0.33500257,
          0.52655846,
          -0.58575535,
          -0.20380609,
          -1.4872131,
          0.36132026
        ],
        [
          -1.7705164,
          0.25617862,
          0.26393446,
          1.0534351,
          -2.5741687,
          -0.14916523,
          -0.6937198,
          -1.0714093,
          -1.0155141,
          1.2246313,
          0.18427195,
          1.235222,
          -0.8646793,
          -1.0069637,
          -2.2488685,
          0.27570364
        ],
        [
          0.24136841,
          0.0032836047,
          0.044311374,
          0.23895662,
          -1.0851943,
          -0.003395427,
          0.50511616,
          0.9011063,
          -1.2102726,
          -1.1391982,
          0.10977735,
          -0.11230745,
          -0.38579792,
          -0.8116467,
          -1.1903139,
          0.84242153
        ],
        [
          0.7650109,
          0.31118312,
          0.047099765,
          -1.0544484,
          1.1720266,
          0.5520638,
          -0.5800285,
          -0.3355537,
          0.008034691,
          0.24999276,
          1.2185696,
          -0.33789447,
          -0.48924983,
          -0.5275223,
          0.32526708,
          -0.0071907393
        ],
        [
          0.27966955,
          1.0789149,
          -0.6848435,
          -1.3080093,
          0.6225162,
          0.7234317,
          -0.06404385,
          0.13969608,
          0.37980795,
          1.8764701,
          1.1471888,
          -0.7247349,
          -0.7712043,
          0.7110472,
          -0.25429007,
          -0.5374369
        ],
        [
          0.6568791,
          0.13365962,
          -0.21915202,
          0.4041319,
          0.6816995,
          0.29534683,
          -0.9716627,
          0.36493126,
          -0.41560826,
          -0.081685595,
          0.9576869,
          -0.44034833,
          -0.2756461,
          -0.56799895,
          0.26791835,
          -0.16122374
        ],
        [
          0.7745138,
          -0.71513945,
          0.28962302,
          1.282949,
          -0.26673505,
          0.7418,
          -1.6486171,
          0.525987,
          0.050668094,
          0.35213587,
          0.6360516,
          1.3344029,
          -0.16451299,
          0.12696913,
          -0.28142563,
          0.30221447
        ],
        [
          0.31773722,
          -0.8735737,
          -0.11215874,
          0.03009429,
          -0.21158752,
          0.6318168,
          -1.7407765,
          0.39568576,
          -0.65458137,
          1.2632234,
          0.56000483,
          0.1166716,
          -1.3883786,
          0.22034125,
          -0.37108168,
          -0.06211945
        ],
        [
          1.0902337,
          0.41192624,
          0.9951701,
          -0.05806888,
          -0.057305686,
          1.9306839,
          -1.3387703,
          0.02690209,
          -0.07547084,
          -0.73408496,
          1.5139309,
          -0.9084188,
          -1.7236482,
          -0.42732832,
          -0.22986698,
          3.7784455E-05
        ],
        [
          1.2867969,
          -0.27410164,
          -0.27839497,
          -0.51370746,
          1.7360853,
          0.7333363,
          -0.41640294,
          -0.18251127,
          0.17588392,
          -1.2979136,
          0.64765286,
          1.0326096,
          -2.0079768,
          0.23493063,
          0.71528727,
          1.1925293
        ],
        [
          0.1545915,
          -0.0266164,
          0.051848147,
          0.15873832,
          0.41584674,
          0.34998232,
          -0.9627299,
          0.24358785,
          -0.17942648,
          -0.17955276,
          0.6551183,
          0.9280885,
          -1.6581138,
          -0.11241496,
          -0.36504814,
          0.19203202
        ],
        [
          0.39650464,
          -0.0346192,
          -0.107458465,
          -0.40003607,
          -0.0069079176,
          0.34591648,
          0.38315487,
          -0.26777476,
          0.07391847,
          -0.14191179,
          0.074185975,
          -0.28418145,
          0.5020573,
          -0.19161612,
          0.258318,
          -0.49112788
        ],
        [
          0.8558973,
          0.11291472,
          0.040429674,
          0.29449224,
          0.5539706,
          0.5733996,
          -1.4647702,
          0.053674396,
          -0.077219464,
          -0.39145997,
          0.074048035,
          0.84140325,
          -1.181567,
          0.10552007,
          -0.30467218,
          0.052300848
        ],
        [
          1.1200131,
          0.12177191,
          0.09297967,
          0.43511567,
          1.1264949,
          0.8980116,
          -0.05455183,
          0.19734673,
          0.56447834,
          0.8155491,
          1.3184495,
          -0.05231039,
          0.08248078,
          0.28102162,
          0.073066205,
          -0.1596677
        ],
        [
          0.03793556,
          -0.0066044885,
          -0.13225931,
          0.6991794,
          1.245094,
          1.5534256,
          0.53019375,
          0.3007439,
          0.8207164,
          -0.4435124,
          1.1062261,
          0.5898073,
          -0.60100704,
          0.5340085,
          -0.36922488,
          0.10123375
        ],
        [
          -1.2304938,
          -0.87409383,
          0.24682571,
          -0.77097887,
          -0.5316989,
          -0.58090985,
          -0.6019661,
          0.0901184,
          0.61819446,
          -0.44894823,
          -0.67182535,
          -0.038646966,
          0.7080437,
          -0.4390567,
          0.471032,
          -0.37068582
        ],
        [
          0.018390559,
          -0.118190296,
          0.066481285,
          -0.55732596,
          0.3659282,
          -0.11065437,
          0.17945185,
          -0.12024299,
          -0.030699015,
          -0.43026957,
          0.5595294,
          0.21757361,
          0.23018946,
          -0.110963516,
          0.52191013,
          -0.65352744
        ],
        [
          0.033742104,
          -0.1719287,
          -0.27085564,
          0.13998608,
          -0.45972127,
          -0.10638212,
          -0.13743804,
          0.28757465,
          0.013739524,
          -0.19934344,
          0.13303529,
          0.8520211,
          0.6246273,
          0.11247564,
          -0.35387692,
          -0.0013893642
        ],
        [
          -0.6239791,
          0.24507393,
          0.1957981,
          -0.53784233,
          -0.73339224,
          0.13070081,
          -0.84634745,
          0.34971896,
          -0.06602328,
          -0.17493632,
          0.14646141,
          0.84510857,
          -0.036200836,
          -0.075211644,
          -0.0053578652,
          -0.0012755124
        ],
        [
          -0.02255772,
          0.06690756,
          0.029049145,
          -0.17254494,
          1.0429547,
          1.3305036,
          -0.9670394,
          0.29456043,
          0.1425404,
          0.5663556,
          -0.21633288,
          0.15726495,
          -0.33140525,
          0.08378742,
          -0.37479037,
          -0.38990623
        ],
        [
          -0.7732001,
          -0.08341729,
          -0.038792122,
          0.6081651,
          -0.4314358,
          -0.30877092,
          1.4317913,
          0.1564317,
          0.25725505,
          -0.22400223,
          -0.18925396,
          -0.13012545,
          1.1904687,
          -0.32944795,
          -0.07539089,
          1.1539588
        ],
        [
          -1.5870655,
          0.57410496,
          -0.100421436,
          0.31066895,
          -0.9896213,
          -0.8880961,
          -1.0735385,
          0.7211905,
          -1.2572498,
          0.5116579,
          0.34277162,
          1.4810966,
          -0.9139188,
          1.1511738,
          -0.6628621,
          0.041984115
        ],
        [
          0.092091866,
          -0.009568607,
          -0.07371366,
          -0.2814309,
          0.5531599,
          0.13547564,
          -0.03926865,
          -0.25942066,
          0.14844792,
          -0.009280786,
          -0.22977969,
          -0.4168878,
          0.20549147,
          -0.42401645,
          0.13555093,
          -0.47235888
        ],
        [
          -0.031815287,
          0.18913236,
          -0.42331085,
          -0.03929869,
          0.26084158,
          0.054271594,
          -0.07949198,
          -0.20925991,
          -0.004781841,
          0.30017975,
          -0.3025159,
          -0.22867084,
          0.38317472,
          -0.543437,
          -0.056070957,
          0.038076773
        ],
        [
          0.3939927,
          0.32331106,
          -0.1351826,
          0.085132115,
          0.2598062,
          0.28218767,
          0.39796937,
          0.09604057,
          0.18200248,
          0.017864052,
          -0.34758055,
          -0.25755578,
          -0.34546554,
          0.2909961,
          0.07151056,
          0.28957552
        ],
        [
          0.5808828,
          0.0024291275,
          -0.012015297,
          0.28056008,
          0.5839977,
          0.04462025,
          -0.30823156,
          0.633012,
          0.4043388,
          -0.8641623,
          -0.17311813,
          0.63575196,
          -1.1022191,
          0.72433937,
          0.1450768,
          0.47795573
        ],
        [
          -0.41824076,
          -0.02491049,
          0.23300765,
          -0.3095537,
          0.13615675,
          -0.8137539,
          0.34858418,
          -0.039143395,
          0.11966767,
          -1.4359713,
          0.13655974,
          -0.6267573,
          -0.20567855,
          0.17495765,
          0.24618441,
          -0.6911833
        ],
        [
          -0.6256547,
          -0.38980055,
          0.012349929,
          -0.16208363,
          0.83321196,
          -0.40865833,
          -0.54151666,
          0.50148016,
          -0.58156955,
          -0.21293646,
          0.018649124,
          -0.12840502,
          -0.75164676,
          -0.18836366,
          -0.7407301,
          -0.48125678
        ],
        [
          0.00919634,
          -0.2240396,
          0.20602788,
          -0.052223787,
          -0.1997775,
          -0.49441662,
          0.19897662,
          0.20342207,
          -0.007661414,
          -0.19314572,
          -0.09408558,
          0.26497537,
          0.17567965,
          -0.022810811,
          0.033742573,
          0.36682713
        ],
        [
          -0.05942817,
          0.031033114,
          -0.12409507,
          -0.053026598,
          0.07622768,
          -0.0667884,
          0.058902465,
          0.071575046,
          -0.0040781484,
          0.056939542,
          0.06337434,
          -0.06158063,
          0.09046905,
          -0.06890864,
          -0.12046836,
          0.106073625
        ],
        [
          -0.07293645,
          0.17153332,
          -0.216054,
          0.21160974,
          -0.45468467,
          -0.5863894,
          -0.5710795,
          -0.6412231,
          -0.31769714,
          -0.25331917,
          0.5131668,
          0.12105184,
          0.0022269238,
          0.5030867,
          0.017243223,
          0.37917656
        ],
        [
          -0.51844364,
          0.23133343,
          0.012782084,
          0.91826934,
          -0.036095493,
          -0.909467,
          0.4202989,
          -0.26905555,
          -0.4046746,
          -0.14359605,
          0.14236453,
          -0.40926304,
          1.8118283,
          0.15424304,
          0.2204149,
          -0.0013328502
        ],
        [
          -0.69873834,
          0.24641633,
          0.07694505,
          -0.10273591,
          -0.6024887,
          -0.2576189,
          0.3686222,
          0.11339986,
          -0.09797993,
          -0.089056864,
          -1.3092945,
          -0.06940543,
          1.7179741,
          0.13575424,
          -0.21347998,
          0.0066501037
        ],
        [
          0.76147187,
          0.072767675,
          0.018626155,
          0.7777427,
          -0.41533294,
          0.6137776,
          1.3328928,
          -0.33514914,
          0.4843295,
          0.6580567,
          -1.1193268,
          -1.4781855,
          0.914358,
          0.13382667,
          0.02801736,
          -0.94213265
        ],
        [
          -0.3536524,
          -0.28325775,
          0.31689912,
          -0.31866097,
          -0.70673263,
          -0.22771616,
          0.7159518,
          -0.047597457,
          0.18125905,
          -0.22170544,
          -0.5776467,
          -0.49144283,
          0.78499883,
          0.30362523,
          0.3438707,
          -0.14300312
        ],
        [
          0.18250951,
          0.28604347,
          0.02566744,
          0.19822851,
          -0.022489142,
          0.18168698,
          -0.09823028,
          0.07576482,
          -0.04185019,
          -0.11176591,
          0.060044512,
          0.2000837,
          -0.17838976,
          -0.27515435,
          -0.039315917,
          0.040395513
        ],
        [
          -0.45466468,
          -0.052824598,
          -0.04374054,
          -0.35952535,
          -0.050677873,
          0.30844048,
          0.6531793,
          -0.109124266,
          0.06833788,
          1.4639227,
          -0.7758291,
          0.65984875,
          -0.6587305,
          0.46786502,
          0.6700821,
          -0.15703626
        ],
        [
          -0.7871918,
          0.33291167,
          0.009188091,
          0.34575012,
          -1.2276485,
          -0.4850105,
          0.67943823,
          0.28929633,
          -1.0218763,
          0.5809877,
          0.16484368,
          0.7033727,
          0.7725833,
          0.4083856,
          0.051299766,
          0.7739569
        ],
        [
          -0.124332085,
          -0.7447,
          0.19094454,
          0.18800467,
          -0.16562544,
          0.2391354,
          0.07400325,
          -0.18740147,
          -0.0392613,
          0.07505341,
          -0.35394192,
          0.061586007,
          -0.7073086,
          -0.27734765,
          -0.7132761,
          -0.15915817
        ],
        [
          -1.1970435,
          0.2478282,
          0.3424108,
          0.37533197,
          0.21613349,
          -0.98995984,
          0.5540385,
          0.45962635,
          -0.06867161,
          -0.31326744,
          -0.94961977,
          -0.3841464,
          0.82918173,
          0.41486952,
          -0.30313656,
          0.20216087
        ],
        [
          -0.4073351,
          0.33053592,
          -0.29952303,
          -0.13646057,
          0.31846115,
          -0.15267383,
          0.3946854,
          0.5030126,
          -0.25918427,
          0.1138424,
          -0.29661527,
          -0.26285252,
          0.36354265,
          0.057757176,
          -0.17705962,
          0.25567198
        ],
        [
          -0.6153525,
          -0.08082641,
          0.08089509,
          0.032639556,
          -0.44600803,
          -0.7622475,
          0.18053341,
          0.1284319,
          -0.088373244,
          -0.3020884,
          -0.15735695,
          -0.13790673,
          0.45472908,
          0.24624123,
          0.037412643,
          0.077821195
        ],
        [
          0.06651108,
          -0.4708839,
          0.07479074,
          -0.1404703,
          0.59295416,
          -0.10829301,
          0.09789633,
          0.04173757,
          0.18520808,
          0.20506118,
          0.38915893,
          -0.59344727,
          0.42851332,
          -0.34892577,
          0.06844627,
          -0.55420953
        ],
        [
          0.21896547,
          -0.18872742,
          -0.102234475,
          -0.07260611,
          -0.017046263,
          0.18581802,
          0.046653084,
          -0.010108534,
          0.12804854,
          0.1903578,
          -0.016765459,
          0.13229625,
          0.017314307,
          0.07601953,
          0.23879439,
          0.010040307
        ],
        [
          -0.023902923,
          -0.00584257,
          0.0656186,
          0.018033195,
          -0.015830183,
          0.0016387218,
          -0.10617808,
          0.009238041,
          -0.07816738,
          0.042462714,
          0.114980645,
          0.10196057,
          0.1106205,
          0.032098345,
          -0.019412123,
          0.08489598
        ],
        [
          0.13755488,
          -0.055108115,
          -0.20933785,
          -0.10137089,
          0.4529811,
          0.2598632,
          -0.042703755,
          0.11052866,
          0.30532277,
          0.13707326,
          -0.033534415,
          -0.24008165,
          0.31961477,
          -0.024202483,
          -0.055502363,
          -0.17977452
