{
  "Layers": [
    {
      "_wInc": 1,
      "_wDec": 1,
      "_wNothing": 30479082542,
      "EnableNNUE": true,
      "Weights": [
        [
          -0.14592227,
          0.093564995,
          0.04234918,
          0.056399528,
          0.053177483,
          0.039195567,
          -0.024689963,
          -0.064786404,
          0.0037799873,
          -0.015619856,
          0.098713525,
          0.034194514,
          0.117857575,
          -0.08650931,
          0.021492539,
          0.013315081,
          -0.010475843,
          0.121525705,
          -0.07208556,
          -0.014914799,
          0.10805933,
          -0.091972,
          -0.11099166,
          0.083526775,
          0.050087478,
          0.07186956,
          0.07777989,
          -0.010459161,
          -0.017232282,
          0.02306365,
          0.028171057,
          -0.09000559
        ],
        [
          -0.010090346,
          -0.007924631,
          0.07682916,
          -0.1342651,
          0.020452537,
          -0.040604513,
          0.06051545,
          -0.020846419,
          0.100005075,
          0.006692095,
          -0.05642157,
          0.08864181,
          -0.07784792,
          -0.0063058715,
          0.07142514,
          -0.054127987,
          -0.083093114,
          -0.019647783,
          -0.050734885,
          -0.026924858,
          0.076270595,
          0.04105492,
          -7.9371035E-05,
          -0.021293031,
          -0.04714836,
          0.0028572744,
          0.037574638,
          -0.014288932,
          -0.08432512,
          -0.06016054,
          0.015598663,
          0.09111922
        ],
        [
          0.11037293,
          -0.11763437,
          -0.040032648,
          -0.033157807,
          0.02515633,
          0.07986449,
          -0.0028726498,
          0.05075824,
          0.034710977,
          0.07841582,
          0.08549944,
          0.11109267,
          -0.09975991,
          0.097184114,
          0.07038067,
          0.13264206,
          0.101687096,
          -0.07085409,
          0.00949109,
          0.017777283,
          -0.049534652,
          -0.10887373,
          0.052451055,
          0.0016947013,
          0.03629917,
          -0.0025834064,
          -0.110023126,
          -0.10245048,
          0.046454065,
          0.08248999,
          0.04178224,
          -0.049993657
        ],
        [
          0.13323355,
          -0.01401094,
          -0.06915281,
          -0.10867888,
          -0.10161555,
          0.01640457,
          -0.022287758,
          -0.09198168,
          -0.102600954,
          -0.17336003,
          0.017762128,
          -0.070279494,
          -0.1660128,
          0.1396466,
          -0.05283665,
          -0.041691404,
          0.016940434,
          -0.10672622,
          -0.12371361,
          -0.1090633,
          -0.12643994,
          -0.0774685,
          -0.09403985,
          -0.08609947,
          0.028561622,
          0.043401994,
          -0.13404132,
          0.014377418,
          0.06482155,
          0.02390546,
          -0.05520355,
          0.035704356
        ],
        [
          0.07002498,
          -0.051619913,
          0.0450675,
          -0.13672954,
          -0.069506176,
          0.072013825,
          0.15275645,
          -0.30171564,
          -0.05699399,
          -0.092871875,
          -0.10727672,
          -0.17412391,
          -0.021428155,
          0.10363969,
          -0.037274163,
          0.056636274,
          0.047579106,
          0.0065351725,
          -0.036707424,
          -0.13254726,
          -0.07827899,
          0.1806959,
          -0.023748113,
          -0.03896254,
          -0.10932432,
          0.119713455,
          -0.016793892,
          0.12301172,
          0.0010848538,
          0.1194767,
          -0.008067271,
          -0.061580613
        ],
        [
          -0.18552184,
          -0.059079345,
          -0.043465253,
          -0.3089732,
          -0.049376413,
          -0.15112908,
          0.00014299732,
          -0.22811966,
          -0.006616558,
          -0.033563614,
          0.10005725,
          -0.016797127,
          -0.037243787,
          0.09470541,
          0.025529413,
          0.003715129,
          0.15669708,
          -0.1236874,
          -0.040687457,
          0.004922945,
          0.15755619,
          -0.10475178,
          -0.058988616,
          0.064703695,
          0.20474875,
          0.13865623,
          -0.08037189,
          -0.26038122,
          0.031430714,
          0.18610775,
          -0.08604498,
          -0.08447507
        ],
        [
          -0.06363711,
          -0.06486721,
          -0.102674805,
          -0.13877027,
          -0.11828405,
          0.02142339,
          -0.037403848,
          -0.11583902,
          0.037894826,
          0.007129669,
          -0.020766385,
          -0.067226335,
          -0.105783015,
          0.10034669,
          -0.058264267,
          0.04395689,
          -0.014489524,
          -0.13052475,
          -0.025198475,
          0.08396301,
          -0.07030671,
          0.035471816,
          0.008537177,
          0.037184726,
          0.008225134,
          0.10803338,
          -0.08979056,
          -0.11230591,
          -0.041304175,
          -0.10967673,
          0.08266174,
          0.053620834
        ],
        [
          0.0022149244,
          -0.055709276,
          -0.08703837,
          0.015091687,
          0.043216247,
          -0.1232076,
          0.08278534,
          0.08296503,
          -0.093666814,
          0.028211894,
          0.042719696,
          0.06526707,
          0.021636331,
          -0.078837186,
          -0.08709763,
          0.0326837,
          -0.006532264,
          -0.054405883,
          -0.060350668,
          0.017622977,
          -0.07657227,
          -0.05822688,
          -0.009861115,
          0.08860448,
          0.036429282,
          0.09191222,
          -0.001102632,
          0.008963313,
          0.019932732,
          -0.08641594,
          -0.056121726,
          -0.07796824
        ],
        [
          -0.027392816,
          0.13640891,
          0.026316775,
          0.1409473,
          -0.090423524,
          -0.06498687,
          0.15303813,
          -0.08789475,
          -0.011104068,
          -0.088940024,
          0.025034346,
          -0.14061621,
          0.16963337,
          -0.20184346,
          -0.0058655133,
          -0.049832202,
          0.024790188,
          0.019427523,
          -0.0052597565,
          -0.12198515,
          0.029147744,
          0.094266556,
          0.041997027,
          -0.030331325,
          -0.08708246,
          -0.060048476,
          0.04600818,
          -0.004645901,
          -0.07710136,
          0.10112992,
          -0.082154416,
          -0.053084962
        ],
        [
          -0.1454959,
          -0.05875928,
          0.0020099531,
          0.006226706,
          0.058410764,
          0.0894656,
          0.041935775,
          -0.033353038,
          -0.011765523,
          0.08027062,
          -0.011588755,
          0.002002487,
          -0.0075554983,
          0.040713772,
          -0.05250952,
          -0.06715819,
          -0.053391695,
          0.044105053,
          -0.10868577,
          -0.05103553,
          0.043026544,
          -0.08038341,
          0.08354621,
          -0.103137754,
          0.093491346,
          0.06947432,
          0.039339807,
          0.10173776,
          -0.0010192329,
          0.072229736,
          0.079954244,
          0.084950484
        ],
        [
          0.03532587,
          0.013494569,
          0.060932744,
          0.06291873,
          0.018298548,
          -0.0039953836,
          0.07027247,
          0.0484135,
          -0.06328091,
          -0.054742042,
          -0.06449991,
          -0.025712477,
          0.09209902,
          -0.002366073,
          -0.11583463,
          -0.0010796909,
          -0.103345685,
          0.026613588,
          0.046049666,
          -0.131699,
          -0.021781864,
          -0.066935785,
          0.0012081177,
          0.039946746,
          -0.07660492,
          -0.017612603,
          0.03630091,
          0.0903584,
          -0.12787224,
          0.03240198,
          -0.036008768,
          0.07306003
        ],
        [
          -0.12960686,
          0.008782027,
          0.056156237,
          0.091664344,
          -0.018596407,
          0.073620915,
          0.03237546,
          0.06380181,
          0.0008229914,
          0.07500212,
          0.023769552,
          0.02054799,
          0.068867795,
          -0.101571284,
          -0.12506814,
          -0.060393278,
          0.003378056,
          -0.04287333,
          0.04118879,
          -0.11689824,
          -0.034051374,
          0.031085843,
          -0.02598038,
          0.05547803,
          -0.09903079,
          0.011672442,
          -0.006016631,
          -0.07427884,
          -0.12622245,
          -0.020289993,
          0.029571228,
          0.06714036
        ],
        [
          0.053800173,
          0.001834858,
          -0.045444768,
          0.09962219,
          -0.06263934,
          0.07294427,
          -0.009838403,
          -0.07084812,
          0.06973757,
          0.05057678,
          0.06083232,
          0.04784632,
          -0.07137448,
          0.10348945,
          0.046135355,
          -0.096359104,
          -0.0042770603,
          0.035178512,
          -0.12852,
          -0.019801727,
          -0.0950232,
          0.03381229,
          -0.033736043,
          0.030581355,
          -0.03428494,
          -0.009208889,
          -0.082042426,
          0.06003076,
          -0.0007615343,
          0.06783541,
          -0.033337057,
          0.030573968
        ],
        [
          -0.089484364,
          -0.014411727,
          0.103445865,
          -0.01337243,
          0.0061324704,
          0.11449471,
          0.039304797,
          -0.08968371,
          -0.109988675,
          0.011006493,
          -0.056167476,
          -0.05529582,
          -0.09263805,
          -0.051709473,
          0.01363835,
          -0.020419452,
          0.11616529,
          -0.07105944,
          0.08627411,
          -0.14899312,
          -0.0059246183,
          -0.021225484,
          0.05831612,
          0.050686046,
          -0.056172244,
          -0.042146858,
          -0.05526908,
          -0.060410894,
          -0.018622003,
          -0.029521024,
          -0.09477428,
          -0.09625637
        ],
        [
          -0.087908015,
          0.012697229,
          -0.08549739,
          -0.071425125,
          -0.07347677,
          0.1269128,
          -0.061981365,
          -0.051613882,
          -0.0541749,
          0.08600871,
          -0.073139906,
          0.021218564,
          0.008861597,
          0.07836067,
          -0.10919911,
          0.012248394,
          0.061672486,
          0.046596587,
          -0.07693309,
          -0.045542963,
          -0.06976533,
          -0.020356657,
          -0.05522555,
          0.0862275,
          0.0026176006,
          -0.0044888635,
          -0.023201618,
          0.06778582,
          0.06564519,
          -0.03519181,
          0.024087124,
          -0.09776697
        ],
        [
          -0.078688174,
          -0.09008422,
          0.026481248,
          0.068323284,
          -0.07414911,
          -0.034008924,
          0.05352884,
          0.114769295,
          0.06560527,
          -0.09970136,
          -0.073147744,
          -0.10671203,
          0.055595756,
          -0.05133266,
          0.09137975,
          -0.1050297,
          0.0667656,
          -0.005310888,
          -0.08484965,
          -0.052729227,
          0.08109987,
          -0.08791006,
          0.037369505,
          0.028490948,
          -0.07627185,
          0.05880751,
          -0.045254003,
          0.11800841,
          0.07364218,
          0.01393693,
          -0.028266516,
          0.0027608287
        ],
        [
          -0.09876777,
          -0.08057018,
          0.043566626,
          0.10437158,
          0.09798954,
          -0.023284292,
          -0.0186542,
          0.107253596,
          0.012812361,
          -0.0006661269,
          0.0661636,
          -0.03183796,
          -0.078039385,
          0.06017138,
          -0.022569075,
          0.040608745,
          -0.012398192,
          0.020717254,
          0.04815621,
          -0.03238964,
          0.02455576,
          0.05398824,
          -0.037926555,
          0.024214199,
          -0.036234006,
          -0.06844775,
          0.100742176,
          0.12046038,
          0.012079304,
          0.021608135,
          -0.12806864,
          0.0040066396
        ],
        [
          0.044566683,
          0.10184168,
          0.12662733,
          0.040052142,
          0.082322024,
          -0.008597508,
          -0.01982128,
          0.031457983,
          -0.1149347,
          -0.008526873,
          0.034828372,
          -0.0006240832,
          -0.043633647,
          -0.094500504,
          -0.08340219,
          -0.03031918,
          0.091281615,
          0.052014798,
          -0.0429867,
          -0.014646636,
          0.08590405,
          0.06841348,
          -0.0024291428,
          -0.08447287,
          -0.09776437,
          0.08469822,
          -0.030208487,
          -0.028888816,
          0.04191393,
          0.106333174,
          -0.0031716726,
          -0.051902212
        ],
        [
          0.063010216,
          0.107298665,
          0.08945427,
          0.08596207,
          -0.107795484,
          0.06731093,
          -0.04794618,
          0.034950074,
          0.01952439,
          0.07869722,
          -0.004472877,
          0.049952473,
          0.04046548,
          0.06476549,
          -0.07589622,
          -2.4205836E-05,
          0.03817389,
          0.048093393,
          -0.08512632,
          -0.042152517,
          0.074660316,
          0.061111398,
          0.040559947,
          -0.03889744,
          0.06526367,
          0.030900273,
          0.096421376,
          -0.034031555,
          0.0807215,
          0.035077766,
          0.044288322,
          0.098926835
        ],
        [
          -0.1064437,
          -0.03797307,
          0.06334053,
          -0.01226876,
          -0.06663483,
          0.005328223,
          0.052395027,
          0.010458902,
          -0.010572687,
          0.07107243,
          0.04155788,
          -0.11399621,
          -0.011972939,
          0.021645201,
          -0.055397388,
          0.0860517,
          0.027291128,
          -0.05906044,
          -0.0751519,
          -0.072696075,
          0.115958914,
          -0.1412738,
          0.07380992,
          -0.10143564,
          0.088582486,
          0.07612353,
          0.054465417,
          0.0053887838,
          0.07652126,
          0.054839157,
          -0.035285063,
          0.025658827
        ],
        [
          -0.0917387,
          -0.020076033,
          -0.0032122994,
          0.12825131,
          0.031097598,
          -0.05426264,
          -0.028681612,
          0.05155295,
          0.05561672,
          -0.0076663913,
          -0.03110684,
          -0.10798979,
          0.12151713,
          0.0415811,
          -0.095293134,
          0.020517558,
          -0.06872604,
          0.0043111383,
          0.03898827,
          -0.016800111,
          0.042187706,
          -0.002004787,
          0.08428857,
          0.056155674,
          -0.017503561,
          -0.09085139,
          0.05197117,
          -0.1000557,
          -0.06704305,
          0.064816505,
          -0.039472915,
          -0.10904189
        ],
        [
          -0.052478723,
          0.07490689,
          0.016717367,
          -0.063927494,
          0.052857198,
          -0.019863525,
          -0.065003134,
          -0.02472283,
          0.033967517,
          0.07124601,
          0.043982685,
          0.046221342,
          -0.026605401,
          -0.06767184,
          -0.10321973,
          -0.07561967,
          0.07506002,
          0.027217956,
          -0.02047358,
          -0.020739468,
          0.06528272,
          0.01730748,
          0.039488934,
          0.03836912,
          -0.016158048,
          0.08030165,
          0.051270682,
          0.09360608,
          -0.07858269,
          -0.03497614,
          -0.06435608,
          0.0833609
        ],
        [
          0.035857454,
          0.0116054285,
          0.015484857,
          0.015728993,
          -0.06472235,
          -0.04599375,
          -0.0071532438,
          0.08291142,
          -0.09190138,
          -0.086323336,
          -0.11724116,
          -0.060215827,
          -0.061888553,
          0.089069255,
          0.04491644,
          -0.007420916,
          0.0033068894,
          0.0897642,
          0.050244562,
          -0.082472205,
          -0.03886833,
          0.05842273,
          0.006939452,
          -0.0024488713,
          -0.029383386,
          -0.050227974,
          -0.03403848,
          0.021252679,
          0.037272695,
          0.006362841,
          -0.081733204,
          -0.060353406
        ],
        [
          -0.017000474,
          0.123983234,
          -0.0060096835,
          -0.04393081,
          0.07648375,
          0.05556265,
          -0.025598386,
          0.113543764,
          -0.029342618,
          -0.11771536,
          0.06612107,
          -0.03481723,
          0.095689006,
          -0.066678576,
          -0.026456017,
          -0.025383048,
          0.06997464,
          -0.06416811,
          -0.10472005,
          -0.10748413,
          0.012421627,
          0.010239958,
          -0.116043955,
          0.072843336,
          -0.043669246,
          -0.02901182,
          0.022835739,
          -0.07527316,
          0.050591934,
          0.00040302254,
          -0.12789674,
          0.024946105
        ],
        [
          0.0077160327,
          -0.06688156,
          0.035892818,
          -0.017051233,
          0.0586034,
          0.057920527,
          -0.078819744,
          -0.022719596,
          -0.09926583,
          -0.11500509,
          -0.05683881,
          0.075243115,
          -0.011138133,
          0.102410816,
          0.012081207,
          0.092001796,
          0.070633136,
          -0.028626787,
          0.0038613442,
          0.0069905184,
          -0.025732478,
          -0.11525706,
          0.050092652,
          -0.04650946,
          -0.034801036,
          -0.07323014,
          0.0039297002,
          -0.04401152,
          -0.019776464,
          -0.0787264,
          -0.039112717,
          -0.084835865
        ],
        [
          0.19694328,
          -0.11690911,
          0.11909612,
          0.0032637091,
          0.012768576,
          0.026628872,
          0.044855393,
          -0.08484775,
          0.12900428,
          -0.069672555,
          0.07899,
          0.13866681,
          -0.09358126,
          0.08012969,
          0.06936973,
          0.060847785,
          -0.06829333,
          -0.03345071,
          0.09205773,
          0.058470804,
          0.06827967,
          0.14601104,
          -0.06496142,
          0.14908783,
          0.1312598,
          -0.062023994,
          -0.04941812,
          -0.039536025,
          -0.030178363,
          -0.029625442,
          0.105989225,
          0.111782864
        ],
        [
          -0.045100816,
          0.014189786,
          -0.014612306,
          -0.15009639,
          -0.08003842,
          -0.06554438,
          0.014247566,
          -0.13685587,
          0.010211468,
          0.013936408,
          -0.07425231,
          0.14093196,
          -0.009590592,
          0.19612996,
          0.008516734,
          -0.20469159,
          -0.03848495,
          0.07582904,
          0.010213231,
          -0.0018866706,
          0.00041933169,
          0.007547176,
          -0.17170717,
          -0.0411051,
          0.017218973,
          0.0015357576,
          0.02908303,
          0.048513006,
          0.14540209,
          -0.12776446,
          0.08486691,
          0.09383217
        ],
        [
          0.12317971,
          -0.003966852,
          -0.08876602,
          0.019158809,
          -0.07059776,
          -0.025555147,
          -0.17383209,
          -0.11179125,
          -0.02311604,
          0.1878999,
          0.020726874,
          -0.044261627,
          0.14571075,
          0.11855774,
          0.11900898,
          -0.07232756,
          -0.019071162,
          0.07351722,
          -0.027386354,
          -0.08357253,
          -0.097069606,
          -0.1448376,
          -0.14611344,
          -0.030426417,
          -0.100030914,
          0.05323574,
          -0.014446562,
          -0.034382325,
          0.016864805,
          -0.08427379,
          0.06243192,
          0.061620086
        ],
        [
          0.03809121,
          -0.022140024,
          -0.07146428,
          0.05795537,
          -0.0380076,
          -0.11731023,
          -0.11642873,
          0.017686186,
          -0.05361762,
          0.021610618,
          0.08551143,
          -0.04447802,
          -0.03962988,
          -0.112989716,
          0.04361688,
          0.066941045,
          -0.078401245,
          -0.021276198,
          -0.061646137,
          0.07738535,
          0.0763166,
          -0.12520646,
          -0.0029495033,
          -0.02875974,
          0.04696993,
          -0.047403853,
          0.107225135,
          0.07685162,
          0.059482723,
          -0.06951678,
          0.1076328,
          -0.042583473
        ],
        [
          -0.087390736,
          -0.13725181,
          0.030008655,
          0.0049436777,
          0.07929364,
          0.036752515,
          -0.06442762,
          0.001091014,
          -0.04949341,
          -0.00024453772,
          -0.057744857,
          -0.08711535,
          0.018825775,
          -0.039465252,
          0.009676655,
          0.0060348613,
          -0.027556097,
          0.038928412,
          0.07399302,
          -0.07684181,
          -0.09116114,
          -0.010380171,
          0.10391783,
          0.06758894,
          -0.052399576,
          0.059972115,
          0.12899919,
          0.038473528,
          -0.16071378,
          0.08337063,
          -0.14783177,
          -0.11881851
        ],
        [
          -0.113660455,
          0.03481427,
          0.09500042,
          -0.058924932,
          -0.00908156,
          -0.045649815,
          0.04436661,
          0.027815677,
          0.078258425,
          -0.0832406,
          0.08049755,
          -0.0816244,
          0.107588865,
          0.0068736887,
          0.034282107,
          0.007993256,
          0.10151658,
          -0.022553032,
          0.053157523,
          -0.0330927,
          -0.048001617,
          0.01959409,
          -0.06615664,
          -0.029854696,
          -0.053720444,
          -0.053492893,
          -0.046258647,
          -0.058423184,
          -0.07262057,
          0.018075665,
          -0.10299016,
          -0.088986315
        ],
        [
          0.00014345661,
          -0.07330536,
          0.09159271,
          0.029406378,
          0.024196267,
          -0.07309139,
          -0.039406773,
          0.007871121,
          -0.013305074,
          0.00074674544,
          -0.025626538,
          -0.05838341,
          -0.05392447,
          -0.10376295,
          -0.025045633,
          0.0331443,
          -0.00794387,
          0.05248236,
          -0.0792397,
          0.02402564,
          -0.022887321,
          -0.13021088,
          0.037779763,
          -0.047193103,
          -0.07914846,
          -0.0724751,
          -0.055601362,
          0.067824684,
          -0.026442751,
          -0.0828171,
          -0.036053866,
          -0.03969854
        ],
        [
          -0.07111016,
          0.06501833,
          0.034291502,
          0.122681394,
          0.026018508,
          0.09091149,
          -0.04970776,
          -0.057085577,
          -0.088565394,
          -0.05047227,
          -0.040406324,
          -0.07407938,
          -0.0077310535,
          0.07145063,
          0.063495725,
          0.030030895,
          -0.0048043183,
          -0.042629093,
          -0.079786845,
          -0.058204763,
          0.09677224,
          -0.014573346,
          -0.07163428,
          0.07454199,
          -0.02299877,
          -0.08155965,
          -0.08118656,
          0.03762444,
          -0.08522503,
          0.08867354,
          -0.071067534,
          -0.006752835
        ],
        [
          0.058840677,
          -0.08484728,
          0.047368143,
          -0.020382611,
          -0.07263369,
          -0.012831861,
          0.06175073,
          0.021149212,
          -0.021096325,
          0.06250147,
          0.052585676,
          0.090386376,
          -0.040939197,
          -0.115796484,
          -0.026352689,
          -0.10611972,
          -0.09964054,
          0.076628886,
          0.040366538,
          0.0076353997,
          -0.07986595,
          -0.07685033,
          -0.07656883,
          -0.101820774,
          -0.061717287,
          -0.098467134,
          0.102159545,
          -0.014013071,
          0.03440289,
          -0.07553659,
          -0.029836863,
          -0.07249851
        ],
        [
          -0.03222935,
          0.10630714,
          -0.06532631,
          -0.001395531,
          0.079095654,
          0.014939604,
          -0.11142925,
          0.112179115,
          -0.019717285,
          0.08697827,
          -0.04000669,
          -0.07162659,
          -0.05141358,
          -0.06808395,
          -0.12213591,
          -0.022534017,
          0.0039906707,
          -0.08695013,
          0.043247335,
          -0.022093413,
          0.009663565,
          -0.075928085,
          0.05637651,
          -0.03745927,
          -0.042695403,
          -0.0009080064,
          0.060076874,
          0.12020571,
          0.049809758,
          -0.00022020354,
          -0.103635095,
          -0.024964206
        ],
        [
          -0.0799201,
          0.07946145,
          -0.014871505,
          0.13521835,
          0.063917674,
          -0.028427692,
          -0.061214834,
          -0.06284347,
          0.07697925,
          -0.033941783,
          0.08531061,
          -0.023770634,
          -0.05978377,
          0.04110243,
          -0.088661894,
          -0.012870661,
          -0.044958144,
          -0.07572792,
          -0.0571308,
          -0.075718895,
          -0.042791255,
          -0.11891745,
          0.05956529,
          -8.9736845E-05,
          0.020267768,
          -0.0050623124,
          -0.061034556,
          0.055657715,
          -0.05576622,
          0.062039055,
          -0.08994264,
          -0.0719227
        ],
        [
          -0.018637747,
          0.023572017,
          0.078493424,
          -0.011660813,
          -0.086350806,
          0.019265955,
          -0.105875276,
          -0.10407764,
          -0.115768224,
          -0.09643413,
          0.010800797,
          0.047018196,
          -0.08776965,
          0.083028026,
          0.006590349,
          0.059091043,
          -0.024615334,
          -0.054399773,
          -0.018906005,
          -0.11252004,
          0.014148107,
          0.068775006,
          -0.016768727,
          -0.025546322,
          -0.032430436,
          -0.057224635,
          -0.09246826,
          -0.09061993,
          0.029006857,
          0.059368573,
          0.024160836,
          -0.103586175
        ],
        [
          -0.07650052,
          0.084229,
          -0.091742106,
          0.08399777,
          -0.098283,
          0.05769785,
          -0.07229637,
          0.07768494,
          -0.062831804,
          -0.03893711,
          0.09598811,
          0.062796906,
          0.0726481,
          0.05564554,
          0.0138901705,
          -0.09785515,
          0.087922074,
          -0.07507967,
          0.083623,
          0.009757023,
          -0.05242426,
          -0.070925854,
          -0.092906505,
          -0.12304831,
          0.08516574,
          -0.042267222,
          0.01806409,
          0.01792786,
          0.05620649,
          -0.06205052,
          -0.09431625,
          -0.08727843
        ],
        [
          -0.071619764,
          -0.0017918888,
          0.045462932,
          0.03243574,
          -0.121378474,
          0.013645668,
          0.03804552,
          0.08831921,
          0.005459598,
          -0.107427716,
          -0.10484856,
          -0.09685364,
          -0.08751371,
          -0.036191396,
          -0.019030388,
          -0.092708275,
          -0.07071256,
          -0.09819739,
          0.01461942,
          -0.11898175,
          0.12159555,
          0.05228871,
          -0.02793717,
          -0.10266208,
          -0.0835944,
          -0.0694216,
          0.0727164,
          0.0006184974,
          0.046637993,
          0.07048539,
          -0.113258876,
          -0.012269952
        ],
        [
          0.07878128,
          -0.0066776928,
          -0.07840269,
          -0.08511033,
          -0.07421998,
          -0.021723125,
          -0.22016692,
          0.02655843,
          -0.0520615,
          0.009089535,
          -0.11609402,
          -0.104462564,
          0.055236567,
          0.13441323,
          -0.025244074,
          0.009792206,
          -0.088050954,
          -0.031190567,
          -0.047266625,
          0.023145813,
          -0.004872733,
          -0.13440855,
          -0.16307907,
          -0.13178234,
          -0.16230397,
          0.113881215,
          0.015948426,
          -0.09348851,
          -0.12191651,
          -0.03664327,
          -0.01884296,
          -0.041020483
        ],
        [
          -0.038247224,
          0.17674862,
          0.119663686,
          0.17937288,
          -0.05073984,
          0.006109044,
          0.20377135,
          0.06377248,
          -0.057699025,
          0.01401446,
          -0.16214246,
          0.05041474,
          0.022859126,
          0.052768532,
          0.07597797,
          0.0064682504,
          -0.090603136,
          -0.049691606,
          -0.12555106,
          0.01318017,
          0.0445106,
          -0.0019548156,
          -0.08288701,
          -0.027792437,
          -0.14183076,
          0.054930653,
          -0.085703604,
          0.059572265,
          0.04042286,
          -0.0570676,
          -0.1129791,
          -0.00476601
        ],
        [
          0.04829992,
          0.13633798,
          -0.011816028,
          -0.033430435,
          -0.0011369855,
          0.012255469,
          -0.082703345,
          0.07885252,
          0.010281274,
          0.024093121,
          0.08738671,
          -0.020449761,
          -0.025865838,
          -0.06987817,
          -0.023851354,
          0.0021606102,
          0.010240488,
          -0.081208505,
          -0.12264216,
          0.060035653,
          0.08709094,
          -0.16713013,
          -0.040703412,
          -0.08105076,
          -0.03128137,
          -0.022461861,
          0.09536173,
          0.064527996,
          -0.121081576,
          0.009527721,
          -0.0021484,
          0.041720998
        ],
        [
          -0.01684492,
          0.00070817914,
          0.046957277,
          -0.030378679,
          -0.11323439,
          0.13780232,
          0.08739097,
          0.08046161,
          0.083461404,
          0.07748641,
          0.07643323,
          -0.04817001,
          0.08366112,
          0.008613898,
          0.08689392,
          -0.045268483,
          0.086440966,
          0.029448891,
          0.04364495,
          -0.15410596,
          0.11901315,
          0.1299808,
          -0.012108196,
          0.08541224,
          0.030332671,
          -0.058868136,
          -0.008790492,
          0.09130385,
          -0.056406066,
          -0.071656294,
          -0.09814597,
          0.074968025
        ],
        [
          0.0058964,
          -0.0039936593,
          -0.07895141,
          0.06600955,
          0.05621557,
          0.06167509,
          -0.008512543,
          -0.10346265,
          0.0688636,
          -0.0927192,
          -0.062428385,
          -0.016059918,
          0.04872267,
          -0.004114785,
          -0.067252204,
          -0.0861637,
          0.052582413,
          -0.08626383,
          0.066176005,
          0.0056405123,
          0.07446708,
          -0.07439422,
          -0.02809844,
          -0.04960127,
          0.019182121,
          -0.10694256,
          0.07722519,
          -0.0026844686,
          -0.10850161,
          -0.017048161,
          -0.019338813,
          -0.07785899
        ],
        [
          0.0648753,
          0.069031246,
          -0.021417502,
          0.014076316,
          0.07173588,
          0.024185462,
          0.045676272,
          0.07375529,
          0.04177445,
          0.062718324,
          -0.05863396,
          -0.032660384,
          -0.070567615,
          0.04878728,
          -0.05953973,
          -0.081496164,
          0.080838986,
          0.040734753,
          0.030764515,
          -0.08672558,
          0.07113941,
          -0.07130373,
          0.059989937,
          -0.07408198,
          -0.016881933,
          -0.09601394,
          -0.06587832,
          -0.097001456,
          -0.06513463,
          0.06682185,
          -0.02077609,
          0.057404183
        ],
        [
          -0.12497855,
          0.030097533,
          0.027832799,
          0.079447955,
          0.057948574,
          0.04524051,
          0.011032079,
          0.09463528,
          0.0022334554,
          -0.004215755,
          -0.0021344423,
          -0.03602973,
          -0.07752361,
          -0.09157618,
          -0.058262836,
          -0.09208025,
          -0.032542773,
          0.12305407,
          -0.05877521,
          0.05011928,
          0.07778567,
          -0.059738826,
          0.029674236,
          0.04877352,
          -0.114426,
          -0.036277574,
          0.09195672,
          -0.03963811,
          0.061852757,
          0.11256469,
          0.023701295,
          -0.054148197
        ],
        [
          0.022910524,
          0.068499334,
          0.054086234,
          0.11795063,
          -0.11682332,
          0.12844667,
          -0.052465986,
          0.042876244,
          0.055285126,
          -0.047332805,
          0.0815794,
          -0.010118217,
          0.009759291,
          -0.006182569,
          0.062146932,
          -0.10521531,
          0.026367063,
          -0.0604318,
          0.060836162,
          -0.043593056,
          0.017670238,
          -0.110351,
          -0.020843882,
          -0.04503566,
          -0.095065296,
          0.02771059,
          -0.088372245,
          -0.07841686,
          0.026812095,
          -0.06434492,
          0.017206114,
          -0.05960063
        ],
        [
          -0.10667914,
          0.002621926,
          -0.004481,
          0.07643172,
          0.035647877,
          0.013899546,
          0.052433316,
          -0.06354764,
          -0.051769704,
          0.07562366,
          -0.028792206,
          -0.10975596,
          -0.037738234,
          0.018846618,
          -0.10530977,
          0.008344538,
          0.0699533,
          -0.014040944,
          -0.057898186,
          0.004113282,
          -0.0996981,
          -0.11668069,
          -0.1033691,
          -0.0029474497,
          0.02448153,
          -0.099222325,
          0.12495005,
          -0.07050013,
          -0.009899469,
          -0.039649993,
          -0.1385534,
          -0.045849405
        ],
        [
          0.057568222,
          0.10704782,
          -0.023203142,
          0.029544534,
          -0.11780823,
          -0.005706609,
          -0.12345032,
          0.023773283,
          -0.08363238,
          0.08466494,
          -0.112002596,
          0.014916034,
          -0.048236795,
          0.02201921,
          0.094761044,
          -0.023147035,
          0.07245479,
          -0.013836742,
          0.07306557,
          -0.11900191,
          0.09193936,
          -0.14156231,
          0.008432196,
          -0.122428395,
          -0.07593238,
          -0.07744365,
          -0.07997747,
          0.06061361,
          -0.11308555,
          0.010055914,
          0.01579186,
          -0.103266485
        ],
        [
          -0.08172281,
          0.09612962,
          0.111399,
          0.056037087,
          0.03349986,
          0.043509375,
          -0.053454664,
          -0.058734667,
          -0.08395475,
          -0.0416541,
          0.10293718,
          -0.05165602,
          0.021673072,
          -0.08077266,
          -0.046849493,
          0.07022886,
          0.028095422,
          0.013776817,
          -0.10591134,
          -0.10912947,
          0.07166661,
          0.017802909,
          -0.041012235,
          -0.10267601,
          -0.022128051,
          0.01296969,
          0.096169844,
          -0.06973069,
          0.08531988,
          0.06908906,
          0.072459824,
          -0.092927255
        ],
        [
          -0.0042224075,
          -0.021017026,
          -0.07802402,
          -0.04507562,
          -0.10908259,
          0.08610895,
          -0.0025197293,
          0.026821673,
          0.0030804467,
          -0.036703635,
          0.07809159,
          -0.037126157,
          0.065944575,
          -0.10179969,
          -0.08809689,
          0.029447934,
          -0.020862224,
          0.014902287,
          -0.028118715,
          -0.030849708,
          0.06852932,
          -0.083937205,
          -0.011766521,
          0.021762142,
          -0.07605249,
          -0.039279725,
          -0.046949673,
          0.1011833,
          -0.016905189,
          -0.095308386,
          -0.0030563837,
          -0.017741922
        ],
        [
          0.012224654,
          0.012618419,
          -0.10370726,
          -0.14981337,
          0.08695004,
          -0.03507493,
          0.0644846,
          -0.06115082,
          -0.25751635,
          0.023593973,
          -0.08131549,
          0.03606856,
          0.07088728,
          -0.01829818,
          -0.032079984,
          -0.0740888,
          -0.082996085,
          0.13220584,
          -0.046846002,
          -0.03727645,
          0.1422842,
          -0.2990878,
          0.016212076,
          0.07669237,
          0.07059901,
          0.06316327,
          0.0076489453,
          0.009589703,
          0.005115345,
          0.031165164,
          0.018360449,
          -0.14248027
        ],
        [
          0.10822718,
          -0.027104257,
          -0.007455465,
          -0.13302723,
          -0.0035421094,
          -0.051655103,
          -0.20802075,
          -0.12503327,
          0.05872826,
          -0.092819646,
          0.061065063,
          -0.06513316,
          0.03737926,
          -0.016683564,
          0.06844325,
          0.14865662,
          0.11710584,
          -0.08451309,
          -0.14045057,
          -0.14577317,
          0.16772428,
          0.06503061,
          0.091993615,
          0.17467088,
          -0.007718916,
          -0.08587546,
          0.18764877,
          -0.11843678,
          0.059400167,
          -0.12745707,
          0.06996096,
          -0.044338953
        ],
        [
          0.00023243623,
          0.17462061,
          -0.076230444,
          0.13519539,
          -0.10568772,
          -0.082253605,
          0.042356692,
          0.50605655,
          0.093178734,
          0.0785615,
          -0.28475,
          0.0024730433,
          -0.05982481,
          0.15570936,
          -0.18764168,
          -0.2162197,
          0.012528459,
          -0.094406605,
          -0.10272008,
          0.05746682,
          -0.045131493,
          -0.50531036,
          -0.028308546,
          -0.08012548,
          -0.25858203,
          0.10235754,
          -0.023858821,
          0.10222325,
          0.0296577,
          0.2314603,
          0.053538356,
          0.013254297
        ],
        [
          0.060324352,
          -0.113812424,
          -0.15066911,
          -0.07933271,
          -0.070500866,
          -0.11176582,
          0.032944683,
          -0.053870864,
          0.15638663,
          0.015451172,
          0.034016613,
          -0.06994006,
          -0.005057833,
          0.05263251,
          0.0715565,
          0.120986745,
          -0.024012271,
          -0.037594426,
          -0.025602274,
          0.05525974,
          0.014666387,
          0.09403964,
          -0.011079528,
          -0.044583846,
          0.061877117,
          0.08020064,
          -0.1397266,
          -0.007959782,
          0.11267761,
          -0.109715715,
          0.13563575,
          0.03526197
        ],
        [
          -0.010597812,
          -0.13860731,
          0.009224118,
          0.034038376,
          0.1000122,
          0.0021140927,
          -0.030899424,
          -0.010361268,
          -0.033748023,
          -0.029107774,
          -0.081922315,
          -0.04727481,
          -0.03134916,
          0.064767376,
          -0.16035703,
          0.09161423,
          0.05369384,
          -0.011094652,
          0.043226987,
          0.11863733,
          -0.0123740835,
          -0.10771493,
          -0.022031432,
          0.08427468,
          -0.057834487,
          -0.090771735,
          0.033213336,
          0.02117453,
          0.052339368,
          0.18251453,
          0.11112927,
          0.06081177
        ],
        [
          0.054574616,
          -0.08564998,
          -0.042412356,
          0.09760813,
          0.09885534,
          -0.053846523,
          -0.075972326,
          -0.038605057,
          0.09860362,
          0.013390711,
          -0.08214899,
          -0.096958816,
          -0.06993878,
          -0.0053718355,
          -0.09358113,
          -0.10131104,
          -0.04255746,
          -0.004955176,
          -0.018762205,
          -0.043852866,
          -0.06015539,
          0.04730701,
          -0.05646328,
          -0.08934396,
          0.013562481,
          -0.10527125,
          0.05809731,
          -0.06515708,
          -0.099273846,
          0.00738157,
          -0.043243177,
          -0.050806593
        ],
        [
          -0.057262838,
          0.076359086,
          -0.07867923,
          -0.16976272,
          0.024616787,
          -0.014202221,
          0.111230634,
          -0.03188693,
          -0.019142715,
          0.11616366,
          0.08359636,
          0.037205186,
          -0.04661844,
          -0.058919422,
          0.009438096,
          -0.12187702,
          -0.02313715,
          -0.0031277754,
          0.080499515,
          0.1374109,
          0.07791567,
          -0.08204541,
          0.10834647,
          -0.038670182,
          0.18225828,
          -0.01984126,
          0.11631497,
          0.039679218,
          0.05116068,
          -0.051052608,
          -0.015461042,
          -0.044890035
        ],
        [
          -0.17333488,
          0.49294892,
          -0.32097444,
          -0.48433235,
          -0.66490227,
          0.20092244,
          0.34649852,
          0.78440475,
          -0.304753,
          -0.7626239,
          0.039097227,
          -0.63721496,
          0.14184369,
          -0.1553954,
          0.1839147,
          -0.35518527,
          -0.21652927,
          0.17541988,
          -0.22566973,
          -0.20678496,
          0.3493224,
          0.29870316,
          0.25054607,
          -0.09455043,
          -0.0970728,
          0.18825825,
          -0.42519373,
          -0.2125359,
          0.27832493,
          0.15167543,
          -0.5736422,
          -0.07344199
        ],
        [
          0.0009196992,
          -0.11692796,
          -0.018514078,
          -0.08829269,
          0.009715223,
          0.042057704,
          -0.083757095,
          -0.10405654,
          -0.006022573,
          -0.031142885,
          -0.07008685,
          0.00012285277,
          -0.012169185,
          0.16212212,
          0.060690988,
          -0.071608976,
          0.0998022,
          -0.12038276,
          -0.09973217,
          -0.058383584,
          -0.1090876,
          0.049432077,
          -0.07331093,
          -0.07904122,
          0.08377452,
          -0.06196074,
          -0.060450416,
          0.07339076,
          0.0060537187,
          0.04686837,
          0.034124747,
          -0.029036555
        ],
        [
          0.020397663,
          -0.026847044,
          -0.030784866,
          -0.05321172,
          -0.013530351,
          -0.053625222,
          0.050373312,
          0.03935102,
          -0.10356429,
          -0.04393806,
          0.061802465,
          0.07044962,
          -0.10686426,
          -0.09124907,
          0.05523821,
          -0.043231536,
          0.027599256,
          -0.108075686,
          0.036805186,
          -0.044976916,
          0.07953486,
          0.042831197,
          0.022117104,
          0.07477895,
          -0.066767074,
          -0.012975294,
          -0.079015836,
          -0.021930916,
          -0.10312872,
          -0.10563824,
          -0.021281077,
          0.0078488765
        ],
        [
          0.09886017,
          -0.097307466,
          0.032160055,
          -0.08834201,
          -0.06578746,
          -0.043847702,
          0.02319557,
          0.010361863,
          -0.054158077,
          -0.1571072,
          -0.011793438,
          0.020456504,
          -0.10462024,
          0.19951403,
          0.060785633,
          0.03968577,
          -0.14190894,
          -0.08670986,
          -0.14733931,
          -0.025528004,
          0.02927787,
          0.09440395,
          -0.05004392,
          0.013185689,
          -0.03005928,
          0.03891339,
          -0.040519904,
          0.02245323,
          0.05199442,
          0.058741778,
          -0.08463475,
          0.088577166
        ],
        [
          -0.0021892104,
          0.10740828,
          -0.08762572,
          -0.045044895,
          0.058767237,
          -0.06601176,
          0.025560303,
          0.011524654,
          -0.06227237,
          -0.09299992,
          0.019537145,
          -0.07069581,
          -0.009239449,
          -0.032118715,
          -0.076467395,
          0.024667189,
          -0.07446883,
          0.006015207,
          0.015101273,
          -0.10266046,
          0.033333138,
          -0.057706196,
          -0.09779951,
          0.087572835,
          0.106001355,
          0.10224609,
          0.0043875887,
          0.05126244,
          -0.081336744,
          0.036855515,
          -0.00710639,
          0.0029259163
        ],
        [
          0.105525136,
          -0.22552012,
          0.05341538,
          0.09515226,
          -0.005668369,
          -0.07844149,
          -0.14947873,
          -0.11406512,
          -0.12061666,
          -0.033337973,
          0.044724464,
          -0.06450263,
          0.013322372,
          0.1231946,
          -0.015464089,
          -0.06082219,
          -0.03282457,
          -0.057696275,
          -0.17991842,
          -0.020457845,
          -0.031307045,
          0.07333618,
          -0.06774339,
          0.122053355,
          -0.026728082,
          -0.027912866,
          -0.14136311,
          0.1345724,
          -0.09953137,
          -0.09091548,
          0.12570038,
          0.033246547
        ],
        [
          0.07462159,
          0.008673097,
          0.09117512,
          -0.054102838,
          -0.09530447,
          -0.003922731,
          0.036372934,
          -0.079490595,
          -0.042405948,
          -0.051313736,
          -0.099983335,
          0.017419055,
          -0.033318542,
          0.01454384,
          0.023615256,
          -0.02008781,
          0.09348961,
          -0.072368495,
          -0.067972794,
          0.105433844,
          0.06338774,
          -0.09953791,
          -0.10486968,
          -0.00095549296,
          0.05747239,
          -0.06332688,
          0.0013213198,
          -0.07086351,
          0.029743657,
          -0.006662949,
          0.08837525,
          -0.059360906
        ],
        [
          -0.054038495,
          -0.081515856,
          -0.052576933,
          0.06283245,
          0.014491086,
          -0.08871648,
          0.033198323,
          0.09886494,
          0.10869028,
          -0.08729777,
          -0.09833287,
          -0.09754385,
          0.038084924,
          -0.06844724,
          -0.090215504,
          0.025076773,
          0.030960882,
          0.07132576,
          0.12299197,
          0.07192129,
          -0.04366616,
          0.0466194,
          0.115131736,
          -0.053536102,
          0.011968551,
          0.010361449,
          0.023561541,
          -0.085507385,
          -0.048637178,
          -0.06890089,
          0.04715021,
          -0.021793835
        ],
        [
          0.021744698,
          -0.07117537,
          -0.025034232,
          -0.087994404,
          0.039641812,
          0.04294854,
          -0.08155533,
          -0.044232123,
          -0.046836257,
          -0.08178957,
          -0.03267419,
          -0.07367536,
          0.0015571301,
          -0.05527319,
          -0.018453602,
          0.09101738,
          -0.028382784,
          -0.07681842,
          -0.0009064848,
          0.01175837,
          -0.083342336,
          0.0002074377,
          -0.008143572,
          0.10971746,
          -0.07064855,
          -0.086847045,
          0.086847804,
          0.018481435,
          0.06000452,
          0.024908701,
          0.14458631,
          0.08819689
        ],
        [
          0.06507949,
          -0.05336896,
          -0.058693517,
          0.030477267,
          -0.011187615,
          0.017261839,
          0.046681494,
          0.012263825,
          0.078533135,
          0.091840595,
          0.10948658,
          0.058303814,
          0.034535233,
          -0.08575932,
          0.08952001,
          -0.019502051,
          -0.0721304,
          -0.114826396,
          -0.035926025,
          0.102924146,
          -0.09788666,
          -0.11430938,
          -0.0027134153,
          -0.04755567,
          0.07022587,
          -0.069339804,
          -0.09899587,
          -0.036461573,
          -0.08314242,
          -0.021229897,
          0.0089507,
          -0.0018043998
        ],
        [
          0.05981958,
          0.18088101,
          -0.063390896,
          -0.099512786,
          0.03460937,
          -0.09798199,
          -0.043200135,
          0.32055062,
          0.022101441,
          0.22069412,
          -0.05035811,
          0.019468402,
          0.22981222,
          -0.08915462,
          0.03509002,
          0.20690769,
          0.035556566,
          0.053974304,
          0.11584024,
          0.04735239,
          -0.014318529,
          0.23298651,
          0.07667015,
          0.20859477,
          0.013652155,
          0.038487576,
          0.07670298,
          0.13595986,
          0.12536494,
          -0.16362497,
          0.07636412,
          0.14219376
        ],
        [
          0.015933791,
          0.09162329,
          -0.08573383,
          0.053581815,
          0.057821658,
          -0.04438032,
          0.07550004,
          0.013783467,
          -0.20911363,
          -0.024480455,
          0.11243437,
          0.0032064386,
          0.09588906,
          -0.09785608,
          -0.058758765,
          -0.006326129,
          -0.016501112,
          -0.019770505,
          -0.048115473,
          -0.08213612,
          0.027809761,
          -0.056589317,
          0.0458156,
          0.02795804,
          -0.013813513,
          -0.0938586,
          0.07321115,
          0.007725315,
          -0.057762474,
          0.029091323,
          -0.054901358,
          0.019485079
        ],
        [
          0.012689258,
          -0.00022604907,
          -0.08053454,
          -0.021433951,
          0.05776552,
          0.07360021,
          -0.046081867,
          -0.035437234,
          -0.08878013,
          -0.11934568,
          0.06272201,
          -0.029451067,
          0.12508176,
          -0.072923966,
          -0.012498799,
          -0.09697834,
          0.009953344,
          -0.06931601,
          0.09152807,
          -0.080121934,
          -0.046499617,
          0.04237643,
          -0.03876947,
          0.040798288,
          -0.00056415907,
          -0.045609303,
          0.055387605,
          0.01803798,
          -0.070712365,
          0.12123392,
          0.053493224,
          -0.027848046
        ],
        [
          0.006588629,
          -0.09653094,
          -0.011069494,
          -0.10634485,
          0.050832547,
          -0.14123112,
          0.048190366,
          -0.05781907,
          0.041245356,
          -0.02361266,
          -0.029978724,
          -0.10441418,
          0.055499986,
          0.009203667,
          -0.07833251,
          0.059594516,
          0.06464244,
          0.056948267,
          0.09789031,
          0.0730785,
          -0.033230476,
          -0.007129542,
          -0.084926546,
          0.12665486,
          -0.05358681,
          0.05361494,
          -0.12548783,
          0.0055005816,
          0.02276272,
          -0.116249956,
          0.0048199357,
          0.006189835
        ],
        [
          -0.07148716,
          -0.10018382,
          -0.04630823,
          -0.11017175,
          0.054105163,
          -0.031946104,
          -0.09401295,
          -0.092759535,
          0.0946385,
          -0.0071644387,
          0.094665736,
          0.013379696,
          0.041822962,
          -0.008087054,
          0.090651125,
          0.0034312867,
          -0.0354459,
          -0.052803718,
          -0.040127024,
          0.122030094,
          -0.020087505,
          0.120829076,
          -0.048309922,
          0.11482792,
          0.05178012,
          0.01395496,
          0.025791187,
          -0.041448668,
          0.13247417,
          -0.10100842,
          0.1125473,
          0.04064101
        ],
        [
          -0.06760194,
          -0.04493697,
          0.054660283,
          -0.09619977,
          0.08191431,
          0.050636258,
          0.05348257,
          0.09506676,
          0.068929546,
          0.120890334,
          -0.024175586,
          0.07425114,
          0.07144613,
          0.13271621,
          0.024244215,
          -0.055814676,
          -0.10326611,
          0.037526783,
          -0.099625625,
          0.11741647,
          -0.045909926,
          0.09741611,
          0.065192565,
          0.10089877,
          0.036000296,
          -0.091288574,
          -0.074982025,
          0.06626495,
          0.12715627,
          -0.120205574,
          -0.054989386,
          0.015575637
        ],
        [
          -0.082754165,
          0.10194786,
          -0.041828323,
          -0.06395224,
          -0.05751242,
          -0.17935896,
          -0.043175798,
          -0.065900266,
          0.14110786,
          0.10028034,
          -0.048154775,
          0.09666207,
          0.033925988,
          -0.00236723,
          0.05952901,
          -0.021555018,
          0.09705493,
          -0.022378474,
          0.013136444,
          -0.030346949,
          0.044444274,
          0.0312139,
          -0.03793602,
          -0.0045157573,
          0.05623166,
          -0.031149032,
          0.09379182,
          -0.103847854,
          0.09120481,
          -0.057542987,
          -0.022325557,
          -0.06528929
        ],
        [
          0.090835795,
          -0.019936385,
          0.057923324,
          -0.04100277,
          0.0928501,
          -0.14267008,
          -0.03382686,
          -0.00050066534,
          -0.037234772,
          0.0603656,
          -0.09424712,
          0.15166388,
          -0.02442451,
          0.039006077,
          -0.13352753,
          0.16396327,
          0.01552483,
          -0.039397743,
          -0.19920106,
          -0.05275495,
          0.05660997,
          -0.16117106,
          -0.11987838,
          -0.053007584,
          -0.091511644,
          -0.0074430956,
          -0.029642506,
          0.095487244,
          -0.0037884256,
          0.026913699,
          -0.03862867,
          0.028932784
        ],
        [
          -0.10265878,
          -0.06346078,
          -0.0701021,
          0.106830224,
          0.07752184,
          0.048176702,
          -0.09423789,
          0.0016858856,
          0.021513915,
          -0.015376364,
          -0.0021831654,
          0.061865844,
          0.08678614,
          0.019186154,
          -0.06103768,
          0.02142803,
          0.022972262,
          0.0816636,
          0.0039352067,
          0.057670906,
          -0.02886683,
          -0.03677564,
          0.008977804,
          -0.021510495,
          0.011194054,
          -0.06406722,
          0.011932637,
          0.10274076,
          -0.009636233,
          0.033487998,
          0.010335191,
          0.104761265
        ],
        [
          -0.059912648,
          0.07474775,
          -0.08636378,
          0.008984853,
          -0.094464794,
          -0.08006401,
          0.15741119,
          0.026161416,
          -0.15436643,
          -0.060135014,
          0.042976495,
          0.058953322,
          -0.08574368,
          0.046177164,
          -0.111276284,
          -0.03735408,
          -0.09069359,
          0.06733173,
          -0.13097373,
          -0.04806414,
          0.041653704,
          0.014913025,
          -0.031002128,
          -0.024951603,
          -0.053055618,
          0.0104722325,
          -0.036821514,
          -0.027520081,
          0.062432636,
          0.08529661,
          0.009965725,
          -0.062139668
        ],
        [
          -0.1387832,
          0.012618908,
          0.020209672,
          -0.09893772,
          -0.068718135,
          0.061168414,
          0.0047407905,
          0.07166575,
          -0.07966611,
          -0.044120967,
          0.04621358,
          -0.07565314,
          -0.07948233,
          -0.026564755,
          -0.002406731,
          0.04372562,
          -0.053866353,
          -0.08020444,
          0.10800001,
          -0.024069304,
          0.039005492,
          0.01793907,
          -0.047126394,
          -0.060264666,
          0.08489772,
          0.044689104,
          -0.057938695,
          -0.095260985,
          0.08805977,
          0.10600992,
          -0.06622984,
          0.009089927
        ],
        [
          -0.07372695,
          0.19510877,
          0.026680727,
          -0.06621105,
          0.053034544,
          0.14151894,
          0.15259247,
          -0.10876557,
          -0.17317349,
          -0.00754279,
          -0.03596246,
          -0.045810133,
          0.012549134,
          -0.15715697,
          -0.052402392,
          0.03419949,
          0.033894684,
          0.041232497,
          0.03444732,
          -0.029270036,
          -0.053049356,
          0.060806997,
          -0.08239701,
          0.071637705,
          -0.04870798,
          -0.03507706,
          0.005185158,
          0.011036591,
          0.02747095,
          -0.043901704,
          -0.09727367,
          -0.085408114
        ],
        [
          -0.110887714,
          0.05179409,
          -0.059131864,
          -0.07555255,
          -0.03172173,
          0.009043634,
          0.17541353,
          0.08284318,
          -0.18698117,
          -0.19046256,
          0.031647187,
          -0.11320787,
          0.008625961,
          -0.13202256,
          0.014116359,
          -0.007115784,
          0.05806286,
          0.13149865,
          -0.003405155,
          -0.08647309,
          -0.012939556,
          0.12008229,
          -0.090115204,
          0.12531415,
          0.011404879,
          0.08425779,
          -0.06427772,
          0.028039807,
          0.05899238,
          -0.08243393,
          -0.045400985,
          -0.03635803
        ],
        [
          -0.09399227,
          -0.08431241,
          -0.068826266,
          -0.047237247,
          -0.112635046,
          0.07643709,
          0.05944606,
          0.03493076,
          0.14485511,
          -0.20774111,
          0.017026242,
          0.0028883105,
          0.07982836,
          0.054483104,
          -0.06548319,
          -0.012562913,
          0.091295265,
          0.039776184,
          -0.04303643,
          -0.0827097,
          0.124699466,
          0.04070678,
          0.08801982,
          -0.013065289,
          -0.09386655,
          0.00563529,
          0.09265472,
          0.067344524,
          -0.021983715,
          -0.021394204,
          -0.031186748,
          0.010019123
        ],
        [
          0.07902836,
          -0.26320216,
          -0.026010396,
          0.12487125,
          0.019937083,
          0.08210219,
          -0.10226943,
          0.17451628,
          0.2596223,
          -0.0038197332,
          -0.07840912,
          0.1318113,
          -0.07791292,
          -0.023788499,
          -0.0588496,
          0.19472516,
          -0.017985435,
          0.03412162,
          -0.05070512,
          -0.096907794,
          0.0036095928,
          -0.015654152,
          0.105499566,
          0.10080571,
          -0.05864218,
          0.03586309,
          0.026647003,
          0.01042244,
          -0.10591279,
          -0.041118324,
          0.012378855,
          -0.067109466
        ],
        [
          0.043681808,
          0.1685392,
          0.121001005,
          -0.078336425,
          -0.1285355,
          0.14969362,
          -0.054847136,
          0.042799532,
          -0.07221951,
          -0.01802117,
          -0.09244175,
          0.017664166,
          -0.0038335635,
          -0.106400155,
          -0.020091448,
          -0.02662029,
          0.08710216,
          -0.056470696,
          0.0062054466,
          -0.051424757,
          0.09418951,
          0.090783976,
          -0.0149565935,
          -0.07269461,
          -0.019041589,
          0.049401637,
          -0.0057949736,
          0.08937318,
          0.1027936,
          0.083605185,
          -0.024358992,
          0.058607094
        ],
        [
          0.05388712,
          -0.05965398,
          -0.03616337,
          -0.041020997,
          0.06619656,
          -0.048173096,
          -0.071611784,
          0.10163352,
          -0.06317475,
          0.016790662,
          -0.005331286,
          -0.046162795,
          -0.059791952,
          0.020934777,
          -0.037448622,
          0.099092305,
          -0.08301958,
          0.05641382,
          -0.013228611,
          -0.12745607,
          -0.11272521,
          -0.09645828,
          -0.0807876,
          0.014593596,
          0.039323248,
          -0.1209769,
          0.10118718,
          0.113516204,
          -0.09027386,
          0.061986316,
          -0.0416068,
          0.061013624
        ],
        [
          -0.06028519,
          -0.012474006,
          0.10269928,
          0.09109131,
          0.04923831,
          0.075675786,
          -0.07491378,
          0.014177384,
          -0.07448424,
          -0.004771083,
          -0.06625758,
          0.06780844,
          -0.0971444,
          -0.024519475,
          0.10018334,
          -0.07395026,
          0.0029560956,
          0.05072702,
          -0.05703248,
          -0.03017114,
          0.014533807,
          0.063158356,
          -0.05975413,
          -0.033397928,
          -0.07184177,
          -0.0040124566,
          -0.05968782,
          0.033741064,
          -0.0044815196,
          0.0020561053,
          -0.023069251,
          -0.12692326
        ],
        [
          0.04676215,
          0.08613579,
          -0.08835529,
          -0.02787791,
          0.0049937684,
          0.12344636,
          0.069819815,
          -0.0031415517,
          -0.040967166,
          0.035403218,
          -0.020968253,
          0.05430055,
          0.06325386,
          -0.08768406,
          -0.07812014,
          0.088731326,
          0.114404604,
          -0.07235938,
          -0.09914979,
          -0.15288451,
          -0.055535126,
          0.08715377,
          -0.011021804,
          -0.07867945,
          -0.037607424,
          -0.059064317,
          0.10574793,
          -0.028531862,
          -0.10123401,
          -0.06682133,
          -0.13153863,
          -0.07219347
        ],
        [
          -0.100263864,
          0.06635537,
          -0.0025672459,
          0.057817232,
          -0.11464106,
          0.12870044,
          -0.02237056,
          -0.0098367715,
          0.033855993,
          -0.083412275,
          0.0705595,
          -0.07020646,
          -0.0862929,
          -0.040010273,
          0.006141079,
          -0.04923321,
          0.011957315,
          0.07577107,
          -0.06960126,
          -0.12062892,
          0.036367968,
          -0.024737878,
          -0.05543583,
          0.07255218,
          0.08329669,
          0.029276162,
          0.07435943,
          -0.06146784,
          -0.059392516,
          0.0062572635,
          0.060908936,
          0.08368584
        ],
        [
          0.018021064,
          0.008149795,
          0.057490673,
          0.05390085,
          0.022464287,
          0.08479616,
          0.06758592,
          0.056943983,
          -0.10792817,
          0.03473356,
          0.0125699295,
          -0.098110214,
          -0.087692745,
          0.08702751,
          -0.087465316,
          0.04398996,
          0.033500075,
          0.056510933,
          0.0851604,
          -0.1331466,
          -0.046114244,
          0.00059692067,
          0.012890605,
          -0.055693835,
          -0.087782875,
          -0.021772005,
          -0.01499067,
          -0.041958235,
          0.059055623,
          -0.07815481,
          0.057648167,
          0.088914745
        ],
        [
          0.115738615,
          -0.022293948,
          -0.058840547,
          -0.18979478,
          -0.08071407,
          -0.052243408,
          0.024355209,
          -0.029515516,
          0.044652358,
          -0.08394873,
          -0.10050443,
          -0.116376,
          0.107269295,
          0.030022068,
          -0.008401815,
          0.015702544,
          -0.08333073,
          0.022379113,
          -0.13390113,
          0.08282052,
          -0.015163851,
          0.05145306,
          -0.11976379,
          0.07651421,
          0.008383543,
          0.12551466,
          -0.025048174,
          -0.057953186,
          0.12723966,
          -0.029047977,
          -0.010024157,
          0.11302733
        ],
        [
          -0.05050941,
          0.20004456,
          -0.074243896,
          -0.03527271,
          0.107347436,
          0.09731661,
          0.080921814,
          0.10074344,
          -0.17240417,
          -0.056618024,
          -0.090656936,
          -0.033401918,
          0.117119476,
          -0.006234418,
          -0.022976706,
          -0.09091954,
          -0.0169582,
          -0.022334654,
          0.062444746,
          0.008929788,
          0.04210314,
          -0.19405822,
          -0.022931054,
          -0.12154238,
          -0.011933166,
          0.0665106,
          -0.056676615,
          0.064099796,
          0.042370584,
          -0.12264392,
          -0.06196633,
          -0.00292602
        ],
        [
          -0.016737577,
          -0.02951301,
          0.08777048,
          -0.13753088,
          0.080088325,
          0.07517066,
          0.1464177,
          -0.18224588,
          -0.09026264,
          -0.044793885,
          0.008893209,
          -0.024117481,
          0.055829227,
          0.025301754,
          0.13954128,
          -0.0070294742,
          -0.04439683,
          0.053428397,
          0.027358176,
          -0.01721036,
          0.05531334,
          -0.06921729,
          -0.062970854,
          0.1099519,
          0.15570027,
          0.04198603,
          -0.08521483,
          -0.06150146,
          0.07328878,
          0.084758565,
          0.08712582,
          0.048904534
        ],
        [
          0.05552951,
          0.07940979,
          0.028734049,
          0.0019169789,
          -0.001663786,
          0.06568994,
          0.046355736,
          0.05969431,
          -0.21570352,
          -0.14973028,
          0.096145056,
          0.03767405,
          -0.054742724,
          0.055618595,
          -0.07308472,
          -0.049573425,
          -0.02338338,
          -0.038811907,
          -0.04865953,
          -0.05855826,
          -0.003514618,
          0.18685973,
          0.06784083,
          0.061264478,
          0.029294763,
          0.13452148,
          0.034193054,
          0.044328466,
          -0.028350106,
          -0.057218235,
          0.06336815,
          0.02626613
        ],
        [
          -0.067242414,
          0.1422757,
          0.063770615,
          -0.121553235,
          -0.01604283,
          0.060947325,
          0.27519277,
          0.031985927,
          -0.22326957,
          -0.16535164,
          -0.0052711046,
          -0.08847987,
          0.07712058,
          0.06380006,
          -0.058916356,
          -0.07890382,
          -0.18619587,
          -0.05547977,
          0.10032909,
          0.1646905,
          0.08681541,
          0.049098253,
          -0.008488454,
          0.0224337,
          0.07562591,
          -0.03758971,
          -0.09820833,
          0.05329376,
          -0.021668877,
          0.02938672,
          0.09491812,
          -0.110495515
        ],
        [
          0.13381492,
          -0.04633144,
          0.00466119,
          0.02825007,
          0.085967354,
          0.10238563,
          0.03596798,
          0.029698323,
          0.03810421,
          0.10575914,
          -0.025626048,
          0.029379249,
          0.1869404,
          -0.07006297,
          0.071305126,
          0.10091001,
          0.073803425,
          0.084631965,
          -0.12366273,
          0.029385474,
          0.007964378,
          0.07549992,
          -0.10736796,
          0.12675774,
          0.0013062139,
          -0.03469607,
          0.050456557,
          -0.027775424,
          0.15283287,
          -0.1390605,
          -0.14063287,
          -0.07190286
        ],
        [
          -0.015740829,
          0.19013514,
          0.01736601,
          0.21143876,
          0.07410279,
          -0.14055906,
          0.15343301,
          0.15539788,
          -0.2135417,
          -0.069355175,
          0.01238946,
          0.06272973,
          0.013004351,
          0.0008590423,
          -0.040511046,
          -0.19350705,
          0.0034272934,
          0.24960685,
          -0.11447607,
          -0.028784474,
          0.013544561,
          0.16032024,
          0.06582203,
          0.26209378,
          -0.16845101,
          -0.112417795,
          0.31669968,
          0.19970644,
          0.06783678,
          0.24106084,
          0.08541977,
          0.06959052
        ],
        [
          -0.116610326,
          0.3020995,
          0.0563198,
          0.0822525,
          0.09565771,
          -0.13137218,
          0.26645455,
          0.12411005,
          -0.13931635,
          0.01852333,
          0.069008455,
          0.16443323,
          -0.0012075354,
          -0.11814979,
          0.035755403,
          -0.1384659,
          -0.051644374,
          0.03772212,
          0.11906193,
          -0.07041753,
          -0.07392457,
          -0.10195823,
          -0.09313327,
          -0.15046635,
          0.07865344,
          -0.017305767,
          -0.16033795,
          -0.09203865,
          -0.031728737,
          0.085541114,
          -0.09498909,
          -0.1871863
        ],
        [
          0.08397284,
          0.15866384,
          0.03912424,
          0.031859577,
          -0.05186237,
          -0.1083714,
          -0.0034388874,
          0.024808036,
          -0.08888786,
          0.0487299,
          -0.014076992,
          -0.09215804,
          0.04538837,
          -0.039116118,
          0.13294955,
          -0.11798867,
          0.06461479,
          0.0686701,
          -0.05200406,
          0.10333318,
          -0.04363764,
          0.040739994,
          0.0906703,
          -0.013517557,
          0.08741583,
          -0.043665085,
          0.12935455,
          -0.057493676,
          0.00684091,
          0.053723335,
          0.031008221,
          -0.009572127
        ],
        [
          -0.06009062,
          0.04925734,
          0.031076316,
          0.108772926,
          0.0039046372,
          -0.091867,
          0.03409175,
          -0.10431587,
          0.08679738,
          -0.15549918,
          -0.007883874,
          0.004633417,
          0.058272015,
          0.07247511,
          0.06015972,
          0.048673354,
          0.07286494,
          -0.054390628,
          -0.03910704,
          0.0034615211,
          0.037437208,
          -0.17725816,
          -0.042733423,
          -0.16043973,
          0.031397473,
          0.10105792,
          -0.0661506,
          -0.03137366,
          -0.02964642,
          -0.047610667,
          -0.08071398,
          0.076475285
        ],
        [
          0.014330844,
          0.05289314,
          -0.052176468,
          0.058021963,
          -0.04421798,
          -0.12557574,
          -0.042017907,
          0.046988633,
          0.025679473,
          -0.035201427,
          -0.045930184,
          -0.040545803,
          0.009659987,
          -0.011092987,
          -0.0536781,
          -0.01125036,
          0.06868958,
          -0.15835172,
          0.028866548,
          0.055966143,
          -0.10517005,
          -0.12240471,
          0.02698539,
          0.040844504,
          -0.045819286,
          0.10272076,
          -0.13959844,
          -0.11020714,
          0.02603468,
          -0.009550247,
          0.0024754058,
          0.13477793
        ],
        [
          0.04133149,
          0.099166065,
          0.035785366,
          0.039653562,
          0.093050994,
          -0.030522278,
          0.1135678,
          -0.034172494,
          0.05055599,
          0.031858344,
          0.032108862,
          0.049986165,
          0.082860455,
          0.01169978,
          -0.16127047,
          0.03754866,
          -0.0033992247,
          -0.1315778,
          -0.023122145,
          0.10521098,
          -0.034488082,
          0.012962931,
          -0.019454723,
          0.0050916346,
          -0.031741288,
          0.103633575,
          -0.04769772,
          -0.11833369,
          -0.024530888,
          0.18226539,
          0.098826356,
          -0.06720858
        ],
        [
          0.006308144,
          0.036872838,
          -0.044591337,
          0.049408145,
          0.10981028,
          -0.18102583,
          -0.04658383,
          -0.11581507,
          0.08301018,
          -0.042056732,
          -0.019365298,
          -0.014827437,
          -0.031110803,
          -0.010391306,
          -0.075001284,
          0.08926913,
          0.0769824,
          -0.042288087,
          -0.015183652,
          0.0038365321,
          -0.13834347,
          0.000483713,
          -0.1638715,
          0.025880203,
          -0.13621281,
          0.031736642,
          0.10372709,
          -0.064965904,
          0.01753632,
          0.06971378,
          0.03053993,
          0.10962219
        ],
        [
          -0.0019037466,
          -0.06186194,
          0.017122773,
          -0.01854103,
          0.03446808,
          -0.037356876,
          -0.027706873,
          0.058773108,
          0.0947674,
          0.012349245,
          -0.09339031,
          -0.042309083,
          -0.097152665,
          -0.0068304026,
          -0.03800232,
          0.055028815,
          -0.09365994,
          0.04800011,
          0.023332726,
          0.08432162,
          -0.056805052,
          0.021930547,
          0.07885836,
          0.09603706,
          0.000540168,
          0.06454507,
          0.06411603,
          0.11139871,
          0.03739837,
          -0.03732214,
          0.0076577575,
          -0.10393055
        ],
        [
          0.3299899,
          -0.08991981,
          -0.10307922,
          0.0011534501,
          -0.12385601,
          -0.08357266,
          -0.57014906,
          0.17318922,
          0.49060702,
          -0.10041262,
          0.082300946,
          0.08549184,
          0.03089575,
          -0.085528664,
          -0.08158749,
          0.10712596,
          -0.30258834,
          -0.12272622,
          -0.12557565,
          -0.02121218,
          0.040989496,
          0.083525114,
          0.026815202,
          -0.13389847,
          -0.025407298,
          -0.05863405,
          0.13874656,
          0.09677232,
          0.0073368205,
          0.02599516,
          0.11998169,
          0.028035823
        ],
        [
          -0.097065546,
          0.14460659,
          -0.049290694,
          -0.008642663,
          0.13340284,
          -0.12338472,
          0.10613015,
          0.28350535,
          -0.010271769,
          -0.0627075,
          -0.09333874,
          -0.024426091,
          0.1400336,
          -0.078662224,
          0.041718084,
          -0.009700731,
          -0.14055783,
          -0.044844944,
          0.1769374,
          0.10546927,
          -0.046831727,
          -0.086300924,
          0.0659842,
          -0.030760037,
          -0.01979244,
          -0.028923763,
          -0.11961003,
          -0.049649894,
          -0.0011723249,
          0.13744289,
          -0.07448162,
          -0.10365588
        ],
        [
          -0.22814345,
          0.26056203,
          0.10669615,
          -0.121150404,
          0.10194872,
          0.043546356,
          0.5599095,
          0.13377783,
          -0.18144049,
          -0.20891841,
          0.07299108,
          0.016972035,
          0.119501874,
          -0.03732969,
          0.024130024,
          -0.025792047,
          -0.3252563,
          -0.23502445,
          0.025710244,
          0.17945133,
          -0.13412465,
          -0.055938594,
          -0.024763348,
          0.07006763,
          -0.05262903,
          0.043431975,
          0.051917315,
          0.048539646,
          0.12691896,
          -0.15774761,
          0.09863346,
          0.029206539
        ],
        [
          -0.3397152,
          0.07382788,
          0.124683686,
          0.06607385,
          -0.2297127,
          0.09264053,
          0.27682912,
          0.01049005,
          0.1291845,
          0.29826888,
          0.059027206,
          -0.0790819,
          0.0017294537,
          -0.17739104,
          0.007856881,
          0.15013908,
          -0.009844567,
          -0.14080496,
          0.16664362,
          -0.018349173,
          0.014779539,
          0.5519099,
          0.19081125,
          -0.009267863,
          0.094147,
          0.05855253,
          0.31670743,
          0.06861039,
          0.01700183,
          0.17948392,
          0.0672286,
          0.106350094
        ],
        [
          0.26116687,
          0.050735984,
          -0.2572845,
          -0.5241833,
          -0.37223858,
          0.1982114,
          0.12312509,
          -0.22141182,
          0.15458973,
          -0.21214642,
          0.3775607,
          -0.34844846,
          -0.13648891,
          -0.33894053,
          0.24803217,
          0.0049027586,
          -0.12505114,
          0.2132124,
          -0.09165154,
          -0.13980542,
          0.010855737,
          0.15453823,
          0.14557132,
          -0.16622262,
          0.5505877,
          -0.025244907,
          -0.16255936,
          0.046825197,
          0.38661766,
          0.25299904,
          -0.12053753,
          -0.26672965
        ],
        [
          -0.095427416,
          -0.008588055,
          -0.059444632,
          0.012863039,
          0.11013169,
          -0.008567266,
          -0.079851486,
          -0.03361507,
          0.054113984,
          0.047797807,
          0.059134614,
          -0.00010495352,
          0.048958693,
          -0.08058256,
          0.09424501,
          0.04242291,
          0.0751484,
          0.07615759,
          -0.00809888,
          -0.05598517,
          0.038828798,
          0.08326034,
          -0.08820115,
          0.05968631,
          0.0504527,
          -0.09720444,
          -0.10663761,
          0.11151185,
          -0.04811852,
          0.089759685,
          0.022508817,
          -0.024502078
        ],
        [
          0.073404916,
          -0.092228286,
          0.02930534,
          -0.04127818,
          -0.08187818,
          -0.12831399,
          -0.027729813,
          -0.093195625,
          0.1517637,
          0.08197933,
          0.14128709,
          0.105810605,
          -0.15016635,
          0.17586054,
          -0.09711946,
          0.08863999,
          -0.06754362,
          -0.021405581,
          0.0716551,
          0.15981603,
          0.07115158,
          0.06992586,
          -0.1140448,
          -0.043234725,
          -0.0048348615,
          -0.103249185,
          -0.07501102,
          0.09469396,
          0.07782936,
          0.10675113,
          0.009507698,
          0.018184248
        ],
        [
          -0.053244434,
          -0.08615719,
          -0.09474857,
          -0.10855665,
          -0.04276727,
          -0.13577175,
          0.05094899,
          0.029211363,
          0.056059193,
          0.17485535,
          -0.01793355,
          0.07364124,
          -0.05909475,
          0.06323441,
          -0.036940146,
          -0.053520896,
          0.06356184,
          -0.032862436,
          0.030075623,
          0.05306419,
          -0.010603991,
          0.044458073,
          0.08191359,
          0.06749613,
          0.03535943,
          0.006503817,
          -0.078756355,
          -0.1142181,
          -0.013403105,
          0.020521833,
          0.0875292,
          -0.031320397
        ],
        [
          -0.03667902,
          -0.23304974,
          0.065542534,
          -0.044807214,
          -0.073575005,
          -0.1371992,
          -0.17848463,
          -0.04735696,
          -0.008360188,
          0.07582747,
          -0.013752666,
          -0.034432977,
          0.097103186,
          -0.04372745,
          -0.1272191,
          -0.014304561,
          0.21048589,
          0.04532699,
          -0.029084196,
          0.038335796,
          0.022860913,
          -0.0140258465,
          -0.0079120435,
          -0.0017258802,
          -0.09483017,
          -0.06694434,
          0.021040084,
          -0.11900447,
          -0.06653384,
          0.07756155,
          -0.042202167,
          -0.0010050172
        ],
        [
          0.05231727,
          0.079333596,
          -0.039427277,
          -0.09562578,
          0.047889516,
          -0.09254257,
          -0.08795511,
          -0.1033776,
          -0.039996997,
          -0.030947173,
          -0.014281847,
          0.052760657,
          -0.0015637751,
          0.13111365,
          0.02133454,
          0.20645346,
          -0.08139672,
          -0.0341113,
          0.025352187,
          0.10057969,
          -0.119961254,
          0.03812396,
          -0.09333242,
          0.32164583,
          -0.09313246,
          -0.059076283,
          0.0704659,
          -0.12509447,
          -0.07770488,
          -0.09961378,
          0.25106892,
          0.08882769
        ],
        [
          0.005580765,
          -0.3221157,
          0.11876865,
          0.07483382,
          0.05253893,
          0.29385477,
          0.17427842,
          0.31411916,
          0.00173006,
          -0.04162138,
          -0.11740075,
          0.011533183,
          -0.14543137,
          0.14287764,
          0.058896348,
          0.22297333,
          0.14246076,
          0.0037035416,
          -0.16460244,
          -0.11978419,
          -0.17378601,
          -0.19502285,
          0.05157964,
          -0.006301843,
          0.017451974,
          0.030369906,
          -0.13729687,
          0.11752946,
          -0.12804902,
          0.052436203,
          0.07411853,
          -0.018673062
        ],
        [
          -0.046271686,
          -0.012372148,
          0.093823664,
          0.06022492,
          0.019732138,
          0.061404634,
          0.109007135,
          -0.06905724,
          -0.07815368,
          -0.07486783,
          0.06293523,
          0.057965685,
          -0.070092365,
          -0.03640784,
          -0.02318914,
          -0.010304406,
          -0.017887492,
          0.10296063,
          0.08092161,
          0.08776777,
          0.082575805,
          -0.050932862,
          -0.052187044,
          -0.070224814,
          -0.08069276,
          0.073869,
          0.10091521,
          -0.03169026,
          0.10005085,
          0.09854091,
          0.008189571,
          -0.045812536
        ],
        [
          0.015677262,
          0.047223043,
          0.048589002,
          -0.070670225,
          -0.11277692,
          -0.09838352,
          0.028041804,
          -0.11048947,
          -0.119139045,
          -0.12009817,
          -0.04746546,
          -0.09334697,
          0.054004744,
          0.10535892,
          0.12249284,
          -0.11353996,
          0.09056066,
          -0.11338069,
          0.07165815,
          -0.014242932,
          0.02882491,
          0.14553574,
          -0.042903963,
          0.14699191,
          -0.077020064,
          -0.064915985,
          -0.099549845,
          -0.10926569,
          0.100488074,
          -0.010023751,
          0.10805764,
          -0.015039089
        ],
        [
          0.15903507,
          -0.13513364,
          0.05532266,
          -0.008223935,
          -0.0070822844,
          -0.07174714,
          0.12588891,
          0.02275611,
          0.23294725,
          -0.07743463,
          0.035793614,
          0.08042678,
          -0.031791978,
          0.23732848,
          -0.05293242,
          0.07668359,
          0.06484075,
          0.0072563295,
          0.1263328,
          0.0032846893,
          -0.04709564,
          0.056574084,
          0.08849774,
          -0.072722495,
          -0.077530004,
          0.005902237,
          0.11154091,
          -0.09891407,
          -0.030000402,
          -0.06621459,
          -0.1125591,
          0.16753727
        ],
        [
          0.052339047,
          -0.17727369,
          0.0979383,
          -0.03276184,
          -0.024377918,
          0.036898833,
          -0.060507495,
          -0.122838475,
          0.09842972,
          -0.03952785,
          0.0045522847,
          0.06887834,
          0.09128856,
          -0.06350893,
          -0.038720578,
          0.16606978,
          -0.004770512,
          0.064576074,
          -0.046616193,
          0.084606715,
          -0.095004715,
          0.013861283,
          -0.08402512,
          0.067185156,
          -0.0710893,
          -0.029417079,
          -0.028417513,
          -0.015429656,
          -0.066217676,
          -0.055154584,
          0.012835552,
          -0.0011229358
        ],
        [
          0.11140218,
          -0.10112744,
          0.047371194,
          0.04656065,
          -0.09876264,
          -0.055597946,
          -0.07641208,
          0.013237815,
          0.10294757,
          -0.007324146,
          0.07901718,
          0.0008858633,
          -0.16805914,
          0.07377115,
          0.056907304,
          0.008629116,
          -0.31540084,
          0.04858405,
          -0.04590665,
          0.011221512,
          -0.12565486,
          -0.058484685,
          0.04665613,
          -0.006989304,
          -0.13297176,
          -0.0062685935,
          -0.08023658,
          -0.029557796,
          0.018223897,
          -0.09508553,
          0.093709625,
          0.058107488
        ],
        [
          0.030744353,
          0.08375316,
          -0.036985178,
          -0.0658446,
          -0.008323333,
          -0.168465,
          -0.0070175054,
          -0.020635841,
          -0.1713135,
          0.0026036846,
          -0.03263971,
          0.04146842,
          -0.087955035,
          -0.0237802,
          0.05303814,
          0.0720994,
          -0.032214478,
          -0.09816737,
          -0.09686876,
          -0.039745733,
          0.03525006,
          -0.23657678,
          0.03704959,
          0.087108605,
          -0.047327925,
          0.092473544,
          -0.015949225,
          -0.10582113,
          -0.119322166,
          0.12599772,
          0.011357993,
          -0.03903119
        ],
        [
          0.051629458,
          -0.16629334,
          0.04618666,
          -0.07790176,
          -0.026966283,
          -0.075965405,
          -0.118531965,
          -0.045484252,
          0.086603425,
          -0.066252954,
          -0.07361192,
          -0.04699206,
          0.10703735,
          0.008191458,
          -0.018317036,
          -0.069772035,
          -0.07703547,
          0.046608582,
          -0.052689888,
          -0.043805636,
          -0.094010524,
          0.07075508,
          0.005029045,
          0.0298191,
          0.006295052,
          -0.018516926,
          -0.027065499,
          0.09710666,
          -0.10055328,
          -0.030734459,
          0.049678374,
          0.008618076
        ],
        [
          0.18126962,
          0.028024899,
          0.012267335,
          -0.07657614,
          -0.03932742,
          0.029210962,
          0.024833227,
          0.08602545,
          -0.07766229,
          -0.10383851,
          -0.079674594,
          0.09251597,
          -0.025643343,
          0.027985591,
          0.06779955,
          0.18980438,
          -0.25166127,
          0.035630688,
          -0.018991634,
          0.12110687,
          -0.088121265,
          0.010191446,
          -0.051905412,
          0.17712158,
          -0.11611102,
          -0.16665614,
          -0.2368148,
          -0.07965032,
          0.028990956,
          -0.08754873,
          0.11466402,
          0.098562
        ],
        [
          0.09246787,
          0.040097043,
          0.026825352,
          -0.08145223,
          0.0084972065,
          0.017759211,
          -0.17523408,
          0.13801658,
          0.14880991,
          0.05848855,
          -0.04471332,
          -0.013080501,
          0.09482067,
          -0.0319917,
          0.09370158,
          0.034366474,
          0.1531408,
          0.00027370083,
          -0.11127594,
          0.0012758384,
          -0.095763296,
          -0.0825078,
          -0.17070962,
          -0.0016924884,
          -0.07819385,
          0.013232006,
          0.023622958,
          -0.106647894,
          0.08894262,
          0.029339723,
          0.010202512,
          0.030143015
        ],
        [
          0.048494913,
          0.17404033,
          -0.0011869051,
          -0.11448745,
          -0.0034723317,
          -0.008238412,
          0.005936109,
          -0.017414596,
          -0.0074353404,
          0.10083952,
          0.09923963,
          0.046539173,
          0.14666662,
          0.052327722,
          -0.025609838,
          -0.022643674,
          0.2324407,
          -0.05429463,
          0.013506019,
          -0.0728982,
          -0.063501395,
          0.08805681,
          -0.079523936,
          0.012415147,
          0.0032684293,
          -0.0011536981,
          0.009098086,
          -0.10683291,
          0.08631859,
          0.018129742,
          -0.0135409,
          0.060835358
        ],
        [
          0.20067434,
          0.006768638,
          0.0063054343,
          0.025083836,
          0.06368826,
          -0.050255887,
          -0.08118437,
          0.1359774,
          0.017770702,
          -0.065858185,
          0.04971276,
          -0.050771825,
          -0.028435238,
          0.011723934,
          0.052108757,
          -0.10671685,
          0.04985682,
          -0.122136466,
          -0.03031526,
          0.037080698,
          0.02949447,
          0.016424295,
          -0.02367936,
          0.06803093,
          -0.053889684,
          -0.038591515,
          -0.06519281,
          0.065684274,
          0.034081087,
          0.18314803,
          0.0741598,
          0.018262595
        ],
        [
          0.10119238,
          -0.084931865,
          0.08310029,
          0.13254175,
          -0.009612097,
          -0.087203875,
          0.021312924,
          0.020347606,
          -0.08284896,
          -0.06750195,
          0.045995798,
          0.039628483,
          -0.0013504203,
          -0.097889036,
          -0.055563357,
          -0.011941775,
          0.07498558,
          -0.074423224,
          0.103071615,
          0.09129782,
          -0.047217358,
          0.045267113,
          -0.05041166,
          -0.051351927,
          -0.110324465,
          -0.08551428,
          -0.109297305,
          -0.024745649,
          -0.057912774,
          0.05431388,
          0.0029288563,
          0.029078312
        ],
        [
          -0.03414227,
          -0.08391788,
          -0.053184368,
          -0.18303166,
          -0.054111138,
          -0.05158044,
          0.077662595,
          0.0041614533,
          0.025471913,
          0.13413998,
          -0.068808496,
          -0.000282774,
          0.06974559,
          -0.050586633,
          0.06116,
          0.08573779,
          -0.022810051,
          0.034693107,
          0.0236362,
          0.14009851,
          0.013683692,
          0.111036286,
          0.11771622,
          -0.038109098,
          -0.10542062,
          -0.02635939,
          0.049301323,
          -0.0024745755,
          0.009204535,
          -0.068097375,
          0.15315974,
          0.071968906
        ],
        [
          -0.06649279,
          -0.063586816,
          0.050421692,
          -0.057144593,
          0.13340004,
          0.058838323,
          0.036255427,
          0.049617022,
          -0.08006043,
          0.09887631,
          -0.077315986,
          0.050415285,
          0.021090351,
          0.07889118,
          -0.018275486,
          -0.08047789,
          0.03560225,
          0.030425606,
          0.052729115,
          -0.009994795,
          -0.100426316,
          0.011887883,
          -0.017340373,
          0.061548255,
          0.036274523,
          0.06374427,
          -0.026848793,
          0.12237935,
          -0.06680828,
          0.040531557,
          0.0054155807,
          0.0015609548
        ],
        [
          -0.006189482,
          0.031170644,
          -0.010745608,
          -0.115609705,
          0.14562699,
          -0.012070913,
          -0.00030709294,
          -0.093454786,
          -0.04624465,
          -0.011853812,
          -0.01591877,
          0.03538201,
          0.07676674,
          -0.10698668,
          -0.048311874,
          -0.11090522,
          0.02580749,
          -0.038077038,
          0.12146667,
          -0.0020585996,
          0.13947202,
          -0.04985755,
          -0.02559153,
          0.12246023,
          -0.033478454,
          -0.013504142,
          0.12658392,
          -0.054691724,
          0.057751216,
          -0.06517052,
          -0.034988903,
          0.026415095
        ],
        [
          0.13342334,
          0.05495984,
          0.052680936,
          0.010824409,
          0.0680485,
          0.07144567,
          -0.033814825,
          0.06696266,
          0.013726843,
          0.01722752,
          0.024787536,
          0.09434141,
          0.04750245,
          0.09807871,
          -0.094058566,
          -0.011063642,
          -0.041420616,
          -0.005566265,
          -0.092248276,
          -0.0010851932,
          -0.13723779,
          0.048341073,
          -0.07377538,
          -0.07502686,
          -0.12094806,
          -0.06345019,
          -0.007828335,
          0.011272209,
          0.095001824,
          -0.078676574,
          0.06205677,
          -0.07674128
        ],
        [
          0.10599833,
          -0.08326772,
          -0.029498637,
          -0.003986482,
          0.10095293,
          -0.0859274,
          0.066400655,
          0.038571216,
          -0.03248851,
          0.09498357,
          0.09674919,
          0.08747241,
          0.008398193,
          -0.05746565,
          -0.018291084,
          -0.037089817,
          0.09171326,
          0.049088143,
          0.08539789,
          0.0058491873,
          -0.09394992,
          0.029415162,
          0.08886455,
          -0.01994945,
          0.098670885,
          -0.09067171,
          0.014680097,
          -0.025404751,
          0.08580538,
          0.017620722,
          -0.056280952,
          -0.02008429
        ],
        [
          0.13980477,
          0.017245892,
          0.040833626,
          0.011926171,
          -0.103465244,
          0.09887368,
          0.015689582,
          0.18522981,
          0.16002476,
          0.122623086,
          0.17532295,
          0.051012494,
          0.0015268325,
          0.045591604,
          0.007388444,
          -0.11222427,
          0.12951046,
          -0.009029774,
          0.03476475,
          -0.029566882,
          0.07944648,
          0.030922351,
          0.07405649,
          -0.122072525,
          0.020065742,
          0.008521832,
          0.11480142,
          -0.066734456,
          -0.015896758,
          -0.070884265,
          -0.03473747,
          0.06150955
        ],
        [
          0.008460133,
          -0.030955583,
