{
  "Layers": [
    {
      "_wInc": 1,
      "_wDec": 1,
      "_wNothing": 258729423466,
      "EnableNNUE": true,
      "Weights": [
        [
          0.002597094,
          -0.010269389,
          0.04822755,
          -0.20362292,
          -0.14529207,
          0.2786855,
          0.30389518,
          -0.047074314
        ],
        [
          -1.3874061,
          1.8015237,
          -0.50352407,
          -1.1448864,
          0.39400315,
          1.4381777,
          0.5204974,
          2.0868568
        ],
        [
          -0.42076322,
          1.3513215,
          2.404362,
          0.47771123,
          -0.9085451,
          0.17465357,
          -0.9614235,
          0.91213745
        ],
        [
          2.047275,
          -1.3194649,
          3.3665934,
          0.4440557,
          -2.9437902,
          -1.8904202,
          -1.8031179,
          0.44892198
        ],
        [
          0.06950121,
          -0.18435799,
          -0.33177653,
          0.27525914,
          0.57570994,
          0.024441957,
          0.19736569,
          0.48393503
        ],
        [
          0.5627573,
          -0.95349276,
          -0.6469842,
          0.99518186,
          1.4746416,
          0.090846725,
          0.48166972,
          -0.2145482
        ],
        [
          0.864677,
          -1.1128219,
          -0.17688096,
          1.249093,
          0.56050014,
          -0.42547598,
          0.13377239,
          0.14662488
        ],
        [
          0.07235194,
          0.048758242,
          -0.10722587,
          -0.24158588,
          0.16368693,
          -0.06729351,
          -0.06429985,
          0.053184476
        ],
        [
          0.08435536,
          -0.22635232,
          0.05782188,
          0.2610046,
          -0.25233343,
          -0.25617835,
          0.05944986,
          -0.06741839
        ],
        [
          0.11081107,
          -0.12450308,
          -0.10475101,
          0.17422949,
          0.13413145,
          -0.009976511,
          -0.041806255,
          -0.07103411
        ],
        [
          0.09604214,
          -0.28871408,
          0.19549106,
          0.17884694,
          0.24711947,
          0.08156236,
          -0.18787222,
          -0.06067859
        ],
        [
          0.14780265,
          0.21970601,
          0.15376145,
          0.021879332,
          0.26465136,
          -0.015242613,
          -0.22792031,
          -0.26435047
        ],
        [
          0.2943043,
          0.1535319,
          0.12557237,
          0.28233337,
          0.15088786,
          -0.18071096,
          0.2622367,
          0.007325006
        ],
        [
          -0.25904915,
          0.23406029,
          -1.3216376,
          -0.024836566,
          -0.3094456,
          -0.19605897,
          0.1482927,
          0.15665871
        ],
        [
          -0.15481196,
          0.3482574,
          -1.3232733,
          -0.17871061,
          -1.0863243,
          -0.052829582,
          0.0728184,
          -0.19309688
        ],
        [
          -0.32975993,
          -0.049601495,
          -0.8103304,
          -0.17188147,
          -0.38670212,
          -0.17142686,
          0.30815953,
          -0.012249077
        ],
        [
          -0.41059977,
          -0.12993906,
          -1.0297884,
          -0.6139367,
          -0.11285999,
          -0.011739738,
          0.33676267,
          -0.3713179
        ],
        [
          -0.16493475,
          -0.00865335,
          -0.47053522,
          -0.5141122,
          -1.1600792,
          -0.028114285,
          0.49523848,
          -0.40563673
        ],
        [
          0.23387194,
          -0.11446105,
          -0.30757707,
          -0.820884,
          0.07429484,
          -0.030531943,
          -0.1282571,
          -0.34661284
        ],
        [
          -0.38151312,
          -0.06564863,
          -0.34078082,
          -0.273901,
          0.39260843,
          0.39447263,
          0.25247505,
          -0.21273245
        ],
        [
          -0.4506483,
          0.08761796,
          -0.49574855,
          -0.050402835,
          0.14248449,
          0.23353456,
          0.10754745,
          -0.124031425
        ],
        [
          -0.20421621,
          -0.22647095,
          -0.22811396,
          -0.31491882,
          0.02230339,
          0.32022116,
          0.37475598,
          -0.30070382
        ],
        [
          -0.12164856,
          -0.35980627,
          -0.09766252,
          -0.3285433,
          -0.09634492,
          -0.026126537,
          0.32720047,
          0.012985919
        ],
        [
          -0.12201748,
          -0.3160707,
          -0.34884778,
          0.14128041,
          0.41767952,
          -0.045467705,
          0.17331354,
          0.11952187
        ],
        [
          -0.4617746,
          -0.3119932,
          -0.3656673,
          -0.11659371,
          0.4432778,
          0.011879789,
          -0.083116874,
          0.009282704
        ],
        [
          -0.06662872,
          -0.09718683,
          -0.19291987,
          -0.1646319,
          0.3081071,
          0.2114226,
          -0.12786715,
          0.18466322
        ],
        [
          -0.02596719,
          0.05519924,
          -0.27468416,
          0.2190797,
          0.45429525,
          -0.1192064,
          0.056207243,
          -0.0497341
        ],
        [
          -0.13396364,
          -0.24587467,
          -0.391674,
          0.0062536886,
          0.24038288,
          -0.046733722,
          -0.013712838,
          -0.06926975
        ],
        [
          -0.098831736,
          -0.24194711,
          -0.11590886,
          -0.25242713,
          0.3061392,
          0.31854364,
          0.38093585,
          0.18317859
        ],
        [
          -0.21239713,
          -0.41192278,
          -0.37881705,
          0.090592496,
          0.4205353,
          0.119384944,
          0.331663,
          0.16420756
        ],
        [
          0.023338797,
          0.07358378,
          -0.16217749,
          -0.17254233,
          0.021503435,
          0.2246338,
          0.17481185,
          0.0044169915
        ],
        [
          -0.34631872,
          -0.3348038,
          -0.29332367,
          -0.11594648,
          -0.026124278,
          -0.06516166,
          0.3157298,
          0.21914841
        ],
        [
          -0.11827289,
          -0.2983546,
          -0.50456333,
          -0.15857989,
          0.41719112,
          0.24115707,
          0.1782247,
          -0.25202137
        ],
        [
          -0.15649316,
          0.052456748,
          -0.38848582,
          0.11713944,
          0.009981165,
          -0.07576135,
          0.23726751,
          -0.043490507
        ],
        [
          -0.3937683,
          -0.059523877,
          -0.4979484,
          0.0483334,
          -0.017599305,
          0.14288907,
          0.3969276,
          -0.17101161
        ],
        [
          0.028108595,
          -0.40609297,
          -0.3347349,
          -0.0020728307,
          0.39397505,
          -0.014796322,
          -0.0032239615,
          -0.14702325
        ],
        [
          -0.2927084,
          -0.37048414,
          -0.20118965,
          -0.0806232,
          0.23647124,
          -0.031856727,
          0.4205492,
          -0.08866021
        ],
        [
          -0.24102238,
          0.14623916,
          -0.32131925,
          0.0968482,
          0.20397401,
          -0.091364354,
          0.2722246,
          -0.06790753
        ],
        [
          -0.1459842,
          -0.33373502,
          -0.57985663,
          -0.15214515,
          0.034214612,
          -0.05684548,
          0.18352865,
          -0.075510755
        ],
        [
          -0.4809348,
          0.12439576,
          -0.30110422,
          -0.14381921,
          0.09023371,
          0.0545817,
          0.38915837,
          -0.12788044
        ],
        [
          0.065603904,
          -0.25738063,
          -0.43220976,
          -0.26833618,
          0.46417186,
          0.20818956,
          0.3613032,
          0.095653236
        ],
        [
          -0.02894426,
          -0.007033863,
          -0.5585917,
          0.15541387,
          0.25535664,
          0.24665792,
          0.28062618,
          -0.108974695
        ],
        [
          -0.13435116,
          -0.427618,
          -0.41597238,
          0.13159433,
          0.13931489,
          -0.09453541,
          0.015922438,
          -0.1353371
        ],
        [
          -0.12457403,
          -0.42779955,
          -0.5102049,
          0.1372877,
          0.119892076,
          0.14053415,
          -0.065785944,
          -0.04885325
        ],
        [
          -0.18599579,
          -0.0927781,
          -0.14354126,
          -0.08126234,
          0.44673797,
          0.16531254,
          0.44719064,
          0.2136284
        ],
        [
          -0.45763922,
          -0.13808692,
          -0.25240535,
          0.25010845,
          0.4715959,
          0.05802834,
          0.045309026,
          -0.3264839
        ],
        [
          -0.13557497,
          0.029393509,
          -0.4372683,
          -0.13405186,
          -0.05834769,
          -0.043490306,
          0.015980713,
          -0.095607504
        ],
        [
          -0.45217073,
          0.14824471,
          -0.34278533,
          -0.28564465,
          0.41706845,
          -0.05040004,
          0.08326055,
          0.20360242
        ],
        [
          0.07882164,
          -0.2588828,
          -0.53491414,
          -0.12153552,
          0.107067585,
          -0.0037352596,
          0.3868692,
          -0.1706201
        ],
        [
          -0.023058867,
          0.094003186,
          -0.20090194,
          0.09015039,
          0.19676524,
          0.023373652,
          0.1311798,
          -0.24614857
        ],
        [
          0.043705817,
          -0.059053686,
          -0.225172,
          -0.28052378,
          0.09745893,
          0.3967375,
          -0.07282023,
          -0.08092488
        ],
        [
          -0.06834293,
          -0.011000236,
          -0.40707293,
          -0.20178145,
          0.12610616,
          -0.11264397,
          -0.022076536,
          -0.07073775
        ],
        [
          -0.17469028,
          -0.33473644,
          -0.2074414,
          0.18485174,
          0.38663647,
          -0.051791973,
          0.04438247,
          -0.16414835
        ],
        [
          0.054147933,
          0.12300953,
          -0.2448108,
          -0.27391553,
          0.44843003,
          0.15655123,
          0.06622337,
          -0.22597794
        ],
        [
          -0.447847,
          0.07657963,
          -0.29191002,
          -0.009879848,
          0.31995627,
          0.098403454,
          0.009150054,
          0.24636912
        ],
        [
          -0.13191096,
          0.129579,
          -0.16240652,
          -0.47608876,
          0.03173625,
          -0.1321356,
          -0.9748354,
          -0.31737942
        ],
        [
          -0.1528269,
          -0.0130626885,
          -0.46578524,
          -0.09674841,
          0.063326105,
          -0.013289166,
          -0.22173843,
          -0.17275175
        ],
        [
          0.041649662,
          -0.021484578,
          -0.76988256,
          -0.6357154,
          -0.23838146,
          -0.109412014,
          -0.5305423,
          -0.37104788
        ],
        [
          -0.31885952,
          -0.3988442,
          -0.2947266,
          -0.21840197,
          0.5155029,
          -0.089087255,
          0.027978389,
          -0.21070245
        ],
        [
          -0.25074893,
          -0.31382367,
          -0.9931498,
          -0.5518128,
          0.04846151,
          -0.17119965,
          -0.0091227945,
          -0.33966208
        ],
        [
          -0.4100543,
          -0.39519557,
          -0.6898603,
          -0.09070234,
          1.1794987,
          -0.083350405,
          0.038178362,
          -0.35457903
        ],
        [
          -0.24386433,
          0.086117536,
          -0.5362357,
          0.6148357,
          0.15596147,
          -0.26763344,
          0.009858341,
          0.112235084
        ],
        [
          -0.13779776,
          0.06887391,
          0.031507004,
          0.4455419,
          0.24015062,
          -0.091272496,
          0.20730479,
          0.13003382
        ]
      ],
      "Biases": [
        0.20772961,
        0.135822,
        0.30800852,
        0.042522207,
        -0.19348773,
        -0.15617757,
        -0.1610208,
        0.039809875
      ],
      "Activations": [
        10.555257,
        6.018677,
        25.79838,
        5.879252,
        -0.114723116,
        -0.028775344,
        -0.08324778,
        5.4457064
      ],
      "_ActivationsHistory": [
        [
          2.6693678,
          3.887242,
          4.9143486,
          4.9128466,
          3.1178186,
          4.914439,
          4.8555636,
          3.887227,
          3.8855786,
          4.91495,
          4.9184113,
          4.915806,
          4.912969,
          10.202454,
          3.8877552,
          4.9132705,
          4.9141383,
          4.9153,
          5.164619,
          4.912856
        ],
        [
          8.786313,
          9.34563,
          9.691341,
          9.692265,
          9.908454,
          9.691423,
          8.32169,
          9.346057,
          9.346599,
          9.690836,
          9.689546,
          9.690561,
          9.692434,
          5.457787,
          9.345561,
          9.691906,
          9.6912985,
          9.690998,
          8.928903,
          9.692414
        ],
        [
          12.698486,
          17.426147,
          18.644678,
          18.641401,
          15.963422,
          18.644659,
          16.896437,
          17.427052,
          17.42289,
          18.645317,
          18.647112,
          18.647108,
          18.641546,
          22.512175,
          17.427734,
          18.642416,
          18.643505,
          18.646372,
          17.425434,
          18.641762
        ],
        [
          2.640829,
          1.4734744,
          1.8194623,
          1.8234882,
          1.3479573,
          1.8210827,
          2.8370519,
          1.4717364,
          1.4764005,
          1.8196584,
          1.8295006,
          1.8194191,
          1.8251612,
          5.8431544,
          1.4715016,
          1.8212897,
          1.821721,
          1.8201264,
          1.5375726,
          1.823157
        ],
        [
          -0.047750168,
          -0.052982226,
          -0.06741373,
          -0.06737375,
          -0.046387263,
          -0.06739847,
          -0.05400299,
          -0.052999754,
          -0.05295327,
          -0.06741152,
          -0.06732321,
          -0.06741423,
          -0.06735925,
          -0.10511498,
          -0.053002123,
          -0.067395285,
          -0.06739081,
          -0.067406915,
          -0.07136824,
          -0.06737782
        ],
        [
          0.084475026,
          1.1572485,
          0.55894136,
          0.5613829,
          1.4670762,
          0.55838335,
          0.08294754,
          1.1567366,
          1.1600074,
          0.55818254,
          0.5542192,
          0.5561185,
          0.5605746,
          -0.032044616,
          1.1560354,
          0.5609697,
          0.5595946,
          0.55669117,
          0.28004336,
          0.56102765
        ],
        [
          -0.047084708,
          -0.055871844,
          -0.071670085,
          -0.07162528,
          -0.054998577,
          -0.07166276,
          -0.05823838,
          -0.055885825,
          -0.05583401,
          -0.07167339,
          -0.07162077,
          -0.07168671,
          -0.071620665,
          -0.075866975,
          -0.055893164,
          -0.071643874,
          -0.07164901,
          -0.07167591,
          -0.06410789,
          -0.071631126
        ],
        [
          3.4041927,
          4.7797437,
          4.654246,
          4.655296,
          4.6431956,
          4.6543255,
          4.1389103,
          4.7800846,
          4.7808485,
          4.653727,
          4.6521845,
          4.653371,
          4.6554418,
          4.85108,
          4.779588,
          4.6549015,
          4.6542616,
          4.653827,
          4.4283724,
          4.6554213
        ]
      ],
      "ForwardCount": 379447,
      "NumberOfOutputs": 8,
      "ActivationFunction": {
        "$type": "Backgammon.Models.NeuralNetwork.ActivationFunctions.LeakyReluActivationFunction, Backgammon",
        "_alpha": 0.01
      },
      "ForwardTime": 11738498,
      "ForwardTimeNNUE": 11339525,
      "IncvsDec": 1.0,
      "UpdateVsNoUpdate": 7.730083317187243E-12,
      "FirstForwardPass": false
    },
    {
      "_wInc": 1,
      "_wDec": 1,
      "_wNothing": 40906601443,
      "EnableNNUE": false,
      "Weights": [
        [
          -0.733895,
          0.9149816,
          0.16862181,
          1.2708846,
          -1.6244208,
          -0.42946675
        ],
        [
          0.9949374,
          -0.4339444,
          -0.19426721,
          0.085966535,
          0.19895923,
          1.0457023
        ],
        [
          0.51311165,
          0.58830655,
          -0.064480714,
          1.535293,
          -0.5581228,
          0.61252826
        ],
        [
          0.37424,
          0.51103526,
          1.1181551,
          -1.0062066,
          -0.14184487,
          -1.2671235
        ],
        [
          -0.7062338,
          0.05865829,
          1.1935849,
          -1.0390981,
          0.5910204,
          -0.3160925
        ],
        [
          2.9736655,
          -2.8375454,
          1.4670788,
          -2.9704437,
          2.046499,
          2.5264115
        ],
        [
          0.1050032,
          0.07089479,
          0.73767525,
          -1.5469917,
          0.67741805,
          -0.4574886
        ],
        [
          0.3564369,
          -0.66023916,
          0.06620485,
          0.9755392,
          -0.58678126,
          2.3938692
        ]
      ],
      "Biases": [
        -0.034005817,
        0.12193267,
        -0.034509916,
        0.17697547,
        -0.06531221,
        -0.15161684
      ],
      "Activations": [
        15.573214,
        21.82344,
        5.606497,
        53.447193,
        -0.3462515,
        22.999453
      ],
      "_ActivationsHistory": [
        [
          19.629545,
          14.57971,
          15.664286,
          15.930853,
          15.930853,
          15.851225,
          15.573214,
          19.017252,
          19.651443,
          19.017252,
          16.538324,
          18.63187,
          16.538324,
          16.538324,
          19.689816,
          22.2005,
          21.813631,
          20.960697,
          20.869352,
          20.482481
        ],
        [
          4.335791,
          21.390373,
          21.931932,
          21.85519,
          21.85519,
          21.859179,
          21.82344,
          7.6203685,
          5.743645,
          7.620368,
          11.626442,
          7.7108817,
          11.626442,
          11.626442,
          2.7203403,
          1.8428913,
          2.0089502,
          3.9724483,
          2.206237,
          2.3722942
        ],
        [
          -0.0027573365,
          7.4099917,
          5.8640733,
          5.5029225,
          5.5029225,
          5.7655473,
          5.606497,
          0.6554303,
          0.5828445,
          0.6554304,
          0.75980437,
          0.4112271,
          0.75980437,
          0.75980437,
          -0.0061776345,
          -0.0018123413,
          -0.0021908735,
          -0.0008461763,
          -0.0037235043,
          -0.004102033
        ],
        [
          32.487843,
          47.95168,
          53.379314,
          53.79823,
          53.79823,
          53.44272,
          53.447193,
          37.00297,
          34.50993,
          37.00297,
          41.108894,
          37.140274,
          41.108894,
          41.108894,
          29.910069,
          31.322145,
          31.225288,
          33.305996,
          30.503994,
          30.407131
        ],
        [
          -0.14754255,
          -0.33250943,
          -0.34630522,
          -0.3456705,
          -0.3456705,
          -0.34595126,
          -0.3462515,
          -0.18525168,
          -0.16564468,
          -0.18525171,
          -0.2227072,
          -0.18616344,
          -0.2227072,
          -0.2227072,
          -0.12893409,
          -0.13037698,
          -0.12958097,
          -0.14789952,
          -0.13002001,
          -0.129224
        ],
        [
          30.05905,
          18.824837,
          22.898123,
          23.336203,
          23.336203,
          23.089712,
          22.999453,
          29.305975,
          29.947355,
          29.305977,
          26.328352,
          29.091555,
          26.328352,
          26.328352,
          29.951921,
          33.490818,
          33.0392,
          31.797821,
          31.752045,
          31.300425
        ]
      ],
      "ForwardCount": 379447,
      "NumberOfOutputs": 6,
      "ActivationFunction": {
        "$type": "Backgammon.Models.NeuralNetwork.ActivationFunctions.LeakyReluActivationFunction, Backgammon",
        "_alpha": 0.01
      },
      "ForwardTime": 6686642,
      "ForwardTimeNNUE": 0,
      "IncvsDec": 1.0,
      "UpdateVsNoUpdate": 4.889186413559279E-11,
      "FirstForwardPass": false
    },
    {
      "_wInc": 1,
      "_wDec": 1,
      "_wNothing": 31925476916,
      "EnableNNUE": false,
      "Weights": [
        [
          0.31580493,
          1.7844503,
          -0.102042474,
          -0.21528545,
          -0.8910489,
          0.27867272
        ],
        [
          -0.65485895,
          -4.062125,
          -1.0901915,
          -0.091475226,
          -1.1393524,
          -0.43839583
        ],
        [
          -0.0034724344,
          1.7497444,
          -0.04605014,
          0.23570104,
          0.43475115,
          -0.0689379
        ],
        [
          0.26494926,
          -1.5257715,
          -1.807835,
          0.15337023,
          -1.4767342,
          -1.9017476
        ],
        [
          -0.34424084,
          2.8393962,
          0.7928552,
          -0.39428428,
          0.43749985,
          -0.2741269
        ],
        [
          -0.18758704,
          0.6780166,
          -0.35876414,
          -0.21174741,
          -0.682391,
          -1.363767
        ]
      ],
      "Biases": [
        -0.01750391,
        -0.0045896643,
        -0.6817485,
        0.0074481256,
        -0.6502044,
        -0.6817244
      ],
      "Activations": [
        0.63539666,
        0.0,
        0.0,
        0.3643739,
        0.0,
        0.0
      ],
      "_ActivationsHistory": [
        [
          0.99827707,
          0.46042368,
          0.6255801,
          0.6632002,
          0.6632002,
          0.6458992,
          0.63539666,
          0.99534875,
          0.99754673,
          0.99534875,
          0.97388136,
          0.9948456,
          0.97388136,
          0.97388136,
          0.9988532,
          0.99960965,
          0.9995363,
          0.9990043,
          0.9993242,
          0.9991973
        ],
        [
          5.0233457E-06,
          0.0,
          0.0,
          0.0,
          0.0,
          0.0,
          0.0,
          4.6988844E-15,
          1.9238575E-09,
          4.6989204E-15,
          1.3156812E-27,
          7.4617636E-16,
          1.3156812E-27,
          1.3156812E-27,
          0.16460082,
          0.99873143,
          0.994216,
          0.00022099078,
          0.9470656,
          0.7961826
        ],
        [
          3.4647329E-34,
          0.0,
          0.0,
          0.0,
          0.0,
          0.0,
          0.0,
          3.613163E-39,
          1.9230204E-36,
          3.613163E-39,
          0.0,
          0.0,
          0.0,
          0.0,
          2.2331579E-31,
          9.827693E-33,
          1.1958198E-32,
          5.486146E-35,
          6.206462E-32,
          7.5521075E-32
        ],
        [
          0.0026254898,
          0.53938204,
          0.37421378,
          0.33661017,
          0.33661017,
          0.35389087,
          0.3643739,
          0.0061413716,
          0.0037048038,
          0.0061413688,
          0.02609102,
          0.006675603,
          0.02609102,
          0.02609102,
          0.002054075,
          0.00076313916,
          0.0008851759,
          0.0016013455,
          0.0012518789,
          0.0014519582
        ],
        [
          0.0,
          0.0,
          0.0,
          0.0,
          0.0,
          0.0,
          0.0,
          0.0,
          0.0,
          0.0,
          0.0,
          0.0,
          0.0,
          0.0,
          4.6495815E-38,
          0.0,
          0.0,
          0.0,
          3.558068E-39,
          6.52833E-39
        ],
        [
          0.0,
          0.0,
          0.0,
          0.0,
          0.0,
          0.0,
          0.0,
          0.0,
          0.0,
          0.0,
          0.0,
          0.0,
          0.0,
          0.0,
          0.0,
          0.0,
          0.0,
          0.0,
          0.0,
          0.0
        ]
      ],
      "ForwardCount": 379447,
      "NumberOfOutputs": 6,
      "ActivationFunction": {
        "$type": "Backgammon.Models.NeuralNetwork.ActivationFunctions.SigmoidActivationFunction, Backgammon"
      },
      "ForwardTime": 7118721,
      "ForwardTimeNNUE": 0,
      "IncvsDec": 1.0,
      "UpdateVsNoUpdate": 6.264589266002994E-11,
      "FirstForwardPass": false
    }
  ],
  "Description": "Leaky16,8,6Lin",
  "LogfilePath": "C:\\Users\\denni\\Repos\\Backgammon\\Data\\logs",
  "DetfaultfilePath": "C:\\Users\\denni\\Repos\\Backgammon\\Data\\neuralnets\\BearOff.json",
  "LogFile": "C:\\Users\\denni\\Repos\\Backgammon\\Data\\logs\\Leaky16,8,6Lin.log"
}