{
  "Layers": [
    {
      "_wInc": 1,
      "_wDec": 1,
      "_wNothing": 3522041365443,
      "EnableNNUE": true,
      "Weights": [
        [
          -0.045511115,
          0.20829788,
          0.13193741,
          0.027608234,
          -0.084513105,
          0.06407521,
          0.025665693,
          -0.014897424,
          0.13442975,
          0.038172945,
          0.1566734,
          -0.05139164,
          0.14380531,
          -0.11479455,
          -0.010917285,
          0.068573155
        ],
        [
          -0.05475738,
          -0.16783077,
          0.100176856,
          0.20931724,
          -0.07861257,
          -0.48485836,
          0.009615025,
          0.050121333,
          -0.18572935,
          0.089648336,
          -0.016349996,
          0.07175881,
          -0.08174072,
          0.10587597,
          -0.20030999,
          -0.049094032
        ],
        [
          -0.19209667,
          -0.070821375,
          0.4027266,
          0.26337904,
          -0.3478927,
          -0.015546303,
          0.05377322,
          0.02858862,
          -0.24398334,
          0.53765565,
          0.1840783,
          -0.43262798,
          -0.7855828,
          0.22957885,
          -0.9772118,
          0.21099369
        ],
        [
          0.11950081,
          1.2479986,
          -0.21825868,
          0.2819105,
          -0.2742303,
          0.1804873,
          -0.5087992,
          -1.0096977,
          -0.31317908,
          -0.11320474,
          -1.1692821,
          0.70658004,
          0.8808218,
          0.5372067,
          -0.18212931,
          0.4425161
        ],
        [
          0.05644782,
          -0.06958807,
          -0.60407454,
          -0.036726568,
          1.3129026,
          -0.54086465,
          0.6604774,
          0.2655164,
          -0.6107076,
          0.38608876,
          -0.33476132,
          0.43474385,
          0.27413943,
          -0.7471714,
          1.0909277,
          -0.020931605
        ],
        [
          -0.21715608,
          0.046275526,
          -0.2411649,
          -0.22385144,
          -0.22543958,
          0.20863372,
          0.34345692,
          0.15277943,
          0.0860391,
          0.03435237,
          0.16019028,
          0.6630684,
          0.11219064,
          0.46056965,
          0.14567414,
          0.42694035
        ],
        [
          0.14235029,
          0.14311466,
          -0.0036018854,
          0.10096357,
          -0.13486773,
          0.042141534,
          -0.00013545186,
          0.10654758,
          -0.12891708,
          -0.19910826,
          -0.057568904,
          0.19925351,
          0.22672528,
          0.0722364,
          -0.095500484,
          0.11082536
        ],
        [
          0.14845534,
          -0.014785157,
          0.02561269,
          -0.07121857,
          0.08086317,
          -0.037572533,
          0.09971667,
          0.066827305,
          0.15108293,
          -0.26166812,
          -0.045446426,
          -0.5151857,
          -0.19620574,
          -0.023416031,
          -0.088980034,
          0.10524724
        ],
        [
          -0.06092071,
          -0.38811547,
          0.03738663,
          0.08588616,
          -0.5209747,
          0.042542662,
          0.08811376,
          0.16476189,
          0.16658047,
          0.22684617,
          0.16885531,
          1.3017027,
          -0.313051,
          -0.5233118,
          0.28697968,
          -0.15034273
        ],
        [
          -0.034823593,
          -0.06246392,
          0.2128785,
          -0.029054279,
          -0.0029033031,
          0.09651285,
          0.06621305,
          0.18045151,
          0.9144618,
          0.32120952,
          0.2647782,
          0.7443439,
          -0.120290324,
          0.02919097,
          0.26075378,
          -0.114626914
        ],
        [
          -0.0967514,
          0.3142939,
          0.10061175,
          0.10966807,
          0.050679047,
          0.2648078,
          -0.13876621,
          0.02049057,
          0.11377717,
          0.2746732,
          0.011071549,
          -0.10707662,
          -0.062076215,
          0.1757482,
          0.09281126,
          0.025930546
        ],
        [
          -0.14000395,
          -0.05084581,
          -0.27791956,
          0.04210891,
          0.072336,
          -0.16131902,
          0.1376836,
          0.03701349,
          0.11028062,
          -0.01715292,
          -0.11511837,
          0.10509897,
          0.040126465,
          -0.06855716,
          0.3089838,
          -0.07908882
        ],
        [
          -0.082014605,
          -0.26862967,
          -0.255193,
          0.19066866,
          -0.22866324,
          0.008263549,
          -0.06749256,
          0.050940245,
          -0.08272635,
          0.08005588,
          -0.07289032,
          -0.11528611,
          0.19833833,
          -0.31659454,
          0.024405967,
          0.040598854
        ],
        [
          -0.09619565,
          -0.24126405,
          -0.02547327,
          0.014806274,
          -0.10065447,
          0.052342422,
          0.067545675,
          0.19136503,
          -0.099446066,
          0.2577263,
          -0.0031153108,
          0.34620193,
          -0.03140481,
          -0.01833371,
          -0.08645421,
          -0.07433214
        ],
        [
          -0.15315016,
          -0.13431787,
          0.06875135,
          0.16583988,
          -0.07720078,
          -0.0038619074,
          0.23399583,
          -0.056496456,
          -0.06982404,
          -0.13725989,
          0.10178395,
          0.44661084,
          -0.14070958,
          0.018392926,
          -0.026895273,
          -0.22776766
        ],
        [
          -0.14742075,
          -0.10598916,
          -0.16006245,
          0.14504084,
          -0.105943926,
          0.049887907,
          0.06422732,
          -0.00306815,
          -0.006582127,
          0.053187214,
          0.06261018,
          0.32439983,
          -0.084921576,
          -0.04582711,
          0.0003986534,
          -0.09148496
        ],
        [
          -0.13638149,
          -0.14605066,
          -0.118794754,
          -0.107134536,
          -0.07920212,
          -0.018701397,
          0.17634954,
          -0.008256187,
          0.09300204,
          0.01900427,
          0.045462377,
          -0.099547304,
          0.009174455,
          -0.07777608,
          0.04397466,
          -0.10861362
        ],
        [
          -0.09227262,
          -0.12755328,
          -0.08288373,
          -0.040375866,
          -0.16565156,
          -0.1084973,
          0.1435092,
          0.041309692,
          -0.19520125,
          0.1099341,
          0.07530806,
          -0.022620624,
          -0.07793775,
          -0.16106923,
          0.08516264,
          -0.059388302
        ],
        [
          -0.05271523,
          -0.10441762,
          -0.11164543,
          0.07389969,
          -0.14195952,
          0.087219425,
          0.16337098,
          0.04287246,
          -0.03932211,
          0.038932912,
          0.05843856,
          0.009660855,
          -0.069068894,
          -0.122054495,
          -0.020804336,
          -0.13518102
        ],
        [
          -0.043914083,
          -0.12655762,
          -0.12986071,
          0.046755068,
          0.013739303,
          0.15634763,
          0.10920291,
          0.02831837,
          0.064483516,
          0.068380885,
          0.01093711,
          0.35764813,
          -0.14681801,
          -0.12822677,
          0.06603718,
          -0.04592777
        ],
        [
          -0.021222055,
          -0.21518943,
          0.035244446,
          0.015969427,
          -0.054395925,
          0.021690115,
          -0.020729858,
          0.028659688,
          -0.13192207,
          0.07486411,
          -0.026817344,
          0.4937352,
          -0.15052244,
          -0.19553246,
          -0.028844444,
          -0.048980743
        ],
        [
          -0.38384533,
          -0.11194584,
          -0.08842139,
          0.14851964,
          -0.080666564,
          0.19793111,
          0.10926424,
          0.09451495,
          0.42867798,
          -0.036362313,
          -0.08879294,
          0.6086131,
          -0.26748222,
          -0.2587861,
          0.041043714,
          -0.036216907
        ],
        [
          0.07221558,
          -0.074326456,
          0.09457016,
          -0.0468738,
          -0.11258084,
          0.16313231,
          0.02447883,
          0.038456373,
          -0.33442277,
          0.12100612,
          0.061473697,
          0.81061524,
          -0.037113547,
          -0.004219119,
          0.25570738,
          0.102480225
        ],
        [
          -0.5112435,
          0.012486974,
          0.15082191,
          0.08953482,
          0.033775184,
          0.035546884,
          0.26702368,
          0.2678001,
          0.63108087,
          -0.034144267,
          -0.08856244,
          0.54215854,
          -0.07319741,
          -0.22411375,
          0.16865619,
          -0.14659582
        ],
        [
          -0.15471764,
          -0.051993713,
          0.02453845,
          0.13234591,
          -0.06751431,
          0.058057576,
          0.042082302,
          -0.02348678,
          0.3701074,
          -0.12327392,
          0.07174716,
          0.12481118,
          -0.059588015,
          -0.122286685,
          0.046341583,
          -0.037268117
        ],
        [
          0.17572425,
          -0.025539707,
          -0.2832768,
          0.18353614,
          0.057687793,
          0.15413308,
          -0.085278384,
          0.08931261,
          -0.20106615,
          -0.24245839,
          -0.25118965,
          -0.53979826,
          0.23487735,
          0.10870627,
          -0.4127717,
          0.12030874
        ],
        [
          0.032457937,
          0.060812205,
          0.03531455,
          0.12015371,
          0.048186306,
          0.14599326,
          -0.08278525,
          0.04179302,
          0.017765583,
          -0.10794524,
          -0.19053285,
          0.07430189,
          0.078165814,
          0.18881716,
          -0.10223569,
          0.014048419
        ],
        [
          0.02451244,
          -0.020213818,
          0.14531969,
          -0.030396963,
          -0.008562989,
          0.09949549,
          0.01810246,
          0.011341852,
          -0.03156169,
          -0.019080702,
          -0.19792427,
          -0.6342979,
          0.14606413,
          0.105210386,
          -0.18991356,
          -0.008482353
        ],
        [
          -0.058733035,
          0.060203955,
          0.120009184,
          -0.069475204,
          -0.05366936,
          0.03160322,
          -0.012627559,
          -0.065214574,
          -0.04101442,
          0.037442125,
          -0.18549128,
          -0.1527133,
          0.07524121,
          0.09379914,
          -0.120088354,
          -0.030309953
        ],
        [
          0.07476046,
          0.007573015,
          -0.05104601,
          -0.039939575,
          0.13599432,
          0.21921656,
          -0.08496246,
          -0.085979134,
          -0.021994187,
          -0.058167413,
          -0.16057439,
          -0.039436366,
          0.042222217,
          0.1916248,
          -0.07003452,
          -0.046515442
        ],
        [
          -0.07297423,
          0.055907488,
          -0.10402374,
          -0.003021905,
          0.01878427,
          0.250371,
          0.10697375,
          -0.11165078,
          -0.06831359,
          -0.076638915,
          -0.09983931,
          -0.87809163,
          0.013496339,
          0.16963308,
          -0.06847024,
          0.015713075
        ],
        [
          -0.017087717,
          0.08903782,
          0.039934944,
          -0.072261736,
          0.0774663,
          0.010840467,
          -0.08098154,
          -0.11861496,
          0.0040177293,
          -0.13972865,
          -0.10974146,
          -0.28954738,
          0.11739318,
          0.1455393,
          -0.06712203,
          0.024820123
        ],
        [
          0.15238251,
          0.06503919,
          -0.036091488,
          0.036347084,
          0.11227583,
          0.021700352,
          -0.057361998,
          -0.14636299,
          0.032314844,
          -0.058189988,
          -0.0675038,
          -0.4509402,
          0.09179331,
          0.19079189,
          -0.059782796,
          0.036023654
        ],
        [
          -0.054501113,
          0.089665055,
          -0.09405592,
          0.050586827,
          -0.08192871,
          0.10793241,
          0.03317836,
          -0.062290672,
          -0.059505086,
          -0.12813996,
          -0.18113346,
          -0.5510871,
          -0.035670824,
          0.111992694,
          -0.022815222,
          0.06824791
        ],
        [
          0.03664342,
          0.02931098,
          -0.15212665,
          -0.08747248,
          -0.007658362,
          0.0611841,
          0.020170603,
          -0.12080166,
          -0.04588178,
          -0.22884263,
          -0.11309553,
          -0.7251219,
          0.05678171,
          0.1189829,
          0.033844136,
          -0.07986628
        ],
        [
          -0.21879692,
          0.23725587,
          0.08089709,
          0.45151043,
          0.029560607,
          0.12076899,
          0.045414448,
          -0.07666221,
          -0.08827064,
          -0.07198695,
          -0.20738395,
          -0.35213405,
          0.119714856,
          0.16197298,
          -0.0025449963,
          -0.12575132
        ],
        [
          -0.10190638,
          -0.07598798,
          -0.029562827,
          -0.22884896,
          0.010269197,
          0.17142445,
          0.005788685,
          -0.10591628,
          -0.0026826293,
          -0.38051865,
          -0.17356826,
          -0.8968678,
          0.11333583,
          0.120528705,
          -0.0093667805,
          -0.13979365
        ],
        [
          -0.2239648,
          0.080311045,
          0.06615241,
          0.8852257,
          -0.118302695,
          0.076328896,
          -0.02895081,
          -0.13194984,
          0.032483768,
          0.02410242,
          -0.17469265,
          0.18262765,
          0.12897307,
          -0.10166635,
          -0.1352623,
          -0.051216334
        ],
        [
          -0.13616054,
          0.18140852,
          0.27574024,
          -0.13891289,
          -0.07569059,
          -0.5742088,
          0.06656718,
          -0.19828567,
          -0.08533809,
          -0.021645814,
          -0.14993368,
          -0.56598026,
          -0.053147003,
          0.19841345,
          -0.075387955,
          -0.22380812
        ],
        [
          0.2800519,
          0.0480441,
          0.65463305,
          0.1699338,
          -0.35547984,
          -0.12592593,
          -0.42837262,
          -0.039301693,
          -0.41640264,
          -0.21515651,
          -0.355777,
          1.4409432,
          -0.08313018,
          0.34163937,
          -0.238192,
          0.33905724
        ],
        [
          0.08361917,
          0.25348356,
          0.26370105,
          0.019350627,
          -0.2450949,
          0.44933826,
          -0.12150462,
          -0.34733677,
          -0.1926147,
          -0.22047605,
          -0.29767808,
          0.070289455,
          -0.14384395,
          0.15585108,
          -0.54409236,
          0.16327704
        ],
        [
          -0.32742745,
          0.23437572,
          0.19168018,
          0.05722671,
          -0.07501482,
          0.31484967,
          0.031152628,
          -0.20478618,
          -0.09487704,
          -0.11695982,
          -0.22021727,
          0.2446948,
          -0.15120396,
          0.0577168,
          -0.22500376,
          -0.031437077
        ],
        [
          -0.44154406,
          0.0953006,
          0.006785776,
          0.04025402,
          -0.11856947,
          -0.00965576,
          -0.0346082,
          -0.11584705,
          0.019266719,
          0.1833296,
          -0.14574395,
          0.3370486,
          -0.11858538,
          -0.078259416,
          -0.10677189,
          0.08669896
        ],
        [
          -0.2708271,
          -0.08431864,
          -0.11723934,
          0.036968313,
          -0.027913645,
          -0.035028026,
          -0.020710241,
          -0.17071095,
          0.017196467,
          0.18285649,
          0.05699656,
          0.26137298,
          0.059326865,
          -0.07992887,
          0.0933114,
          -0.15922214
        ],
        [
          -0.08762657,
          -0.044097237,
          -0.015818149,
          0.13620165,
          -0.024857227,
          0.05844605,
          0.06903033,
          -0.0683306,
          0.13133737,
          0.14515181,
          -0.073756926,
          0.3390293,
          -0.12598577,
          -0.033652782,
          0.07585606,
          0.031543918
        ],
        [
          0.27736104,
          -0.37042037,
          0.15294854,
          -0.3809177,
          0.67895955,
          0.33031386,
          0.20150992,
          0.23463105,
          -0.14581312,
          -0.38071036,
          0.48693278,
          0.35276252,
          -0.06647646,
          0.0036607243,
          0.13540588,
          -0.35701093
        ],
        [
          -0.32105365,
          -0.33425564,
          -0.02771854,
          0.018430306,
          0.3963312,
          0.1560704,
          0.16374408,
          0.29360884,
          0.28260288,
          -0.0330899,
          0.065392405,
          0.30043155,
          0.030724788,
          -0.1454757,
          0.2625057,
          -0.4124397
        ],
        [
          -0.4424856,
          -0.03932484,
          -0.30175233,
          0.06330225,
          0.2621452,
          0.09560744,
          0.13182089,
          0.060685366,
          0.11775955,
          0.1432095,
          0.08049673,
          0.12138035,
          -0.082407214,
          -0.14401719,
          0.06322355,
          -0.15138574
        ],
        [
          -0.2476568,
          -0.14050573,
          -0.33248937,
          -0.028571973,
          0.16916983,
          0.0062150615,
          0.041607793,
          -0.03745991,
          0.16741389,
          0.09169706,
          -0.13372591,
          0.10628092,
          0.017646227,
          -0.15098074,
          0.02031715,
          -0.11171856
        ],
        [
          -0.17664568,
          -0.03786894,
          0.058596272,
          -0.022649225,
          0.11651192,
          0.036100995,
          0.04749807,
          0.028171377,
          0.005222989,
          0.060318083,
          0.0047042784,
          0.19174412,
          -0.047648143,
          -0.15102157,
          -0.09990597,
          0.033938657
        ],
        [
          -0.107682474,
          0.07424688,
          -0.07223748,
          0.15758479,
          0.08617992,
          0.0904044,
          -0.044255145,
          -0.070593074,
          0.06141452,
          0.0009019459,
          0.0037386022,
          0.044718567,
          0.029578466,
          -0.15194984,
          -0.018440882,
          -0.12775765
        ],
        [
          -0.044684015,
          -0.027381193,
          0.003915884,
          -0.13439924,
          0.14420988,
          -0.1347302,
          0.013382957,
          -0.12724933,
          0.06362631,
          -0.16117226,
          0.2298745,
          0.31175494,
          0.0015467308,
          0.02163389,
          0.1339489,
          0.23539679
        ],
        [
          -0.054506306,
          -0.064026736,
          0.12816803,
          0.34754965,
          0.6871916,
          0.43530932,
          0.29700512,
          0.36582914,
          0.43992406,
          0.18777752,
          -0.3935227,
          0.17289422,
          -0.31650558,
          -0.09193617,
          0.14658348,
          -0.25262615
        ],
        [
          0.49907362,
          -0.2527243,
          -1.0196813,
          -0.5796124,
          -0.21255016,
          0.6669806,
          0.13171892,
          -0.23953977,
          -0.8476628,
          0.72130686,
          0.043018438,
          -0.7960534,
          0.11419456,
          0.15996078,
          -0.5229269,
          -0.10250482
        ],
        [
          -0.064898476,
          -0.072932884,
          0.08089961,
          0.07377676,
          -0.033104006,
          -0.99535,
          -0.04682922,
          -0.07698128,
          -0.10223516,
          -0.06239516,
          -0.012000249,
          -0.44307747,
          0.19241235,
          -0.05426836,
          -0.096606016,
          0.032535855
        ],
        [
          -0.15234204,
          0.016089713,
          -0.06819135,
          0.4579261,
          0.14258629,
          -0.703107,
          0.16684785,
          -0.16377372,
          -0.15829958,
          0.020121044,
          -0.14562854,
          -0.6573219,
          0.4393257,
          -0.07095514,
          -0.35787094,
          -0.22459605
        ],
        [
          0.0918097,
          0.077801235,
          0.25128415,
          -0.24905242,
          1.8660942,
          -0.04361817,
          -0.11306354,
          -0.3506655,
          0.35498548,
          -0.016503107,
          0.2805107,
          -0.8250248,
          0.8941987,
          0.30219045,
          -0.56081873,
          -0.15579154
        ],
        [
          1.1685961,
          0.12575582,
          0.062006064,
          0.027820027,
          0.6495972,
          0.58012354,
          0.6573332,
          -0.013207367,
          -0.145488,
          -0.34520528,
          -0.3640662,
          0.41373196,
          0.4625333,
          0.24482295,
          -0.8138835,
          0.3254905
        ],
        [
          0.63632613,
          -0.07394406,
          0.6491514,
          -2.294562,
          0.3705061,
          -1.2425286,
          -0.036069892,
          0.36120945,
          -0.23693317,
          -0.33416107,
          -0.08145349,
          0.16429159,
          -0.23530218,
          -0.16264164,
          0.313261,
          0.016778084
        ],
        [
          -0.18482141,
          0.09215372,
          -0.438076,
          0.29113764,
          -2.0207205,
          -0.29629716,
          0.07073588,
          -0.28815842,
          -0.79059756,
          -0.5979308,
          -0.57173866,
          -0.6188999,
          0.483547,
          -0.8996837,
          0.24590494,
          0.3296572
        ],
        [
          -0.2554509,
          -0.6453759,
          0.012535318,
          -0.53664464,
          -0.9470754,
          1.523219,
          0.4564284,
          0.24149911,
          0.3210698,
          -0.60588735,
          0.3404442,
          -0.272919,
          -0.39440182,
          -0.36265123,
          -0.26598662,
          0.3150255
        ],
        [
          -0.2213534,
          0.16432296,
          -0.9614826,
          0.06936763,
          -1.3424308,
          -0.47725618,
          -0.11068492,
          -0.44451642,
          -0.7704588,
          -1.408623,
          -0.6784565,
          0.03695592,
          0.9183528,
          -0.049565636,
          0.03014653,
          -0.12460956
        ],
        [
          -0.5388881,
          -0.7803071,
          0.3641602,
          0.12910345,
          -1.6282471,
          -1.3361979,
          0.41108996,
          0.5010715,
          0.21115579,
          -0.6764132,
          -1.1041526,
          -0.25516945,
          -0.5718079,
          -0.5170488,
          -0.5803731,
          0.5555393
        ],
        [
          0.37768066,
          0.38691127,
          0.35575613,
          0.45592135,
          -1.9150403,
          0.058377273,
          -3.0962083,
          -0.4372313,
          -1.0151658,
          -0.49719208,
          -0.66993153,
          0.43532673,
          0.19708307,
          0.23953219,
          -0.79958826,
          0.59801424
        ],
        [
          0.23413835,
          -0.7947524,
          -0.021205867,
          -1.1106533,
          0.5761732,
          -0.034075104,
          0.35066602,
          0.555833,
          0.15716222,
          -0.7277493,
          0.7834984,
          -0.4650616,
          -0.21629637,
          -0.45864803,
          0.28758138,
          -0.13165952
        ],
        [
          0.020266928,
          -0.028734913,
          -0.323293,
          -0.106950894,
          -0.124198094,
          -0.12539008,
          0.046411023,
          0.18533513,
          -0.4062786,
          0.003319772,
          -0.049157068,
          -0.10184408,
          0.13481498,
          -0.152133,
          -0.047883302,
          0.060209267
        ],
        [
          0.012744982,
          0.033190347,
          0.0739833,
          -0.055720225,
          0.03251574,
          -0.11413679,
          -0.071673736,
          0.06050791,
          -0.5216558,
          0.012170372,
          -0.030393641,
          0.1820569,
          -0.011364434,
          0.021087585,
          0.051430553,
          0.053743653
        ],
        [
          -0.114874266,
          0.00071552466,
          0.01221985,
          -0.08523913,
          -0.024388053,
          -0.00868315,
          -0.07919648,
          0.048067205,
          -0.2318455,
          -0.030409824,
          0.06312386,
          -0.18654566,
          -0.019091632,
          0.089601405,
          0.08102389,
          -0.013865604
        ],
        [
          -0.13933934,
          0.013094158,
          -0.083208434,
          -0.053439144,
          -0.039922178,
          -0.046409473,
          0.032972995,
          0.04960905,
          0.28094453,
          0.0950887,
          0.1897018,
          1.1564065,
          0.08761912,
          0.023571441,
          -0.1089057,
          0.062191453
        ],
        [
          -0.0530176,
          0.011312695,
          -0.2027301,
          -0.21994133,
          -0.12956472,
          -0.18683091,
          -0.06753464,
          0.04332704,
          0.07689439,
          0.015792148,
          0.13559212,
          0.5179615,
          0.09313336,
          0.09498526,
          -0.09094217,
          0.027259352
        ],
        [
          -0.13604027,
          -0.10593425,
          0.111012876,
          -0.101148404,
          -0.1350568,
          -0.010992287,
          0.014028208,
          0.05580969,
          0.019282313,
          0.07162476,
          0.14944884,
          0.6228362,
          -0.0031736156,
          -0.056479335,
          -0.085188515,
          -0.001748201
        ],
        [
          -0.013591612,
          -0.003704115,
          0.068644464,
          0.36606812,
          -0.2928788,
          -0.056735605,
          0.0044689737,
          -0.081176385,
          -0.036103893,
          -0.25567743,
          -0.021255903,
          -0.22443879,
          -0.16329005,
          0.11104902,
          0.052417926,
          0.096588574
        ],
        [
          -0.07772744,
          -0.10789302,
          -0.045499835,
          -0.33158872,
          -0.09636215,
          -0.2695583,
          -0.05831964,
          0.1178633,
          0.11449389,
          0.10936769,
          0.10467467,
          -0.5541729,
          0.037318736,
          -0.12203456,
          -0.2241641,
          0.009205216
        ],
        [
          0.086447425,
          0.038022812,
          0.036307957,
          -0.3747297,
          0.04962446,
          -0.0551297,
          -0.09117593,
          -0.10630506,
          0.013053114,
          -0.010788617,
          0.09321753,
          -0.03351717,
          0.0078522265,
          -0.107332714,
          -0.017952004,
          0.06482159
        ],
        [
          0.086202666,
          0.13523132,
          0.04040619,
          0.15683308,
          -0.0127953775,
          0.1477734,
          0.060714632,
          -0.10626365,
          0.15940703,
          0.09750502,
          -0.058050413,
          0.46883208,
          -0.19160421,
          -0.1343321,
          -0.03719145,
          -0.10112683
        ],
        [
          0.047644544,
          0.14739193,
          0.036830675,
          0.027438985,
          -0.08002997,
          -0.14267614,
          0.08570195,
          -0.097900875,
          -0.06322837,
          0.088647045,
          -0.09686532,
          -0.8881943,
          -0.025328131,
          -0.11254684,
          -0.026639806,
          -0.21330696
        ],
        [
          -0.13661262,
          0.09430596,
          -0.03735198,
          0.053162478,
          -0.095000066,
          -0.041302517,
          -0.056950606,
          0.027798222,
          0.009446556,
          -0.03929121,
          -0.005998188,
          0.5881041,
          -0.0547923,
          0.03104748,
          -0.18193811,
          0.087012984
        ],
        [
          0.7300396,
          -0.03244838,
          -0.0040171095,
          -0.39666125,
          0.08700476,
          0.40250283,
          0.08290377,
          0.111133926,
          -0.19181791,
          -0.1563095,
          -0.18024372,
          0.7446078,
          0.23221667,
          -0.43460363,
          -0.14587705,
          -0.45778382
        ],
        [
          0.41410983,
          -0.11682277,
          -0.032749355,
          -0.8304921,
          0.13675138,
          0.5208069,
          -0.07782749,
          0.009158277,
          0.024528135,
          -0.37237146,
          0.1492009,
          -0.08926604,
          0.20755321,
          -0.47518727,
          -0.030062072,
          -0.2739138
        ],
        [
          0.39255556,
          -0.07579274,
          -0.2010773,
          -0.69482476,
          0.33378604,
          0.69109094,
          0.0052807187,
          0.028452395,
          -0.19053575,
          -0.09385707,
          -0.09653958,
          0.76991713,
          0.017236527,
          -0.317354,
          -0.03573882,
          -0.3097421
        ],
        [
          0.21763831,
          -0.12191055,
          -0.23674351,
          -0.53265095,
          0.2377959,
          0.6007869,
          -0.012798647,
          0.06796667,
          -0.113303214,
          -0.28912726,
          0.08992193,
          1.0165633,
          0.072099224,
          -0.22599065,
          0.0867976,
          -0.19781977
        ],
        [
          0.19418812,
          -0.11049595,
          -0.3695874,
          -0.21147987,
          0.103733964,
          0.5373893,
          0.08990352,
          0.03656096,
          0.14070037,
          -0.18508227,
          -0.0021019417,
          1.1755939,
          0.13014056,
          -0.1527165,
          0.07591515,
          -0.10040685
        ],
        [
          0.17796053,
          -0.007585926,
          -0.22966562,
          -0.14419949,
          0.09152342,
          0.3054517,
          -0.022458147,
          0.043068968,
          -0.0752622,
          -0.3072088,
          -0.06540207,
          1.3648492,
          0.15007415,
          -0.05866632,
          0.24059065,
          -0.15256505
        ],
        [
          0.11215337,
          -0.068467274,
          -0.06430379,
          -0.11599235,
          0.050763614,
          -0.2036633,
          -0.07843445,
          -0.041949242,
          0.15866776,
          0.0781051,
          -0.014633217,
          -0.28215006,
          -0.061659135,
          0.013188794,
          0.13082542,
          0.052020684
        ],
        [
          -0.07485533,
          -0.054431606,
          -0.026039142,
          -0.093857616,
          -0.119105525,
          -0.21141478,
          -0.12849905,
          0.021109315,
          -0.07256753,
          0.06753143,
          0.026665285,
          -0.0007600354,
          0.030723553,
          0.03854199,
          -0.023395697,
          0.016131187
        ],
        [
          -0.03439073,
          -0.062292427,
          -0.010247715,
          -0.048150472,
          -0.18147747,
          -0.08694677,
          -0.07865371,
          -0.021278119,
          -0.21586119,
          -0.03851518,
          -0.10753586,
          -0.06447565,
          0.0051619634,
          -0.02446288,
          -0.023451438,
          0.0258889
        ],
        [
          -0.020786442,
          0.013259126,
          -0.0899301,
          0.03153065,
          -0.055187467,
          -0.18947273,
          -0.0739685,
          0.034069814,
          -0.18424453,
          0.03173448,
          -0.015665058,
          0.27476323,
          -0.13318756,
          -0.09207033,
          -0.061780423,
          0.044901937
        ],
        [
          0.0036159148,
          0.044726074,
          -0.078857824,
          0.0014621104,
          0.0003510389,
          0.21517228,
          -0.065108135,
          -0.0434563,
          -0.19084738,
          0.079814605,
          -0.022112213,
          0.52479154,
          -0.10615346,
          -0.15492962,
          0.018073454,
          -0.03366369
        ],
        [
          -0.116496325,
          -0.049019936,
          0.04866598,
          -0.05320193,
          0.044046424,
          0.25516644,
          0.07288274,
          -0.074769184,
          -0.25374,
          -0.043947995,
          -0.009228282,
          0.37851867,
          -0.06579372,
          0.028971674,
          0.058281664,
          -0.052411817
        ],
        [
          -0.5285777,
          0.12712266,
          -0.44507062,
          0.31163982,
          0.11484586,
          -0.11595304,
          -0.042272594,
          -0.4467596,
          -0.012472142,
          -0.16905645,
          -0.29223493,
          -1.5989887,
          0.46417627,
          -0.21360874,
          0.10708728,
          0.08691228
        ],
        [
          -0.028575704,
          -0.38788074,
          -0.30298457,
          0.038417656,
          -0.10076777,
          0.27953762,
          0.7873323,
          -0.100015625,
          -0.11938632,
          -0.034397207,
          -0.08249711,
          -0.4455498,
          -0.19291463,
          -0.39630526,
          -0.44637412,
          0.0706451
        ],
        [
          0.06356555,
          -0.07391749,
          0.20344439,
          0.082218654,
          0.0766986,
          -0.100064404,
          0.03691591,
          0.10822842,
          -1.0633353,
          -0.11696707,
          -0.1038216,
          0.42890263,
          -0.027958859,
          -0.0012541714,
          -0.12080308,
          0.082941666
        ],
        [
          -0.20536783,
          -0.10426211,
          -0.2434635,
          -0.14028412,
          0.19569127,
          0.043428272,
          0.12205928,
          0.16537936,
          -0.004428921,
          0.12294208,
          0.10944952,
          0.56087,
          0.28765857,
          -0.08470137,
          -0.0903597,
          -0.015383933
        ],
        [
          -0.0365183,
          0.037147988,
          0.073402904,
          -0.26484832,
          -0.033916768,
          0.3076586,
          0.09687433,
          0.08118091,
          0.017488692,
          0.037173513,
          -0.01693102,
          1.2547638,
          0.037788447,
          0.01082746,
          0.012076346,
          0.010162138
        ],
        [
          0.1542579,
          0.044924375,
          0.15901615,
          -0.15589486,
          0.12503508,
          0.1235239,
          0.081278294,
          0.04261187,
          0.3165841,
          0.2016705,
          -0.07090612,
          0.46815175,
          0.03328299,
          0.06664388,
          -0.08957314,
          0.12938161
        ],
        [
          -0.07343716,
          0.09219826,
          -0.09536777,
          0.080163494,
          0.14015654,
          0.034491595,
          -0.042422235,
          -0.014407993,
          0.06380516,
          -0.14049362,
          -0.15040568,
          -0.26186407,
          0.1942662,
          -0.034174323,
          -0.13893694,
          -0.1764491
        ],
        [
          0.071945615,
          0.26889637,
          -0.1411803,
          0.19093652,
          -0.05713495,
          0.19592184,
          0.04367497,
          -0.090120114,
          0.20741187,
          0.09725235,
          -0.2923679,
          0.87361354,
          -0.041143216,
          -0.008281147,
          0.15475789,
          0.062739186
        ],
        [
          0.18793036,
          -0.078825034,
          0.04338065,
          -1.0617725,
          -0.07010464,
          -0.62389976,
          0.008355689,
          0.1889526,
          -0.038829084,
          0.0111684,
          -0.117308296,
          -0.65716994,
          0.08986456,
          -0.09028012,
          -0.18812925,
          0.20178592
        ],
        [
          -0.045578036,
          0.15059717,
          0.08106695,
          -0.19559301,
          0.09939721,
          -0.36508054,
          0.068870604,
          -0.07069895,
          -0.0016636169,
          0.04292486,
          -0.06298549,
          -0.38807565,
          -0.14896612,
          0.060670894,
          0.10124543,
          -0.01969026
        ],
        [
          0.047193862,
          0.21957417,
          0.009034115,
          0.09894703,
          -0.18677346,
          0.45231798,
          -0.015859267,
          -0.20655575,
          -0.29727992,
          -0.1021251,
          -0.18823643,
          0.07375453,
          -0.19397788,
          0.057517767,
          0.27050364,
          -0.1635841
        ],
        [
          0.15756924,
          0.08761349,
          -0.017321214,
          0.25887978,
          0.15853567,
          -1.3908182,
          0.061569218,
          0.037253875,
          -0.08802373,
          0.5323499,
          -0.00055336946,
          -0.46043444,
          0.02704157,
          -0.19582792,
          0.02795632,
          0.13756469
        ],
        [
          -0.04401423,
          -0.12907122,
          0.0235452,
          0.12732248,
          -0.041564137,
          -0.30889893,
          0.07968782,
          0.09454795,
          0.1655357,
          -0.3005276,
          0.060460612,
          0.20204112,
          0.16530076,
          -0.10015455,
          -0.16382705,
          0.07494514
        ],
        [
          -0.02153495,
          0.52913266,
          0.33822727,
          -0.1697776,
          -0.1238265,
          -0.033055898,
          0.40579847,
          -0.1730019,
          0.3572939,
          -0.10097663,
          0.36560115,
          0.23158345,
          -0.21291086,
          -0.040476676,
          0.49349156,
          -0.3416347
        ],
        [
          0.027848024,
          0.10671117,
          0.00814185,
          0.08407214,
          -0.06936576,
          -0.048913285,
          0.13434164,
          -0.09011446,
          -0.061429888,
          -0.16562013,
          0.07525847,
          -1.2348222,
          -0.030384725,
          0.06839222,
          0.03105394,
          0.011698101
        ],
        [
          0.020698624,
          0.11840838,
          0.3113383,
          -0.053419862,
          -0.018933691,
          0.12993267,
          0.21247001,
          0.0035069152,
          -0.06554434,
          0.01107666,
          0.07325341,
          -1.1784616,
          0.094006285,
          0.19118597,
          0.024204377,
          -0.01837772
        ],
        [
          -0.08418938,
          0.05183704,
          0.17645828,
          -0.23332287,
          0.02029604,
          0.061454408,
          -0.007276757,
          0.027353644,
          0.12590238,
          -0.017651679,
          0.20389532,
          -0.8905858,
          0.03820594,
          -0.13969593,
          0.21254328,
          0.00020066567
        ],
        [
          -0.008618973,
          0.013005372,
          0.07941514,
          0.05715893,
          -0.014360049,
          -0.3889707,
          -0.03639144,
          0.030608868,
          -0.11197289,
          0.20375684,
          0.032355435,
          -1.2464653,
          -0.0006870071,
          0.0905265,
          -0.04114786,
          -0.06976005
        ],
        [
          -0.066376,
          -0.007957993,
          0.032037385,
          -0.11177014,
          0.48019785,
          0.10649413,
          -0.004588279,
          -0.1787296,
          -0.22084321,
          0.31769058,
          0.2419,
          -0.67842823,
          -0.016275808,
          0.15546629,
          -0.035749886,
          0.15470602
        ],
        [
          -0.13811184,
          -0.13989271,
          0.07982852,
          0.12630187,
          -0.2977083,
          -0.0749771,
          -0.25963393,
          -0.017399907,
          -0.1711052,
          -0.0071948394,
          0.057349846,
          -0.2326274,
          -0.12750463,
          0.024959419,
          0.10807316,
          0.06279489
        ],
        [
          0.043595064,
          -0.13811153,
          0.16158,
          0.1915353,
          0.0065209535,
          0.26499707,
          0.20049681,
          -0.023157913,
          -0.07534492,
          0.17337139,
          0.004183467,
          0.43108162,
          0.11423433,
          -0.13308626,
          0.2574141,
          -0.17047775
        ],
        [
          0.019106595,
          0.04631852,
          -0.23421255,
          -0.04725397,
          -0.217428,
          0.267831,
          0.07469782,
          0.10674919,
          0.039541833,
          -0.23061207,
          0.09134975,
          0.13231671,
          0.11467644,
          -0.10519895,
          0.24387658,
          -0.13684084
        ],
        [
          0.13439518,
          0.08349503,
          -0.1029274,
          0.07304314,
          -0.064173974,
          0.28581718,
          -0.16583994,
          0.02635664,
          -0.008648379,
          -0.26434356,
          -0.08227165,
          -0.2737601,
          0.06068281,
          0.063263744,
          0.08214024,
          -0.08719512
        ],
        [
          0.1385203,
          0.040344205,
          -0.097909436,
          0.035608497,
          0.3626137,
          0.46477664,
          -0.3307271,
          0.10054597,
          0.13439776,
          -0.39699784,
          -0.12577026,
          0.15867525,
          0.056656834,
          0.14468539,
          0.016636051,
          0.018127605
        ],
        [
          -0.013271203,
          0.08172657,
          -0.044749003,
          0.36622334,
          0.20147656,
          0.36857823,
          -0.07366595,
          -0.05368219,
          -0.32450163,
          -1.3323117,
          -0.39007095,
          -0.9189553,
          0.023828771,
          0.119156875,
          -0.01584671,
          -0.21923772
        ],
        [
          0.1417395,
          -0.09809243,
          0.18585971,
          -0.13978596,
          -0.025356397,
          -0.110196926,
          -0.07841609,
          0.0005151699,
          0.21971443,
          0.035303604,
          0.05144662,
          -0.02853443,
          0.062094122,
          -0.05813324,
          -0.034837138,
          -0.029530985
        ],
        [
          0.124327146,
          -0.06689742,
          0.12676191,
          -0.074336134,
          -0.00067151885,
          -0.08805451,
          -0.116770625,
          -0.011015361,
          -0.13495557,
          -0.057566475,
          -0.041990418,
          0.3290981,
          -0.04288693,
          0.1054481,
          -0.074705236,
          0.1451301
        ],
        [
          -0.03171437,
          -0.08489082,
          0.036166225,
          -0.00459052,
          -0.06460427,
          -0.095929414,
          -0.08192649,
          0.051840603,
          -0.2098544,
          -0.11946909,
          -0.039928164,
          0.011055626,
          -0.018967638,
          -0.04005545,
          0.027680568,
          -0.055386614
        ],
        [
          0.025040459,
          0.0012438196,
          -0.063428104,
          -0.04793954,
          0.034761563,
          0.09452559,
          -0.07095608,
          0.021189349,
          -0.1857361,
          0.015041799,
          -0.01633088,
          -0.6993374,
          -0.12101488,
          -0.058384188,
          0.06979464,
          0.039059475
        ],
        [
          -0.114313535,
          -0.019321168,
          0.07729207,
          0.14824565,
          -0.027548295,
          0.060779426,
          -0.050290626,
          0.023137672,
          -0.12463493,
          0.08861511,
          -0.06075303,
          -0.30099866,
          -0.07714769,
          0.025478968,
          -0.036108837,
          0.068200074
        ],
        [
          -0.03983342,
          -0.051678892,
          -0.04761863,
          -0.1137054,
          -0.10433642,
          0.14573564,
          -0.015655087,
          -0.0273691,
          0.18573524,
          -0.095012374,
          -0.06907556,
          -0.82404834,
          -0.117816366,
          0.06483718,
          0.07336628,
          0.10433079
        ],
        [
          0.012169311,
          -0.027778009,
          -0.1192265,
          0.09452291,
          -0.1004458,
          0.00088560063,
          0.036773585,
          0.001601815,
          0.19013104,
          -0.13627875,
          -0.067290686,
          -0.5559353,
          -0.2023908,
          0.039558128,
          -0.0064957575,
          -0.019669093
        ],
        [
          0.118812464,
          0.056011572,
          0.015168812,
          0.053787723,
          0.06479017,
          0.113389425,
          0.06605597,
          -0.00095362106,
          -0.13776538,
          -0.01837207,
          -0.012807066,
          -0.18112046,
          0.055768766,
          0.113761924,
          0.028890254,
          0.029294003
        ],
        [
          0.13029332,
          0.11527686,
          0.054889325,
          0.013066172,
          -0.020570207,
          -0.011924815,
          -0.10338384,
          0.04746311,
          -0.109485336,
          0.039008677,
          0.02481927,
          -0.40435308,
          0.10555798,
          0.08011674,
          0.014381843,
          0.056757174
        ],
        [
          0.055068005,
          0.09552562,
          0.047580738,
          -0.04637885,
          0.14714804,
          0.1748935,
          -0.057263955,
          0.08842555,
          0.03422937,
          -0.007683082,
          -0.024473928,
          -0.49273318,
          0.090794355,
          0.12310324,
          0.059552975,
          0.01486902
        ],
        [
          0.02299479,
          0.034011044,
          0.061598916,
          -0.039993703,
          0.0800503,
          0.06631813,
          0.12797122,
          0.041941315,
          -0.0046951077,
          0.02840821,
          -0.022535529,
          -0.70812196,
          0.0005924137,
          0.037431374,
          -0.023197765,
          0.0032714354
        ],
        [
          0.020242501,
          -0.026199838,
          0.07683551,
          0.021148147,
          -0.0035185048,
          0.029960249,
          0.06465456,
          0.06927161,
          0.020314446,
          0.06272746,
          0.052772284,
          -0.28887683,
          0.04109554,
          0.055176474,
          0.072522506,
          0.07598633
        ],
        [
          -0.021349128,
          0.026610738,
          0.0071209413,
          -0.118432984,
          0.092030786,
          -0.07053838,
          -0.12656657,
          0.069652066,
          0.054545898,
          0.0020802992,
          0.036052264,
          -0.08305175,
          0.09789024,
          0.11594034,
          -0.04905805,
          -0.055056825
        ],
        [
          0.017135963,
          0.03604904,
          0.11809866,
          0.011865943,
          -0.06707435,
          -0.07251134,
          0.031355757,
          0.07208763,
          -0.088681705,
          0.056949504,
          0.06290347,
          -0.15890804,
          0.05269151,
          0.092205636,
          0.091820344,
          0.019501127
        ],
        [
          -0.040163513,
          0.011230951,
          0.09106843,
          0.061189003,
          0.022899564,
          0.056285866,
          0.11707753,
          0.054550104,
          0.059135024,
          0.07390144,
          0.100545414,
          0.19758618,
          0.022046868,
          0.05985208,
          0.08826004,
          -0.024553142
        ],
        [
          0.060038295,
          -0.0032802771,
          -0.0025656638,
          -0.058811285,
          0.023077078,
          0.00936864,
          0.08515333,
          0.050580584,
          -0.10344941,
          0.10794344,
          0.14788677,
          -0.46136045,
          0.027815066,
          0.029825764,
          0.0570736,
          -0.01882508
        ],
        [
          -0.1173734,
          -0.121543884,
          0.030342266,
          -0.104273334,
          -0.036935586,
          0.020518325,
          -0.016154118,
          0.017262707,
          0.033932347,
          0.006727304,
          0.15038858,
          -0.18969688,
          -0.07007362,
          -0.03347756,
          0.1382371,
          -0.011560169
        ],
        [
          -0.08894818,
          0.037205055,
          -0.020268347,
          -0.03952167,
          -0.028861217,
          -0.14635101,
          0.06807765,
          0.1342031,
          0.06504948,
          0.090869345,
          0.17698886,
          -0.35245824,
          0.06649122,
          0.054570995,
          0.078244075,
          0.036208726
        ],
        [
          -0.10039193,
          0.0069273636,
          0.07111114,
          -0.091474995,
          0.021522209,
          -0.14041021,
          0.06888814,
          0.06867929,
          -0.06775033,
          0.030654911,
          0.16015218,
          -0.33081377,
          0.04841929,
          0.04692789,
          0.07760358,
          -0.07364806
        ],
        [
          0.08467794,
          0.089278236,
          0.113012135,
          -0.1548225,
          -0.045559917,
          0.07463359,
          -0.00049608055,
          0.06898761,
          0.045797314,
          -0.0024489607,
          0.044118725,
          -0.49300492,
          0.024537463,
          0.04727213,
          -0.019719554,
          -0.063879706
        ],
        [
          0.11057309,
          -0.013222495,
          0.15682457,
          -0.13103035,
          0.011211876,
          -0.08201607,
          0.05699478,
          -0.013210843,
          -0.10366323,
          -0.119012676,
          0.11134467,
          0.039956626,
          -0.08482523,
          -0.051123813,
          0.051807977,
          0.010271658
        ],
        [
          0.01238779,
          -0.01439368,
          0.14356421,
          -0.115785435,
          0.019864362,
          -0.1483483,
          0.03963793,
          0.10902856,
          -0.0074810996,
          0.044118263,
          0.0423181,
          0.32226914,
          0.06865214,
          0.038579248,
          -0.011504952,
          0.018233735
        ],
        [
          -0.10149156,
          0.09534711,
          -0.0844879,
          -0.10794544,
          0.1298014,
          -0.080209486,
          0.100377515,
          0.038737215,
          -0.052363757,
          -0.04585231,
          0.122015595,
          -0.18444103,
          0.023875363,
          0.07309558,
          -0.009175967,
          -0.037151128
        ],
        [
          -0.14766611,
          0.054089934,
          -0.0861987,
          0.087337956,
          0.16198212,
          -0.17651638,
          0.07700357,
          0.04174339,
          0.112710856,
          0.2659826,
          0.055665813,
          -0.31634688,
          0.0006398266,
          0.056614585,
          0.19602613,
          -0.016235817
        ],
        [
          -0.20470159,
          0.15077624,
          -0.2663218,
          -0.0010910298,
          0.06794646,
          -0.11181145,
          0.059671924,
          -0.028233642,
          0.14646569,
          0.46678177,
          0.02278917,
          -0.12293645,
          -0.055077963,
          -0.20392387,
          0.24625532,
          -0.04519809
        ],
        [
          0.23328167,
          0.0486606,
          -0.63199425,
          -0.14252923,
          -0.11403578,
          0.67275584,
          0.13961248,
          0.011629407,
          0.18348837,
          -0.15833977,
          -0.08474864,
          -0.22925632,
          0.34537676,
          -0.03269955,
          0.017275488,
          0.010136086
        ],
        [
          0.09885858,
          0.005918979,
          -0.45343757,
          -0.05900525,
          0.05400627,
          0.2517713,
          -0.04828232,
          0.14888155,
          0.14694545,
          0.041636515,
          -0.15821259,
          -0.18781559,
          0.15802833,
          0.058751818,
          0.07361192,
          0.040238883
        ],
        [
          -0.012980972,
          0.073859386,
          -0.11492198,
          -0.06613914,
          0.0734876,
          -0.024718275,
          -0.027461521,
          0.09608235,
          -0.039723337,
          -0.13653462,
          -0.03628981,
          -0.11373742,
          0.118501894,
          0.080008775,
          0.041836467,
          -0.051748287
        ],
        [
          0.064261466,
          -0.027771827,
          0.063973226,
          -0.18675551,
          0.015225493,
          -0.21241148,
          -0.076536,
          0.15146154,
          0.0028533018,
          0.11546854,
          -0.088454984,
          -0.28672987,
          0.12550184,
          0.14481992,
          0.006495085,
          0.050008506
        ],
        [
          0.14608078,
          0.0034141797,
          0.17400354,
          0.008549427,
          -0.15832277,
          -0.44270134,
          -0.0013442077,
          -0.017899882,
          -0.14093046,
          -0.19159283,
          -0.082729496,
          -0.2637457,
          -0.01499337,
          -0.018648734,
          -0.073960654,
          -0.057471115
        ],
        [
          -0.06126817,
          0.048213124,
          0.034989163,
          -0.09546321,
          -0.1377256,
          -0.11648977,
          -0.086149685,
          0.035927754,
          -0.23626286,
          -0.00045836088,
          0.09574791,
          -0.09488964,
          -0.069613926,
          0.022527024,
          0.08944224,
          -0.018794991
        ],
        [
          0.06676151,
          0.12927449,
          0.09255685,
          -0.237966,
          0.034043636,
          0.3751201,
          -0.0035649848,
          0.02329075,
          0.14671108,
          0.13297532,
          -0.0058997795,
          -0.06263596,
          0.2396035,
          -0.013651662,
          0.0077881035,
          -0.011967851
        ],
        [
          -0.0056532077,
          0.10905318,
          -0.005600442,
          -0.09986631,
          0.054764815,
          0.16073383,
          -0.08869748,
          0.05592563,
          0.09767534,
          0.058574643,
          0.022450227,
          -0.19533005,
          0.20654117,
          0.06916977,
          0.11527681,
          0.10755231
        ],
        [
          0.015125221,
          0.08223857,
          0.0139700975,
          0.051291388,
          -0.0541988,
          0.32130316,
          -0.0035190494,
          0.05306741,
          0.08516606,
          -0.017386433,
          -0.009958874,
          -0.29349953,
          0.12912667,
          0.095421106,
          0.001932533,
          -0.04632771
        ],
        [
          0.019848628,
          -0.04207926,
          0.1575754,
          -0.0738987,
          -0.033568013,
          0.18962245,
          -0.007928096,
          0.029565664,
          0.019928377,
          0.08303666,
          -0.05060609,
          -0.13923673,
          0.19537844,
          0.0794851,
          0.014409091,
          -0.012779743
        ],
        [
          0.10585377,
          0.039614175,
          -0.17243111,
          -0.19990309,
          -0.08820146,
          -0.13329749,
          -0.025434945,
          -0.021444028,
          -0.08408966,
          -0.15400092,
          -0.015788592,
          -0.39893565,
          0.08948572,
          0.05870754,
          0.09286538,
          0.0138054
        ],
        [
          0.034171116,
          0.01036182,
          0.10487208,
          0.006061895,
          -0.04922102,
          0.07876665,
          -0.058093008,
          0.11566785,
          -0.20980778,
          0.048419677,
          -0.0035336046,
          0.08217556,
          0.08070386,
          -0.006007398,
          0.013336482,
          -0.005746858
        ],
        [
          -0.013154406,
          0.032486673,
          0.12179608,
          -0.04713295,
          -0.07619193,
          0.2745881,
          -0.09550986,
          -0.03413522,
          -0.188206,
          -0.05408815,
          0.08282073,
          -0.3281511,
          0.09631395,
          0.045294363,
          0.1146435,
          0.051551085
        ],
        [
          0.17679335,
          0.009565757,
          0.0792491,
          0.11328472,
          0.007887432,
          0.06775099,
          -0.069473766,
          0.19743207,
          0.022941828,
          -0.031313572,
          -0.026000718,
          -0.19151837,
          0.10878022,
          0.082415484,
          0.05091029,
          0.017766774
        ],
        [
          0.06754784,
          -0.06730922,
          -0.087923646,
          -0.24903265,
          -0.06408385,
          -0.18748552,
          -0.036904134,
          -0.051061455,
          0.020931182,
          -0.06378658,
          0.040539656,
          -0.018222975,
          0.100712925,
          0.035853233,
          0.090712205,
          0.00070331455
        ],
        [
          0.047320105,
          -0.020066338,
          -0.066035785,
          0.05418186,
          0.12485903,
          -0.037410244,
          -0.02659802,
          0.044107642,
          -0.129232,
          -0.106246226,
          -0.14605416,
          -0.21982126,
          0.020806486,
          -0.009794833,
          0.063823,
          0.048264198
        ],
        [
          0.064634085,
          0.07957646,
          0.040993664,
          -0.13884458,
          0.0064386674,
          0.035912286,
          0.116592094,
          0.109304994,
          0.08193986,
          0.12884952,
          -0.01445374,
          -0.17642139,
          -0.040255792,
          0.023543082,
          0.04943433,
          -0.03490588
        ],
        [
          -0.013617861,
          -0.036055863,
          0.1129537,
          -0.18805568,
          0.08520468,
          -0.003206066,
          0.098051205,
          0.047994412,
          -0.06065781,
          -0.15785481,
          0.015737489,
          0.051244844,
          0.03038082,
          0.06469802,
          0.13482879,
          0.040932477
        ],
        [
          -0.44006643,
          0.02449026,
          0.04672046,
          0.20290911,
          -0.054932155,
          -0.20325269,
          -0.035256118,
          -0.030948892,
          -0.16048335,
          0.32030392,
          0.06438988,
          -0.97489214,
          -0.061741535,
          0.10410382,
          -0.036362458,
          0.25391784
        ],
        [
          -0.3411894,
          0.08725491,
          0.16737889,
          0.27520296,
          -0.011755033,
          -0.07493348,
          0.015395167,
          -0.15320013,
          -0.14610301,
          -0.03840912,
          0.04692847,
          -0.5499642,
          -0.010285194,
          0.15001442,
          0.084495746,
          0.24266656
        ],
        [
          -0.09989799,
          0.05261185,
          0.08071498,
          0.3320551,
          0.059180684,
          -0.1631369,
          0.11286393,
          -0.06796568,
          0.030269163,
          -0.020283258,
          -0.0032941476,
          -0.16659974,
          0.06294861,
          0.072723396,
          -0.017431075,
          -0.0067623127
        ],
        [
          0.023390496,
          0.020197978,
          -0.10818596,
          0.23886684,
          0.011366058,
          -0.093389295,
          -0.010911234,
          0.027088841,
          0.053221073,
          0.041494314,
          0.17705433,
          -0.16784103,
          0.15169752,
          0.11713729,
          -0.07767021,
          -0.0075011277
        ],
        [
          -0.11004413,
          -0.024441928,
          0.0042495704,
          0.17226622,
          -0.11761013,
          -0.28437498,
          0.039353102,
          -0.016235419,
          -0.092055514,
          -0.002815944,
          0.1792547,
          0.13366923,
          0.037522078,
          0.21334396,
          -0.045273215,
          -0.040016554
        ],
        [
          0.1173447,
          -0.074022375,
          0.12174073,
          0.2781134,
          0.07447861,
          -0.10958545,
          0.044901673,
          0.030616445,
          -0.18278207,
          0.03061911,
          -0.013514431,
          -0.66022444,
          -0.051935,
          -0.01148573,
          -0.028253626,
          -0.0039068605
        ],
        [
          0.07586782,
          -0.116440825,
          0.18271802,
          -0.14502954,
          -0.14793709,
          0.08117298,
          -0.17859118,
          -0.01305711,
          -0.46526632,
          0.056917027,
          -0.14590158,
          1.2141726,
          -0.03548105,
          -0.012825529,
          -0.10769369,
          -0.1293404
        ],
        [
          -0.051677596,
          -0.038517613,
          0.34631708,
          -0.07672833,
          -0.14275853,
          0.07001302,
          -0.1333714,
          -0.052391138,
          -0.56100345,
          0.2148861,
          -0.0721162,
          0.76512796,
          -0.11749031,
          -0.14206001,
          -0.11149589,
          -0.1293778
        ],
        [
          0.10445237,
          0.06979919,
          0.28487375,
          0.009855676,
          0.02530525,
          -0.07068234,
          -0.0631479,
          -0.18156451,
          -0.39004868,
          -0.14828496,
          -0.12611677,
          -1.1812227,
          -0.14090528,
          -0.14235975,
          -0.07387739,
          -0.036747992
        ],
        [
          0.04717577,
          0.21122901,
          0.19512841,
          0.10652948,
          -0.10742785,
          -0.09148341,
          -0.053895395,
          -0.19720323,
          0.29077277,
          -0.07968672,
          0.051054228,
          -1.0311397,
          -0.029620804,
          -0.051223107,
          0.040313825,
          -0.036850944
        ],
        [
          -0.040387787,
          -0.050278503,
          -0.091105826,
          -0.013940305,
          0.052170888,
          -0.037601493,
          0.25443515,
          -0.06226781,
          0.7221491,
          0.10179248,
          -0.11726698,
          -0.8542986,
          -0.07509491,
          0.1187722,
          -0.054971,
          -0.15657787
        ],
        [
          0.0134265255,
          0.08209365,
          0.017530153,
          -0.21223119,
          -0.009615632,
          -0.09084596,
          0.6606963,
          -0.10647339,
          0.40901655,
          -0.11553556,
          0.021433396,
          -1.2196505,
          0.0304979,
          0.18651396,
          0.051008046,
          -0.13648634
        ],
        [
          0.13713925,
          0.057555713,
          -0.11527678,
          -0.032195,
          -0.0030983144,
          -0.05180593,
          0.09449293,
          -0.027198857,
          -0.105876274,
          0.06690701,
          -0.039242074,
          -0.8064353,
          0.020070974,
          0.036344282,
          0.024385812,
          -0.055762358
        ],
        [
          0.031845476,
          0.018687764,
          0.06710948,
          -0.077169,
          -0.09070682,
          -0.21999404,
          0.08659585,
          0.036175154,
          -0.0010570381,
          -0.040885217,
          -0.0034815785,
          -0.9107869,
          -0.040257685,
          0.018032877,
          -0.008587843,
          0.028216083
        ],
        [
          0.12211921,
          0.08220671,
          0.025684446,
          -0.08195639,
          -0.0048465063,
          -0.06021183,
          0.01721524,
          0.07148689,
          -0.08089828,
          0.01823648,
          0.05759365,
          -0.16304916,
          0.023378886,
          0.061633985,
          -0.07195377,
          0.040737554
        ],
        [
          0.049469065,
          0.07571961,
          0.12391213,
          -0.082785696,
          0.14318919,
          0.00084132113,
          0.077811316,
          0.0060768877,
          -0.050894197,
          0.096214466,
          0.058692537,
          -0.21250826,
          -0.04795724,
          0.0022830449,
          0.12325686,
          0.053972453
        ],
        [
          0.035578202,
          0.012275761,
          0.0032915669,
          -0.025292413,
          -0.013583718,
          -0.061902933,
          0.06696524,
          0.05031018,
          -0.007826448,
          0.0038901786,
          0.06724385,
          -0.09689508,
          -0.08843987,
          0.03088831,
          0.017468216,
          -0.055362143
        ],
        [
          0.09212651,
          0.05117581,
          0.06892654,
          -0.23165941,
          0.1304777,
          0.04059788,
          0.13020937,
          0.15443137,
          0.05076624,
          0.039476685,
          -0.023536257,
          -0.44937634,
          -0.078111365,
          0.02838572,
          -0.016352968,
          -0.087278314
        ],
        [
          -0.063334696,
          -0.11548734,
          0.15260495,
          -0.18275097,
          0.083699875,
          -0.2912689,
          0.10782097,
          0.08896048,
          -0.17006668,
          0.047595993,
          0.031820856,
          0.49411756,
          -0.16581973,
          0.042172514,
          -0.04098185,
          -0.029396567
        ],
        [
          0.2031395,
          0.06485747,
          -0.008268692,
          -0.06271426,
          -0.042812955,
          0.092300646,
          0.08396922,
          0.09492208,
          0.09536838,
          -0.0031926082,
          0.17509113,
          -0.023674654,
          -0.11398171,
          0.11336512,
          0.0077569783,
          -0.026174512
        ],
        [
          0.1529166,
          -0.022605686,
          0.04768299,
          -0.114983425,
          0.06476296,
          0.050469615,
          0.036111116,
          0.09969857,
          -0.1204438,
          0.07492482,
          0.13625748,
          -0.16017836,
          -0.12320705,
          -0.060413085,
          -0.0065929214,
          -0.020911586
        ],
        [
          0.16158883,
          -0.072925135,
          0.27368584,
          -0.16072825,
          0.083413325,
          -0.14019561,
          0.12681943,
          0.14984366,
          0.0037555464,
          0.114387386,
          0.11251133,
          -0.14020205,
          0.009185787,
          0.098931976,
          -0.01630328,
          -0.029183008
        ],
        [
          0.054640766,
          -0.045560002,
          0.25010145,
          -0.2547211,
          -0.0032291675,
          0.0616107,
          -0.065189615,
          0.104159564,
          -0.07352794,
          0.06279453,
          0.2353244,
          0.083048634,
          0.014924195,
          0.09993944,
          0.03875696,
          -0.186289
        ],
        [
          0.07543529,
          -0.08377354,
          0.03954022,
          -0.09833115,
          -0.07687735,
          0.010310818,
          0.08169824,
          0.14172268,
          0.01923046,
          0.16540982,
          0.17320345,
          -0.38164037,
          -0.13412586,
          0.023246234,
          -0.003894929,
          -0.18621261
        ],
        [
          0.12753172,
          0.10835098,
          0.108073875,
          -0.25174993,
          -0.06501631,
          -0.14886501,
          -0.1152374,
          0.1642242,
          -0.058953445,
          -0.021937642,
          0.13199337,
          -0.55577844,
          0.05633945,
          0.059294708,
          -0.0973371,
          -0.14603414
        ],
        [
          0.28474635,
          -0.08356987,
          0.2114418,
          -0.44843262,
          0.060042385,
          0.032710604,
          0.09617762,
          0.084808156,
          -0.14805841,
          -0.06796817,
          0.070614256,
          -0.039195653,
          -0.08262579,
          -0.058327697,
          -0.099462375,
          -0.01365975
        ],
        [
          0.24585615,
          -0.07169168,
          0.17551441,
          -0.17232955,
          -0.09592653,
          0.22209305,
          -0.064639896,
          0.18622544,
          -0.18886822,
          0.054417014,
          0.0496663,
          -0.38506728,
          0.060135096,
          0.12724851,
          0.045232214,
          -0.019455645
        ],
        [
          0.034598146,
          -0.091820985,
          0.1570519,
          0.014821733,
          -0.03427047,
          0.11284181,
          -0.002460717,
          0.09114812,
          -0.070046894,
          0.02754701,
          0.11590435,
          -0.45358318,
          -0.029526122,
          0.13832952,
          -0.07959588,
          -0.010949527
        ],
        [
          -0.07409536,
          0.15785837,
          -0.022735931,
          0.1918864,
          -0.080894016,
          0.073266275,
          0.08425929,
          0.08206822,
          -0.018300286,
          0.2019989,
          0.24331318,
          -0.5104957,
          -0.10814084,
          0.041124776,
          0.13545378,
          0.0202141
        ],
        [
          0.09432366,
          0.06633365,
          0.13004823,
          -0.071260124,
          0.028862026,
          0.0033394692,
          0.07631107,
          0.12201564,
          0.041892763,
          0.3885946,
          0.165534,
          -0.23678607,
          -0.12932777,
          -0.09665189,
          0.14969228,
          0.14803605
        ],
        [
          0.2075982,
          0.19364345,
          -0.22159775,
          0.00675815,
          0.13401562,
          -0.26663572,
          -0.023537386,
          0.013660046,
          0.088730745,
          0.20583637,
          0.09790356,
          -0.5308364,
          0.15983385,
          0.15181173,
          -0.07198459,
          -0.038225435
        ],
        [
          0.15852249,
          0.1066642,
          -0.24741098,
          -0.14213847,
          0.21877787,
          -0.10138522,
          0.08363677,
          -0.07995644,
          0.089396164,
          0.22438201,
          0.11087834,
          -0.15582475,
          0.1476574,
          0.19787757,
          -0.0028170103,
          0.08591374
        ],
        [
          0.13598903,
          0.044902086,
          0.121830955,
          0.037264984,
          0.14343028,
          0.018051757,
          -0.088345475,
          0.0010003884,
          -0.2664866,
          0.15941195,
          0.04727901,
          -0.33243495,
          -0.033465125,
          0.13269767,
          0.09953817,
          0.024315426
        ],
        [
          0.1487471,
          0.023928227,
          0.14959607,
          -0.09447473,
          0.109190755,
          0.07443725,
          -0.120229505,
          -0.028221985,
          -0.092188954,
          0.13238952,
          0.006461915,
          -0.14941248,
          0.03885381,
          0.08485937,
          0.035986446,
          -0.02954138
        ],
        [
          0.2532177,
          0.14748085,
          0.43922496,
          0.09602804,
          0.011082418,
          0.097265474,
          -0.028150897,
          -0.044718035,
          -0.25748506,
          -0.34410775,
          -0.03010395,
          -0.14165583,
          0.06024571,
          0.08826808,
          0.0292199,
          0.10021412
        ],
        [
          0.16935472,
          0.03345429,
          0.1502609,
          0.028631808,
          0.017467469,
          -0.057687614,
          -0.12304859,
          0.18735221,
          -0.14709415,
          0.07502911,
          0.08197767,
          -0.23506041,
          -0.0042586233,
          0.047384866,
          -0.0252316,
          -0.0084161945
        ],
        [
          0.18616743,
          0.22372569,
          0.02495658,
          -0.08691664,
          0.11456675,
          0.010514024,
          -0.07349886,
          -0.059806816,
          -0.13747914,
          0.0483564,
          0.115515955,
          -0.14489613,
          0.122054204,
          0.053928293,
          0.1188122,
          0.060118455
        ],
        [
          0.06960703,
          0.14475176,
          0.23192279,
          0.0039928076,
          -0.06825099,
          -0.0005816124,
          -0.044969656,
          0.06472398,
          -0.13997504,
          0.022265721,
          -0.06396079,
          -0.12890556,
          0.11633356,
          0.083981894,
          0.15162985,
          0.031591214
        ],
        [
          0.2526495,
          0.12910652,
          0.0944076,
          -0.13396683,
          0.0064080316,
          0.012486973,
          -0.15870179,
          0.19117245,
          -0.09257709,
          0.05383732,
          -0.0059770844,
          -0.033626657,
          0.17198354,
          0.20376046,
          0.082298994,
          0.02875584
        ],
        [
          0.38817602,
          0.14013925,
          0.2114305,
          -0.095646426,
          -0.04894214,
          0.022333119,
          0.061793067,
          0.04716745,
          -0.24853078,
          -0.16052108,
          -0.056829415,
          -0.12358199,
          0.17052984,
          -0.014246749,
          0.08687545,
          -0.05596431
        ],
        [
          0.16222055,
          0.10822056,
          -0.06820363,
          -0.055679336,
          -0.010228062,
          -0.21575692,
          -0.1624383,
          -0.05666557,
          -0.13766278,
          0.0399296,
          0.11854969,
          -0.17987375,
          0.09557384,
          -0.005210711,
          0.16795732,
          0.041715283
        ],
        [
          0.14953606,
          0.09277782,
          0.00044696807,
          -0.15780133,
          0.040844813,
          -0.073280044,
          -0.19175257,
          0.03996985,
          -0.10911236,
          0.045621727,
          0.16036423,
          0.04032058,
          0.11298668,
          0.014044708,
          -0.035332095,
          0.02524069
        ],
        [
          0.24244784,
          0.07962203,
          0.1385525,
          0.009463268,
          -0.10910068,
          -0.19675362,
          -0.037893176,
          -0.011595863,
          -0.12016858,
          0.008051451,
          -0.042057402,
          -0.16194144,
          -0.0053952094,
          0.13120344,
          0.21127403,
          -0.019996021
        ],
        [
          -0.0492959,
          0.034738693,
          0.0691268,
          0.022881461,
          -0.0463677,
          0.039642133,
          -0.10306818,
          -0.00046158952,
          -0.027926816,
          -0.06631202,
          0.0762686,
          -0.13883124,
          0.03125947,
          0.108951725,
          0.031317525,
          -0.106184565
        ],
        [
          0.036062982,
          0.026680617,
          -0.09134503,
          -0.018234337,
          0.0047841463,
          0.017378911,
          -0.02418469,
          0.025767092,
          0.018748641,
          0.12876181,
          -0.084785014,
          0.06712767,
          0.01406978,
          0.08909524,
          0.06346783,
          -0.04791107
        ],
        [
          -0.058194723,
          0.04293446,
          -0.14658938,
          -0.15993929,
          0.03926088,
          -0.036503147,
          -0.07154667,
          0.0034792323,
          -0.08076557,
          0.032178447,
          -0.032851264,
          0.016925141,
          0.15994978,
          0.045170173,
          0.0703205,
          -0.01087485
        ],
        [
          0.07479492,
          0.06441184,
          0.036310658,
          -0.20427169,
          -0.10731951,
          0.19237716,
          -0.03923033,
          -0.013996302,
          -0.19292931,
          -0.045386996,
          0.25979462,
          0.09131158,
          0.1483954,
          -0.061164483,
          0.019447666,
          0.009780651
        ],
        [
          -0.11424466,
          0.032730307,
          -0.13485837,
          -0.14344174,
          -0.006638484,
          0.15853381,
          -0.014949774,
          0.01668191,
          0.12627698,
          -0.19675048,
          0.19227646,
          0.18112285,
          0.20015164,
          -0.09686565,
          0.071119726,
          0.00073989556
        ],
        [
          0.14745906,
          0.1596222,
          -0.05414646,
          0.31165648,
          -0.12462986,
          -0.12664646,
          0.45482618,
          -0.12993377,
          0.20056987,
          0.124990106,
          0.006839851,
          0.715889,
          -0.092108965,
          0.012871829,
          0.24500787,
          -0.050671414
        ],
        [
          -0.051511634,
          0.14303027,
          -0.01451564,
          0.32816824,
          0.06647516,
          0.11119617,
          0.35992032,
          -0.09990401,
          0.12244023,
          0.03404448,
          0.028587282,
          0.44041505,
          -0.1126244,
          -0.00873846,
          0.19612776,
          -0.09676665
        ],
        [
          0.037757557,
          0.058109965,
          0.043143775,
          0.15201564,
          0.1557161,
          -0.27935645,
          0.19673455,
          0.104681596,
          0.08784114,
          0.13996856,
          -0.1492363,
          0.024420874,
          -0.05598767,
          -0.056374785,
          0.03464634,
          -0.087906815
        ],
        [
          -0.017638171,
          -0.18671522,
          0.2220817,
          -0.24231187,
          0.11720599,
          0.18130115,
          0.15725175,
          0.15143608,
          -0.12858336,
          0.17755939,
          -0.08350353,
          0.12728052,
          0.13337816,
          0.08608691,
          0.0069745267,
          0.0056260587
        ],
        [
          0.025496693,
          0.011486596,
          0.17698166,
          -0.39660493,
          0.294414,
          -0.12268196,
          -0.020087998,
          0.13474588,
          -0.0065017105,
          0.0022294475,
          -0.084522635,
          -0.11084613,
          0.0916844,
          -0.012443491,
          -0.13991068,
          0.011907816
        ],
        [
          0.04322607,
          -0.16838256,
          0.07794811,
          -0.63895977,
          0.16209503,
          -0.19619444,
          -0.17456304,
          0.1160635,
          0.028896755,
          -0.14839819,
          -0.030020459,
          -0.14481714,
          -0.057762377,
          0.10619596,
          -0.15995595,
          -0.034979973
        ],
        [
          -0.11295497,
          -0.046103314,
          0.013527976,
          -0.042362496,
          0.16133471,
          0.022247648,
          0.018580597,
          -0.028571056,
          -0.12749305,
          -0.15367985,
          0.014825465,
          -1.945636,
          -0.065140426,
          -0.104811564,
          0.113249764,
          0.041621994
        ],
        [
          -0.021986643,
          -0.038351227,
          -0.06069761,
          0.098400764,
          -0.009814653,
          -0.3189279,
          -0.0051179496,
          -0.011973827,
          -0.016403686,
          0.09662286,
          -0.16206992,
          -1.1270919,
          -0.2958327,
          -0.14974044,
          0.18402681,
          0.11699042
        ],
        [
          0.123297416,
          -0.019662343,
          0.105843365,
          -0.06936719,
          0.36976564,
          -0.52545726,
          0.097968765,
          -0.092879586,
          -0.07968725,
          -0.8187282,
          0.43437898,
          -1.8483936,
          -0.30823585,
          0.3643081,
          0.05107271,
          -0.015513536
        ],
        [
          -0.17449704,
          -0.5745513,
          0.10788422,
          0.20586637,
          -0.36815837,
          -0.3456651,
          -0.10257694,
          0.088373676,
          -0.1717339,
          -0.020244477,
          -0.021881197,
          -0.28720316,
          -0.19104442,
          -0.16609786,
          -0.12988336,
          0.04607988
        ],
        [
          -0.069451086,
          -0.23090139,
          0.010429702,
          0.05034211,
          -0.23977584,
          -0.2076046,
          0.28024435,
          0.116213545,
          0.14321607,
          -0.17766516,
          -0.02865109,
          -0.30710593,
          -0.12135435,
          -0.10119045,
          -0.028887045,
          -0.094233386
        ],
        [
          -0.16159976,
          -0.24094579,
          0.0016659506,
          0.20236816,
          -0.28429535,
          -0.36105013,
          0.14125948,
          0.34399745,
          -0.4608718,
          -0.19994509,
          -0.08538886,
          -0.31122124,
          0.18059228,
          -0.14360304,
          0.23495877,
          0.11451526
        ],
        [
          -0.1314019,
          -0.024677224,
          -0.099044695,
          0.08065322,
          0.17937995,
          -0.17036809,
          -0.007937611,
          -0.12280974,
          -0.29017058,
          -0.13698389,
          0.053298514,
          -0.72541374,
          -0.09611009,
          0.0017691451,
          0.05529602,
          -0.057787333
        ],
        [
          -0.040984645,
          0.0044590393,
          0.04971646,
          -0.17847438,
          -0.22013402,
          0.24469425,
          0.06630587,
          0.06248591,
          0.32881376,
          -0.11306017,
          0.17455989,
          -2.0111125,
          -0.059290163,
          -0.019898767,
          0.045293137,
          0.1138914
        ],
        [
          -0.1113369,
          0.0906934,
          0.27611962,
          0.08993103,
          -0.46575713,
          0.78362566,
          0.23140533,
          -0.15926097,
          -0.5100984,
          0.07819059,
          -0.004351947,
          -2.3423483,
          0.15193562,
          0.1125725,
          0.07133057,
          -0.16334884
        ],
        [
          -0.21453035,
          0.21084785,
          0.12703405,
          0.14360549,
          -0.13836905,
          0.6245487,
          0.15503116,
          0.18030825,
          0.31798387,
          -0.05344893,
          0.115500994,
          0.14242674,
          0.37900698,
          -0.0670821,
          0.07694725,
          -0.35399455
        ],
        [
          -0.3009037,
          0.043580122,
          -0.09470403,
          1.1406415,
          0.4940336,
          -0.7748864,
          0.15852939,
          0.16610602,
          -0.39445138,
          -0.76339436,
          0.36870122,
          -1.2032508,
          -0.33530387,
          -0.38760072,
          -0.22009303,
          -0.70704365
        ],
        [
          0.4154238,
          0.2023609,
          -0.42170787,
          -0.7245822,
          0.27133748,
          -0.9730827,
          0.5744663,
          0.13758647,
          0.05568038,
          0.45838276,
          0.25637063,
          -0.6744895,
          -0.27079976,
          0.52997595,
          0.16686647,
          -0.035303056
        ],
        [
          -0.07076172,
          -0.08792235,
          -0.036403246,
          0.116773635,
          0.31197077,
          -0.30183852,
          0.17138296,
          -0.04295292,
          -0.9811257,
          0.05497486,
          0.16945925,
          0.38074338,
          0.07945708,
          -0.05485818,
          -0.0015157673,
          -0.07607418
        ],
        [
          0.18184844,
          -0.041903917,
          -0.3488391,
          0.41788727,
          -0.20272046,
          -0.17311029,
          0.1525362,
          -0.10113234,
          0.9666348,
          0.13858047,
          0.0697145,
          -2.071666,
          -0.06503036,
          -0.028053043,
          -0.051105782,
          -0.117560424
        ],
        [
          0.18443657,
          -0.20037755,
          -0.41805515,
          0.18570665,
          0.030627418,
          0.2041894,
          0.0761221,
          -0.097430706,
          -0.29238454,
          -0.34562787,
          0.12056539,
          -1.9265031,
          -0.108380415,
          0.5948218,
          -0.24086662,
          -0.13949484
        ],
        [
          -0.24081147,
          0.4702172,
          -0.06476222,
          -0.088514656,
          -0.7750456,
          -0.19848724,
          0.5333671,
          0.34710053,
          0.32233253,
          -0.2912631,
          0.15329424,
          1.2500395,
          0.024022365,
          -0.16033128,
          0.106028825,
          -0.0064368523
        ],
        [
          0.08975812,
          0.20657967,
          0.49674422,
          0.1400979,
          1.3219565,
          -0.18419613,
          0.18294479,
          0.29939154,
          0.73811346,
          -1.0025109,
          -1.0422987,
          1.9634701,
          0.44489998,
          0.45390323,
          0.8131676,
          0.019545948
        ],
        [
          0.0041570365,
          -0.4459284,
          -0.5288595,
          0.5125331,
          0.2850326,
          0.02509002,
          -0.436856,
          0.3396321,
          -0.06614898,
          -0.0896677,
          -0.20836753,
          0.18065725,
          0.22147164,
          -0.4434937,
          0.20263386,
          -0.09190355
        ],
        [
          -0.017647866,
          -0.11012315,
          0.1926351,
          0.010985713,
          0.382289,
          0.021160897,
          0.12958875,
          -0.0092037665,
          -1.2507993,
          0.32274368,
          0.052308843,
          -0.3504403,
          -0.012596509,
          -0.1932349,
          0.037576206,
          -0.119641945
        ],
        [
          -0.23822922,
          0.11984676,
          -0.11480831,
          0.0710102,
          -0.19792058,
          0.109849215,
          0.22752053,
          0.06516827,
          1.0254744,
          -0.07478822,
          -0.065533005,
          -0.7770605,
          0.33220747,
          0.06239458,
          0.1477705,
          -0.13100404
        ],
        [
          -0.085673295,
          0.16781366,
          0.26666737,
          -0.32395488,
          0.09835905,
          0.8745927,
          0.2833933,
          -0.059913006,
          -0.51501864,
          0.32085294,
          0.07981966,
          -3.4185183,
          -0.14151014,
          0.071655184,
          -0.014081281,
          0.14318511
        ],
        [
          -0.2629455,
          -0.80577123,
          -0.044343777,
          0.59016055,
          0.018611394,
          -0.64994466,
          -0.10902587,
          0.036173694,
          0.11009101,
          0.099173315,
          -0.38620347,
          -0.48681134,
          0.009096986,
          0.27882618,
          -0.7396435,
          -0.73698986
        ],
        [
          0.11704851,
          -0.47997695,
          0.2096053,
          -0.43277407,
          -0.06505292,
          -0.12367603,
          -0.25528413,
          -0.05330691,
          0.22199817,
          0.28315175,
          0.5393421,
          -0.26299882,
          -0.049742125,
          0.2829766,
          -0.3415672,
          -0.79860085
        ],
        [
          0.17742227,
          -0.48867536,
          -0.5224645,
          0.10172421,
          0.7048899,
          -0.5358957,
          0.3655707,
          -0.1899394,
          -0.3708117,
          0.75392467,
          1.454948,
          -0.42552996,
          0.28398082,
          0.09973816,
          -0.2318662,
          0.0016417196
        ],
        [
          -0.066214554,
          -0.13535945,
          0.31574976,
          -0.03501878,
          0.7011762,
          0.10136708,
          -0.05888943,
          0.011038936,
          -1.6644858,
          0.19847006,
          0.007665901,
          0.5597711,
          -0.07300211,
          -0.23059128,
          0.15966868,
          0.017295465
        ],
        [
          -0.22334766,
          0.17797029,
          0.031810448,
          -0.033051517,
          -0.0097682895,
          -0.30930874,
          0.2437184,
          -0.035041314,
          0.4422974,
          0.06504407,
          0.26552045,
          -0.8368914,
          0.21688752,
          -0.11565661,
          -0.020303871,
          -0.09737382
        ],
        [
          0.14025252,
          -0.051054683,
          0.5755077,
          0.45933577,
          0.5283192,
          0.5511649,
          0.25002778,
          0.1387296,
          -0.9824112,
          0.5094128,
          -0.29141632,
          -0.259991,
          0.40878722,
          -0.10074155,
          0.23148328,
          -0.3859172
        ],
        [
          0.38986406,
          0.54278517,
          -0.4688857,
          -0.010743295,
          0.08557396,
          0.49519292,
          0.40892252,
          0.06716058,
          0.08972753,
          0.8498976,
          0.3168219,
          -0.69757724,
          0.12754926,
          -0.24680918,
          -1.3541018,
          -0.04946991
        ],
        [
          -0.029583843,
          -0.65612775,
          -0.16996922,
          -0.14578556,
          0.035343293,
          0.29054266,
          0.43371412,
          -0.14691149,
          0.5425497,
          0.16648348,
          0.9250854,
          -0.8783903,
          0.4160703,
          -0.90443695,
          -0.010937243,
          0.63327265
        ],
        [
          0.7411278,
          -1.2149849,
          -0.26164722,
          -0.40584964,
          0.4499673,
          0.7969578,
          0.37526742,
          -0.1930423,
          0.12147001,
          -0.024581296,
          0.91694856,
          -0.60325253,
          0.8052523,
          -0.20087725,
          0.25722614,
          -0.054548874
        ],
        [
          -0.018287437,
          -0.100026175,
          0.1627944,
          0.02343986,
          0.66467816,
          -0.2565196,
          0.0012193628,
          -0.06085901,
          -1.3504411,
          0.53204507,
          0.16700403,
          -0.41604376,
          -0.10253443,
          -0.21496294,
          0.07807751,
          -0.03973579
        ],
        [
          -0.14393638,
          0.045836028,
          0.08883835,
          -0.048005674,
          0.35521373,
          0.83407325,
          -0.055750687,
          -0.04542456,
          -0.29155016,
          0.118729495,
          0.06331139,
          1.0087793,
          0.08340518,
          -0.12266552,
          -0.09640105,
          0.112856336
        ],
        [
          -0.16997801,
          -0.02506093,
          0.1466156,
          -0.13449956,
          -0.18483107,
          0.7984648,
          -0.5493239,
          0.5007257,
          0.08670065,
          -0.0012952808,
          -0.012043234,
          1.7586237,
          0.27048546,
          -0.65878415,
          0.24195956,
          0.3885238
        ],
        [
          0.11588141,
          0.23125316,
          -0.51825106,
          0.002514112,
          -0.021012962,
          0.55807954,
          0.4162404,
          0.36681157,
          0.26919076,
          0.9941473,
          0.74641114,
          -0.33703172,
          0.011804884,
          0.52056605,
          -0.6338184,
          -0.424394
        ],
        [
          0.052795988,
          0.069357835,
          0.6472329,
          0.5778471,
          -0.1275575,
          1.2492515,
          -0.08078384,
          0.0026409647,
          0.035907954,
          -0.36504534,
          -0.30018482,
          -0.4983247,
          -0.5960193,
          -0.31230134,
          -0.44852787,
          -0.29773563
        ],
        [
          -0.20705917,
          -0.12043976,
          0.05446061,
          -0.009324824,
          0.2105546,
          -0.028853165,
          0.21076342,
          0.34611022,
          -0.06321538,
          -0.10274124,
          0.0037697824,
          0.13650474,
          -0.13915205,
          -0.14202328,
          -0.049489405,
          0.124739505
        ],
        [
          0.18362173,
          -0.18485758,
          0.1372497,
          -0.37886208,
          -0.21258911,
          -0.5132091,
          -0.45826334,
          0.06827366,
          0.29294008,
          0.062317085,
          0.074585214,
          1.0500524,
          -0.053496096,
          0.09528621,
          -0.76436466,
          0.47608796
        ],
        [
          0.25141203,
          0.29928073,
          -0.13833551,
          0.2971893,
          -0.9754605,
          0.15990207,
          -0.5392852,
          -0.14274062,
          -0.7311226,
          0.23570034,
          -0.26221246,
          -0.21995196,
          -0.16766047,
          -0.60121006,
          -0.14653166,
          -0.5969953
        ],
        [
          0.3471445,
          -0.28196496,
          -0.02113246,
          0.0014727082,
          0.2176287,
          0.25013128,
          0.1677372,
          -0.043515954,
          0.049222596,
          0.1936084,
          -0.11292634,
          0.32895744,
          -0.21579511,
          -0.030560948,
          0.03347278,
          -0.1801371
        ],
        [
          0.1542888,
          -0.67139626,
          -0.9151024,
          0.31887197,
          1.3324376,
          0.66362774,
          -0.14377694,
          0.29723245,
          0.5953804,
          -0.07172541,
          -0.6804754,
          -0.37421265,
          -0.42520368,
          0.27402335,
          0.04905709,
          -0.6973816
        ],
        [
          0.3395862,
          -0.061950542,
          -0.16631937,
          -0.28715187,
          0.3944704,
          0.8379708,
          0.34650514,
          -0.013251472,
          0.21258457,
          0.037997212,
          -0.024416037,
          -0.42687324,
          0.67225057,
          0.22254442,
          -0.39403296,
          -0.19841461
        ],
        [
          -0.0899248,
          -0.08359033,
          -0.00044094582,
          0.038799435,
          -0.055325728,
          -0.22708087,
          0.058999456,
          -0.08354837,
          -0.07304259,
          -0.2874399,
          -0.19524941,
          -0.23640007,
          0.034079965,
          -0.123138644,
          -0.30069843,
          0.14741956
        ],
        [
          0.22719073,
          0.17703222,
          0.13358904,
          0.36015278,
          -0.39952466,
          -0.3633219,
          0.38344955,
          0.29559875,
          1.0205674,
          0.31704995,
          0.04827083,
          0.43674612,
          0.28022608,
          0.0340408,
          -0.035878435,
          0.5237566
        ],
        [
          1.0316275,
          -0.0040795705,
          -1.1100582,
          -0.52654976,
          -0.232912,
          0.11493983,
          0.2215266,
          0.036140192,
          0.16950653,
          0.28122833,
          -0.026486237,
          -0.0842702,
          0.18020962,
          1.1247033,
          -0.3273981,
          1.4228406
        ],
        [
          -0.14475797,
          0.2581386,
          -0.117282614,
          0.37379882,
          0.36733174,
          -0.72644395,
          0.29056603,
          0.005478002,
          -0.24481021,
          0.114554174,
          -0.30691552,
          0.054266434,
          0.29632387,
          0.33437297,
          -0.74366194,
          -0.2512793
        ],
        [
          -0.22250442,
          0.16428597,
          0.1525984,
          0.11766857,
          -0.24290323,
          0.016887562,
          0.28065246,
          0.37967274,
          0.33564228,
          -0.11472018,
          -0.24166891,
          -0.029022729,
          -0.12082189,
          -0.2554436,
          0.29117954,
          -0.6745063
        ],
        [
          0.02855064,
          0.38651985,
          0.19244762,
          0.07865087,
          -0.041369442,
          -0.013925533,
          -0.04454753,
          -0.011299721,
          0.12662984,
          0.15102693,
          0.10061038,
          0.55521387,
          0.2633541,
          0.0512851,
          -0.016012406,
          -0.33968353
        ],
        [
          -0.106594935,
          0.030127414,
          -0.07201936,
          -0.119780175,
          0.047693916,
          -0.03621735,
          0.008303264,
          -0.106788054,
          0.014069177,
          -0.0205228,
          0.11124358,
          0.116437644,
          0.0018366874,
          0.0005182731,
          0.09548423,
          0.043194983
        ],
        [
          0.75128245,
          0.47021416,
          0.06961996,
          -0.11801208,
          -0.08302859,
          -0.72407526,
          0.2647393,
          -0.21233644,
          0.28662804,
          0.08601786,
          -0.014612702,
          1.0323215,
          -0.37107724,
          -0.16979894,
          -0.5051132,
          0.46120146
        ],
        [
          0.0627417,
          0.08703462,
          -0.10642242,
          -0.09190001,
          0.089138284,
          -0.013835081,
          -0.05089937,
          0.017893655,
          0.010860377,
          -0.11462242,
          -0.041207407,
          -0.005597444,
          0.11545721,
