{
  "Layers": [
    {
      "_wInc": 1,
      "_wDec": 1,
      "_wNothing": 4469487167130,
      "EnableNNUE": true,
      "Weights": [
        [
          -0.20664473,
          0.06795459,
          -0.024308518,
          -0.24481656,
          0.1275661,
          -0.09432119,
          0.0011986899,
          -0.060391232,
          -0.012522904,
          -0.00085524196,
          0.06545832,
          0.03474029,
          0.12921965,
          -0.020957073,
          -0.07095392,
          0.1261171
        ],
        [
          0.10150157,
          0.0073335995,
          0.007802733,
          0.1125731,
          -0.016128223,
          0.027317045,
          -0.20474665,
          0.12554571,
          0.02070196,
          0.07189468,
          -0.00071701035,
          -0.08255378,
          -0.09358143,
          -0.08071982,
          0.08525606,
          -0.12871142
        ],
        [
          0.06911288,
          -0.16253543,
          -0.07312749,
          0.058959037,
          -0.2521433,
          -0.18998958,
          -0.03172729,
          0.045374192,
          0.0066743214,
          0.35729167,
          0.17635028,
          0.12316222,
          -0.4205289,
          -0.0380209,
          0.47884628,
          0.24849418
        ],
        [
          -0.31787983,
          0.32882968,
          0.16347851,
          -0.54570675,
          -0.4282049,
          -1.0829062,
          -1.0711118,
          -0.005825434,
          0.5725705,
          -0.050846726,
          -0.60784423,
          0.41941446,
          -0.44103342,
          0.28480563,
          0.4954316,
          0.20822893
        ],
        [
          -0.03047377,
          0.6088819,
          -0.4368027,
          0.6208773,
          -0.6049105,
          -0.12297471,
          0.3930612,
          -0.2848158,
          -0.7384221,
          0.29424497,
          -0.5135924,
          -0.47215673,
          -0.6297862,
          -0.049298964,
          -0.24220958,
          -0.2181915
        ],
        [
          0.16514994,
          0.29634768,
          0.05834993,
          0.13180454,
          -0.5965795,
          -0.015627148,
          -0.3431106,
          0.7299647,
          -0.20667094,
          -0.36048877,
          0.9729059,
          -0.40456626,
          -0.60623246,
          0.014650416,
          0.10271148,
          -0.28964412
        ],
        [
          0.13077122,
          0.3145257,
          0.0053013205,
          -0.0003567218,
          -0.36393535,
          -0.16601469,
          0.03165587,
          0.003594848,
          -0.061984185,
          0.14272043,
          -0.22956043,
          0.048368033,
          -0.21739604,
          -0.016465193,
          -0.13637199,
          0.15455687
        ],
        [
          0.014225015,
          -0.007985601,
          -0.3340855,
          0.024641242,
          -0.035846297,
          0.07976399,
          -0.074013524,
          -0.13696548,
          -0.26805827,
          0.21285777,
          -0.2575067,
          -0.18588026,
          -0.060115594,
          0.0659385,
          -0.28672227,
          -0.034627512
        ],
        [
          0.05728655,
          -0.058249842,
          -0.14313656,
          0.862131,
          0.18042211,
          0.058578055,
          0.82714516,
          0.16502413,
          -0.36626926,
          -0.13204503,
          -0.3934726,
          -0.30561522,
          0.030528232,
          0.27100414,
          -0.11299465,
          -0.052601453
        ],
        [
          -0.23299727,
          -0.38384184,
          0.084892385,
          -0.089369,
          0.49613166,
          0.23092416,
          -0.080233514,
          0.30500156,
          0.11374472,
          -0.13788018,
          0.24918641,
          -0.056768492,
          0.1612787,
          0.05832872,
          0.063917086,
          0.012151079
        ],
        [
          -0.17646684,
          0.019861849,
          -0.045460466,
          -0.23595372,
          0.17391461,
          -0.060873862,
          -0.080557235,
          0.12958631,
          0.16487825,
          -0.21206091,
          0.057963535,
          0.23434146,
          0.091447935,
          -0.21217558,
          0.5665726,
          0.10964328
        ],
        [
          0.0716163,
          0.13473451,
          -0.17054716,
          0.23839712,
          0.08537514,
          0.4519271,
          -0.121162914,
          0.052508846,
          -0.25004926,
          0.14086147,
          -0.02283171,
          -0.55057496,
          0.20721103,
          -0.3166288,
          0.0102456845,
          0.567699
        ],
        [
          0.016568761,
          -0.094624035,
          -0.010673049,
          0.14801691,
          0.026531981,
          0.12624909,
          0.017894663,
          -0.004033163,
          -0.1968724,
          -0.095414415,
          -0.1034479,
          -0.019235693,
          0.26271695,
          0.012394798,
          -0.04759671,
          0.11942165
        ],
        [
          0.028052185,
          -0.020144848,
          -0.06511529,
          0.12336478,
          0.0089511415,
          0.058064528,
          0.038495667,
          0.017544053,
          -0.14233498,
          -0.17271811,
          0.001517768,
          0.01578138,
          0.27291033,
          -0.06551416,
          -0.1440211,
          0.13622859
        ],
        [
          0.04360953,
          -0.0013928892,
          0.10710195,
          0.049518526,
          -0.013152257,
          0.20731409,
          -0.030881377,
          0.013511979,
          -0.16441229,
          -0.15145656,
          0.026304673,
          0.0085813375,
          0.2660705,
          0.19574888,
          0.030099364,
          -0.18965256
        ],
        [
          -0.051647548,
          -0.06882363,
          -0.00059235736,
          0.19629674,
          -0.031277988,
          -0.027192261,
          -0.01508052,
          -0.006109493,
          -0.14868748,
          -0.08674084,
          0.0018642399,
          -0.091221035,
          0.09535963,
          0.0767519,
          -0.12608975,
          -0.033533942
        ],
        [
          -0.01726984,
          0.17238599,
          0.054243192,
          0.16302831,
          -0.05696173,
          0.015514038,
          0.030048262,
          0.081002496,
          -0.24455005,
          -0.15906335,
          0.028847931,
          0.012926045,
          -0.23572725,
          0.022530092,
          0.029793067,
          -0.1950552
        ],
        [
          -0.03260051,
          0.041639123,
          0.042679872,
          0.14531273,
          0.011980396,
          0.06834538,
          -0.020375043,
          0.057803012,
          -0.09172769,
          -0.047401868,
          0.018950397,
          -0.010258897,
          0.20449567,
          0.1213282,
          0.048800517,
          -0.24223332
        ],
        [
          -0.05131746,
          0.011913371,
          0.059464652,
          0.018316818,
          -0.00052491063,
          -0.050872613,
          -0.00889328,
          -0.0064374707,
          -0.13940562,
          -0.1805671,
          0.014696097,
          0.11182441,
          -0.29318956,
          0.13126461,
          -0.049067676,
          -0.24487968
        ],
        [
          -0.11053453,
          0.012915693,
          -0.057910938,
          0.23390238,
          -0.02500209,
          -0.027789565,
          0.067328304,
          0.0042912965,
          -0.13696548,
          -0.113270275,
          -0.011543834,
          -0.028408771,
          0.20158052,
          -0.06861657,
          -0.04879048,
          -0.12423627
        ],
        [
          -0.149443,
          0.10120247,
          0.09561087,
          0.13076979,
          -0.11355631,
          0.05889917,
          -0.042905446,
          -0.027732719,
          -0.214764,
          -0.11952189,
          0.021525903,
          -0.13094705,
          0.23909736,
          -0.02980707,
          0.047482263,
          -0.1958548
        ],
        [
          -0.09011582,
          0.113306314,
          0.042365596,
          0.09932843,
          0.0053073834,
          0.13239495,
          0.087677255,
          -0.007871215,
          -0.13843746,
          -0.31315786,
          -0.12434996,
          -0.020086275,
          0.15798305,
          0.054415695,
          0.037333474,
          -0.29908615
        ],
        [
          -0.19561967,
          0.034759223,
          -0.124497436,
          0.011006674,
          -0.09770573,
          -0.102634706,
          0.057681497,
          0.074754395,
          -0.119251594,
          -0.08713342,
          -0.231527,
          -0.025372487,
          0.05021711,
          0.19028075,
          -0.034528118,
          -0.11932065
        ],
        [
          -0.14698663,
          -0.11599439,
          0.015192445,
          0.109225094,
          -0.045554917,
          -0.03311284,
          -0.056339104,
          0.14706123,
          -0.1468292,
          -0.5171634,
          -0.051038742,
          -0.14401272,
          0.26592916,
          -0.23246819,
          -0.009826091,
          -0.47636333
        ],
        [
          -0.20261848,
          -0.33779567,
          0.048474487,
          0.06829173,
          0.18234086,
          -0.375308,
          0.20101902,
          0.101088025,
          0.12790324,
          -0.9045649,
          0.01125697,
          0.026086418,
          0.08280304,
          0.10849998,
          -0.059207585,
          -0.2398904
        ],
        [
          -0.060413074,
          0.10500413,
          0.12402003,
          -0.2460779,
          -0.09614256,
          -0.10098088,
          0.24721085,
          -0.017226048,
          0.18044344,
          0.122229464,
          -0.014924862,
          0.31755623,
          -0.24337116,
          0.14538376,
          0.11198534,
          0.25234333
        ],
        [
          -0.2130115,
          -0.030422168,
          -0.010135134,
          -0.10474287,
          -0.0011920229,
          0.005486224,
          -0.09142139,
          -0.23323764,
          0.18907313,
          -0.058059823,
          0.042219304,
          0.05689978,
          0.01751829,
          0.050492886,
          0.019752165,
          -0.049246844
        ],
        [
          -0.07011524,
          -0.060284175,
          -0.0013165032,
          0.06414981,
          0.0071208095,
          -0.056612294,
          -0.13194461,
          -0.022049813,
          0.06511023,
          -0.16316058,
          -0.08976178,
          0.048994202,
          0.0024787285,
          -0.025576184,
          0.027140876,
          0.033353165
        ],
        [
          -0.07299097,
          0.01674983,
          -0.04891797,
          -0.08100565,
          -0.0733989,
          -0.05342808,
          -0.09317602,
          -0.021159448,
          0.06254706,
          -0.06231277,
          -0.041554026,
          0.05735524,
          -0.03340417,
          -0.049639404,
          0.047614407,
          0.06637159
        ],
        [
          -0.13906953,
          0.020667436,
          0.010033087,
          -0.123893395,
          -0.0013324455,
          0.045417592,
          -0.22013691,
          -0.14129686,
          -0.029311735,
          0.042136338,
          -0.0837648,
          -0.12426771,
          0.1092233,
          -0.074885584,
          0.09286579,
          0.054447807
        ],
        [
          -0.09926374,
          0.047614805,
          -0.02234279,
          -0.086893335,
          0.021367928,
          0.0075704637,
          -0.12964827,
          -0.15881138,
          -0.0050508175,
          0.033242743,
          -0.06381617,
          0.049919985,
          0.04762561,
          -0.0850484,
          0.024249272,
          0.09475376
        ],
        [
          0.08641581,
          0.031990938,
          0.04087067,
          0.05638136,
          -0.09671567,
          -0.056581937,
          -0.17234959,
          -0.07322578,
          -0.03169632,
          -0.13721594,
          -0.06526417,
          0.06207249,
          -0.1259398,
          -0.052154727,
          -0.030252866,
          0.038211927
        ],
        [
          0.014157382,
          0.03101926,
          -0.054833245,
          -0.0004548489,
          0.011873168,
          0.011869748,
          -0.20292407,
          -0.17402528,
          -0.021445619,
          -0.13261047,
          -0.08136054,
          0.031213291,
          0.21536937,
          -0.12538993,
          0.006516584,
          0.045163844
        ],
        [
          0.025511831,
          -0.0255159,
          -0.04500648,
          -0.015963342,
          0.022600338,
          -0.076131806,
          -0.13897629,
          -0.2224653,
          0.041998394,
          0.029288853,
          -0.108329386,
          0.04419578,
          0.3194891,
          -0.14962147,
          0.043377187,
          0.080633625
        ],
        [
          0.026776748,
          -0.051186457,
          0.015232164,
          0.016528128,
          0.10596926,
          -0.047910195,
          -0.15531453,
          -0.113535985,
          -0.14691855,
          -0.13824166,
          -0.036626928,
          0.08012714,
          0.4862318,
          0.0136407055,
          -0.03620511,
          0.24793929
        ],
        [
          -0.07711313,
          0.08768303,
          -0.031996883,
          0.0455211,
          0.003425964,
          -0.052627675,
          -0.14657374,
          -0.1993953,
          -0.13152799,
          -0.004134593,
          -0.011864364,
          0.21032016,
          0.38707215,
          -0.17268908,
          0.1560298,
          0.18429212
        ],
        [
          -0.17984512,
          0.09660171,
          -0.059510496,
          0.040963594,
          -0.07016317,
          -0.10221029,
          -0.084097125,
          -0.08376473,
          0.06646966,
          0.36493853,
          -0.061791588,
          0.2518671,
          0.4409908,
          -0.16730537,
          -0.028757615,
          0.20302539
        ],
        [
          -0.16055799,
          -0.15686214,
          0.15890488,
          -0.02868578,
          0.08921656,
          -0.19546072,
          -0.06758942,
          -0.19189334,
          0.0167155,
          -0.22886978,
          -0.079490215,
          0.1944437,
          0.23881441,
          -0.15844297,
          0.18689872,
          0.021955485
        ],
        [
          0.15144753,
          -0.47394907,
          0.079598315,
          -0.18279241,
          -0.00025429967,
          0.17711677,
          -0.007024695,
          0.18993719,
          0.14125331,
          -0.45472643,
          0.34685796,
          0.37613258,
          0.14396363,
          -0.4363757,
          0.35363826,
          -0.19547334
        ],
        [
          0.20789516,
          0.46124285,
          0.053535532,
          0.47499302,
          -0.77580154,
          -0.035358608,
          -0.06187082,
          0.122664295,
          0.08499065,
          0.20789026,
          -0.12227343,
          0.109151274,
          -0.8364237,
          0.07723929,
          0.39179045,
          -0.10388177
        ],
        [
          0.2506534,
          0.24618919,
          0.16255102,
          -0.26891062,
          -0.1357721,
          -0.26580313,
          -0.30342874,
          -0.3131241,
          0.35466865,
          0.3621468,
          -0.030866574,
          0.04796559,
          0.17943263,
          0.14179924,
          0.055391442,
          0.06910198
        ],
        [
          0.27722856,
          0.09536244,
          0.17694111,
          -0.07221944,
          -0.024730317,
          -0.20678996,
          -0.21251807,
          -0.14304835,
          0.12766531,
          0.07279904,
          -0.011985239,
          0.055703614,
          0.08512296,
          -0.09482238,
          0.03351089,
          0.13190117
        ],
        [
          0.101410486,
          0.014098921,
          0.14277448,
          -0.038828995,
          0.039901566,
          -0.09044739,
          -0.115372196,
          0.07199913,
          0.058454063,
          -0.18197319,
          0.07933535,
          0.034719568,
          0.09913298,
          0.06519937,
          0.073540226,
          -0.103882544
        ],
        [
          -0.040142246,
          -0.045992434,
          -0.06380695,
          -0.06795639,
          0.016558165,
          -0.1838162,
          0.042251807,
          -0.006492502,
          -0.06866021,
          -0.26099348,
          0.17360285,
          -0.08564007,
          0.14795177,
          -0.08992458,
          0.0031149434,
          -0.1625897
        ],
        [
          0.10383213,
          -0.09511194,
          0.13926584,
          -0.0023275511,
          -0.06450961,
          -0.009284079,
          -0.05994511,
          0.053647462,
          0.052636314,
          -0.050531205,
          0.081587195,
          -0.09174734,
          0.016105995,
          -0.05073879,
          0.016388766,
          0.029025095
        ],
        [
          0.012425593,
          0.19189173,
          -0.30891022,
          0.052881565,
          -0.20371675,
          0.054106846,
          0.5138785,
          -0.04099077,
          -0.16948764,
          -0.1162302,
          0.29201582,
          -0.16592778,
          -0.33491108,
          -0.1892247,
          -0.24959005,
          -0.15423413
        ],
        [
          0.10331639,
          -0.18442057,
          -0.07144012,
          0.14765914,
          -0.04248948,
          -0.040468402,
          0.33821997,
          0.00063287443,
          -0.38165674,
          0.25139272,
          0.17247632,
          -0.34772667,
          -0.43894395,
          0.0024273759,
          -0.18859926,
          -0.32354486
        ],
        [
          0.057329103,
          -0.101950906,
          -0.12343044,
          0.06475755,
          0.042524323,
          -0.1542583,
          0.13395432,
          -0.08519803,
          0.052615054,
          -0.0362599,
          0.34166104,
          -0.30544424,
          -0.10700147,
          -0.16702946,
          0.007031489,
          -0.23818627
        ],
        [
          0.004019731,
          -0.0820314,
          0.14792126,
          -0.013050796,
          -0.0066694417,
          -0.17475072,
          -0.09542403,
          -0.065688744,
          -0.06514443,
          -0.054474834,
          -0.014450843,
          -0.08906557,
          0.07381957,
          -0.18056303,
          -0.09589872,
          -0.052222982
        ],
        [
          -0.09793682,
          -0.18171738,
          0.14062357,
          -0.11166653,
          -0.049776044,
          -0.115545705,
          -0.002543993,
          0.04474787,
          0.040121872,
          -0.09365502,
          -0.018330164,
          -0.11424875,
          0.09806266,
          -0.1192558,
          -0.05289851,
          0.013938235
        ],
        [
          -0.04967978,
          -0.11878532,
          0.017925758,
          -0.18402031,
          0.023866626,
          -0.10380061,
          -0.15555348,
          -0.055210274,
          -0.087060355,
          -0.14917623,
          0.11027107,
          -0.04021441,
          -0.0060262037,
          -0.053320594,
          -0.015545893,
          0.039001986
        ],
        [
          0.08289127,
          0.028170962,
          -0.10992616,
          0.14092214,
          0.089642935,
          0.08683643,
          -0.030182468,
          0.18649039,
          -0.031636782,
          0.07317249,
          0.20223022,
          0.05055561,
          -0.17151488,
          -0.2732438,
          0.021214074,
          0.04997867
        ],
        [
          -0.10577925,
          0.063217595,
          -0.14420636,
          0.20226133,
          0.232488,
          -0.10135361,
          -0.08866885,
          0.030248487,
          -0.09103638,
          0.14197935,
          -0.009968974,
          -0.022078834,
          0.16080223,
          -0.3245216,
          -0.22908795,
          0.014291993
        ],
        [
          -3.2020705,
          -0.2637174,
          -0.061165746,
          0.09388205,
          -0.18714161,
          -0.11739481,
          0.14089538,
          0.11979059,
          -0.06261585,
          1.3904928,
          -0.70277596,
          -0.06151065,
          0.42481416,
          -0.06378725,
          -0.19259736,
          -0.15657613
        ],
        [
          -0.11521116,
          0.22924805,
          0.21006665,
          -0.062500216,
          -0.041655164,
          0.16712128,
          -0.08296068,
          0.050341446,
          -0.23770092,
          -0.09578888,
          -0.06963469,
          -0.17942056,
          0.4808068,
          0.13426347,
          0.07168381,
          0.2121422
        ],
        [
          0.19434401,
          0.38905036,
          0.18293282,
          0.0017878767,
          0.07819395,
          0.31461278,
          -0.34371784,
          -0.021159634,
          -0.11001404,
          0.046295542,
          -0.19806644,
          -0.2977894,
          -0.30003473,
          0.22817278,
          0.30808303,
          -0.054519847
        ],
        [
          0.11691383,
          0.9434113,
          1.0938958,
          -0.18190537,
          0.15622224,
          0.6107915,
          -0.8450298,
          0.2157488,
          0.49183756,
          -0.057720385,
          -0.59355766,
          0.52303463,
          0.9025231,
          0.63192326,
          -0.13342963,
          0.19116075
        ],
        [
          -0.12122875,
          0.6465891,
          -0.32353932,
          0.10393651,
          -1.003783,
          0.12433858,
          0.21148905,
          -0.09848629,
          -0.23724216,
          0.47775567,
          -0.5546521,
          -0.12505224,
          -0.018174395,
          0.3654274,
          -0.17288657,
          0.56119883
        ],
        [
          0.11192559,
          0.009246407,
          -0.5505638,
          0.43921328,
          -0.46909484,
          0.27990347,
          0.2683121,
          -0.39626342,
          -0.31492856,
          0.778391,
          -0.2940735,
          -0.659313,
          0.4909109,
          0.1929064,
          -0.632382,
          0.42930922
        ],
        [
          0.21802874,
          0.056972932,
          0.14349617,
          0.31158844,
          -0.5881745,
          -0.87313,
          0.20783797,
          -0.32434168,
          -0.33306763,
          -0.3951827,
          -0.3188782,
          0.2746402,
          0.00250299,
          -0.13947894,
          0.2781268,
          -1.1500442
        ],
        [
          0.26359215,
          -0.37617955,
          0.3234155,
          0.34606227,
          -0.25604662,
          -0.22733717,
          0.13119963,
          -0.63651973,
          -0.2669795,
          -0.09924297,
          -0.03466148,
          -0.23654369,
          0.89109284,
          -0.20131563,
          0.049480062,
          -0.53276837
        ],
        [
          -0.06578381,
          1.5429299,
          -0.53226906,
          0.7063689,
          -0.47817793,
          -0.49875468,
          0.8849092,
          -1.0737686,
          -1.5762453,
          -0.3107009,
          -0.46145704,
          0.21654055,
          0.785194,
          -0.6047472,
          -0.06904549,
          -1.2368604
        ],
        [
          0.9817267,
          -0.2594303,
          0.28513134,
          0.36291465,
          -0.7920792,
          -0.12947726,
          0.3622951,
          -1.5988108,
          -0.18230073,
          -0.31252947,
          -0.4940192,
          -0.7278797,
          0.10222122,
          -0.6152792,
          -0.4869489,
          -1.1612949
        ],
        [
          0.37485573,
          1.0615057,
          0.04187295,
          -0.17157546,
          -1.8692409,
          -0.49099094,
          -0.5389369,
          -0.62224096,
          0.19194376,
          0.45113197,
          -1.3222593,
          0.28011972,
          -0.30825582,
          0.47392505,
          0.27889335,
          0.27695024
        ],
        [
          0.09325352,
          0.17192414,
          -1.3505999,
          0.6390131,
          -0.36683878,
          0.49571216,
          0.6589105,
          -0.11433073,
          -1.1576196,
          0.5737546,
          0.017077694,
          -0.5982801,
          -0.0326622,
          0.023023766,
          -1.2711505,
          -0.20654744
        ],
        [
          -0.030400382,
          -0.41242465,
          0.010590231,
          0.21454501,
          -0.0035105501,
          -0.11269874,
          0.09398824,
          0.058830734,
          -0.015476786,
          -0.296593,
          -0.070158266,
          0.08312003,
          0.061447643,
          0.019623065,
          0.035690892,
          -0.07730877
        ],
        [
          -0.006907537,
          0.029066438,
          -0.13677701,
          -0.114715986,
          -0.10940268,
          -0.1268019,
          -0.003496763,
          -0.008404051,
          0.029596072,
          -0.017962119,
          -0.03609197,
          -0.016399272,
          -0.26622254,
          0.10938197,
          0.070460916,
          -0.047484547
        ],
        [
          0.008015192,
          -0.0017186834,
          -0.13007058,
          -0.15044205,
          -0.036359284,
          -0.07664078,
          0.030530574,
          -0.09298049,
          0.12149914,
          -0.029430704,
          -0.002274704,
          0.05680144,
          -0.35109556,
          -0.077059835,
          0.0586154,
          0.06533871
        ],
        [
          -0.040542744,
          0.023425326,
          0.026601283,
          0.10171787,
          0.04225437,
          0.052755076,
          0.027377954,
          0.01974129,
          0.08727255,
          0.090809494,
          0.08511045,
          0.11128776,
          0.009609099,
          0.17332022,
          0.06463425,
          0.0534892
        ],
        [
          0.08896259,
          -0.0065817465,
          0.033961594,
          -0.12048439,
          0.015898965,
          -0.027060695,
          -0.052260205,
          -0.030554505,
          -0.0113317985,
          0.05274895,
          0.1580622,
          -0.036922917,
          -0.40851194,
          0.046985842,
          0.071420304,
          0.04791748
        ],
        [
          -0.08040542,
          0.045972545,
          -0.002005078,
          -0.04607614,
          0.033576045,
          -0.15105276,
          -0.16997005,
          -0.13629459,
          0.005943039,
          0.028174952,
          0.102081396,
          -0.008616488,
          -0.12194682,
          0.03073452,
          0.14879623,
          -0.043602794
        ],
        [
          0.0043783486,
          -0.09511601,
          0.116298586,
          -0.12345921,
          0.094176255,
          0.01522003,
          -0.04481654,
          -0.26330554,
          0.09074586,
          -0.40547633,
          0.122876234,
          0.2964766,
          0.06942771,
          -0.13306935,
          0.20552513,
          -0.15002277
        ],
        [
          0.031376,
          0.038253844,
          -0.08376708,
          0.08753013,
          -0.10731997,
          -0.022761209,
          -0.058025923,
          -0.045805313,
          -0.022945497,
          0.3204934,
          -0.0015451009,
          -0.08179882,
          -0.10570025,
          -0.14985651,
          0.0055029225,
          -0.14582242
        ],
        [
          -0.0063009807,
          -0.045707434,
          0.08775996,
          0.103109226,
          -0.075049855,
          -0.03072055,
          0.25376478,
          -0.021699801,
          0.026053458,
          0.16001795,
          -0.16733678,
          -0.035330467,
          0.16155021,
          -0.027731618,
          -0.013179088,
          0.052015528
        ],
        [
          -0.041174795,
          0.05026672,
          0.08901859,
          -0.1498526,
          0.117505945,
          -0.05665419,
          0.113362245,
          0.05744758,
          0.15608591,
          0.02988109,
          -0.12607242,
          -0.07190184,
          0.2737917,
          -0.05924918,
          -0.074405834,
          0.030421186
        ],
        [
          -0.045990553,
          0.10337728,
          0.07477369,
          -0.01956945,
          0.0150380265,
          0.14750078,
          0.052497536,
          -0.013686357,
          0.08594413,
          -0.04341097,
          -0.00091288786,
          -0.013735184,
          -0.0025382547,
          0.16035925,
          -0.027600374,
          0.038300373
        ],
        [
          -0.02018065,
          0.067671575,
          0.121722855,
          -0.03670445,
          0.33114165,
          0.12308829,
          -0.057961486,
          -0.14071196,
          0.02257657,
          -0.30765462,
          0.13768697,
          -0.079591505,
          -0.11439099,
          -0.15918653,
          -0.037773002,
          0.061981063
        ],
        [
          0.14544839,
          0.090034,
          -0.37933037,
          0.073143095,
          -0.026842518,
          -0.013776453,
          0.07640389,
          0.090422004,
          -0.05537152,
          0.050283346,
          0.17948245,
          0.050246555,
          -0.18629335,
          -0.08846779,
          -0.007327832,
          -0.12943701
        ],
        [
          -0.022362653,
          0.016043033,
          -0.3677876,
          -0.096026145,
          -0.10149884,
          0.002764097,
          0.08534059,
          0.02555273,
          -0.14566438,
          0.009354534,
          -0.018293923,
          0.03189031,
          -0.070230894,
          -0.109672576,
          -0.07424797,
          -0.026820805
        ],
        [
          0.107773386,
          0.052099593,
          -0.47572896,
          0.024114871,
          -0.051729623,
          -0.056472525,
          0.08708979,
          0.058233935,
          -0.0112280175,
          0.021408735,
          0.12741762,
          -0.018294904,
          -0.05942194,
          -0.19328135,
          -0.08305792,
          -0.03001157
        ],
        [
          0.01213997,
          0.079357944,
          -0.40429813,
          0.026234305,
          -0.120792024,
          0.016742345,
          0.107016176,
          -0.08497743,
          -0.0556667,
          0.16823807,
          0.07406809,
          -0.005155087,
          0.018816166,
          -0.066333644,
          -0.09988951,
          0.025712186
        ],
        [
          0.04470805,
          0.04730132,
          -0.36420596,
          0.03937581,
          -0.14627174,
          -0.0020289377,
          0.14400257,
          -0.064947836,
          -0.08460305,
          0.06129968,
          0.121117316,
          0.037744325,
          -0.018347044,
          -0.088995285,
          -0.11378925,
          0.0111547215
        ],
        [
          0.09466305,
          -0.08729625,
          -0.25770217,
          -0.015840566,
          -0.113479145,
          -0.04267352,
          0.12596248,
          -0.008272633,
          -0.15286663,
          0.058225017,
          0.22599432,
          0.041345533,
          -0.071879625,
          -0.1661581,
          -0.14458533,
          -0.090472125
        ],
        [
          0.01642821,
          0.09435559,
          -0.01661469,
          -0.060351886,
          0.01983322,
          -0.037506316,
          0.005469843,
          0.0046248124,
          0.061951816,
          0.024444863,
          0.041256793,
          -0.12725167,
          0.19497971,
          -0.15469399,
          0.0055453586,
          0.027213654
        ],
        [
          0.04936482,
          0.08532203,
          0.039909486,
          0.011138076,
          0.043913417,
          0.0011248615,
          0.011594614,
          -0.06458714,
          0.045060866,
          0.065963626,
          0.11302172,
          -0.06766818,
          -0.019389676,
          0.014885784,
          -0.006762729,
          -0.032901205
        ],
        [
          0.061072048,
          0.017742334,
          0.10473155,
          0.15644594,
          0.0042398293,
          -0.009590455,
          0.09981072,
          -0.046127554,
          0.0044871336,
          0.020766132,
          -0.0071201064,
          0.026155585,
          -0.22419019,
          0.111284524,
          -0.021745931,
          0.059316486
        ],
        [
          0.07858533,
          0.07299209,
          0.022048123,
          0.045094464,
          -0.083419025,
          0.07340601,
          0.10747929,
          -0.073189616,
          0.057724137,
          -0.05507755,
          0.027316937,
          0.0042390465,
          -0.010676062,
          0.053481918,
          0.021568218,
          0.05358294
        ],
        [
          0.048809953,
          0.07308865,
          0.09490266,
          0.038162995,
          -0.101174854,
          -0.041730836,
          0.03734538,
          -0.041653026,
          0.02647365,
          -0.14343679,
          0.06981816,
          0.017682072,
          -0.21995503,
          -0.035071816,
          -0.06427658,
          0.029562479
        ],
        [
          0.09808416,
          0.16597576,
          -0.18489647,
          -0.002611987,
          -0.12106088,
          0.056945343,
          -0.039545227,
          -0.07795904,
          0.07576416,
          -0.10058633,
          -0.037741225,
          -0.092975274,
          -0.15907393,
          0.111929424,
          0.020178195,
          -0.09401364
        ],
        [
          -0.13559693,
          0.18911108,
          0.29968527,
          -0.17754328,
          0.15430352,
          -1.0680972,
          0.04075323,
          -0.49306813,
          -0.42112297,
          -0.38069704,
          0.20391169,
          0.68962157,
          0.02847237,
          0.62959564,
          0.0053608255,
          -0.57304114
        ],
        [
          0.45182705,
          -0.6246225,
          -0.17462924,
          0.5619473,
          0.021690127,
          0.2969095,
          -0.6618704,
          -0.38606808,
          -0.12995327,
          -0.38918722,
          0.007591658,
          -0.1742235,
          -0.14479876,
          -0.69537014,
          0.17005134,
          -0.5499238
        ],
        [
          -0.09044771,
          -0.27074426,
          -0.09448829,
          0.17472912,
          -0.2917471,
          -0.073451675,
          0.068297006,
          -0.34391224,
          0.0064457688,
          0.26992318,
          -0.080671325,
          -0.17468974,
          -0.093495995,
          -0.024315178,
          0.02563526,
          0.2622112
        ],
        [
          0.23124449,
          -0.15985845,
          0.005709133,
          0.26911306,
          0.10783824,
          0.027891368,
          0.14247075,
          0.009717288,
          -0.12521909,
          -0.030312235,
          0.03746523,
          -0.038095947,
          0.29222217,
          0.2708813,
          0.15338084,
          0.09463996
        ],
        [
          0.22432268,
          -0.044571795,
          0.11195396,
          0.19392927,
          -0.055004872,
          0.089909144,
          0.14850011,
          -0.039117042,
          -0.16629001,
          0.047966547,
          0.023219261,
          -0.23336112,
          0.06248577,
          -0.13061237,
          0.11355611,
          0.33619225
        ],
        [
          -0.03787608,
          -0.1628705,
          -0.039864227,
          0.2006839,
          0.19385146,
          -0.21360062,
          0.022721121,
          0.19685836,
          -0.21277437,
          -0.0960627,
          0.11095581,
          0.031390477,
          -0.23740122,
          -0.12914984,
          0.29383054,
          0.10903492
        ],
        [
          0.11341649,
          0.24714486,
          0.061269525,
          0.043422997,
          -0.24213639,
          0.21208465,
          -0.030375566,
          0.32318118,
          -0.018167123,
          -0.3545836,
          -0.015335953,
          -0.019973572,
          -0.27430993,
          -0.023265854,
          0.1990108,
          -0.054765556
        ],
        [
          -0.16775335,
          -0.2158175,
          0.008743345,
          0.2317616,
          -0.9849527,
          -0.46732384,
          0.0937815,
          0.63623494,
          0.13088147,
          1.7434807,
          0.24619277,
          -0.71915984,
          0.069768965,
          -0.754774,
          -0.124448285,
          0.23431623
        ],
        [
          0.02676515,
          0.024883935,
          -0.006310172,
          -0.099571675,
          0.018957864,
          0.16051072,
          0.033114735,
          -0.03736608,
          0.06404449,
          0.30699736,
          -0.029573986,
          -0.24741301,
          -0.13241436,
          -0.009249524,
          -0.2778521,
          0.2465753
        ],
        [
          0.16151164,
          0.19719253,
          0.036337547,
          -0.053093113,
          -0.04364301,
          0.039396077,
          -0.032505285,
          -0.098605804,
          0.11090002,
          -0.16576159,
          0.06584958,
          0.08084096,
          -0.20775642,
          0.06930961,
          -0.13498399,
          -0.17335811
        ],
        [
          0.043095548,
          0.3335333,
          -0.1736999,
          -0.22045842,
          0.12442146,
          -0.072530836,
          -0.026685538,
          -0.0793287,
          0.12396719,
          -0.029453093,
          0.15955502,
          0.05959367,
          -0.48964024,
          -0.41980135,
          -0.3003163,
          -0.020688748
        ],
        [
          0.13037212,
          0.17756253,
          0.234729,
          0.15936038,
          -0.030488,
          0.013938387,
          0.043211073,
          -0.05846241,
          0.1154444,
          -0.15021412,
          0.20971255,
          -0.23480059,
          0.102930464,
          -0.12972753,
          -0.059592057,
          0.0034191958
        ],
        [
          0.0859065,
          0.077051245,
          0.15345392,
          0.24074942,
          0.21643987,
          0.043466885,
          0.19332494,
          -0.0026103358,
          -0.1404878,
          0.08421191,
          0.26663944,
          0.49929106,
          0.013885867,
          0.40532565,
          -0.3150014,
          -0.30930674
        ],
        [
          0.1819785,
          1.647223,
          0.46622577,
          -0.65136623,
          0.51860124,
          1.1764619,
          -0.22047995,
          0.16736405,
          0.7048038,
          -0.24078451,
          -0.45275846,
          -0.4613053,
          -0.40706936,
          0.600235,
          -1.442667,
          0.049571164
        ],
        [
          0.06435815,
          0.26579535,
          0.013291028,
          -0.0840057,
          0.027766434,
          0.21513443,
          -0.061236583,
          0.07727705,
          0.21473883,
          0.048325952,
          -0.23517224,
          0.17855054,
          -0.26834196,
          0.2460227,
          0.021375626,
          0.0044557285
        ],
        [
          0.083827004,
          0.17420174,
          -0.023957498,
          -0.057414763,
          0.11264559,
          0.15342198,
          -0.046965566,
          -0.054509547,
          0.18340686,
          0.05857859,
          -0.040668584,
          0.2732228,
          0.18752283,
          0.13168743,
          -0.08938717,
          0.03578554
        ],
        [
          0.047231708,
          0.073874615,
          0.00063709007,
          -0.08646196,
          0.080848984,
          0.17661007,
          0.100120254,
          -0.043108273,
          0.16202816,
          0.056625366,
          0.18313068,
          0.17170578,
          0.08476327,
          0.0800517,
          -0.16310905,
          0.072845444
        ],
        [
          0.01255858,
          0.12066573,
          0.11724199,
          -0.17496757,
          -0.001011066,
          -0.052852992,
          -0.06304107,
          0.007750631,
          0.2593859,
          0.083891526,
          -0.039919715,
          0.095260054,
          0.14318252,
          -0.108860895,
          -0.28176153,
          0.050701205
        ],
        [
          0.19025232,
          0.051817514,
          0.04088932,
          -0.099527,
          0.0537865,
          -0.06360294,
          0.008584517,
          -0.07590481,
          0.022429304,
          0.1728421,
          0.15036523,
          0.14852317,
          0.02397281,
          -0.083295934,
          -0.3527542,
          -0.016222488
        ],
        [
          0.21674512,
          0.12935297,
          0.48130694,
          0.06651427,
          0.07270016,
          0.020142362,
          0.019712077,
          0.04843623,
          0.110007405,
          0.042670816,
          -0.008092483,
          0.08513326,
          -0.22027913,
          -0.023591602,
          -0.39450458,
          -0.0118222935
        ],
        [
          -0.0075177494,
          -0.20153196,
          -0.015699351,
          0.08708751,
          -0.056663055,
          -0.13534895,
          0.16641347,
          0.39232668,
          0.024510661,
          0.2564714,
          0.011250316,
          -0.0025687804,
          -0.23325604,
          -0.11413633,
          0.07642296,
          -0.16946009
        ],
        [
          -0.073781595,
          -0.29549283,
          -0.036301486,
          0.17127874,
          -0.03917153,
          -0.15986104,
          0.10067078,
          0.2011338,
          0.041590776,
          0.074296385,
          0.17707,
          -0.10554857,
          -0.25893882,
          0.11393296,
          0.049868178,
          0.082697876
        ],
        [
          0.042539608,
          -0.11163273,
          -0.052925646,
          0.19361627,
          -0.010091373,
          0.09898856,
          0.21881263,
          0.16886559,
          0.13434465,
          0.13807812,
          -0.21399659,
          0.013569046,
          -0.048598107,
          0.37561625,
          0.16656098,
          0.16481027
        ],
        [
          0.11231168,
          -0.029734883,
          -0.10248836,
          0.16353585,
          0.1328888,
          0.014587807,
          -0.003996811,
          0.23292819,
          -0.038708135,
          0.12963127,
          -0.012826308,
          -0.0032022463,
          0.018141877,
          0.03686844,
          0.005381141,
          0.04417725
        ],
        [
          0.013391031,
          0.17927724,
          -0.054054033,
          0.12554756,
          -0.06774183,
          0.05943361,
          0.0934557,
          0.03701094,
          -0.10450485,
          0.26041368,
          -0.12298141,
          0.1822515,
          -0.0407939,
          0.033994965,
          0.09173217,
          0.10733255
        ],
        [
          0.0684087,
          0.030980702,
          -0.09686074,
          0.22457883,
          -0.03876299,
          0.06307907,
          0.07163873,
          0.17150594,
          -0.13122503,
          0.11704039,
          -0.12658526,
          -0.03745985,
          -0.043458585,
          0.27690053,
          0.23490451,
          0.03393963
        ],
        [
          -0.027052242,
          0.015710888,
          0.0047614155,
          0.15946251,
          -0.20711376,
          -0.040633004,
          -0.03350412,
          0.06805166,
          -0.038786914,
          0.07114337,
          -0.06850897,
          -0.09430023,
          -0.13107273,
          0.043852217,
          0.052737694,
          -0.09935138
        ],
        [
          -0.016057301,
          -0.008713628,
          0.102425,
          0.18503745,
          -0.18508624,
          -0.0231844,
          0.010358393,
          0.03577571,
          -0.033198703,
          0.04475769,
          -0.13149339,
          -0.058639415,
          -0.2094595,
          0.13650054,
          0.024105938,
          -0.104717426
        ],
        [
          0.020028966,
          0.00050330115,
          0.124155335,
          0.13640001,
          -0.107003115,
          0.0661597,
          0.058157172,
          0.10287523,
          -0.09569909,
          -0.003895992,
          -0.026693294,
          0.07049881,
          0.07667389,
          -0.008476453,
          -0.03667048,
          0.021211358
        ],
        [
          0.016638106,
          -0.028354079,
          0.014196052,
          0.051226716,
          -0.16845481,
          -0.03627559,
          0.046403747,
          0.106805034,
          0.0010984475,
          -0.0015166862,
          0.11241824,
          -0.06442875,
          0.09889365,
          0.0024190694,
          0.009346252,
          -0.08159253
        ],
        [
          -0.007479751,
          0.006641381,
          0.041646622,
          0.114941746,
          -0.11861791,
          0.019925488,
          -0.044281732,
          0.07236183,
          -0.052049596,
          -0.008631769,
          0.050414015,
          0.014079886,
          -0.3623805,
          0.08827693,
          -0.037569318,
          -0.08321798
        ],
        [
          -0.07866904,
          0.060050927,
          0.12288028,
          0.10270081,
          -0.03159154,
          0.073776826,
          0.040527966,
          -0.04847559,
          -0.04235822,
          0.0800576,
          -0.022474494,
          0.057676017,
          -0.314844,
          0.07950804,
          -0.013750267,
          -0.07724252
        ],
        [
          -0.1634477,
          0.010197357,
          0.064125314,
          -0.013228676,
          -0.10250675,
          0.06465368,
          -0.05945343,
          -0.1396647,
          -0.01200322,
          0.054682523,
          -0.026656058,
          -0.0052211606,
          -0.20646772,
          0.048818268,
          -0.009999978,
          -0.028256841
        ],
        [
          -0.025745478,
          -0.07180111,
          0.06417868,
          0.038469497,
          -0.17287837,
          0.014027854,
          -0.03840762,
          0.012064773,
          -0.005744506,
          0.05623425,
          -0.049557377,
          0.08359454,
          0.039140936,
          0.07761574,
          -0.06007088,
          -0.10913966
        ],
        [
          0.075249255,
          -0.025453417,
          -0.027056701,
          0.025454368,
          -0.08139796,
          0.042502094,
          -0.059317987,
          0.052208856,
          0.01331631,
          -0.08859592,
          -0.03645634,
          -0.019891523,
          0.08839089,
          0.024277616,
          -0.019721597,
          -0.09325097
        ],
        [
          -0.0036552302,
          -0.046764392,
          0.0050951587,
          0.008244977,
          -0.040134083,
          0.05833274,
          -0.039936543,
          0.060999997,
          -0.01889349,
          -0.114597134,
          0.05174898,
          0.025087737,
          -0.059424896,
          -0.061151374,
          -0.014827187,
          -0.03939757
        ],
        [
          -0.0375821,
          -0.08911215,
          -0.0034056082,
          0.044285197,
          -0.0019376032,
          0.05247964,
          -0.020787224,
          8.9848465E-05,
          0.0033768497,
          0.0012458032,
          0.14062272,
          0.026489975,
          -0.020981941,
          -0.04476067,
          -0.0285337,
          -0.03647717
        ],
        [
          0.02040802,
          -0.062485114,
          0.02633533,
          0.0037644191,
          -0.07820708,
          0.048912298,
          -0.019566197,
          0.07158188,
          0.036395267,
          0.104822114,
          -0.0024849568,
          0.01772291,
          -0.018507583,
          -0.00391537,
          -0.00020979097,
          -0.0014444056
        ],
        [
          -0.005115181,
          -0.035798267,
          -0.019046076,
          -0.040610563,
          0.004254985,
          0.107375495,
          -0.011335623,
          0.05051052,
          0.087509185,
          -0.07343704,
          -0.0072600585,
          -0.007278057,
          -0.01337954,
          -0.057836894,
          -0.03330794,
          0.012928814
        ],
        [
          0.015566622,
          -0.09814623,
          0.019781824,
          0.056066968,
          0.087597124,
          0.096415564,
          -0.045328975,
          0.03774958,
          0.01484981,
          -0.06994292,
          0.13767122,
          -0.012255848,
          0.29425925,
          -0.10040644,
          -0.056004863,
          0.0073358817
        ],
        [
          -0.018522214,
          -0.05686353,
          0.03961121,
          0.019055739,
          0.11374276,
          0.122114494,
          -0.008945075,
          0.08027766,
          0.063156515,
          0.029893028,
          0.12891927,
          -0.02470589,
          0.081355624,
          0.0096878745,
          0.025027562,
          -0.022998547
        ],
        [
          -0.003631264,
          -0.09883748,
          -0.012417482,
          0.02655243,
          0.1940045,
          0.11901,
          0.05436106,
          0.08753722,
          0.030537413,
          -0.10078466,
          0.009990894,
          0.04547492,
          0.124239266,
          -0.13521583,
          -0.029103342,
          0.043631516
        ],
        [
          0.03295227,
          -0.12181476,
          0.060319338,
          -0.020107597,
          0.15910557,
          0.15577714,
          0.07469244,
          0.038464926,
          0.036928877,
          0.01953432,
          0.121197194,
          0.055894185,
          0.08819726,
          -0.02608183,
          -0.08383008,
          0.026738254
        ],
        [
          0.08505153,
          -0.076332696,
          0.03609692,
          0.061004654,
          0.108633555,
          0.13545834,
          0.011869427,
          -0.0079975445,
          0.037538327,
          0.04054611,
          -0.03523835,
          0.06913354,
          0.20530143,
          0.09072956,
          0.034373023,
          -0.01542473
        ],
        [
          0.048080154,
          -0.060643695,
          -0.0069638877,
          0.056730986,
          0.16595466,
          0.051307976,
          -0.085785285,
          0.0033409987,
          -0.031200532,
          0.06507336,
          -0.053876016,
          0.09073407,
          0.041373566,
          0.08290058,
          -0.01024862,
          0.030681983
        ],
        [
          -0.019561587,
          0.0493377,
          -0.07648305,
          0.0048235822,
          0.14257084,
          0.047215495,
          -0.11903035,
          0.022484612,
          0.00060066767,
          -0.040719524,
          -0.10437701,
          -0.012589423,
          -0.17457695,
          0.08459758,
          -0.09413484,
          0.011021345
        ],
        [
          0.012914029,
          0.05571227,
          -0.09333419,
          0.07392736,
          0.17759074,
          0.06587276,
          -0.017325545,
          0.10204505,
          -0.058235765,
          -0.09558843,
          -0.089324385,
          0.03800058,
          0.030589676,
          0.038136974,
          -0.012173502,
          0.02776532
        ],
        [
          0.043035083,
          0.094849735,
          -0.037878454,
          -0.057208795,
          0.24483462,
          0.059199788,
          0.012396675,
          0.14048834,
          -0.038352203,
          -0.10140125,
          -0.012020565,
          -0.10228634,
          -0.017450877,
          -0.10734483,
          0.027919048,
          0.11894184
        ],
        [
          0.0032044249,
          0.06529908,
          0.09011937,
          -0.07913355,
          0.17901672,
          0.049666237,
          0.041854132,
          -0.04283004,
          -0.07075147,
          -0.026007634,
          0.12497441,
          -0.07204141,
          0.043275785,
          0.0408026,
          0.04014312,
          0.0701338
        ],
        [
          0.1049215,
          -0.04360874,
          0.051141474,
          0.018021852,
          0.22291437,
          0.05692028,
          0.06287628,
          0.028445233,
          -0.045513753,
          -0.13568725,
          0.17275544,
          -0.084404714,
          0.19168214,
          -0.04340512,
          0.04604558,
          0.04333107
        ],
        [
          0.03861577,
          -0.002425174,
          -0.102156855,
          0.08148044,
          0.05004412,
          -0.0598459,
          0.09485395,
          -0.12060928,
          0.028182978,
          0.021767452,
          0.10673202,
          -0.016696403,
          0.17909549,
          -0.004925192,
          -0.060314633,
          0.11307876
        ],
        [
          -0.044354793,
          -0.0055504944,
          -0.20615202,
          -0.008690735,
          -0.01647287,
          -0.023352174,
          0.08811167,
          -0.029346377,
          -0.05567285,
          0.23827901,
          -0.017312657,
          0.02107466,
          -0.10902206,
          0.08164184,
          -0.1255036,
          -0.015210541
        ],
        [
          -0.10843032,
          0.11891319,
          -0.07914983,
          0.08636099,
          -0.04325299,
          0.01722649,
          0.04788867,
          0.0839087,
          -0.055342097,
          0.28969836,
          0.011383993,
          -0.007870422,
          -0.03702244,
          -0.11765391,
          -0.07049344,
          0.030500436
        ],
        [
          -0.08268429,
          0.062266506,
          0.0001848651,
          0.06267079,
          -0.064003125,
          0.012265248,
          0.018031474,
          0.015796177,
          -0.09159744,
          0.19220915,
          0.04980706,
          -0.005296162,
          -0.030301534,
          -0.020653274,
          -0.11329481,
          -0.011473526
        ],
        [
          -0.11806092,
          0.052096087,
          -0.030555017,
          0.054887738,
          -0.023037244,
          -0.00074456655,
          -0.019350786,
          0.100807786,
          -0.09362562,
          0.2951679,
          -0.068489626,
          0.044480145,
          -0.0822027,
          -0.02089242,
          -0.061603844,
          -0.03909294
        ],
        [
          -0.14513645,
          0.15502983,
          -0.0029318705,
          0.022144368,
          -0.018852811,
          0.029783277,
          -0.012755342,
          0.16366236,
          -0.086504534,
          0.097213306,
          -0.04576497,
          0.02083739,
          -0.058200583,
          -0.13298951,
          -0.045234703,
          -0.090578176
        ],
        [
          -0.07770138,
          -0.12259144,
          -0.12142263,
          -0.09027239,
          0.07856382,
          0.035538737,
          -0.007167511,
          0.13052356,
          0.0922293,
          -0.087748535,
          0.024655413,
          0.088918366,
          0.13650005,
          0.08274944,
          0.16998756,
          0.01232793
        ],
        [
          -0.078408964,
          -0.03416466,
          0.002167559,
          -0.10015354,
          0.08882058,
          -0.00021453408,
          -0.023471016,
          0.21429428,
          0.1290999,
          -0.07623466,
          -0.011538634,
          0.11988297,
          -0.2254948,
          -3.9663068E-05,
          0.14410521,
          0.031176893
        ],
        [
          -0.09514502,
          -0.108606845,
          0.077068254,
          -0.08853608,
          0.09491822,
          -0.0061209607,
          -0.04146872,
          0.1261805,
          0.100212805,
          -0.043942347,
          0.085820146,
          0.11892242,
          0.22426823,
          0.05397874,
          0.15974022,
          0.020812904
        ],
        [
          -0.11096554,
          -0.028643835,
          0.099651694,
          -0.14801969,
          0.04684907,
          -0.0017178594,
          -0.06566646,
          0.11232486,
          0.07675423,
          -0.09033248,
          0.012252896,
          0.046695147,
          0.09293306,
          0.03251572,
          0.16055036,
          0.0004857987
        ],
        [
          0.0026157508,
          -0.08996317,
          0.056437507,
          -0.111944094,
          0.037671138,
          0.010639263,
          -0.07649884,
          0.106247105,
          0.07285669,
          -0.107935585,
          0.09961995,
          0.054923907,
          -0.15207292,
          0.14287952,
          0.08719743,
          -0.059095595
        ],
        [
          -0.09718684,
          -0.06984989,
          0.044104017,
          -0.022070989,
          -0.025996521,
          0.057798754,
          -0.011762821,
          0.10853108,
          0.1015606,
          -0.0807052,
          0.039127916,
          0.09061261,
          -0.18471229,
          0.0145147,
          0.10528195,
          0.026547194
        ],
        [
          -0.08188694,
          -0.004103964,
          0.123438865,
          -0.041623067,
          0.01775448,
          0.091212034,
          0.034436744,
          0.10181705,
          0.072136156,
          -0.06594202,
          -0.070445396,
          0.10540395,
          0.28493455,
          0.14702117,
          0.025901685,
          -0.045855343
        ],
        [
          -0.01379758,
          -0.0451138,
          0.09864401,
          0.042886112,
          0.035239335,
          0.017442731,
          -0.03543166,
          0.039433457,
          0.024997901,
          -0.06345198,
          -0.04538403,
          0.121872514,
          0.057444915,
          0.07809802,
          0.13070484,
          0.00040464985
        ],
        [
          -0.02298716,
          0.011824771,
          0.20067513,
          0.043796454,
          0.024498655,
          0.059259724,
          0.031663958,
          0.031359024,
          0.029691106,
          -0.0486805,
          -0.02512837,
          0.08713199,
          0.049448017,
          -0.005362607,
          0.0030531425,
          0.01589906
        ],
        [
          -0.073459275,
          0.04205093,
          0.10619298,
          0.018288268,
          0.011503829,
          0.0464254,
          -0.018119246,
          0.060160633,
          0.033875313,
          -0.044349432,
          0.0074681225,
          0.11902493,
          -0.24934894,
          -0.0035372179,
          0.04826479,
          -0.006424304
        ],
        [
          0.024097193,
          -0.043088693,
          -0.024508955,
          -0.0013518436,
          -0.027951436,
          0.048414525,
          0.01856895,
          0.047634635,
          0.045823876,
          -0.032814667,
          -0.05939628,
          0.07089435,
          -0.13144949,
          0.043909203,
          0.066186905,
          0.029530212
        ],
        [
          0.058495674,
          -0.008862428,
          0.08226166,
          0.088595524,
          0.039458197,
          0.08916087,
          -0.015319718,
          -0.010487854,
          -0.009596584,
          -0.010134378,
          -0.03502039,
          0.18983307,
          -0.16339588,
          0.19351242,
          0.030834593,
          0.010023659
        ],
        [
          0.062051356,
          0.06540736,
          0.10791284,
          0.059633844,
          0.13268475,
          0.103504345,
          0.062878974,
          0.18409018,
          0.015124979,
          0.113093555,
          -0.06785528,
          0.113744356,
          0.108659185,
          -0.15695122,
          0.21190391,
          0.061405387
        ],
        [
          0.09816157,
          0.24448757,
          0.13644283,
          -0.028299158,
          0.17566735,
          0.17442101,
          0.040778216,
          0.071691655,
          0.09366767,
          0.077506274,
          -0.06794289,
          0.10142532,
          -0.1743689,
          -0.09289749,
          0.082436115,
          0.039118525
        ],
        [
          0.1239438,
          0.31719202,
          0.14692447,
          -0.0041131726,
          0.11398176,
          0.14286011,
          0.055291027,
          0.10857395,
          0.07865029,
          0.14041072,
          0.08807581,
          0.08676373,
          -0.09029816,
          -0.034331474,
          0.065871984,
          -0.015304521
        ],
        [
          0.19780165,
          0.18386948,
          0.10574754,
          0.017934248,
          0.110717565,
          0.16506003,
          -0.016419016,
          0.088373154,
          0.089976326,
          0.020521898,
          0.08232304,
          -0.02204712,
          1.035738E-06,
          0.06084756,
          0.20011526,
          -0.04913334
        ],
        [
          0.27859223,
          0.17148368,
          0.013173785,
          0.0031343282,
          0.0055735107,
          0.16953534,
          0.026792869,
          0.1159869,
          -0.041215833,
          -0.109616384,
          0.09804206,
          0.053217776,
          -0.46664092,
          -0.033342104,
          0.104177006,
          0.16705087
        ],
        [
          0.24384578,
          0.15490958,
          -0.06347303,
          0.022132095,
          -0.053637974,
          0.20266216,
          0.0075003263,
          0.016881252,
          -0.13297263,
          -0.08068598,
          0.023207422,
          0.08881649,
          -0.3899247,
          0.10684599,
          0.13706677,
          0.09442309
        ],
        [
          -0.03396575,
          0.171712,
          0.051730487,
          -0.20875205,
          -0.037768442,
          -0.0870968,
          -0.123197235,
          -0.09256958,
          -0.15835617,
          0.18240146,
          -0.32084334,
          -0.03738583,
          -0.0865169,
          0.07122454,
          0.0072878283,
          0.13526984
        ],
        [
          0.055089854,
          0.08417749,
          0.0011628846,
          -0.29384258,
          -0.11046562,
          0.05915996,
          -0.14023605,
          0.002908909,
          -0.17094557,
          -0.021348435,
          -0.21735881,
          -0.029055595,
          -0.07616828,
          0.06252171,
          0.094403945,
          0.103195995
        ],
        [
          0.051117532,
          0.13323414,
          0.08445171,
          -0.2600069,
          -0.006968228,
          0.036375746,
          -0.17425175,
          -0.018751007,
          -0.08389503,
          -0.05592906,
          -0.05077929,
          -0.064329796,
          0.36439022,
          -0.05287049,
          0.011897081,
          0.06635476
        ],
        [
          0.011413554,
          0.053944536,
          0.042823985,
          -0.22633842,
          -0.05548471,
          -0.009417591,
          -0.16654593,
          -0.11438552,
          -0.0069744405,
          -0.09472558,
          0.048818346,
          0.030677801,
          -0.2507289,
          0.14535671,
          0.0559317,
          0.024261966
        ],
        [
          0.12611051,
          0.12359836,
          0.0890493,
          -0.13345185,
          0.057798315,
          0.040454824,
          -0.06533132,
          -0.098166704,
          0.027419671,
          -0.06472716,
          0.08782387,
          -0.06444561,
          0.30882215,
          -0.034884103,
          0.009557306,
          0.05139827
        ],
        [
          0.07988179,
          0.065272465,
          0.116207756,
          0.08006534,
          0.030059148,
          0.20281035,
          -0.10662836,
          -0.16125861,
          0.07558072,
          0.025862431,
          0.2259919,
          0.0072657466,
          0.028362969,
          0.08205459,
          0.15771018,
          0.09555721
        ],
        [
          0.020146001,
          0.102447666,
          0.041525323,
          0.0975964,
          0.043146797,
          0.10664405,
          -0.020396035,
          -0.05579024,
          0.0709157,
          0.0101643,
          -0.10883166,
          0.06123577,
          -0.033504143,
          0.2306714,
          0.013723749,
          -0.098543875
        ],
        [
          0.0637785,
          0.024887318,
          0.0655581,
          0.06579566,
          0.17976004,
          0.095091484,
          -0.023712492,
          -0.018361624,
          5.71515E-05,
          0.06728392,
          0.03403098,
          0.17933427,
          -0.039805636,
          0.099880196,
          -0.042528484,
          -0.0020361547
        ],
        [
          -0.029172467,
          0.06246179,
          0.08045023,
          -0.055660833,
          0.15211558,
          0.07003677,
          -0.016852492,
          -7.754214E-06,
          0.021613816,
          -0.045986973,
          0.13054276,
          0.056423333,
          0.07461222,
          -0.04423674,
          -0.01574473,
          -0.054702155
        ],
        [
          0.030041924,
          0.03058103,
          0.043498248,
          0.023872143,
          0.14668214,
          0.14195314,
          -0.05796587,
          0.06946335,
          -0.12093075,
          -0.094317414,
          -0.012798377,
          -0.031452112,
          0.067698576,
          -0.04042067,
          0.11148799,
          -0.06332153
        ],
        [
          0.08306795,
          -0.10998435,
          -0.07337238,
          0.015387398,
          0.18614964,
          0.037098657,
          0.04159573,
          -0.02467781,
          -0.035316873,
          0.044987917,
          0.14454767,
          0.06638823,
          -0.0469407,
          0.11559257,
          0.03183495,
          0.1070224
        ],
        [
          0.080196634,
          -0.042539846,
          -0.012701427,
          -0.037053,
          0.02569043,
          0.069092356,
          0.100554585,
          0.07259342,
          -0.0045287875,
          -0.018330893,
          0.086300895,
          0.04042707,
          -0.11229132,
          -0.04529619,
          -0.025500106,
          0.07980225
        ],
        [
          0.093899086,
          0.0642809,
          0.18280175,
          -0.033883087,
          0.10497868,
          0.17953107,
          0.10697776,
          0.17939457,
          -0.06675136,
          -0.026607525,
          0.1070605,
          0.018659037,
          0.037337307,
          -0.048559107,
          0.039856497,
          0.109149106
        ],
        [
          -0.016436879,
          -0.064893134,
          -0.017381338,
          0.039232958,
          -0.08928457,
          0.20716204,
          -0.027239298,
          0.04134307,
          -0.0006607051,
          -0.122937165,
          0.004282277,
          -0.040006727,
          -0.1576833,
          -0.014650313,
          0.11598306,
          0.09051227
        ],
        [
          -0.110815436,
          -0.14006887,
          -0.08442977,
          0.0039943005,
          -0.063044585,
          0.07106516,
          0.084707916,
          0.1623479,
          0.048544746,
          0.118590936,
          0.07861808,
          -0.011545882,
          -0.105572715,
          -0.13315102,
          -0.046078585,
          0.13245155
        ],
        [
          -0.074196756,
          -0.008909739,
          -0.056876354,
          0.07830381,
          0.02878979,
          0.24893028,
          -0.012365982,
          0.125758,
          -0.034346405,
          0.038885582,
          0.00771686,
          -0.09365865,
          0.07583087,
          0.09390753,
          0.06006802,
          -0.010542735
        ],
        [
          0.014410556,
          -0.11015068,
          0.024865143,
          0.11668183,
          0.1563913,
          0.20592286,
          0.004576435,
          0.18635781,
          0.051770624,
          0.08381434,
          0.09435819,
          -0.023783317,
          -0.023160703,
          -0.0012495511,
          -0.10114183,
          -0.021733722
        ],
        [
          -0.02820863,
          -0.036756437,
          0.08877749,
          0.13340223,
          0.023584852,
          0.22204602,
          -0.008402866,
          0.06083553,
          0.026412755,
          0.055257834,
          -0.029229505,
          -0.00414581,
          -0.011320542,
          0.0066311755,
          -0.0416598,
          0.016403325
        ],
        [
          -0.10526394,
          0.05316774,
          0.0142907435,
          -0.081489764,
          -0.05687616,
          0.21218407,
          -0.02301953,
          -0.056206647,
          -0.041928466,
          0.1592739,
          -0.10886209,
          0.0060681496,
          -0.034370992,
          0.0113190925,
          -0.105371736,
          0.1892551
        ],
        [
          -0.0852136,
          -0.057002053,
          -0.158468,
          0.035278715,
          0.0053441003,
          0.10626408,
          0.03265125,
          0.04116181,
          -0.009716871,
          0.17936467,
          -0.06949181,
          0.09578834,
          -0.09527886,
          0.030907629,
          -0.035235856,
          0.26529756
        ],
        [
          -0.018386438,
          0.073726945,
          -0.027409075,
          0.010641787,
          0.0064560594,
          0.16864572,
          -0.008763332,
          0.051354315,
          0.020207575,
          0.2666511,
          -0.011857467,
          -0.012757663,
          0.019227937,
          0.0935013,
          -0.040829502,
          0.1941895
        ],
        [
          0.08295301,
          0.11694281,
          -0.07517924,
          0.10893175,
          -0.019819794,
          0.1417039,
          0.06100865,
          0.055124782,
          0.0151663795,
          0.12237174,
          0.04221573,
          0.08373271,
          -0.027870264,
          0.19723025,
          0.03653705,
          0.26724818
        ],
        [
          0.030688182,
          -0.011497704,
          0.108132824,
          0.0728324,
          -0.045263518,
          0.16049208,
          0.106050715,
          0.112758905,
          0.055411313,
          0.13099311,
          0.30468112,
          0.072312795,
          0.038695797,
          0.21240875,
          0.061774295,
          -0.035000913
        ],
        [
          -0.06510036,
          -0.20969658,
          -0.053381916,
          0.06283581,
          0.13146771,
          0.055237297,
          0.045098525,
          0.19543178,
          0.05204747,
          -0.29507846,
          0.2626428,
          -0.09568674,
          -0.12632178,
          0.027278757,
          0.100795686,
          -0.05406706
        ],
        [
          0.1600902,
          -0.16162425,
          0.39883092,
          -0.027918609,
          0.12021033,
          -0.027708173,
          -0.11607792,
          -0.029886365,
          0.2607447,
          -0.19661558,
          0.16678503,
          0.108736776,
          -0.14917387,
          0.016217908,
          0.1455693,
          0.18020697
        ],
        [
          0.086598724,
          -0.010668905,
          0.18015905,
          0.06487336,
          0.028783178,
          0.08155291,
          0.10189938,
          0.16467518,
          0.090605214,
          0.02362956,
          0.09280121,
          0.08659312,
          -0.14471218,
          -0.112136915,
          0.09170824,
          0.23184791
        ],
        [
          -0.042200886,
          0.119879164,
          0.06391382,
          0.06598789,
          -0.020224562,
          -0.02737411,
          -0.0132781705,
          0.28349262,
          0.032784935,
          0.14108703,
          -0.022934468,
          -0.04522971,
          0.020469734,
          -0.037257962,
          0.004626332,
          -0.038183533
        ],
        [
          -0.004978549,
          0.011367535,
          -0.029212598,
          0.0038284154,
          -0.09613701,
          0.017188452,
          0.026363363,
          0.11627655,
          -0.05866914,
          0.121109895,
          -0.014829897,
          -0.0847242,
          0.07456531,
          0.15528679,
          -0.024904063,
          0.07703234
        ],
        [
          -0.01689752,
          0.19231029,
          -0.012624156,
          0.07657098,
          -0.017818933,
          0.036121428,
          -0.001085788,
          0.146394,
          -0.099317424,
          0.15113956,
          -0.04308165,
          -0.018493082,
          -0.26393178,
          0.16647299,
          -0.10787333,
          -0.0087303575
        ],
        [
          0.013012611,
          0.089527264,
          -0.0852603,
          0.044193536,
          -0.023251718,
          0.14309463,
          0.031976316,
          0.1505567,
          -0.029397514,
          0.13272664,
          -0.106163844,
          0.04697002,
          -0.21189305,
          0.42496002,
          -0.12255946,
          0.075259656
        ],
        [
          -0.12348243,
          0.10498266,
          -0.035483178,
          0.08591472,
          0.07066455,
          0.07441806,
          0.03587897,
          0.24028331,
          0.08356033,
          0.0072799143,
          0.1573257,
          0.0053478554,
          -0.18130644,
          0.03282726,
          0.043213166,
          0.026836568
        ],
        [
          0.10126748,
          0.04670626,
          0.16026933,
          0.11218144,
          0.019827938,
          0.0787776,
          0.039747875,
          0.17012326,
          -0.020236928,
          0.0952172,
          0.109298706,
          0.12455196,
          -0.16984801,
          0.11114501,
          0.111575104,
          0.33190784
        ],
        [
          0.02241311,
          0.103079095,
          0.0055416706,
          0.024795067,
          -0.025985667,
          0.08971221,
          -0.009470725,
          0.20366223,
          0.0147947855,
          -0.13032117,
          -0.09862989,
          0.0444925,
          -0.15905377,
          0.06074031,
          0.10672604,
          0.21113214
        ],
        [
          -0.014805654,
          0.0634222,
          0.06476891,
          0.08654004,
          -0.016823268,
          0.06106576,
          0.08445525,
          0.12409256,
          0.09900642,
          0.116764665,
          -0.05597662,
          -0.01295315,
          0.01220315,
          0.27221495,
          -0.07314239,
          0.20679744
        ],
        [
          0.022637405,
          0.025840562,
          0.0022235007,
          0.12751363,
          0.026940687,
          0.07985279,
          -0.00751744,
          0.18804972,
          0.027090322,
          -0.28528604,
          -0.02644465,
          0.058534153,
          -0.06925669,
          0.13644733,
          0.1069326,
          0.048386466
        ],
        [
          -0.10593641,
          -0.07025798,
          -0.036648802,
          0.097735725,
          0.09178068,
          -0.043327298,
          0.07687732,
          0.18106826,
          0.07186834,
          -0.18183003,
          0.03322347,
          0.0055607604,
          0.16117853,
          0.10617247,
          0.100659505,
          0.09390908
        ],
        [
          -0.022617914,
          -0.05103363,
          -0.12541667,
          0.02050225,
          -0.029641986,
          0.043350827,
          -0.03151675,
          0.04973555,
          -0.068391435,
          -0.033994865,
          0.056435935,
          -0.01528301,
          -0.08931061,
          0.1831391,
          0.110579945,
          0.09781439
        ],
        [
          0.016052004,
          -0.0155679025,
          0.06991826,
          -0.038980078,
          -0.026061304,
          -0.007144363,
          0.12928231,
          0.0618073,
          0.117215686,
          -0.05379777,
          0.047491863,
          -0.010369047,
          0.034105744,
          -0.07908192,
          0.03638555,
          0.06496978
        ],
        [
          0.0026677006,
          -0.06973894,
          -0.117822886,
          0.14861748,
          -0.020001737,
          0.012076635,
          0.10105583,
          0.059241533,
          0.06811256,
          -0.14727399,
          0.07868414,
          0.119531736,
          0.20458196,
          0.14431265,
          0.10518265,
          0.05942747
        ],
        [
          -0.114762984,
          0.016348828,
          -0.016467463,
          0.2550937,
          -0.11848039,
          0.014493665,
          0.1380225,
          0.08250313,
          0.055202596,
          -0.11491989,
          0.008150283,
          0.17292504,
          -0.12706909,
          -0.01506946,
          0.0038397496,
          0.061819397
        ],
        [
          -0.009539964,
          -0.00085046975,
          -0.0065218937,
          0.11906133,
          -0.1611318,
          0.036558997,
          0.1388663,
          0.059103843,
          0.001332218,
          -0.0016486564,
          -0.06285179,
          0.050432947,
          -0.15178487,
          0.1507264,
          0.051913552,
          0.08708818
        ],
        [
          -0.17049758,
          0.053661942,
          -0.03433838,
          0.05666641,
          -0.28867877,
          0.046973944,
          0.23432223,
          0.006030043,
          -0.058489326,
          -0.010447876,
          -0.050883543,
          0.10169601,
          -0.033035576,
          -0.08401894,
          -0.010723325,
          0.09884935
        ],
        [
          0.031531002,
          -0.14384075,
          -0.05844073,
          0.29529503,
          -0.10462649,
          0.0042177797,
          0.2653012,
          0.2542526,
          0.17188814,
          -0.06541867,
          -0.12968306,
          0.08872688,
          -0.09063325,
          0.07237239,
          0.10940932,
          0.06651402
        ],
        [
          -0.020637885,
          -0.034486685,
          -0.0011314339,
          0.23065634,
          -0.12576303,
          -0.012965357,
          0.15647784,
          0.06809275,
          0.046966586,
          -0.117824495,
          -0.16089308,
          -0.040969707,
          0.24299377,
          -0.15514942,
          0.036736295,
          0.0015705879
        ],
        [
          -0.08265158,
          -0.045015454,
          -0.103851095,
          0.11036674,
          -0.10400376,
          0.08298562,
          0.033374928,
          0.109537244,
          -0.040897127,
          -0.08059595,
          -0.09683503,
          -0.20247325,
          0.015727758,
          -0.18915364,
          0.048219148,
          0.06192461
        ],
        [
          -0.03703409,
          0.045021858,
          -0.060763456,
          0.3032771,
          -0.09269573,
          0.016786667,
          0.044640116,
          0.09767345,
          -0.0772529,
          0.24473238,
          -0.03643568,
          -0.100376934,
          0.009008637,
          -0.007973486,
          0.11777894,
          0.03552129
        ],
        [
          -0.066823915,
          0.020922149,
          -0.039784264,
          0.24993937,
          -0.0124678975,
          0.0635875,
          0.038776956,
          0.028948624,
          -0.07891365,
          0.2650735,
          -0.08929675,
          0.0715135,
          -0.15181436,
          0.12305457,
          -0.09973433,
          0.03102088
        ],
        [
          -0.1516344,
          -0.02815694,
          -0.25478613,
          0.09645445,
          -0.17054518,
          -0.06900811,
          0.015293205,
          -0.093094595,
          -0.1699097,
          0.31955662,
          -0.12809572,
          -0.14616472,
          -0.06490281,
          -0.07699586,
          -0.06655995,
          0.002089872
        ],
        [
          0.011593614,
          -0.1513631,
          0.029468795,
          -0.1558005,
          0.0962889,
          -0.021889484,
          -0.013420965,
          0.006144637,
          -0.008111657,
          -0.2710755,
          0.147015,
          -0.17445658,
          0.13846092,
          -0.14813115,
          -0.15365352,
          0.029372325
        ],
        [
          -0.07312451,
          -0.028191775,
          0.14684896,
          -0.10600979,
          0.20713508,
          0.1470821,
          -0.034851555,
          -0.026580287,
          0.12986796,
          -0.029355342,
          0.122989535,
          0.012550033,
          0.061849117,
          0.14928415,
          -0.0108843185,
          -0.094667815
        ],
        [
          -0.07272535,
          -0.06929542,
          0.0948103,
          -0.19175152,
          0.13363078,
          0.16987547,
          0.042236604,
          -0.074691825,
          0.0573261,
          -0.23216254,
          0.06487993,
          0.07812317,
          -0.39573735,
          -0.0020261917,
          -0.029344257,
          0.17920136
        ],
        [
          -0.72171956,
          0.3098163,
          -0.9611293,
          0.7233829,
          -0.15592028,
          -0.31945413,
          -0.1951393,
          -0.10468475,
          -1.3390632,
          0.59807223,
          -0.23114105,
          -0.17378625,
          -1.7050809,
          0.12326452,
          -0.48695436,
          -0.39241767
        ],
        [
          -0.14567603,
          0.5522719,
          0.80554825,
          0.48750922,
          -0.576504,
          -0.043521654,
          -0.021346537,
          -0.5950028,
          0.14749122,
          -1.3115306,
          -2.0397933,
          -0.040440813,
          -0.05904002,
          0.12927392,
          0.47238338,
          0.27539816
        ],
        [
          -0.09934491,
          -0.41674477,
          0.37884182,
          0.030346697,
          0.35768002,
          -0.21090494,
          -0.1632536,
          -0.19904785,
          0.32875085,
          0.07989098,
          0.2202705,
          -0.04767119,
          0.4011035,
          -0.18641064,
          -0.18125868,
          -0.08753609
        ],
        [
          -0.0535741,
          -0.01072879,
          0.077187605,
          -0.041145734,
          0.1265207,
          0.101551555,
          -0.008215573,
          -0.10347244,
          0.10491441,
          -0.18215397,
          0.16646853,
          0.04332516,
          -0.040940143,
          0.147678,
          0.029018002,
          0.0072326753
        ],
        [
          0.024622614,
          -0.15166534,
          -0.028365834,
          -0.08471478,
          0.11346052,
          0.12117123,
          0.027855052,
          -0.054197412,
          0.11086817,
          -0.2982292,
          0.12778613,
          0.15078878,
          0.31738055,
          0.12786222,
          0.050043818,
          0.08663789
        ],
        [
          0.049004566,
          -0.19830535,
          -0.48206317,
          -0.06733851,
          0.008543781,
          0.11063162,
          0.02545741,
          0.05280947,
          0.109131336,
          -0.36999333,
          0.102166094,
          0.106991105,
          0.06385228,
          -0.034450404,
          0.124250464,
          0.060320746
        ],
        [
          -0.39545932,
          -0.35419008,
          0.45563036,
          -0.045208856,
          -0.5962268,
          -0.8414144,
          -0.38926566,
          0.17334132,
          -0.6217537,
          -0.10306439,
          -0.6470313,
          -0.53183204,
          0.89694417,
          -0.82365173,
          -0.7417724,
          -0.25537387
        ],
        [
          0.4337035,
          -0.25834408,
          -0.34575316,
          -0.09719104,
          -0.49367067,
          0.11132605,
          0.06162026,
          0.20071574,
          0.9381522,
          0.47538096,
          0.22759295,
          -0.49651277,
          -0.8462071,
          -0.17943864,
          -0.5911089,
          -0.45735276
        ],
        [
          0.23258793,
          -0.24433066,
          -0.53878236,
          1.0702715,
          1.0558195,
          -1.0424006,
          0.7471566,
          -0.20279793,
          -1.755328,
          0.59140587,
          -0.26827034,
          -0.8071481,
          0.4664754,
          -0.18146618,
          0.4107908,
          0.3847242
        ],
        [
          -0.10884057,
          -0.044492446,
          0.12827034,
          0.13221255,
          0.061276123,
          0.12805758,
          0.030132137,
          -0.022330992,
          0.10984711,
          -0.15220338,
          0.148133,
          0.011381898,
          0.026228731,
          0.28521752,
          0.08333551,
          -0.112620614
        ],
        [
          0.11244264,
          -0.20276363,
          -0.049293198,
          0.19194019,
          0.25042224,
          0.11198361,
          0.004577679,
          0.02081036,
          0.26693162,
          -0.15760678,
          0.27116212,
          0.16565537,
          -0.08520054,
          0.16135089,
          -0.044353362,
          -0.055316966
        ],
        [
          -0.2221574,
          0.0039760345,
          -0.26184443,
          0.3396283,
          0.13434738,
          0.07130802,
          0.15437315,
          0.2778568,
          0.28963155,
          -0.16247723,
          0.2994581,
          0.116273075,
          0.2929837,
          -0.1282867,
          0.16659874,
          0.088348284
        ],
        [
          1.3825268,
          -0.03369473,
          -0.07073853,
          0.501875,
          0.3412332,
          -0.5043139,
          0.6303065,
          0.31479803,
          0.65917253,
          -0.3477001,
          0.08847581,
          -0.4509831,
          -0.8392589,
          0.538567,
          1.2647914,
          -0.12022272
        ],
        [
          -0.88751465,
          -0.44301885,
          -1.4685013,
          -0.104208745,
          -0.36896372,
          1.4255015,
          -0.10945369,
          -0.38981935,
          0.009760378,
          -0.27530125,
          0.367599,
          1.2363704,
          0.8778202,
          0.110826224,
          -2.279478,
          -0.13707273
        ],
        [
          0.17742273,
          0.035289306,
          0.05589179,
          0.313953,
          -0.06615167,
          0.22183195,
          0.044369932,
          -0.2030778,
          -0.35734698,
          0.38295445,
          0.4212072,
          -0.39968106,
          -0.013806187,
          0.09572798,
          0.10258567,
          -0.5315934
        ],
        [
          -0.14724594,
          0.08469481,
          0.13767456,
          0.18485145,
          -0.091357484,
          0.15114065,
          -0.028906953,
          0.0796067,
          -0.029467227,
          -0.13728262,
          -0.086974934,
          -0.026907662,
          -0.33548284,
          0.066480495,
          -0.053397812,
          0.018052315
        ],
        [
          -0.006696968,
          -0.16848226,
          -0.06828702,
          -0.05433549,
          0.40368325,
          0.41678223,
          -0.011195825,
          0.26679432,
          0.1069474,
          -0.21844397,
          0.21583864,
          0.076563306,
          0.30822387,
          0.16723357,
          0.15087155,
          -0.19761467
        ],
        [
          0.761011,
          -0.3193307,
          -0.28677607,
          0.12966858,
          0.1960236,
          0.063054755,
          -0.16424595,
          0.48457447,
          0.40177503,
          -0.08929425,
          -0.02636639,
          0.03591848,
          -1.8694688,
          0.52133286,
          0.108045556,
          -0.62535363
        ],
        [
          0.28636557,
          -0.39469194,
          0.37154767,
          0.4502002,
          0.50533646,
          -0.12452239,
          -0.4444588,
          -0.08581983,
          0.27509272,
          0.10597572,
          0.2105723,
          0.062936895,
          0.4387854,
          -0.45275563,
          -0.77101433,
          -0.014096328
        ],
        [
          0.057918124,
          0.070887595,
          0.011209082,
          0.26843572,
          0.060624175,
          0.15039389,
          0.3160859,
          -0.0068472438,
          -0.7772687,
          0.7417321,
          0.3290832,
          -0.46986416,
          0.060646407,
          -0.16146168,
          0.13412315,
          -0.19922046
        ],
        [
          0.967112,
          -0.04419983,
          -0.015238926,
          0.19222799,
          0.14704764,
          -0.2514407,
          0.25451708,
          0.005715639,
          -0.7487866,
          -0.10226079,
          -0.17546608,
          -0.28526738,
          0.7006098,
          -0.003260963,
          0.3018409,
          -0.25176734
        ],
        [
          0.18613456,
          0.040592555,
          0.079462685,
          0.15913239,
          -0.009248871,
          0.06633229,
          0.097655594,
          0.27612913,
          -0.07370941,
          0.00011277018,
          -0.091507055,
          -0.06288018,
          0.06037407,
          -0.03863303,
          -0.01021681,
          -0.018220274
        ],
        [
          0.42022958,
          -0.14385515,
          0.17414816,
          -0.13325034,
          0.4417393,
          0.21814378,
          0.10284627,
          0.07849421,
          0.21677014,
          -0.014457277,
          0.003849108,
          0.29684594,
          -0.1569096,
          0.4028834,
          -0.09342317,
          -0.3319589
        ],
        [
          0.5351795,
          0.17457622,
          -0.39569733,
          -0.27354297,
          0.3561871,
          0.21894853,
          -0.3128512,
          0.0011300936,
          1.1316419,
          0.026574753,
          -0.05663241,
          0.117855646,
          0.691334,
          0.6774566,
          -0.03551322,
          -0.8009189
        ],
        [
          1.5430123,
          0.04279288,
          -0.341579,
          0.6705138,
          -0.04041638,
          -0.53732914,
          0.28596866,
          0.09335546,
          -0.053217225,
          0.4155273,
          0.5846426,
          -0.91566116,
          0.63461536,
          -0.4236184,
          1.2318139,
          -0.09931322
        ],
        [
          -1.0174452,
          -0.80345976,
          -0.18119976,
          -0.18718696,
          0.59536546,
          0.528208,
          0.41940695,
          0.24145581,
          -0.8124388,
          0.30418098,
          0.96117944,
          0.68227774,
          -0.6176158,
          -0.06027001,
          -0.6294566,
          -0.29237494
        ],
        [
          -0.59891474,
          -0.18936186,
          0.5479341,
          0.0030557234,
          0.26801074,
          -0.24255992,
          0.5192843,
          -0.061243165,
          -0.83860904,
          -0.6942113,
          0.6547774,
          0.097561024,
          -0.9162288,
          -0.23628327,
          -0.24390961,
          -0.36821938
        ],
        [
          -0.036566485,
          0.039471596,
          0.046474993,
          0.1723165,
          -0.132479,
          0.086224124,
          -0.030894125,
          0.20265503,
          -0.055054713,
          0.16542263,
          -0.0074418755,
          -0.086498775,
          -0.04173246,
          0.102797166,
          -0.06224056,
          -0.21173935
        ],
        [
          -0.11793613,
          0.10313139,
          0.112639986,
          0.10508627,
          0.08404912,
          0.19349366,
          -0.15142587,
          -0.020970171,
          0.26987872,
          0.098650545,
          0.005581786,
          0.16246513,
          0.19118918,
          0.395524,
          0.00012163176,
          -0.49101147
        ],
        [
          -0.52594405,
          -0.40011483,
          -0.506128,
          -0.35782894,
          -0.080786705,
          -0.4066095,
          -0.4105375,
          -0.12316037,
          0.6521611,
          -0.20655994,
          1.4583336,
          -0.04816612,
          -0.9080721,
          -0.6982279,
          -0.29756692,
          -0.47063124
        ],
        [
          -0.36516675,
          -0.08455934,
          0.7499457,
          0.43103573,
          0.22608975,
          -0.0898954,
          0.30829167,
          0.031849917,
          0.20717598,
          -0.5373637,
          0.029118462,
          0.5067442,
          0.33828965,
          -0.5487534,
          0.40653908,
          -0.64495325
        ],
        [
          0.25132006,
          0.102801435,
          -0.1528047,
          0.021421053,
          0.43385735,
          0.431286,
          0.052487448,
          0.09516063,
          -0.38215184,
          0.00036147394,
          0.21900086,
          0.12855737,
          0.7377127,
          -0.16969775,
          -0.25033963,
          -0.22413142
        ],
        [
          0.19234718,
          0.13666335,
          -0.34284177,
          -0.041415107,
          0.40474057,
          0.26362225,
          0.39703998,
          -0.09079696,
          -0.2759832,
          -0.06993926,
          0.035155702,
          0.28992337,
          0.21657227,
          -0.4428401,
          0.036717385,
          -0.19016506
        ],
        [
          0.3951736,
          0.09686054,
          -0.052492455,
          -0.20209733,
          0.00035978298,
          0.12811324,
          0.1030015,
          -0.087560065,
          -0.04141785,
          0.13668191,
          -0.5992215,
          -0.29457986,
          0.110555544,
          0.17739518,
          -0.06431473,
          0.16769218
        ],
        [
          -0.00015384587,
          -0.05943864,
          -0.27663717,
          0.35261804,
          0.3686653,
          -0.6025456,
          0.061950713,
          -0.022636814,
          0.17861003,
          0.4855983,
          -0.24772778,
          -0.2080099,
          0.712774,
          0.47065267,
          -0.17209524,
          -0.15820584
        ],
        [
          -0.1469324,
          -0.3077944,
          0.091526695,
          -0.3589133,
          -0.09377279,
          0.031707216,
          -0.16863392,
          -0.7605758,
          0.19781972,
          0.60124105,
          0.09791424,
          -0.1290066,
          0.024635788,
          -0.30476785,
          0.4154823,
          0.34932935
        ],
        [
          0.41241696,
          -0.19840522,
          0.33127815,
          0.12555587,
          0.014326396,
          -1.2887609,
          -0.13298196,
          0.04263435,
          -0.31756428,
          0.15029198,
          -0.32090253,
          -0.5802507,
          -0.821178,
          0.27413398,
          -0.18430197,
          0.24160208
        ],
        [
          -0.24554871,
          0.12903792,
          0.11724769,
          -0.37959424,
          0.3939179,
          -0.36978346,
          0.68012637,
          0.06217284,
          -0.5983562,
          0.41670135,
          0.51812816,
          0.087639414,
          -0.28598803,
          0.21676543,
          -0.27164444,
          -0.0547162
        ],
        [
          0.15179265,
          -0.21835648,
          -0.2235183,
          0.37620854,
          0.19174646,
          0.31423736,
          0.12899882,
          -0.11541726,
          -0.022977827,
          -0.09164322,
          0.20274556,
          -0.29063892,
          -0.03348195,
          -0.40894774,
          0.040486116,
          -0.2928823
        ],
        [
          0.879003,
          0.21159813,
          -0.21969046,
          0.32786453,
          0.6813742,
          -0.26559374,
          0.07161181,
          0.3795028,
          -0.07896624,
          0.34844527,
          -0.1738563,
          0.05173614,
          0.98945564,
          -0.5167166,
          -0.03937841,
          -0.14459746
        ],
        [
          -0.13176472,
          0.45865682,
          -0.21366523,
          0.1729246,
          0.5093219,
          0.24630605,
          0.0733933,
          0.03078319,
          0.16085243,
          0.011581427,
          -0.97018033,
          0.4586335,
          0.23218654,
          -1.0175045,
          0.2627774,
          0.36697215
        ],
        [
          -0.604827,
          -0.053047977,
          -0.07468269,
          0.14236684,
          -0.04733091,
          0.21194953,
          -0.0013995672,
          -0.1746217,
          -0.11813156,
          -0.129726,
          -0.27321428,
          0.12764257,
          0.3103084,
          -0.0941065,
          0.005103279,
          0.20531163
        ],
        [
          0.80485386,
          0.002716727,
          0.9701329,
          0.3415684,
          0.3565714,
          0.17745398,
          0.336104,
          0.026300399,
          -0.5095174,
          0.38776365,
          0.534767,
          -0.31082028,
          0.029745653,
          -0.18296061,
          -0.107276626,
          0.3023926
        ],
        [
          -0.1516439,
          -0.10751319,
          -0.1892824,
          -0.013261119,
          0.22835626,
          -0.20835583,
          0.1870992,
          -0.05383715,
          -0.16888306,
          0.43643323,
          0.39051884,
          -0.20976435,
          -0.2744995,
          -0.01942407,
          -0.042075746,
          -0.062865555
        ],
        [
          -0.04079785,
          -0.017595382,
          0.07864517,
          0.012942249,
          -0.12113875,
          0.006969711,
          -0.07495185,
          0.041254465,
          -0.044782635,
          0.0001270778,
          0.052346084,
          0.031034451,
          0.02772231,
          0.14158338,
          0.15386426,
          -0.08856304
        ],
        [
          0.87260455,
          0.15553932,
          0.6910764,
          0.35878268,
          0.3038638,
          0.18924394,
          0.20969969,
          -0.05545308,
          -0.22055285,
          0.005404893,
          0.071339585,
          0.4717075,
          -0.11369371,
          -0.08077962,
          -0.23195799,
          -0.04478528
        ],
        [
          0.39298815,
          0.9830809,
