{
  "Layers": [
    {
      "_wInc": 1,
      "_wDec": 1,
      "_wNothing": 1258719640551,
      "EnableNNUE": true,
      "Weights": [
        [
          -0.019102938,
          0.43009952,
          -0.89511275,
          0.36617047,
          -0.8408711,
          -0.30525565,
          0.163551,
          -0.0060856184,
          -1.2192395,
          -0.32026586,
          -0.09845924,
          0.6240021,
          -0.2129233,
          0.05362647,
          -0.3036509,
          -0.11758437
        ],
        [
          0.032625236,
          -0.20623872,
          0.68163794,
          -0.004371152,
          1.0069894,
          0.21020173,
          -0.09689963,
          0.41006404,
          1.2701577,
          0.525364,
          0.05596446,
          -0.3936156,
          -0.03365849,
          -0.23502415,
          -0.17751321,
          -0.19981824
        ],
        [
          0.6813803,
          0.051448148,
          0.76349616,
          0.013050394,
          -0.18959036,
          0.85482574,
          0.057646345,
          0.13717185,
          -0.009946131,
          -0.048027147,
          0.0021360058,
          -0.6653571,
          -0.22356191,
          -0.33198702,
          0.4999822,
          0.28943208
        ],
        [
          0.0070198034,
          -0.03905558,
          0.53822756,
          -1.0376058,
          -2.1545708,
          -1.3243241,
          0.037389737,
          -0.22377536,
          -2.0374804,
          1.4737302,
          0.07968841,
          -1.619635,
          0.76695544,
          -0.45732403,
          -0.115178935,
          -0.4414907
        ],
        [
          -0.9615909,
          -0.6940711,
          -0.2789127,
          0.16926886,
          -0.2787223,
          -0.8141997,
          0.21316016,
          -0.47863758,
          -1.7051878,
          0.15901193,
          -0.502808,
          -1.9285712,
          0.05800281,
          -0.28446788,
          -0.46814695,
          -0.5860584
        ],
        [
          0.100779034,
          -0.46876922,
          -0.46778345,
          -0.10623597,
          -1.0098809,
          -0.4133258,
          0.2782943,
          -0.069646314,
          -0.70856494,
          0.37824836,
          0.112529844,
          -0.4130904,
          0.019799797,
          -0.4921555,
          -0.1641976,
          0.044526603
        ],
        [
          -0.24456848,
          -0.2875899,
          -0.14363827,
          -0.024780437,
          0.072678305,
          -0.12884219,
          0.02845267,
          0.08124392,
          -0.08087541,
          0.018173076,
          -0.10685776,
          -0.34938028,
          -0.045698933,
          -0.23735024,
          0.16475402,
          -0.17780274
        ],
        [
          -0.18574245,
          -0.08923521,
          -0.2362734,
          -0.08966305,
          0.06518785,
          -0.086868025,
          -0.1540768,
          -0.15328708,
          -0.1425554,
          -0.29470858,
          0.12676762,
          0.18102725,
          0.17688884,
          -0.03634934,
          0.026246816,
          0.12499981
        ],
        [
          2.2707179,
          0.16024823,
          -0.5795012,
          -0.89136064,
          3.0509832,
          5.254867,
          0.001219745,
          2.421672,
          1.7953546,
          -2.314021,
          0.22223753,
          1.022207,
          -1.7890604,
          0.25689024,
          -1.1414117,
          2.9022377
        ],
        [
          0.2934028,
          0.10068767,
          0.20517151,
          0.09965397,
          0.22113438,
          0.29872844,
          0.0026063095,
          0.07670795,
          0.49471617,
          0.032594934,
          -0.076418966,
          0.37642485,
          0.040570766,
          0.06503915,
          -0.08737674,
          0.13021734
        ],
        [
          -0.019727496,
          0.035859838,
          0.044567805,
          0.03448305,
          0.023769394,
          -0.0033623644,
          0.123350404,
          0.19780178,
          0.024167225,
          0.28736937,
          0.1152561,
          -0.08640518,
          -0.0877772,
          0.17439622,
          -0.03486874,
          -0.0031260473
        ],
        [
          0.06950516,
          -0.13092627,
          0.11890177,
          0.06334206,
          1.0658978,
          0.5816762,
          -0.10324732,
          0.33897603,
          1.1767415,
          -0.32207748,
          -0.06639739,
          0.07931923,
          -0.14195669,
          0.34895986,
          0.119716555,
          1.0651842
        ],
        [
          0.61415446,
          -0.00095054833,
          0.09695243,
          0.07266408,
          -0.10423697,
          0.50738144,
          0.092144005,
          -0.27372035,
          0.8620091,
          -0.19985214,
          0.034059558,
          0.61702347,
          -0.016971812,
          0.032180797,
          -0.09154744,
          0.025339553
        ],
        [
          0.10807486,
          0.16767773,
          0.07622665,
          -0.012457607,
          0.3016082,
          0.15815915,
          -0.021103553,
          0.27227914,
          0.54785687,
          -0.10671976,
          -0.07543131,
          0.3796185,
          0.039525446,
          0.14453004,
          -0.06415348,
          -0.11247041
        ],
        [
          0.39100388,
          0.2415036,
          0.005058778,
          0.0050487863,
          0.30377153,
          0.18726912,
          0.018903099,
          0.15722738,
          0.3398314,
          -0.022710783,
          0.03548416,
          0.45670643,
          -0.08741342,
          0.011679142,
          -0.11653738,
          -0.105400905
        ],
        [
          0.19873421,
          0.20001405,
          0.07758859,
          -0.0067150523,
          0.15724798,
          0.09604213,
          -0.053352173,
          0.19098386,
          0.5174307,
          0.06637154,
          -0.12083758,
          -0.07046584,
          0.10931884,
          0.065216735,
          0.086375654,
          0.060773928
        ],
        [
          0.14122725,
          0.13826162,
          0.23248442,
          -0.06161483,
          0.24601899,
          0.1770647,
          0.1773857,
          0.2629893,
          0.18199968,
          0.19159842,
          -0.04266081,
          0.13044299,
          -0.14587873,
          0.039566558,
          -0.14976826,
          0.14927898
        ],
        [
          0.2043257,
          0.13670659,
          0.23639782,
          0.025731923,
          0.09138838,
          0.102873236,
          -0.05547118,
          0.10184129,
          0.3511831,
          0.23523131,
          0.09672773,
          0.18005198,
          -0.070797384,
          0.09699108,
          -0.164931,
          0.040947046
        ],
        [
          0.14208108,
          0.08509885,
          0.23306341,
          -0.04868945,
          0.11223709,
          0.068188995,
          0.031280186,
          0.13601178,
          0.31271872,
          0.053577628,
          0.08600423,
          0.29075912,
          0.026661398,
          0.028335856,
          0.046880946,
          0.20126896
        ],
        [
          0.15177009,
          0.13773131,
          -0.0004722801,
          0.047009286,
          0.09334461,
          0.2600433,
          -0.033527974,
          0.1405738,
          0.32186666,
          0.24532256,
          -0.042834535,
          0.22723982,
          0.02124959,
          0.014010916,
          0.047471352,
          -0.046361882
        ],
        [
          0.33551857,
          0.20976758,
          0.14305834,
          -0.036913346,
          0.15870719,
          0.048770644,
          0.14266013,
          0.16300789,
          0.1818974,
          0.06308226,
          0.0064297463,
          0.19934002,
          0.03196557,
          0.13567238,
          -0.036981642,
          0.071286455
        ],
        [
          0.2868741,
          0.19068572,
          0.08116087,
          0.0037096513,
          0.07403634,
          0.15015624,
          0.06394824,
          0.12742966,
          0.16274041,
          0.10239347,
          0.025742428,
          0.16415146,
          -0.1661796,
          -0.008535561,
          -0.23477882,
          -0.07076685
        ],
        [
          0.2173272,
          0.04451771,
          0.19700195,
          0.05859879,
          0.035471007,
          0.093273714,
          0.1595001,
          0.06810459,
          0.2809069,
          0.14805803,
          0.019477688,
          0.2615271,
          0.050887316,
          0.10234527,
          -0.21767399,
          -0.10873434
        ],
        [
          0.2205795,
          0.13959175,
          0.09267318,
          0.057769593,
          0.18333264,
          0.2194763,
          -0.01763647,
          -0.039437063,
          0.29451957,
          0.026796976,
          0.1588711,
          0.21526471,
          -0.05357097,
          0.023619505,
          -0.23071402,
          0.111563876
        ],
        [
          0.2357752,
          0.14164197,
          0.14531742,
          0.05082288,
          0.17536484,
          0.23528422,
          0.06530349,
          -0.032565463,
          0.281544,
          -0.07038229,
          0.06635886,
          0.26541337,
          0.06266446,
          0.16049974,
          -0.17536455,
          -0.028028868
        ],
        [
          -1.3072277,
          0.8105607,
          0.6028243,
          0.010270299,
          -0.7713067,
          -0.63850164,
          0.009228123,
          -0.12751251,
          -0.9190731,
          2.640946,
          0.21041013,
          -1.1971841,
          0.1730355,
          0.081852674,
          0.2704495,
          0.03665463
        ],
        [
          -0.79258597,
          -0.009566576,
          0.37488958,
          -0.066442594,
          -0.3301328,
          -0.23975137,
          0.12142832,
          -0.0055683814,
          -0.42236474,
          0.4009545,
          -0.08969078,
          -0.2871856,
          -0.088409945,
          0.027225874,
          -0.045841187,
          -0.0153404
        ],
        [
          -0.65111804,
          -0.14279416,
          0.07255286,
          -0.095699474,
          -0.20044203,
          0.0045304117,
          0.2169975,
          0.011089161,
          -0.09992129,
          -0.0594259,
          -0.03867004,
          -0.20262337,
          -0.1054938,
          0.028496483,
          -0.21772736,
          0.008128606
        ],
        [
          -0.52509207,
          -0.13737729,
          -0.012228934,
          0.07921538,
          -0.20985301,
          0.051518776,
          -0.010310376,
          0.038158752,
          0.35141817,
          0.1735653,
          -0.022176513,
          -0.014207645,
          -0.0924713,
          0.030684283,
          -0.15977636,
          0.2565351
        ],
        [
          0.39365363,
          0.06438182,
          0.103480965,
          -0.048661906,
          0.23263372,
          0.19209395,
          0.15984024,
          0.2319331,
          0.26672325,
          0.25944346,
          0.0991837,
          0.2740555,
          -0.06572781,
          0.25940213,
          -0.09569357,
          0.050975997
        ],
        [
          0.1599882,
          -0.05802443,
          0.15110846,
          -0.002481362,
          0.06905136,
          0.1727838,
          0.07931283,
          0.2507947,
          0.3115746,
          0.10140572,
          0.18802784,
          0.1895994,
          -0.12641004,
          0.09974432,
          -0.16439858,
          -0.0009115605
        ],
        [
          0.17009625,
          0.18229589,
          0.23359026,
          -0.14235859,
          0.072709344,
          0.24183123,
          0.08876537,
          0.23498166,
          0.15919328,
          0.13557792,
          -0.018592702,
          0.15712819,
          -0.12409147,
          0.037739996,
          -0.114550054,
          0.1368226
        ],
        [
          0.345484,
          -0.030324256,
          0.12854134,
          -0.06871949,
          0.1273437,
          0.05055874,
          0.10362361,
          0.06343236,
          0.35516044,
          0.10994611,
          0.023031352,
          0.1768769,
          -0.10130595,
          -0.0093921935,
          -0.03716767,
          0.039490957
        ],
        [
          0.15147915,
          -0.033993304,
          0.018012946,
          0.026353655,
          0.2720645,
          0.09856127,
          0.044389788,
          0.0002683331,
          0.12886983,
          0.13011275,
          0.09706485,
          0.19584343,
          0.029938264,
          0.16183765,
          -0.05162894,
          0.15645339
        ],
        [
          0.30385986,
          0.005421004,
          0.2282765,
          -0.053996775,
          0.18966384,
          0.22412698,
          -0.02741963,
          0.12831813,
          0.18574125,
          0.020872684,
          -0.017130224,
          0.22870499,
          -0.152291,
          0.0014003882,
          -0.23346898,
          0.12141001
        ],
        [
          0.22831684,
          0.059606828,
          0.2381029,
          -0.02998485,
          0.059396796,
          0.17320003,
          -0.013983124,
          0.15013683,
          0.17542318,
          0.06542178,
          0.083396316,
          0.0993544,
          -0.018552946,
          0.017967997,
          -0.06839123,
          0.014245138
        ],
        [
          0.14712402,
          0.16937041,
          0.030560352,
          -0.035579417,
          0.25248227,
          0.119995445,
          0.15085669,
          0.14284933,
          0.28757194,
          0.10740218,
          0.04925015,
          0.25707933,
          -0.045498222,
          0.1351975,
          -0.19934592,
          0.056941796
        ],
        [
          0.31513098,
          0.094448,
          0.13948165,
          -0.14949436,
          0.19524772,
          0.14797641,
          -0.026069116,
          0.05903101,
          0.33833143,
          -0.052806843,
          0.041778013,
          0.27769157,
          -0.023684764,
          0.0678056,
          -0.118518025,
          0.020984638
        ],
        [
          0.20644125,
          0.13058645,
          0.22613336,
          -0.13045599,
          0.19595434,
          0.19611011,
          0.17019536,
          -0.014086863,
          0.21778882,
          0.14295334,
          0.1031224,
          0.17773014,
          0.0053103166,
          0.19230182,
          -0.246439,
          0.05781238
        ],
        [
          -0.62219256,
          0.55457324,
          -0.045380536,
          -0.3061371,
          1.1642983,
          -0.2529735,
          0.38956085,
          -0.44692752,
          -0.6117168,
          -0.1707913,
          -0.5243188,
          0.08301077,
          -0.079310216,
          0.9875964,
          -0.17009346,
          -0.35882288
        ],
        [
          -0.2625869,
          0.5058966,
          0.22222121,
          -0.32838207,
          0.79296744,
          -1.065695,
          -0.1841442,
          0.0566251,
          -0.7058853,
          -1.0645472,
          0.18577503,
          -0.29884797,
          0.24792935,
          0.5276484,
          -0.21268578,
          0.34223232
        ],
        [
          0.4864971,
          0.27956975,
          0.6104415,
          -0.18370758,
          0.30527705,
          -0.77133477,
          -0.039689403,
          0.26152343,
          -1.4140503,
          -0.05841511,
          -0.38357294,
          0.37503123,
          0.3085499,
          0.22224127,
          -0.17005542,
          0.39927682
        ],
        [
          0.7011459,
          0.25832036,
          0.3521726,
          -0.14463674,
          0.39414704,
          -0.2626184,
          -0.19731772,
          0.03738635,
          -0.34588802,
          0.17782797,
          -0.10454593,
          0.46068347,
          0.19478966,
          0.505282,
          -0.09451671,
          0.30512106
        ],
        [
          0.3321536,
          0.045648955,
          0.121616915,
          -0.009479733,
          0.23030199,
          0.28477433,
          0.19432952,
          0.11428425,
          0.25863266,
          -0.019912465,
          -0.04706291,
          0.3277543,
          0.02499331,
          0.16673337,
          -0.058612823,
          -0.08541196
        ],
        [
          0.18189386,
          0.0849891,
          0.038153604,
          -0.07366271,
          0.2325076,
          0.2033846,
          -0.005525953,
          -0.03584262,
          0.41071865,
          0.09918853,
          0.05172742,
          0.24637058,
          -0.16405949,
          0.06131979,
          -0.2287772,
          -0.12044547
        ],
        [
          0.34813467,
          0.2480087,
          -0.07476703,
          0.2960137,
          0.9033083,
          0.6020055,
          -0.035746966,
          0.13529727,
          -0.48980922,
          -0.62645316,
          -0.18675628,
          0.39778784,
          -0.23939659,
          -0.088523,
          -0.36658475,
          0.104321904
        ],
        [
          1.5648859,
          0.3090315,
          -0.6561402,
          0.4133226,
          0.06833208,
          1.0567718,
          0.46567428,
          0.026721152,
          0.093304016,
          -0.3224438,
          -0.06560022,
          1.5624529,
          -0.26856056,
          0.13286778,
          -0.34201908,
          0.3778439
        ],
        [
          0.57231784,
          0.0862181,
          -0.12868854,
          0.3089686,
          0.20335971,
          0.7958104,
          0.4252053,
          -0.021362063,
          0.58525896,
          -0.28028864,
          -0.13741367,
          0.7936045,
          -0.14307465,
          0.12199614,
          -0.38359916,
          0.238633
        ],
        [
          0.45432782,
          0.12292318,
          0.16841525,
          0.13353424,
          0.14537545,
          0.4031618,
          0.25799677,
          -0.10247042,
          0.5217983,
          -0.011814981,
          -0.028511304,
          0.47304872,
          -0.07913478,
          -0.037169393,
          -0.43477723,
          0.08494365
        ],
        [
          0.09400333,
          0.15808174,
          0.20351854,
          -0.062401522,
          0.18726946,
          0.18691856,
          0.15583484,
          -0.016351506,
          0.5925759,
          -0.24579278,
          0.00013908625,
          0.43916512,
          -0.013867459,
          0.035090804,
          -0.29903662,
          -0.003764856
        ],
        [
          0.27107534,
          0.036776096,
          0.23373677,
          -0.03348263,
          0.23155423,
          0.14874192,
          0.12296951,
          -0.039338313,
          0.24277997,
          -0.04935247,
          0.14440727,
          0.1210082,
          0.010547058,
          0.05072933,
          -0.014292735,
          -0.0011285794
        ],
        [
          0.35599774,
          -0.077594586,
          -0.09414486,
          0.0028770897,
          -0.88783884,
          -0.27554092,
          -0.5551945,
          0.4304471,
          0.50151986,
          -0.2594122,
          -0.13860315,
          -0.56647325,
          0.05433527,
          -0.17402807,
          0.086017735,
          -0.3103777
        ],
        [
          -0.9529755,
          -0.09217219,
          -0.22944868,
          0.14786546,
          0.36744902,
          0.1159029,
          -0.08489042,
          0.34013942,
          0.17519303,
          -0.0566429,
          -0.17547826,
          -1.9811116,
          -0.15189193,
          -0.45975605,
          -0.047190603,
          -0.22270705
        ],
        [
          1.1576358,
          2.3760002,
          -0.07620384,
          0.6639517,
          -0.15904823,
          2.982626,
          0.37018338,
          0.7438756,
          3.3188016,
          -0.18206576,
          0.026635105,
          -0.2718082,
          0.5897282,
          -0.036947623,
          1.014219,
          0.4604425
        ],
        [
          -0.418579,
          0.8098104,
          0.080479756,
          -0.014971181,
          -0.6667455,
          0.08528439,
          -0.6754816,
          0.56467867,
          1.6535245,
          -0.085646905,
          -0.09496982,
          1.1401019,
          0.105429545,
          -0.14530174,
          0.20882489,
          0.11415283
        ],
        [
          -1.1152316,
          0.8598007,
          -0.42983156,
          -0.65766555,
          -0.7993955,
          -0.11478938,
          -0.37861285,
          0.9735231,
          1.1414828,
          -1.036187,
          -0.155186,
          -0.066090666,
          0.28160182,
          0.9476357,
          0.099200204,
          -0.4290279
        ],
        [
          -3.4979136,
          -0.93913513,
          -0.37423742,
          -0.6788514,
          0.3016469,
          -0.5458101,
          -1.0728226,
          1.4930272,
          1.9159328,
          -2.2934086,
          0.6850758,
          -6.584847,
          0.58777183,
          -0.861361,
          0.062666215,
          -0.4545314
        ],
        [
          0.11200881,
          0.6167062,
          -0.18490013,
          0.10671033,
          -1.5379335,
          -0.3249854,
          0.02409734,
          -0.4662447,
          -1.7551794,
          0.669957,
          0.19675596,
          -0.10131472,
          0.14647707,
          -0.032167487,
          0.21826857,
          -0.61876935
        ],
        [
          -0.61568135,
          -0.7289604,
          0.32954597,
          -0.09648651,
          0.94023454,
          -0.052976675,
          -0.16947427,
          0.17170423,
          0.31054482,
          -0.48227897,
          -0.14753766,
          -0.6536943,
          0.070033535,
          -0.22019154,
          -0.06263194,
          -0.32686424
        ],
        [
          0.20957477,
          -0.27827725,
          -0.24517423,
          -0.2979556,
          0.737537,
          0.036648043,
          -0.4211471,
          -0.30521286,
          -0.7332069,
          -0.46268702,
          -1.1026396,
          0.64642745,
          0.61368716,
          -0.0960716,
          -0.67138547,
          -0.6387251
        ],
        [
          0.90990573,
          -0.20022681,
          -0.9462683,
          0.26588947,
          0.24483842,
          -0.08054602,
          0.22047062,
          -0.23934655,
          -1.5329083,
          -1.2617955,
          -0.47052208,
          0.8019942,
          -0.020246074,
          -0.41889766,
          -0.6703663,
          -0.051438097
        ],
        [
          0.60791063,
          0.06797881,
          -0.5866986,
          -0.4335754,
          0.21570867,
          -0.36210614,
          -1.0875963,
          -0.36723846,
          -0.29773465,
          -0.37686646,
          -0.8233968,
          0.47417864,
          0.7088937,
          -0.13444611,
          -0.9714915,
          -0.9532029
        ],
        [
          0.58419377,
          -0.24212208,
          -1.0602269,
          0.5780157,
          0.5558063,
          0.58623654,
          0.1102983,
          -0.522929,
          0.98328733,
          -3.736129,
          -1.0777788,
          1.4093724,
          -0.3663179,
          -0.8005392,
          -0.9894922,
          -0.2798962
        ],
        [
          0.29380396,
          -0.45081273,
          -0.25966668,
          -0.1455059,
          0.74927694,
          -0.067713775,
          -0.4397892,
          -0.17486478,
          -0.37262693,
          -0.8590627,
          -0.6562136,
          -0.13583186,
          0.3996891,
          -0.10305446,
          -0.593907,
          0.10540908
        ],
        [
          0.17696686,
          -0.0958533,
          -0.71168,
          0.15084897,
          0.063641295,
          0.1606505,
          0.10415685,
          -0.19531848,
          -0.006115045,
          -0.21453759,
          -0.21890217,
          0.8901096,
          0.1012345,
          -0.19039302,
          -0.48811948,
          0.017087607
        ],
        [
          -0.21193507,
          -0.17021272,
          -0.19505142,
          -0.021080354,
          -0.10325641,
          -0.063701235,
          -0.17547889,
          -0.017489418,
          -0.21215445,
          -0.020613233,
          -0.10690543,
          -0.13454911,
          0.026157575,
          -0.07191737,
          0.021930037,
          -0.0940371
        ],
        [
          0.16057453,
          -0.06963644,
          -0.065321065,
          0.06721598,
          0.4582143,
          0.089442275,
          -0.17451704,
          0.06716532,
          0.049031153,
          0.06997617,
          0.11307596,
          -0.07845072,
          0.124553055,
          -0.024177045,
          0.010463963,
          -0.20710878
        ],
        [
          0.07676925,
          -0.2843374,
          0.13146411,
          0.031381052,
          0.5591181,
          0.41798362,
          0.0065886197,
          -0.020986855,
          -0.7799377,
          -0.30382362,
          0.11397768,
          -0.22895797,
          -0.031117247,
          0.06511367,
          -0.09275777,
          0.12791224
        ],
        [
          0.5042789,
          -0.18855695,
          0.60706174,
          0.06302562,
          0.17120211,
          0.9964891,
          0.27865338,
          0.04743306,
          0.5573791,
          0.43326497,
          0.013161849,
          -0.026080096,
          -0.15784287,
          -0.54435694,
          0.031703334,
          0.051922753
        ],
        [
          1.2184865,
          -0.27002555,
          0.034188043,
          0.12760511,
          0.20349686,
          0.6616927,
          0.079107985,
          0.23126401,
          -0.90949655,
          0.37370265,
          0.23534091,
          0.33799,
          0.0048630284,
          0.22550055,
          0.1304811,
          0.050487727
        ],
        [
          1.0273083,
          0.11848272,
          -0.124896005,
          -0.0061630323,
          -0.01520103,
          0.11563192,
          0.15368234,
          0.43942118,
          -0.7407149,
          0.18675655,
          0.33246464,
          0.5143845,
          0.14693293,
          0.23191395,
          0.10403193,
          0.25729614
        ],
        [
          -0.19687462,
          -0.14877003,
          -0.07443604,
          0.14075796,
          -0.25550622,
          -0.20068492,
          -0.11760536,
          -0.012623757,
          -0.23087808,
          -0.049986254,
          -0.08103822,
          -0.092977524,
          0.045196667,
          -0.17669655,
          0.17667145,
          0.039790984
        ],
        [
          -0.18663104,
          0.15412363,
          -0.109088615,
          -0.011098608,
          -0.20168571,
          -0.30423877,
          0.006971101,
          -0.1973729,
          -0.32704738,
          0.10716853,
          0.17966577,
          0.2837699,
          -0.00037421903,
          -0.11285707,
          0.026334971,
          -0.33024618
        ],
        [
          0.310551,
          0.13870992,
          -0.10254388,
          -0.09839475,
          0.14346981,
          -0.29912388,
          0.15455227,
          -0.13310096,
          -1.0980053,
          -0.40649664,
          0.121026166,
          -0.347116,
          0.029319722,
          0.011276793,
          -0.07490704,
          0.12424726
        ],
        [
          0.006764706,
          0.33020216,
          -0.09309121,
          -0.10870008,
          -0.33834538,
          -0.42606694,
          -0.27556625,
          -0.057896104,
          0.26765856,
          -0.35768986,
          0.30112424,
          -0.6587806,
          -0.012415236,
          0.6907555,
          -0.20508742,
          0.23726477
        ],
        [
          0.15784338,
          0.21729366,
          0.08342002,
          0.09814286,
          0.027899386,
          -0.75195885,
          0.050224937,
          0.18436752,
          -0.6566978,
          0.4707436,
          0.43697503,
          -0.6073267,
          0.032808054,
          0.6374547,
          0.16612811,
          -0.029990235
        ],
        [
          0.8966446,
          0.25651523,
          0.3370522,
          -0.0049218107,
          0.5728165,
          -0.08629447,
          0.016586434,
          0.22663575,
          -1.0140686,
          0.08342165,
          -0.04786875,
          0.6401239,
          0.043231092,
          0.39549404,
          0.28316867,
          0.5027698
        ],
        [
          0.27439335,
          0.00093014596,
          -0.36290592,
          0.028911205,
          0.66270846,
          0.20743732,
          -0.0478566,
          -0.3582889,
          0.29033846,
          -0.4187441,
          -0.39534137,
          0.05440522,
          -0.044932712,
          0.1894879,
          -0.21422194,
          0.14743704
        ],
        [
          -0.08531885,
          0.27045015,
          -0.79898095,
          0.11079215,
          0.4870326,
          -0.46793917,
          0.13156912,
          0.09062838,
          0.15831465,
          -0.68488395,
          -0.057460897,
          0.28891477,
          0.03563587,
          0.39607656,
          -0.07274378,
          0.08656003
        ],
        [
          0.11304178,
          -0.17487136,
          -0.39909574,
          -0.013531727,
          -0.65095234,
          0.0011802575,
          0.15612166,
          -0.11851665,
          0.09509889,
          -0.49236745,
          0.10207808,
          0.48155603,
          0.069500245,
          0.18021968,
          -0.08028412,
          0.042819098
        ],
        [
          0.18349802,
          0.2039789,
          -0.30825096,
          0.05214775,
          0.01598127,
          -0.10357767,
          0.22428948,
          -0.08902791,
          0.3991925,
          0.20000094,
          -0.43220273,
          0.27758893,
          0.015200881,
          -0.23272252,
          -0.13816133,
          -0.020032693
        ],
        [
          0.63621086,
          0.0938272,
          -0.43065554,
          0.061740797,
          -0.348539,
          -0.10173732,
          0.22938119,
          -0.48719788,
          0.26029894,
          0.02288975,
          0.24923679,
          0.3247415,
          -0.033362437,
          0.21138197,
          -0.12826855,
          0.19295667
        ],
        [
          0.5161988,
          -0.05094859,
          -0.48663345,
          0.097965464,
          -0.27435064,
          0.16243191,
          0.17551447,
          -0.44526234,
          -0.22363997,
          -0.13719144,
          -0.20119493,
          0.29095617,
          -0.09244077,
          0.26098734,
          -0.16123594,
          -0.14165342
        ],
        [
          -0.18055604,
          0.11333067,
          0.10018618,
          -0.06650827,
          -0.27967408,
          0.1416547,
          -0.26144874,
          -0.28438663,
          -0.025834108,
          0.43005255,
          -0.395568,
          -0.3080562,
          -0.13124429,
          0.18452542,
          -0.20304862,
          0.20525187
        ],
        [
          0.22953185,
          0.10052142,
          -0.061140392,
          -0.007214224,
          -0.21191038,
          -0.061669625,
          -0.07296091,
          -0.16651769,
          -0.4901293,
          -0.48762006,
          0.021784116,
          -0.2808564,
          0.05742523,
          -0.13078108,
          -0.06180447,
          -0.1609453
        ],
        [
          0.20580386,
          0.25275758,
          0.23887363,
          0.026041934,
          0.12681429,
          -0.17746636,
          0.051932074,
          -0.03887335,
          1.1909224,
          0.24462861,
          0.11242427,
          -0.4929032,
          -0.019386983,
          -0.046398994,
          -0.15380351,
          0.08204818
        ],
        [
          -0.6352113,
          0.5873894,
          -0.1274183,
          -0.03591766,
          -0.20274268,
          -0.15154564,
          -0.3272429,
          0.045177553,
          0.09342121,
          -0.83454514,
          0.013909554,
          -0.07506838,
          0.012293669,
          0.06392243,
          -0.056793936,
          -0.044491623
        ],
        [
          -0.094025396,
          0.1330585,
          0.18878442,
          -0.022234669,
          0.19570918,
          0.32605284,
          -0.11402222,
          0.19441165,
          0.2144727,
          -0.21926534,
          -0.100213446,
          -0.2378831,
          0.0116114495,
          -0.14203666,
          -0.028590089,
          0.20695141
        ],
        [
          -0.37099153,
          0.30123907,
          0.45017257,
          -0.09823745,
          0.58165765,
          0.012215399,
          -0.17728195,
          0.4302883,
          -1.0820124,
          -0.10763022,
          -0.1451194,
          -0.14484203,
          -0.018136255,
          0.10802485,
          -0.00918257,
          0.07576321
        ],
        [
          -0.09199625,
          0.12763612,
          0.05143104,
          -0.19347979,
          -0.8808637,
          -0.5659321,
          -0.17217284,
          -0.37047002,
          -1.2521708,
          0.31501707,
          0.15945591,
          -0.11427032,
          0.30007988,
          -0.48706946,
          -0.1386962,
          -1.1888437
        ],
        [
          1.498675,
          -0.6821437,
          -0.4858163,
          -0.06696061,
          0.6940457,
          0.6804081,
          0.031608988,
          -0.07763539,
          0.7712954,
          -2.4916158,
          -0.28033233,
          1.1528283,
          -0.28403455,
          -0.084459946,
          -0.32419223,
          0.136734
        ],
        [
          -0.038515467,
          -0.19249126,
          -0.051213052,
          -0.029169764,
          0.4259869,
          -0.1958431,
          0.08577655,
          -0.088459246,
          -0.10379407,
          -0.011756214,
          0.07773229,
          -0.5011692,
          -0.08201377,
          -0.18404788,
          0.0013986413,
          0.06703148
        ],
        [
          0.03590521,
          0.034644745,
          -0.1338515,
          0.20127545,
          0.2033765,
          0.14527263,
          0.07072895,
          -0.013446385,
          -0.31386855,
          0.41560903,
          -0.021714984,
          -1.1072047,
          -0.08159622,
          -0.16192402,
          -0.041750487,
          0.29623324
        ],
        [
          -0.49365476,
          -0.25463948,
          -0.30963722,
          0.10832106,
          0.46258166,
          0.38175312,
          0.046550687,
          0.1444157,
          -0.27393788,
          0.07278649,
          0.16518015,
          -0.43211475,
          0.034828804,
          -0.55361944,
          -0.10794359,
          0.1820646
        ],
        [
          0.043879386,
          -0.8762204,
          -0.18078503,
          0.08271773,
          -0.29658234,
          0.38737687,
          0.30100122,
          0.13059296,
          0.25929782,
          0.113027,
          0.27446094,
          -0.45722955,
          -0.081526875,
          0.3292666,
          -0.10138557,
          0.42225766
        ],
        [
          -0.5765124,
          -1.3020452,
          -0.3685247,
          -0.22457083,
          0.07460114,
          0.12331072,
          -0.107378356,
          0.24932586,
          0.3283824,
          -0.34254545,
          0.08756477,
          0.18158479,
          0.48362026,
          0.3633384,
          0.1433241,
          -0.012412247
        ],
        [
          1.4362526,
          0.19816895,
          -0.6340563,
          0.7814835,
          -0.060524892,
          0.4827815,
          0.99169666,
          0.5842265,
          -2.6161013,
          0.09182999,
          0.12379636,
          0.8638357,
          0.054969054,
          0.8973906,
          0.31872547,
          1.2565819
        ],
        [
          -0.3108844,
          -0.07514354,
          -0.2122511,
          -0.0924725,
          0.06365916,
          -0.036196977,
          -0.050238155,
          0.07104782,
          -0.20026226,
          -0.5290085,
          -0.05649393,
          -0.11548821,
          0.07147774,
          -0.03240482,
          0.27843475,
          0.06655177
        ],
        [
          0.31052628,
          0.31483465,
          -0.28598657,
          -0.051639784,
          0.3372369,
          -0.2835302,
          -0.045769382,
          0.23297462,
          0.23446831,
          -0.70861775,
          0.11992866,
          0.85041076,
          0.062723674,
          0.055901356,
          0.017035967,
          0.15126237
        ],
        [
          -0.65213513,
          -0.1214373,
          0.00563976,
          0.053199742,
          0.73778605,
          -0.2705006,
          0.21109062,
          -0.29907224,
          -0.03733149,
          0.90123194,
          0.29033232,
          0.100818284,
          0.11532742,
          -0.25811455,
          0.13960733,
          0.14965266
        ],
        [
          0.8507811,
          0.19088593,
          0.25684577,
          0.0953338,
          0.805774,
          -0.17698681,
          -0.021566655,
          0.4297135,
          0.41782436,
          -0.5149194,
          0.19527106,
          0.57867223,
          0.06393422,
          0.23066579,
          -0.12528405,
          0.2709909
        ],
        [
          -0.84202254,
          0.31093752,
          -0.28502244,
          0.59687614,
          0.0940708,
          0.4285575,
          1.086749,
          -0.04668673,
          -0.27035555,
          -0.2284519,
          0.28454277,
          -0.2237193,
          -0.070679516,
          0.34363294,
          -0.14721403,
          -0.40643665
        ],
        [
          0.34855366,
          1.0460585,
          1.7805862,
          0.23227476,
          1.4609003,
          -3.677843,
          -1.1984763,
          1.4151223,
          -2.5206735,
          -0.5107726,
          0.45719516,
          0.6524555,
          0.8569292,
          1.1378498,
          1.4345018,
          0.99911875
        ],
        [
          -0.1256281,
          -0.05592995,
          -0.5189855,
          0.050621916,
          -1.0161837,
          -0.25895715,
          -0.45995593,
          0.090194136,
          0.37023157,
          0.50704014,
          -0.4536645,
          -0.319754,
          0.14891787,
          0.47304904,
          0.4835052,
          0.24823418
        ],
        [
          -0.40754732,
          0.15812615,
          0.046807352,
          0.218491,
          -0.08334062,
          -1.1469307,
          -0.5232122,
          0.18755135,
          -0.3808303,
          -1.0326269,
          0.12146313,
          0.31040588,
          0.12801714,
          0.25607014,
          0.5291569,
          -0.12739588
        ],
        [
          0.80507374,
          -0.54790837,
          -0.47006848,
          -0.108549714,
          -0.49334565,
          0.23569402,
          -0.0121344635,
          -0.08630471,
          -0.029439278,
          -0.19159752,
          -0.10418537,
          0.3177605,
          -0.052091196,
          -0.27400637,
          0.36344382,
          0.6935834
        ],
        [
          -0.36383033,
          0.16656125,
          -0.5335281,
          0.21524474,
          -0.03239937,
          0.13989021,
          0.08993617,
          0.3555287,
          1.1212817,
          -1.2255957,
          -0.071985155,
          -1.3509098,
          -0.030188382,
          0.63625866,
          0.39932904,
          -0.28872725
        ],
        [
          -0.9872322,
          -0.37507805,
          -0.08225296,
          0.6955613,
          -0.26565096,
          -0.35845944,
          0.89816225,
          -0.7773406,
          -0.1710513,
          0.41271225,
          0.67473733,
          -0.92658424,
          -0.0178838,
          -0.7175076,
          0.90695757,
          0.8590054
        ],
        [
          0.00073043926,
          -0.055462807,
          0.027967228,
          0.10123538,
          0.04466929,
          -0.06773503,
          0.072857454,
          0.098128356,
          -0.028007645,
          0.035019893,
          -0.09115766,
          -0.01940486,
          0.057454783,
          -0.035789125,
          0.07884468,
          0.10851915
        ],
        [
          -0.6525667,
          0.15915255,
          0.10361701,
          0.47398543,
          -0.5147536,
          -0.16314453,
          -0.25414225,
          0.09662188,
          -0.08126143,
          0.0600883,
          0.23976594,
          -0.2682211,
          -0.16092728,
          0.102009624,
          0.5672301,
          0.015384634
        ],
        [
          0.34113976,
          0.65694,
          0.43549824,
          0.08169297,
          -0.38629675,
          -0.9669188,
          -0.6613681,
          -0.02556684,
          -0.7811532,
          0.35313815,
          -0.29032978,
          0.14223689,
          -0.0862173,
          -0.027310872,
          0.2647055,
          -0.28511152
        ],
        [
          0.7021521,
          -0.27704453,
          0.927215,
          0.09824745,
          -0.11508764,
          -0.6605384,
          -0.5485158,
          -0.35924616,
          -0.4291406,
          0.17216264,
          -0.22864328,
          -0.4352552,
          0.06818637,
          -1.9093958,
          0.26706713,
          -0.32157713
        ],
        [
          -1.9312977,
          -0.5706288,
          -0.31564096,
          -0.09951147,
          -1.4309188,
          -0.31421593,
          -0.25701904,
          0.24479558,
          0.059522044,
          0.10765478,
          -0.49056467,
          -0.5490186,
          0.13719076,
          -0.047118157,
          0.4581645,
          0.114275485
        ],
        [
          -1.3717997,
          0.8747909,
          0.14044572,
          -0.09309673,
          -1.2121344,
          -1.2932943,
          -0.68298936,
          -0.42465582,
          0.038838863,
          -0.26978832,
          0.2148579,
          0.14200896,
          0.13208923,
          0.4693524,
          0.022167644,
          0.40884966
        ],
        [
          -0.07856949,
          0.12316984,
          0.071597785,
          0.082336254,
          0.08535252,
          -0.09417268,
          0.019469228,
          0.02029377,
          0.07632085,
          -0.10240456,
          -0.073128045,
          0.025972614,
          -0.06412844,
          -0.050982147,
          -0.031146554,
          0.11120758
        ],
        [
          -0.65382785,
          -0.38137516,
          -0.010406889,
          -0.049632013,
          -0.20796746,
          -0.43851376,
          -0.44423702,
          -0.0841343,
          0.27251944,
          -0.17220263,
          -0.08544,
          -0.8037065,
          -0.034297638,
          0.10297771,
          -0.16861919,
          0.07771337
        ],
        [
          -0.25515413,
          -0.15569226,
          -0.09889035,
          0.02872947,
          -0.42729437,
          -0.21773848,
          -0.14704947,
          -0.061297126,
          -0.16024514,
          -0.40771437,
          -0.049599234,
          -0.5467334,
          0.10072041,
          -0.15739378,
          0.0294882,
          0.014809714
        ],
        [
          -0.042120993,
          -0.2145798,
          0.1212915,
          0.08101771,
          -0.20197201,
          0.1486762,
          -0.20221321,
          -0.16325493,
          -0.8387201,
          0.1302457,
          -0.16464283,
          0.006543969,
          0.033847846,
          -0.009474658,
          -0.024839746,
          -0.31898642
        ],
        [
          0.013457413,
          -0.4110594,
          -0.089024074,
          -0.050137665,
          0.11594584,
          0.063199915,
          -0.11898393,
          -0.1099456,
          0.20708738,
          0.011379833,
          -0.06374101,
          -0.21757638,
          0.022726825,
          0.053478878,
          0.1449301,
          0.11086195
        ],
        [
          -0.47939715,
          -0.12009785,
          -0.369814,
          0.032362368,
          -0.1312024,
          -0.05474256,
          -0.00017291176,
          -0.151351,
          0.5476016,
          -0.31686372,
          -0.13761179,
          0.350863,
          0.080264464,
          -0.052882906,
          -0.03154688,
          -0.07894058
        ],
        [
          -0.6996697,
          -0.124215245,
          -0.0034535488,
          -0.046807706,
          0.15554546,
          -0.16094474,
          -0.16813645,
          -0.17107701,
          0.42736578,
          -0.29636776,
          0.06741262,
          -0.3159734,
          0.029249502,
          -0.04703348,
          -0.026811989,
          -0.06085877
        ],
        [
          0.16122594,
          -0.32102644,
          -0.1294364,
          -0.011777833,
          0.22219859,
          -0.1150738,
          0.029796608,
          -0.2604137,
          -0.4966588,
          -0.44662067,
          0.14088972,
          -0.10457331,
          0.08195874,
          -0.19179292,
          -0.03968803,
          0.22257535
        ],
        [
          0.3875946,
          -0.41778836,
          -0.08064744,
          -0.07263086,
          -0.4544059,
          -0.115694836,
          0.08612602,
          0.16139072,
          0.18000856,
          0.14158908,
          -0.17351955,
          -0.33551076,
          0.074742936,
          -0.12650818,
          0.013611888,
          -0.104265496
        ],
        [
          0.077672675,
          -0.3292131,
          0.09119219,
          -0.018501101,
          0.38536778,
          -0.39649048,
          0.10149467,
          0.0034389594,
          -0.23162152,
          -0.46539405,
          -0.14392737,
          0.0006192368,
          0.022497876,
          0.17368798,
          0.02733968,
          0.17158107
        ],
        [
          0.11776426,
          0.15653057,
          0.10408289,
          0.057273615,
          0.48728815,
          -0.35174137,
          -0.21574023,
          -0.09318022,
          0.6931188,
          0.093789175,
          0.030680304,
          0.088948496,
          0.119250625,
          0.1490142,
          -0.04180103,
          -0.08823539
        ],
        [
          -0.07584374,
          -0.48942626,
          -0.16971739,
          -0.06759393,
          0.07075194,
          0.11550794,
          0.119797036,
          0.021126188,
          -0.023284437,
          -0.068561815,
          0.02645186,
          0.583483,
          0.02653819,
          -0.27325997,
          0.057884023,
          -0.009554357
        ],
        [
          0.333666,
          0.26808283,
          0.03353818,
          0.09216901,
          0.37181884,
          0.17771555,
          0.07406154,
          -0.010439584,
          -0.50268185,
          -0.16344815,
          -0.30552745,
          -0.5237104,
          -0.0025064428,
          -0.10316857,
          0.25251725,
          0.0742922
        ],
        [
          -0.23685728,
          -0.283587,
          0.006183956,
          -0.024537088,
          0.052031208,
          0.3444694,
          0.32422742,
          -0.07533762,
          0.593098,
          -0.083284825,
          -0.17469679,
          -0.008948346,
          0.0693204,
          -0.21549433,
          0.101723805,
          0.0057786144
        ],
        [
          -0.42075828,
          0.08603009,
          0.09090878,
          0.09243212,
          0.3220409,
          -0.097033426,
          -0.0635428,
          0.2532823,
          0.4994107,
          -0.25035483,
          0.1034739,
          0.2244348,
          -0.09979288,
          -0.38733056,
          0.17955856,
          0.2721001
        ],
        [
          -0.39740568,
          0.21723484,
          0.13583022,
          0.08174757,
          0.32495418,
          -0.09967316,
          -0.053075284,
          0.05499554,
          0.26408917,
          -0.4157117,
          -0.034064826,
          0.17040229,
          -0.07758648,
          -0.064015314,
          0.28319296,
          0.1287901
        ],
        [
          -0.30119312,
          -0.2950397,
          -0.20700388,
          0.070556566,
          -0.19866942,
          0.47257522,
          0.23867461,
          0.3082711,
          0.48692766,
          0.19051893,
          -0.0063801184,
          -0.04121231,
          -0.08616502,
          -0.3714237,
          0.21369939,
          0.4405757
        ],
        [
          -0.41459197,
          -0.0013695454,
          -0.056540545,
          0.13525477,
          -0.3415813,
          -0.009246234,
          -0.05482289,
          0.07342708,
          0.9519985,
          0.013302799,
          0.27684456,
          0.4572348,
          -0.007806921,
          -0.15699567,
          0.2400353,
          0.061923288
        ],
        [
          -0.47028968,
          -0.09030188,
          -0.14200391,
          0.07000707,
          -0.033776447,
          0.22439115,
          0.014187046,
          0.31671894,
          -0.5270552,
          -0.6132881,
          -0.03451582,
          -0.58716995,
          -0.10732016,
          -0.06981182,
          0.31441095,
          0.096754394
        ],
        [
          -0.6514801,
          0.062075693,
          -0.24171932,
          0.069877915,
          -0.0513834,
          -0.15721439,
          -0.24763843,
          0.13955651,
          1.2094002,
          0.14477582,
          -0.002341252,
          -0.14041454,
          0.036451336,
          0.039407987,
          0.07430802,
          0.11054973
        ],
        [
          -0.9220729,
          -0.45593914,
          -0.1270307,
          0.0065835183,
          0.20515189,
          -0.3063085,
          0.0020445131,
          0.18361714,
          -0.0029944861,
          -0.40728015,
          0.10318253,
          -0.39135805,
          0.1646081,
          0.09943924,
          0.045660183,
          0.016173976
        ],
        [
          -0.64166075,
          0.14350696,
          -0.17672285,
          -0.027218483,
          -0.40879202,
          -0.34606627,
          0.01643678,
          -0.11931831,
          -0.8802593,
          -0.2327485,
          -0.23958421,
          -0.21195999,
          0.07307263,
          -0.00019138046,
          -0.019598259,
          0.1361028
        ],
        [
          -0.28625533,
          -0.19965962,
          -0.14367406,
          0.0760341,
          -0.38902858,
          -0.00091158575,
          0.067483254,
          -0.15066971,
          -0.40340197,
          0.06898429,
          -0.14160195,
          -0.36684927,
          0.178394,
          -0.108261995,
          0.12932065,
          -0.00531389
        ],
        [
          -0.7977229,
          0.026927682,
          0.14816955,
          0.050937958,
          -0.19466631,
          -0.33103028,
          -0.046389807,
          0.043656725,
          -0.8350824,
          -0.123524405,
          -0.099196486,
          0.3625231,
          -0.017741505,
          0.48015207,
          0.17748623,
          -0.027933486
        ],
        [
          -0.3025471,
          -0.04341102,
          -0.42035368,
          0.07132155,
          0.18666561,
          -0.3238376,
          -0.049834386,
          0.41979688,
          -0.6303772,
          0.271853,
          0.18214382,
          -0.37525362,
          0.030498074,
          -0.06552389,
          0.08353889,
          0.3410397
        ],
        [
          0.81996095,
          0.026256774,
          -0.34302375,
          0.30432194,
          0.07812941,
          -0.27251807,
          0.08797716,
          -0.5092474,
          -0.61863536,
          -0.2844925,
          -0.09432972,
          0.44185317,
          0.048144735,
          -0.04754476,
          0.05055933,
          -0.19535804
        ],
        [
          -0.24075767,
          0.124824725,
          -0.22707188,
          0.20686129,
          0.1979514,
          0.038615413,
          -0.02170088,
          -0.16019101,
          -0.3195608,
          -0.05434201,
          -0.05889442,
          -0.32438332,
          0.0037548428,
          0.31230336,
          0.0313438,
          -0.389058
        ],
        [
          0.5583031,
          0.38399598,
          -0.14108622,
          0.10029095,
          -0.7775486,
          -0.12738611,
          0.066723555,
          -0.19125594,
          -0.4542789,
          -0.067683,
          0.019647148,
          -0.41230974,
          -0.026124693,
          0.28310102,
          0.13596071,
          -0.093471736
        ],
        [
          0.16986889,
          0.26032725,
          -0.30173847,
          -0.016576769,
          0.024511965,
          0.3960106,
          -0.40537667,
          -0.11413399,
          -0.35807133,
          -0.0966256,
          0.09167492,
          -0.46773216,
          -0.07010068,
          -0.10275575,
          0.043608837,
          -0.12951493
        ],
        [
          -0.3830157,
          -0.44253418,
          -0.40714505,
          -0.11964363,
          -0.4920192,
          0.0470897,
          -0.17769398,
          -0.018609341,
          0.36103302,
          0.17025971,
          0.24289791,
          0.2725849,
          -0.005870812,
          -0.054408852,
          0.2178825,
          -0.34114048
        ],
        [
          -0.9586962,
          -0.10593235,
          -0.29261672,
          -0.13594644,
          -0.5900426,
          -0.061364997,
          -0.12459509,
          -0.18122485,
          0.12795231,
          0.20745994,
          -0.09759361,
          -0.59135616,
          0.0600716,
          -0.10865295,
          0.044747394,
          0.07607385
        ],
        [
          0.0017551192,
          -0.2298336,
          0.10202057,
          -0.051960077,
          -0.98568517,
          -0.49491265,
          0.08804098,
          -0.38482547,
          -0.22353478,
          -0.18303545,
          -0.022778695,
          -0.27993757,
          -0.18259518,
          -0.09828158,
          0.34597036,
          0.0836575
        ],
        [
          -0.37235075,
          0.33554822,
          -0.28188318,
          -0.020490656,
          -0.9573937,
          -0.8125929,
          0.012294363,
          -0.028800474,
          -0.9015271,
          0.26772052,
          0.15211965,
          -0.57043844,
          -0.04571389,
          0.24178934,
          0.35503513,
          -0.13119422
        ],
        [
          -0.4224785,
          0.25838065,
          0.1043703,
          -0.051114954,
          -0.5889142,
          -0.42503336,
          -0.22207037,
          -0.007376008,
          -0.8895043,
          0.2003677,
          -0.20508227,
          -0.6915078,
          0.009710285,
          0.024735078,
          0.36892992,
          -0.22168909
        ],
        [
          -0.32676777,
          0.36020988,
          0.066253364,
          0.074970506,
          -0.33344257,
          -0.11899375,
          -0.10483965,
          0.2784985,
          -1.586629,
          0.32512045,
          -0.00029919055,
          -0.571777,
          0.028683117,
          -0.2038427,
          0.27844647,
          -0.2247988
        ],
        [
          -0.6012741,
          -0.021154186,
          0.07670973,
          -0.114427984,
          -0.22593899,
          -0.40455338,
          0.018262427,
          0.2218124,
          -0.7753917,
          0.041002788,
          0.027050609,
          -0.29767284,
          -0.13968714,
          -0.60850155,
          0.3474722,
          0.1372219
        ],
        [
          -0.504941,
          0.24819289,
          -0.009117554,
          0.1009569,
          -0.28289,
          -0.4221363,
          0.037755065,
          -0.12538442,
          -1.1171474,
          0.08825269,
          -0.2005613,
          -0.20083061,
          -0.0015059547,
          -0.53084725,
          0.060944006,
          0.024100715
        ],
        [
          0.11786022,
          -0.108962186,
          -0.09819947,
          -0.018491674,
          -1.253477,
          -0.16747631,
          -0.007028329,
          -0.0564877,
          -0.8642292,
          0.07403998,
          -0.1476732,
          -0.4612961,
          -0.056670308,
          -0.04235017,
          -0.011610782,
          -0.016269332
        ],
        [
          -0.6660546,
          -0.377051,
          0.24717958,
          -0.04755935,
          0.12441006,
          -0.14993484,
          0.17498577,
          -0.2200204,
          -1.490842,
          0.032587808,
          0.17297053,
          -0.51408434,
          -0.091035396,
          0.049797446,
          0.043640595,
          -0.008777622
        ],
        [
          -0.47753006,
          -0.3267607,
          0.13336638,
          -0.016266827,
          -0.19652371,
          -0.16514929,
          -0.16476153,
          0.006618458,
          0.38492256,
          0.13652672,
          0.15063423,
          -0.45814806,
          0.08055112,
          -0.29642126,
          -0.06462221,
          0.0055730585
        ],
        [
          -0.07811844,
          0.12874964,
          0.00948111,
          0.119209155,
          -0.05886182,
          0.09135139,
          -0.16713327,
          -0.09273843,
          -0.11236305,
          0.3372938,
          -0.20329419,
          -0.5515543,
          0.18923524,
          -0.20957981,
          -0.013660351,
          -0.10756677
        ],
        [
          -0.6004771,
          -0.13192776,
          -0.14493825,
          0.11367962,
          0.2028919,
          -0.2659963,
          0.23826428,
          -0.41147298,
          -0.37826023,
          -0.25954276,
          -0.08920784,
          -0.2110271,
          0.033399273,
          -0.5163705,
          0.069007374,
          0.06376302
        ],
        [
          0.18517315,
          -0.1549681,
          -0.33557522,
          0.13602723,
          -0.6120979,
          -0.24481224,
          -0.10481158,
          0.03138315,
          0.7145646,
          -0.17127062,
          -0.31891668,
          0.5902377,
          0.12291078,
          -0.22363384,
          -0.054844875,
          0.105141595
        ],
        [
          0.086214215,
          0.05323438,
          -0.0077286037,
          0.031168222,
          -0.2188628,
          0.038847502,
          -0.26455045,
          -0.015972955,
          -0.00016633811,
          0.3050607,
          0.12129457,
          0.43741864,
          0.1586597,
          0.30306327,
          0.09079593,
          0.24563453
        ],
        [
          0.08520965,
          -0.062192947,
          -0.21864933,
          0.073176816,
          -0.42010534,
          -0.32474774,
          0.10038532,
          -0.08087793,
          -0.536101,
          -0.46795687,
          -0.12256334,
          -0.563589,
          0.10888655,
          0.008199202,
          0.14978479,
          0.074522644
        ],
        [
          -0.52297646,
          0.09428868,
          -0.31131092,
          0.13813946,
          -0.3599553,
          -0.056957215,
          -0.19943187,
          0.042631138,
          0.7204242,
          -0.46227548,
          -0.14390178,
          -0.023793094,
          0.15026572,
          0.03533267,
          0.03223597,
          0.456826
        ],
        [
          0.38730878,
          -0.36255398,
          -0.24790454,
          0.0707176,
          -0.49861342,
          0.052418157,
          0.12206878,
          0.03412062,
          0.20941518,
          -0.1053269,
          -0.2017309,
          0.024845993,
          0.16621272,
          0.00015417731,
          0.15415408,
          0.43694293
        ],
        [
          -0.1728184,
          0.04245996,
          -0.36464736,
          0.05486145,
          -0.24929893,
          -0.16479181,
          -0.05813232,
          0.16611683,
          0.801506,
          -0.06173646,
          -0.099174805,
          0.36280605,
          0.26016703,
          0.20706874,
          0.1923685,
          0.43907335
        ],
        [
          -0.10612254,
          0.43626055,
          -0.5807283,
          -0.03241174,
          -0.19008577,
          -0.035825342,
          0.21902885,
          -0.08228532,
          0.8275625,
          -0.6913177,
          0.31478003,
          0.44584203,
          0.24464728,
          0.2959332,
          0.084505364,
          0.42449713
        ],
        [
          -1.2770926,
          0.0076229316,
          0.31098378,
          -0.12648416,
          -0.61888903,
          0.077553645,
          -0.7836788,
          -0.30105448,
          0.4624836,
          0.24844225,
          -0.35147536,
          -1.0541104,
          0.04098592,
          -0.027479105,
          -0.26494345,
          -0.16276287
        ],
        [
          -0.46799946,
          -0.28355587,
          0.46072906,
          -0.107912876,
          0.28095403,
          -0.59911937,
          -0.28930914,
          -0.2963802,
          0.0986498,
          -0.14645189,
          0.06448044,
          -0.8961971,
          0.0625003,
          -0.16565387,
          -0.15541236,
          -0.21659544
        ],
        [
          -0.1850684,
          0.05352352,
          0.1268678,
          -0.08305723,
          -0.1202676,
          -0.9902361,
          -0.24100554,
          0.16470547,
          0.70507234,
          -0.40958712,
          -0.32585013,
          -0.2688792,
          0.10297228,
          -0.15479602,
          -0.21421726,
          -0.20670132
        ],
        [
          -0.15433799,
          -0.38116026,
          -0.0023969116,
          -0.08393443,
          -0.15529276,
          -0.49125743,
          0.091310196,
          0.0063751745,
          0.06345616,
          -0.026496235,
          -0.18502967,
          -0.08700106,
          0.19999164,
          -0.06066251,
          -0.2611986,
          0.36645788
        ],
        [
          -0.25634086,
          -0.18818031,
          -0.56299996,
          -0.10708232,
          -0.39686334,
          -0.1795873,
          0.20852998,
          0.18682814,
          -0.035115276,
          -0.4682049,
          -0.24717651,
          0.042034745,
          0.137756,
          -0.10692441,
          0.11519972,
          -0.001706659
        ],
        [
          0.08509767,
          0.2946325,
          -0.26711884,
          0.020149969,
          -0.9560421,
          0.095320486,
          -0.20617482,
          0.009854302,
          -0.02658119,
          -0.028078362,
          0.19521205,
          0.56231546,
          0.081181414,
          0.13701895,
          0.07997595,
          0.24750423
        ],
        [
          -0.09105451,
          -0.3588765,
          -0.5856115,
          -0.28101665,
          -0.48569372,
          0.7624207,
          -0.16741365,
          -0.3419639,
          -0.48720756,
          0.054839186,
          -0.035399612,
          0.84391356,
          0.0922077,
          0.032782417,
          -0.091521785,
          -0.12840801
        ],
        [
          -0.264545,
          0.6621818,
          -0.20621368,
          -0.049525682,
          0.16224605,
          0.036139015,
          0.21433553,
          -0.07880605,
          -0.45709687,
          0.012509018,
          -0.21351519,
          -0.28445,
          0.13519605,
          0.22661576,
          -0.07039905,
          0.17688356
        ],
        [
          0.25931805,
          0.42900968,
          -0.2974279,
          -0.10115082,
          -0.012580643,
          0.061262134,
          -0.13029505,
          0.10868943,
          -0.17073835,
          -0.49875742,
          -0.15532428,
          0.20383354,
          0.12026768,
          0.30267355,
          -0.06458143,
          0.22215734
        ],
        [
          0.067429155,
          -0.26626992,
          -0.15159747,
          -0.0182636,
          0.13188133,
          -0.047864676,
          0.008223305,
          -0.009152119,
          -0.5298095,
          -0.41965,
          -0.115739845,
          0.044270635,
          0.14980876,
          0.08133144,
          -0.08004623,
          -0.16410868
        ],
        [
          0.32556927,
          -0.026094856,
          -0.10992144,
          -0.05281572,
          0.14848855,
          0.2702185,
          -0.017591728,
          -0.2121583,
          -0.84963423,
          0.3966043,
          0.028853329,
          0.27116698,
          0.054544035,
          -0.024681186,
          0.10672128,
          -0.107576326
        ],
        [
          -1.0203261,
          -0.3296977,
          -0.20750484,
          0.016038448,
          -0.45255828,
          0.075310186,
          0.06463751,
          -0.049843404,
          -0.5511605,
          -0.18558517,
          0.023717174,
          -0.25167504,
          0.11179544,
          -0.25769335,
          0.11418595,
          -0.055092003
        ],
        [
          -0.14879104,
          0.0448297,
          -0.46392873,
          0.0379176,
          -0.67550874,
          0.5171973,
          -0.13192314,
          0.17642216,
          0.30544344,
          -0.34525982,
          0.11710699,
          0.64733523,
          0.12035086,
          0.12252743,
          0.14443016,
          0.008835501
        ],
        [
          -0.020527843,
          0.17323942,
          -0.2095576,
          0.078089714,
          -0.16228512,
          0.028531207,
          0.03551611,
          -0.15652327,
          -0.12646204,
          0.20604052,
          0.13706562,
          0.013141264,
          0.0032216432,
          -0.0078715775,
          0.22512417,
          0.486422
        ],
        [
          -0.08068777,
          0.17066516,
          0.0070884065,
          0.15063827,
          -0.25779232,
          -0.35793963,
          -0.06022632,
          -0.07684673,
          -0.68060064,
          -0.05914537,
          -0.16852048,
          0.5572149,
          -0.1306518,
          -0.08047752,
          0.2887261,
          0.086667106
        ],
        [
          -0.16448708,
          0.26251516,
          -0.033997513,
          0.15392357,
          -0.2734386,
          -0.27644053,
          -0.17264664,
          0.03974559,
          0.9896597,
          0.11948639,
          0.042654432,
          -0.12190206,
          -0.031627785,
          0.072956294,
          0.16072549,
          0.3905275
        ],
        [
          0.26428118,
          0.22286001,
          -0.031405717,
          0.1022934,
          -0.3752205,
          -0.32384938,
          -0.11613269,
          0.027306164,
          -0.6810813,
          0.27591217,
          0.1865859,
          -0.52989,
          -0.053902864,
          0.050907753,
          0.20579386,
          0.056208342
        ],
        [
          -0.31758228,
          -0.07246822,
          -0.09960388,
          0.01898379,
          -0.05053576,
          -0.08706696,
          -0.10700314,
          -0.03008056,
          -0.1389158,
          -0.018175388,
          0.020942064,
          -0.3238872,
          -0.07518476,
          -0.05745512,
          0.093079686,
          -0.06905562
        ],
        [
          -0.2882661,
          0.02248074,
          -0.04767555,
          -0.07383253,
          -0.23917605,
          -0.18982174,
          -0.09343144,
          0.03179591,
          -0.15930867,
          -0.01606193,
          0.065659225,
          -0.2464962,
          -0.09283514,
          -0.042805795,
          0.05320315,
          0.1538411
        ],
        [
          -0.34586194,
          -0.14998361,
          -0.14701737,
          0.10053487,
          -0.1952949,
          -0.18198638,
          -0.12894343,
          -0.014863164,
          -0.28915158,
          0.0064417794,
          -0.1079061,
          -0.18035299,
          0.03626322,
          0.026417667,
          0.096324176,
          -0.014451852
        ],
        [
          -0.3043976,
          -0.11923525,
          -0.15834863,
          0.14626895,
          -0.14522575,
          -0.09614019,
          -0.13104205,
          -0.06765062,
          -0.2904903,
          -0.10517872,
          -0.15020098,
          -0.13546145,
          0.04585454,
          -0.017934008,
          0.18457174,
          0.053407367
        ],
        [
          -0.43047997,
          0.05736915,
          -0.07711932,
          0.12163687,
          -0.09749549,
          -0.2832738,
          -0.013962671,
          0.025982719,
          -0.30802962,
          0.088847436,
          0.07417469,
          -0.4925631,
          0.0715134,
          -0.15337898,
          0.12862667,
          0.107716724
        ],
        [
          -0.27257326,
          0.11778344,
          -0.057780042,
          0.16404618,
          -0.18058066,
          -0.14305295,
          0.06483616,
          0.007994453,
          -0.36425522,
          0.099871464,
          0.011917097,
          -0.10279401,
          0.021226125,
          0.0050029303,
          0.10014562,
          0.039938804
        ],
        [
          0.43843597,
          0.15695089,
          0.39046592,
          0.29221845,
          0.44787994,
          -0.66631967,
          0.39613637,
          0.016165262,
          -2.567257,
          0.32758233,
          0.10748084,
          -0.81559867,
          -0.048831254,
          0.58590484,
          0.47218958,
          -0.09287467
        ],
        [
          1.9033467,
          0.019366587,
          -0.29128382,
          0.16351217,
          -0.5469824,
          1.18121,
          1.1887143,
          0.40984952,
          -2.2850485,
          0.24644187,
          0.81233114,
          0.21324928,
          0.12686832,
          -0.13903539,
          0.62099046,
          0.7187367
        ],
        [
          0.04925029,
          0.08226605,
          0.055185497,
          0.006658151,
          -0.14240457,
          0.041722015,
          0.063353464,
          0.21092626,
          0.18422881,
          0.0025068636,
          0.064188495,
          -0.097268656,
          0.06851286,
          -0.008344119,
          0.10770415,
          0.17400692
        ],
        [
          -0.33898118,
          -0.02973164,
          -0.03893736,
          0.055888373,
          -0.22421525,
          -0.16017489,
          -0.02815988,
          0.13625693,
          -0.2276048,
          0.008576742,
          0.078322545,
          -0.31247678,
          -0.012708624,
          -0.007367514,
          0.15912607,
          0.07903738
        ],
        [
          -0.43391296,
          -0.13682291,
          -0.024147676,
          0.045987975,
          -0.052933626,
          -0.14973535,
          -0.113161325,
          -0.020648181,
          -0.19028082,
          -0.1089926,
          -0.028878791,
          -0.1470676,
          0.059016608,
          0.026345966,
          0.06683202,
          0.09816156
        ],
        [
          -0.30850098,
          -0.098453894,
          -0.07607955,
          -0.027921299,
          -0.040581107,
          -0.2072495,
          -0.090685815,
          -0.15639678,
          -0.1493868,
          0.042594712,
          -0.0036102068,
          -0.08857237,
          0.005716864,
          -0.14461382,
          0.040633723,
          0.02755417
        ],
        [
          -0.2055895,
          -0.06960735,
          -0.20410277,
          0.07922426,
          -0.23316525,
          -0.1171276,
          -0.012469819,
          -0.099323146,
          -0.2659423,
          0.02587427,
          0.013511972,
          -0.11763492,
          0.040147506,
          -0.11332014,
          0.2017582,
          0.13434787
        ],
        [
          -0.14412045,
          -0.15360326,
          -0.23876257,
          0.039020497,
          -0.089949794,
          -0.27257487,
          -0.040436875,
          -0.10422117,
          -0.33330926,
          0.007978282,
          0.016356025,
          -0.11560911,
          0.017957522,
          -0.05606771,
          0.17271158,
          -0.039818462
        ],
        [
          -0.86077,
          -0.051736575,
          -0.38525984,
          0.1306663,
          -0.5522206,
          -0.028805234,
          -0.1449059,
          0.05762437,
          -0.40603134,
          -0.13095036,
          0.1633112,
          0.15943965,
          0.04537721,
          -0.034847014,
          0.20791791,
          -0.15027873
        ],
        [
          -0.48994708,
          0.036395125,
          -0.034918875,
          0.21233957,
          -0.19020896,
          -0.39669403,
          0.0010701003,
          0.12541762,
          -1.0872627,
          0.40285465,
          0.061068866,
          -0.4583344,
          0.07999827,
          -0.01411548,
          0.16588655,
          -0.3202618
        ],
        [
          0.15065415,
          0.30073377,
          0.012050954,
          0.18817958,
          -0.2796213,
          -0.5818814,
          -0.25808024,
          0.004518404,
          -1.4531962,
          0.43153027,
          0.06555318,
          -0.28803858,
          -0.01463523,
          0.011094359,
          0.19841078,
          0.096407115
        ],
        [
          -0.8801698,
          -0.101067096,
          0.04471178,
          0.14759395,
          -0.12585741,
          -0.5262069,
          -0.2920159,
          -0.07029556,
          -0.33278713,
          0.24867658,
          0.19592798,
          -0.84528834,
          0.0676463,
          -0.23765619,
          0.25863197,
          0.47285917
        ],
        [
          -0.8543059,
          -0.8774887,
          0.020852357,
          0.25805175,
          -0.39068452,
          -0.78981084,
          -0.16121362,
          -0.24887682,
          0.4483681,
          0.30323613,
          0.15028037,
          -0.43432415,
          0.15449569,
          0.16380924,
          -0.13842401,
          -0.036640618
        ],
        [
          0.32297957,
          -0.35625926,
          -0.36431807,
          0.19621834,
          -0.10917115,
          -0.02598379,
          -0.09575705,
          -0.13897045,
          0.5504762,
          -0.4412529,
          -0.23276812,
          -0.28046888,
          -0.035051093,
          0.05706646,
          0.10318224,
          0.18203676
        ],
        [
          -0.20787,
          -0.25200158,
          -0.08132928,
          0.12470767,
          -0.2069091,
          -0.57640094,
          -0.02646587,
          -0.10936975,
          -0.82761437,
          0.080124944,
          -0.10144495,
          -0.40191787,
          0.11368478,
          -0.15819192,
          -0.055415202,
          -0.104603186
        ],
        [
          -0.08042739,
          -0.1503305,
          -0.21664602,
          0.21548401,
          -0.37505442,
          -0.36449835,
          -0.07734207,
          -0.07598425,
          -0.51974654,
          0.22561385,
          -0.12652427,
          -0.3335519,
          0.125839,
          -0.010760983,
          -0.024005981,
          -0.08036349
        ],
        [
          -0.24758646,
          -0.02224619,
          -0.06902141,
          0.16367565,
          0.23969167,
          -0.20472446,
          0.06315596,
          -0.040235966,
          -1.356763,
          -0.17903723,
          -0.45379966,
          -0.6411889,
          -0.07509213,
          -0.03160529,
          0.0067121424,
          -0.3732924
        ],
        [
          0.07269078,
          -0.14965463,
          0.069962546,
          0.093989365,
          -0.037188362,
          -0.11263406,
          -0.076220304,
          0.22170122,
          -0.9896787,
          0.49354914,
          -0.24407454,
          -0.33193645,
          -0.13808878,
          -0.29317102,
          -0.03676956,
          -0.13670377
        ],
        [
          0.1582368,
          0.42888594,
          0.2342063,
          0.1499582,
          0.35964945,
          -0.5146036,
          -0.24090193,
          -0.16842662,
          -0.44657713,
          -0.040147353,
          -0.2336913,
          -0.55192184,
          -0.22078834,
          0.3116045,
          -0.24475883,
          -0.31622052
        ],
        [
          0.4468666,
          -0.43575993,
          0.32478982,
          0.16722319,
          -0.33585188,
          0.03778517,
          0.23410444,
          -0.15410392,
          -0.09504864,
          0.32112062,
          -0.09151106,
          -0.06507518,
          0.09001257,
          -0.13192965,
          0.09697566,
          -0.08758882
        ],
        [
          -0.06040292,
          -0.16520828,
          0.21872671,
          0.13594654,
          -0.46468765,
          0.2660779,
          -0.1862569,
          0.36304328,
          0.36747247,
          -0.1885338,
          -0.3815175,
          -0.111569434,
          -0.07688342,
          -0.26368788,
          -0.033362888,
          0.23509698
        ],
        [
          -0.5726784,
          0.33664206,
          -0.034351688,
          0.12909515,
          0.41562104,
          0.89620906,
          0.11721106,
          -0.0045931935,
          -0.027325522,
          -0.36947072,
          -0.14844105,
          0.059410874,
          0.0022809082,
          0.012092661,
          -0.2541742,
          0.08100338
        ],
        [
          0.095696025,
          -0.106061004,
          0.06364322,
          0.09385727,
          0.45574293,
          0.5253244,
          -0.028941108,
          -0.13563783,
          0.49049774,
          0.14658631,
          0.14398704,
          0.7680204,
          0.030412896,
          -0.6415343,
          -0.2024564,
          -0.015728977
        ],
        [
          -0.14108671,
          -0.30243835,
          -0.36100644,
          0.005576373,
          0.22220801,
          0.13589287,
          0.151265,
          -0.08388329,
          0.23286177,
          0.045019504,
          0.20342204,
          0.47234696,
          -0.07822795,
          -0.8136237,
          -0.20524839,
          -0.376213
        ],
        [
          -0.11550749,
          -0.12246577,
          0.048500434,
          -0.04417694,
          -0.2397358,
          1.0585513,
          -0.14431737,
          -0.0911131,
          1.6809936,
          0.12013143,
          -0.15544222,
          0.38705632,
          0.067035444,
          -0.34956416,
          -0.110741384,
          0.121706195
        ],
        [
          -0.004469317,
          0.34743458,
          0.054721307,
          0.012608297,
          -0.074805945,
          -0.8573031,
          0.057709713,
          -0.0727636,
          -0.25296962,
          -0.9789192,
          0.32870525,
          0.19686043,
          0.17037523,
          -0.22195955,
          0.20563503,
          -0.010065346
        ],
        [
          -1.3575747,
          1.0257503,
          0.07859363,
          0.12548439,
          0.1144856,
          -0.92472315,
          0.23122977,
          -0.16852534,
          1.6228907,
          -1.1444535,
          0.49120274,
          -0.03311036,
          0.09827737,
          -0.23907126,
          0.28450128,
          0.21995573
        ],
        [
          0.23984733,
          0.21402024,
          0.5591163,
          0.2901606,
          1.2370186,
          0.6908066,
          0.32964787,
          0.34036633,
          1.4574456,
          -0.9335365,
          0.07806688,
          -0.07603561,
          0.009784106,
          -0.25597522,
          0.021989986,
          0.23832476
        ],
        [
          -0.4074931,
          0.6463709,
          0.4406773,
          0.122286126,
          -1.2767553,
          0.45896733,
          -2.5923195,
          -0.04332383,
          0.51633996,
          -1.2119532,
          -2.0097804,
          0.87590426,
          -0.18665378,
          -0.10280079,
          -0.7297797,
          -0.16265498
        ],
        [
          1.3196359,
          1.0747825,
          -0.18636148,
          0.22292875,
          -0.8424593,
          1.5655694,
          -1.1632947,
          0.91842353,
          0.8024413,
          -1.2306921,
          -0.14686601,
          1.0978138,
          -0.054099265,
          -0.04657182,
          -0.92492706,
          0.7133271
        ],
        [
          0.2802067,
          -0.46920308,
          -0.2716621,
          0.56972605,
          1.0116134,
          1.3124576,
          -0.8984596,
          0.64117277,
          -0.17268983,
          -1.1836231,
          -0.32260248,
          0.94001275,
          0.6309146,
          -0.34450376,
          -0.61581576,
          -1.030969
        ],
        [
          -0.41140518,
          -0.116440564,
          -0.25734323,
          0.21677922,
          0.06938129,
          -0.17903632,
          -0.18362133,
          0.3123055,
          1.4228791,
          -1.1311611,
          0.40955406,
          0.4954809,
          -0.08847649,
          -0.16510886,
          0.7227147,
          0.07269614
        ],
        [
          0.16071199,
          0.86047024,
          -0.0044663707,
          -0.15864861,
          0.36479253,
          0.12175508,
          -0.7078822,
          -0.21889296,
          -0.009224087,
          -0.7801657,
          0.46302214,
          0.8123885,
          0.01847146,
          0.024090637,
          0.3850331,
          0.28513584
        ],
        [
          0.3565261,
          -0.90904456,
          0.06774184,
          0.0026780365,
          0.6954465,
          1.7467448,
          -0.85313565,
          0.58021694,
          0.20476703,
          -1.0581489,
          0.30427024,
          1.6339928,
          -0.07431532,
          -1.3880956,
          0.4395731,
          0.02423903
        ],
        [
          0.62344,
          -0.080311574,
          -0.6195367,
          -0.1047974,
          -0.33622947,
          0.36061224,
          0.05812013,
          -0.6134787,
          0.22424063,
          0.21635415,
          -0.47855052,
          0.5316901,
          -0.28951746,
          -0.28638357,
          -0.19418372,
          -0.20609242
        ],
        [
          0.98629,
          0.34123898,
          -0.2461848,
          -0.12224322,
          -0.9433074,
          0.3242652,
          0.6122415,
          -0.77947426,
          -0.3530197,
          0.23645648,
          -0.9572749,
          0.5230858,
          -0.46026817,
          -0.5433992,
          -0.181104,
          -0.3982744
        ],
        [
          0.76717347,
          0.30300736,
          -0.41158283,
          0.0715096,
          -0.32179177,
          0.13411044,
          0.48911107,
          -1.5271249,
          -0.37807882,
          0.47732195,
          -0.9428041,
          0.27104077,
          -0.8275972,
          -0.30229652,
          -0.12784466,
          -0.02156302
        ],
        [
          -0.4187926,
          0.35519063,
          -0.71708035,
          0.035680234,
          -0.7519114,
          0.24441293,
          -0.57863003,
          0.08642647,
          0.8658958,
          -0.41350234,
          -0.08331555,
          1.68223,
          -0.06629849,
          0.35589775,
          0.36470968,
          0.45771936
        ],
        [
          -0.08732505,
          -0.029772744,
          0.80854595,
          0.12928638,
          -0.08797113,
          -0.22094761,
          -0.33643106,
          0.54229593,
          -0.18857418,
          0.5829881,
          0.8149085,
          3.1879268,
          0.17965096,
          0.07176376,
          0.2081345,
          -0.80180985
        ],
        [
          0.35855517,
          0.85555506,
          -0.36021438,
          -0.020968158,
          -0.53386927,
          -1.4842007,
          0.36747307,
          -1.4299169,
          0.16197433,
          -1.1878742,
          -1.2127279,
          -0.85020715,
          0.0049839397,
          -0.6351289,
          0.7456729,
          0.06828187
        ],
        [
          0.18497987,
          0.23901692,
          -0.014676715,
          -0.13326028,
          -0.444707,
          0.044088148,
          0.2957722,
          0.121403344,
          -0.04898905,
          -0.24915707,
          -0.011903122,
          0.4900052,
          -0.18880041,
          0.2286697,
          -0.12292251,
          -0.6667281
        ],
        [
          1.2196128,
          0.11269162,
          -0.24243717,
          -0.0135425925,
          0.24047148,
          0.4645502,
          0.32931966,
          -0.658312,
          -0.63107574,
          -0.55234474,
          -0.91441065,
          0.3541439,
          -0.6081915,
          -0.6272137,
          -0.12931937,
          -0.19054188
        ],
        [
          0.005052367,
          0.050824087,
          -0.41860583,
          0.27431038,
          0.6602863,
          -0.20405093,
          0.5513312,
          -0.5985421,
          -0.23582743,
          -0.4102928,
          -0.45914835,
          -0.42894238,
          -0.20335215,
          -0.8460005,
          0.11484224,
          0.21848945
        ],
        [
          1.0764047,
          0.11128293,
          0.1510301,
          0.07274539,
          -0.81692123,
          0.3801395,
          -0.01866017,
          0.19950125,
          0.76849836,
          0.19270283,
          0.5218108,
          -0.22151123,
          0.04615641,
          -0.016367285,
          0.21988995,
          0.13777472
        ],
        [
          -0.15617165,
          -0.6247003,
          0.4573491,
          0.341761,
          0.36322048,
          -1.2784519,
          0.26583058,
          0.3091405,
          0.8251516,
          0.21568105,
          0.43866363,
          -0.030574804,
          -0.18265116,
          -0.12197231,
          0.37519908,
          0.24092104
        ],
        [
          1.1708604,
          1.4113247,
          0.8524559,
          -0.18861109,
          1.3376544,
          -0.47148806,
          -0.28698322,
          -0.04019112,
          1.6139944,
          -0.4463844,
          -0.09997949,
          0.83424133,
          -0.3014563,
          0.1927159,
          0.5306519,
          -0.017224278
        ],
        [
          0.13948292,
          -0.12079954,
          -0.19275047,
          0.33372542,
          0.09042347,
          -0.24811672,
          -0.13564381,
          0.10605762,
          -0.028818069,
          -0.08203489,
          -0.074897625,
          -0.03270657,
          0.04783061,
          -0.026605083,
          -0.015398629,
          0.08321354
        ],
        [
          -0.17383473,
          0.15644126,
          0.15690608,
          -0.31527835,
          0.2819271,
          -0.20450209,
          0.13757889,
          -0.105580874,
          -0.22966662,
          -0.043445498,
          -0.37568268,
          0.10011752,
          -0.0017266329,
          0.14728206,
          -0.05094113,
          -0.12436036
        ],
        [
          -0.21251017,
          0.13434924,
          0.07309522,
          0.1452066,
          -0.18847899,
          0.28871357,
          0.20164081,
          -0.01919332,
          0.24699464,
          0.21580149,
          -0.18661089,
          -0.1876509,
          -0.24059781,
          0.020076353,
          0.06310856,
          0.158837
        ],
        [
          -0.14768131,
          0.17735168,
          0.1665281,
          0.105237834,
          -0.29107973,
          0.07704858,
          0.28748298,
          -0.0058412347,
          0.89620745,
          0.023373058,
          0.31411308,
          0.39128238,
          0.053869214,
          0.024110645,
          0.09894546,
          -0.083189525
        ],
        [
          -0.4697163,
          -0.9189102,
          0.1846968,
          0.07973769,
          -1.3413508,
          -0.057315886,
          -0.66334933,
          -0.30080006,
          0.64543533,
          -0.19482961,
          0.5670482,
          -0.5001806,
          0.026819905,
          -1.2500273,
          0.31244728,
          -0.17526044
        ],
        [
          -0.18714681,
          0.39049882,
          0.5428877,
          0.034967706,
          0.15116617,
          -1.8180693,
          -0.07228553,
          -0.25167495,
          -0.8674164,
          0.19981396,
          -0.52724427,
          -0.32788938,
          -0.88683844,
          1.0632002,
          0.07598239,
          0.044438522
        ],
        [
          -0.08210281,
          -0.07549961,
          0.07375258,
          0.009918152,
          -0.1843713,
          -0.031185796,
          0.11333852,
          -0.31138763,
          -0.076157555,
          -0.08506138,
          -0.0278927,
          -0.08289892,
          0.062001694,
          -0.13233349,
          -0.12396349,
          0.026593873
        ],
        [
          -0.0016088629,
          -0.10642419,
          0.060432713,
          0.053912405,
          0.0202766,
          -0.108244665,
          0.2656116,
          -0.09781264,
          -0.09066066,
          0.0692848,
          -0.00366794,
          -0.12699042,
          0.02491208,
          -0.13861427,
          0.099075705,
          0.26489303
        ],
        [
          0.006579969,
          0.34150258,
          0.11933308,
          -0.11691611,
          0.06146987,
          0.07872838,
          -0.0047462215,
          -0.0073272744,
          -0.1143037,
          0.17927994,
          -0.08480647,
          -0.17120218,
          0.0011390785,
          0.19833547,
          0.22975647,
          -0.020835698
        ],
        [
          0.13202862,
          0.090063244,
          0.17006426,
          0.13047738,
          -0.4151389,
          0.33906528,
          0.19451022,
          -0.10335013,
          0.8042643,
          -0.5182704,
          0.30401975,
          -0.41877586,
          -0.08908029,
          0.03358631,
          0.22817162,
          0.067407206
        ],
        [
          -0.6539219,
          0.17450146,
          0.14057626,
          0.15662886,
          -0.071283996,
          0.1469645,
          -0.42418724,
          0.20563172,
          0.8268373,
          -0.6462449,
          -1.4637946,
          -0.46318886,
          0.038330797,
          -0.29106584,
          0.08770189,
          0.021389108
        ],
        [
          0.6878533,
          0.048195332,
          1.4053373,
          0.15479589,
          1.4412526,
          -0.9919047,
          -0.46439964,
          -0.19662295,
          1.021083,
          -0.023286754,
          0.85166276,
          0.010105013,
          -0.183268,
          0.139993,
          0.012504639,
          0.31410474
        ],
        [
          -0.11108286,
          0.030298276,
          -0.15066119,
          -0.08136895,
          -0.018275416,
          0.23960379,
          0.15299211,
          -0.24186745,
          0.028107364,
          -0.18894514,
          -0.097973146,
          0.0027198698,
          -0.062864214,
          -0.31485748,
          -0.058687795,
          -0.11345522
        ],
        [
          0.083555646,
          0.043407638,
          0.11963675,
          -0.065480955,
          0.11341706,
          0.124751925,
          -0.04611764,
          -0.058768068,
          -0.089121856,
          0.019821601,
          -0.024846766,
          0.024288975,
          0.02609637,
          0.020987825,
          0.1258688,
          -0.081742786
        ],
        [
          -0.15338798,
          0.07077376,
          0.14730836,
          -0.06890343,
          -0.11801064,
          0.29766622,
          0.12620798,
          -0.06156624,
          0.10139946,
          -0.031754624,
          0.0013248142,
          -0.06529763,
          0.20648018,
          -0.14225598,
          -0.08143704,
          0.17210406
        ],
        [
          0.26716113,
          -0.5408438,
          -0.18170631,
          -0.119646184,
          -0.18827608,
          -1.0358303,
          0.59227794,
          -0.03689977,
          -1.1705757,
          0.47115648,
          0.69289565,
          -0.54065686,
          -0.3027668,
          -0.35830778,
          -0.10637296,
          -0.40245533
        ],
        [
          0.35539374,
          0.39750654,
          0.2534653,
          -0.15978622,
          1.3430102,
          -2.1173034,
          -0.7932985,
          0.2702257,
          -1.6947547,
          2.6051455,
          0.7059319,
          -0.9630091,
          0.15512487,
          -0.12067433,
          0.3018754,
          -0.6239105
        ],
        [
          0.7721553,
          -0.74515384,
          -0.52095896,
          -0.5987444,
          -1.2245493,
          0.05939644,
          -0.2908533,
          0.08156001,
          0.21980232,
          0.51450413,
          -0.07086954,
          -0.92782474,
          -0.02240408,
          -0.30374855,
          0.44449762,
          0.282833
        ],
        [
          -0.23038834,
          -0.15523559,
          0.03013291,
          0.092741355,
          -0.014570649,
          -0.14478396,
          -0.060152583,
          0.04919714,
          -0.22941914,
          -0.015214584,
          -0.0706571,
          -0.18746454,
          -0.06275371,
          0.19740672,
          0.11854671,
          0.06375032
        ],
        [
          0.047013026,
          -0.2765995,
          0.2024837,
          0.04789982,
          0.00799975,
          0.168975,
          -0.18918137,
          -0.08440582,
          -0.06471375,
          -0.08024342,
          -0.27454975,
          0.012988681,
          -0.049916275,
          -0.05721868,
          0.17577372,
          -0.2699904
        ],
        [
          0.14165185,
          -0.043382693,
          0.101823516,
          -0.06674339,
          0.1398506,
          -0.07103277,
          -0.0154087655,
          -0.09948547,
          0.024886241,
          -0.037666544,
          0.003926026,
          -0.096908495,
          -0.19375111,
          0.07159619,
          0.042595834,
          0.029856563
        ],
        [
          -0.09542444,
          -0.31739894,
          0.25122786,
          -0.021058997,
          0.16373627,
          -0.34812382,
          -0.28356636,
          -0.16700803,
          0.10012371,
          1.7601658,
          -0.55040276,
          -0.18036635,
          -0.19429208,
          0.3891446,
          0.3469545,
          -0.02136533
        ],
        [
          0.78719044,
          0.27392387,
          2.185349,
          0.084346406,
          0.23942569,
          -0.8454473,
          -0.2980606,
          0.15771621,
          -0.96218836,
          0.7703416,
          -0.21515124,
          0.5851667,
          -0.33046666,
          -0.06497548,
          -0.008788307,
          -0.794844
        ],
        [
          -0.5949838,
          -1.0583003,
          0.093311064,
          0.25673074,
          -1.1268377,
          -0.30360612,
          0.2181238,
          -0.5895793,
          -0.9199183,
          1.6943128,
          0.7914134,
          -0.15464142,
          -0.20028263,
          -0.055707768,
          0.3117428,
          0.36918566
        ],
        [
          -0.53344464,
          -0.2877649,
          -0.4537775,
          0.17796817,
          -0.7399222,
          0.42012653,
          -0.059332546,
          -0.99912643,
          -1.2984164,
          0.6017185,
          1.2259024,
          -1.1571172,
          0.23916864,
          0.042071395,
          -0.7285239,
          1.4823638
        ],
        [
          -0.10865909,
          0.3879236,
          0.19851045,
          -0.3208731,
          -0.09915436,
          0.7404002,
          -0.19469969,
          0.23193783,
          0.48618042,
          -0.17879729,
          -0.325121,
          -0.103912875,
          -0.23292506,
          0.2532368,
          0.5984933,
          -0.14174256
        ],
        [
          0.10411934,
          0.12921353,
          0.068308406,
          -0.3115819,
          -0.091013245,
          0.22742757,
          -0.068807036,
          -0.03613204,
          0.08752426,
          -0.17250603,
          -0.32502735,
          0.19343093,
          -0.13698967,
          0.189219,
          0.051490914,
          -0.45120633
        ],
        [
          -0.55480325,
          0.6029762,
          0.81198657,
          -0.1520363,
          0.10202147,
          -1.0401088,
          0.101184785,
          -0.6035006,
          0.40603676,
          0.6448544,
          0.23745568,
          -0.6847407,
          -0.082856566,
          -0.5711589,
          -0.39911214,
          0.4067631
        ],
        [
          1.0763817,
          -0.20085661,
          -0.38948515,
          0.11903925,
          0.06693587,
          -0.02353098,
          0.6326875,
          -0.4825611,
          -0.7860954,
          0.42313033,
          0.29258704,
          -0.23598696,
          -0.16094115,
          0.048657194,
          -0.08249881,
          -0.15777962
        ],
        [
          -0.3293511,
          0.17491114,
          0.14427914,
          -0.1393449,
          -0.26843455,
          -0.33271694,
          -0.120742135,
          0.19817303,
          -0.09137571,
          0.3266536,
          0.69613034,
          -0.09332857,
          0.05420401,
          -0.06662716,
          0.049522262,
          -0.020220175
        ],
        [
          1.0259786,
          -0.9370554,
          0.1313503,
          0.5251194,
          -0.20895499,
          1.2446222,
          0.5918858,
          -0.58903253,
          0.059479054,
          -1.908957,
          -0.24609011,
          -0.04792737,
          -0.52734715,
          0.049053382,
          -0.18825196,
          -0.18497948
        ],
        [
          -0.3141064,
          0.19597062,
          0.31343699,
          0.11678262,
