{
  "Layers": [
    {
      "_wInc": 1,
      "_wDec": 1,
      "_wNothing": 214247175158,
      "EnableNNUE": true,
      "Weights": [
        [
          -0.38310343,
          -0.3000136,
          -0.032386087,
          -0.14922872,
          0.26838583,
          -0.52699316,
          -0.046371847,
          0.15283974,
          0.02696734,
          0.31864733,
          -0.3454405,
          0.05446915,
          0.3680259,
          -0.4484793,
          -0.19151789,
          0.012499908
        ],
        [
          -0.48937094,
          0.40756312,
          -0.112623915,
          -0.08067854,
          -0.36490035,
          -0.023402542,
          0.0243502,
          0.16642621,
          -0.006439689,
          0.045713216,
          -0.45848125,
          -0.10343443,
          -0.06544333,
          0.1297846,
          0.65756977,
          -0.15812154
        ],
        [
          0.47361234,
          0.3492266,
          -0.2668718,
          0.169075,
          -0.5044883,
          0.27837864,
          -0.105277985,
          0.26030105,
          -0.14987856,
          0.22039795,
          0.5266772,
          -0.08795763,
          -0.29100686,
          -0.08776219,
          -0.3347629,
          0.22590527
        ],
        [
          0.083611526,
          0.49330497,
          0.7679104,
          -0.3225421,
          -2.4627016,
          -0.6211037,
          -0.060054157,
          0.18491893,
          -0.54165334,
          1.4780746,
          0.90464836,
          -0.17879862,
          0.05839185,
          -0.5671321,
          -1.3185381,
          -0.19158025
        ],
        [
          0.011741162,
          -0.29253042,
          0.21156429,
          0.18400556,
          -0.5177163,
          -0.18671376,
          -0.13340078,
          0.032844905,
          -0.123064145,
          0.4356335,
          -0.034743845,
          -0.077894635,
          -0.09502634,
          -0.23958278,
          -0.64601237,
          -0.4317965
        ],
        [
          -0.057568848,
          0.021352304,
          0.184126,
          0.017991511,
          -0.33572102,
          0.06323136,
          -0.12877259,
          0.047329113,
          -0.18939012,
          -0.0496784,
          0.39203966,
          -0.32545888,
          0.014494939,
          -0.09431593,
          -0.5310964,
          -0.14134184
        ],
        [
          -0.12738562,
          -0.14537503,
          -0.07458294,
          -0.0858051,
          0.0038680155,
          0.11473466,
          -0.045530144,
          0.11943285,
          -0.15666808,
          0.027409904,
          -0.20329376,
          0.096913986,
          -0.057219863,
          -0.10582528,
          -0.17362389,
          -0.18427074
        ],
        [
          -0.073780514,
          -0.09717924,
          0.079973936,
          -0.018197553,
          -0.10520716,
          0.011483925,
          -0.010790406,
          0.037702493,
          -0.22701794,
          -0.119647436,
          -0.20716132,
          -0.057874065,
          0.0020346402,
          0.044691585,
          -0.093808725,
          -0.15986799
        ],
        [
          0.8046093,
          1.067857,
          -4.407726,
          -0.6627139,
          3.8122654,
          2.3385413,
          0.92876816,
          -2.707198,
          0.043633223,
          -1.931628,
          -1.410015,
          -1.4566549,
          -0.03520201,
          0.49014997,
          3.1107852,
          0.6051018
        ],
        [
          0.12279114,
          0.20888214,
          -0.045033142,
          -0.027728457,
          0.12861145,
          -0.08701325,
          0.07355534,
          0.067758605,
          0.16999307,
          0.07991088,
          0.05765427,
          -0.03781736,
          0.010322471,
          0.12174817,
          0.026486492,
          0.16328155
        ],
        [
          0.13354078,
          0.03929763,
          -0.00977734,
          0.13686447,
          0.051891755,
          0.042906847,
          0.06688258,
          -0.04179733,
          0.08085932,
          0.1659991,
          0.18567167,
          -0.006740438,
          0.052133795,
          0.15914659,
          0.15312381,
          0.10909204
        ],
        [
          0.5790562,
          0.29242894,
          -0.2409765,
          0.051868938,
          0.23804794,
          0.4668746,
          0.1573931,
          0.17681335,
          0.41465443,
          -0.38376373,
          0.55895764,
          0.0069819824,
          0.018981501,
          0.2450937,
          0.26552594,
          0.52057624
        ],
        [
          0.55495065,
          0.40514824,
          -0.04805083,
          0.0774879,
          0.25190106,
          0.2311966,
          0.15747225,
          0.15939151,
          0.2188938,
          -0.06759811,
          0.309651,
          0.008448357,
          0.012427521,
          0.19432516,
          0.07105227,
          0.3928551
        ],
        [
          0.35811335,
          0.22043781,
          -0.014517547,
          0.026562355,
          0.076081745,
          -0.09571495,
          -0.059366826,
          0.028633859,
          0.19591475,
          0.056335293,
          0.16856372,
          -0.078706495,
          0.027125701,
          0.122892775,
          0.035993673,
          0.1413911
        ],
        [
          0.18358962,
          0.063312374,
          -0.11040422,
          0.047913074,
          0.09281208,
          -0.07795458,
          -0.08140301,
          0.027086068,
          0.04304592,
          0.064479314,
          0.19126514,
          -0.048530336,
          -0.027285222,
          -0.011076417,
          0.21897791,
          0.087230235
        ],
        [
          0.06723787,
          0.12548797,
          -0.09435122,
          0.018490609,
          0.0043502236,
          -0.10530741,
          0.05746905,
          -0.07822696,
          0.091063425,
          -0.009138827,
          0.22930686,
          -0.06319907,
          -0.023912922,
          -0.031397894,
          0.19617112,
          0.088731945
        ],
        [
          0.0941743,
          0.033770513,
          -0.08705866,
          -0.008812596,
          0.11854447,
          -0.13752092,
          0.038056888,
          0.014217874,
          0.001714812,
          0.17202659,
          0.17757486,
          0.1086881,
          0.052917656,
          0.13005856,
          0.1508344,
          -0.0239392
        ],
        [
          -0.032707497,
          0.19915423,
          -0.032874867,
          -0.031060467,
          0.13000181,
          -0.099759884,
          -0.07261217,
          -0.13120882,
          -0.01975065,
          0.17848758,
          0.038673695,
          0.0020692095,
          0.06307034,
          0.15280193,
          0.052460395,
          0.049238116
        ],
        [
          0.04456429,
          0.046463948,
          0.0723048,
          -0.055191755,
          -0.008518342,
          -0.006919821,
          0.0004659789,
          -0.13893183,
          0.19657885,
          0.1652454,
          0.0009618798,
          0.0065020993,
          0.010009349,
          0.12133477,
          0.15664975,
          0.17793225
        ],
        [
          0.0861002,
          0.119710475,
          0.08717029,
          0.09767973,
          0.15101859,
          0.019683208,
          0.048556585,
          0.0120944865,
          0.103464976,
          0.17529385,
          0.02175668,
          0.12190589,
          -0.002624421,
          0.046333827,
          0.11752816,
          0.03804011
        ],
        [
          0.1557095,
          0.051675964,
          -0.06596492,
          -0.056662023,
          0.14471033,
          -0.06949525,
          -0.017538147,
          -0.13494228,
          0.19745244,
          0.07195591,
          0.118050426,
          -0.010466077,
          -0.05504849,
          0.1635844,
          0.06616991,
          0.03613224
        ],
        [
          0.12648271,
          0.17858797,
          -0.07243958,
          0.14271177,
          0.0038769946,
          -0.10638403,
          -0.108871564,
          -0.030149762,
          0.15783505,
          0.03774967,
          0.046399724,
          0.12529181,
          -0.07927954,
          -0.033055052,
          0.18094735,
          0.037079416
        ],
        [
          -0.020570593,
          0.12324597,
          0.026435403,
          -0.052475728,
          0.12689623,
          -0.10452417,
          -0.0867904,
          -0.1727582,
          0.16259812,
          -0.035400525,
          0.19790368,
          -0.019055823,
          -0.07462789,
          -0.027261028,
          0.1859699,
          0.12603563
        ],
        [
          -0.032462403,
          0.13856176,
          0.0012373836,
          -0.04595761,
          0.18878865,
          -0.16166054,
          -0.016943032,
          -0.17552699,
          0.11648038,
          0.11456793,
          0.117198095,
          0.03493924,
          -0.10273349,
          0.03999287,
          0.05073808,
          -0.00086328184
        ],
        [
          0.0307834,
          0.19060162,
          -0.024127828,
          0.15576948,
          0.06349889,
          -0.15161751,
          -0.0006672853,
          -0.17525078,
          0.13287805,
          0.069641955,
          0.040667187,
          0.05877101,
          0.00057292276,
          0.14755635,
          0.16941755,
          0.0704395
        ],
        [
          0.59541684,
          0.09629265,
          0.35342327,
          0.11900757,
          -0.1577853,
          -0.01225933,
          -0.03426753,
          0.5820407,
          0.3014027,
          0.20639971,
          0.70817524,
          0.387873,
          0.12981848,
          0.15480255,
          -0.16131948,
          0.37887788
        ],
        [
          0.510337,
          0.053732578,
          0.096822955,
          -0.08859733,
          -0.009612904,
          -0.1071394,
          0.12879343,
          0.35792974,
          0.051753912,
          0.34327224,
          0.4314792,
          0.04806748,
          -0.01923035,
          0.08178867,
          -0.05987608,
          0.3080185
        ],
        [
          0.21666978,
          -0.046431947,
          -0.054023854,
          0.12788413,
          0.15140228,
          0.07448443,
          -0.06712058,
          -0.17357531,
          0.24208365,
          -0.062331267,
          -0.012764865,
          -0.011267391,
          0.02857298,
          0.2068231,
          0.101030655,
          -0.022383593
        ],
        [
          0.16222493,
          0.051634002,
          -0.024449028,
          0.13315631,
          0.09388173,
          -0.11330948,
          -0.0220418,
          -0.10903031,
          0.051629644,
          -0.076695845,
          0.04717771,
          0.19597133,
          -0.033414517,
          0.1030213,
          0.015604464,
          0.08809157
        ],
        [
          0.008245565,
          0.14581534,
          -0.063751996,
          0.02092034,
          0.16981867,
          -0.013048496,
          0.06319022,
          -0.11321608,
          0.023116482,
          0.027228637,
          0.21076255,
          0.14662825,
          0.07866973,
          0.017595366,
          0.06075296,
          0.02715138
        ],
        [
          0.03468713,
          0.13872916,
          -0.096946776,
          -0.016870312,
          0.18168387,
          0.0031404742,
          0.053964544,
          0.01107874,
          0.012193533,
          -0.035044752,
          0.01651032,
          0.0075356127,
          -0.082451,
          0.127294,
          0.21076246,
          0.10953556
        ],
        [
          0.0126927085,
          0.18156081,
          0.067199335,
          0.12848519,
          0.019089442,
          -0.13504843,
          0.0029979276,
          0.02785127,
          0.09949878,
          0.033235356,
          0.15915675,
          0.13919388,
          0.048311915,
          0.10279607,
          0.0525942,
          0.11615895
        ],
        [
          0.10112385,
          0.034107577,
          -0.07315634,
          -0.008768551,
          0.08153605,
          -0.15985076,
          0.041039865,
          -0.09089049,
          0.0875527,
          -0.004214908,
          0.078736514,
          -0.050050106,
          -0.005875711,
          0.1206665,
          0.21103962,
          0.17216273
        ],
        [
          -0.017534012,
          0.16165945,
          0.02011762,
          0.12909554,
          0.16208512,
          0.040522482,
          -0.031283524,
          -0.11192422,
          0.03838921,
          0.041793555,
          0.11307022,
          0.045418035,
          0.0045883954,
          -0.04490477,
          0.14311142,
          0.11831167
        ],
        [
          0.012205459,
          0.08921994,
          -0.12405386,
          0.15760975,
          -0.014705847,
          -0.057393774,
          -0.10866018,
          -0.1445186,
          0.14493743,
          0.03143453,
          0.060280304,
          0.0384485,
          -0.009867647,
          0.031741075,
          0.087379724,
          0.11520977
        ],
        [
          0.12715387,
          0.03807367,
          -0.11908591,
          0.0916672,
          0.121708795,
          -0.10792414,
          -0.11439097,
          -0.18259417,
          0.15108801,
          0.08118314,
          0.09555659,
          0.05183587,
          -0.038630027,
          0.12507173,
          0.15427025,
          0.014562562
        ],
        [
          0.03157143,
          0.1975593,
          0.0984859,
          0.012713174,
          0.08330082,
          0.039958883,
          -0.005558301,
          -0.07340763,
          0.17778881,
          0.03065447,
          0.06798974,
          0.08775881,
          0.07463732,
          0.054586485,
          0.038556978,
          0.1325847
        ],
        [
          0.16351286,
          0.16959208,
          0.05614482,
          -0.034059532,
          0.16792032,
          -0.119933106,
          -0.033937518,
          -0.08902634,
          0.088700205,
          0.0632005,
          0.19700535,
          -0.035552587,
          0.003917167,
          0.008362892,
          0.1945483,
          0.060145073
        ],
        [
          0.16682771,
          0.020328782,
          -0.0033261096,
          -0.046979554,
          0.06400978,
          -0.02542979,
          0.0141396895,
          0.021566544,
          0.049172837,
          0.0011858378,
          0.099418566,
          0.0509728,
          -0.07798424,
          0.07451216,
          0.03304366,
          0.096921265
        ],
        [
          0.3579991,
          -0.53963274,
          -0.14423147,
          0.44648147,
          -1.0056207,
          -0.16043855,
          -0.013342454,
          -0.1468346,
          0.15177788,
          0.40356576,
          0.22062925,
          0.20318532,
          -0.012356136,
          -0.092737496,
          -0.7401073,
          -0.2865396
        ],
        [
          -0.8850652,
          -0.021775873,
          0.13966462,
          0.17325139,
          -0.70035475,
          -0.07675999,
          -0.3136151,
          -0.33513618,
          0.16685441,
          0.5650675,
          0.1330636,
          0.045970436,
          0.0023448605,
          -0.1667706,
          -0.27385265,
          -0.029917723
        ],
        [
          -0.49743274,
          -0.09980397,
          0.147821,
          0.008599987,
          -0.06665085,
          -0.09945656,
          -0.30861598,
          -0.27204505,
          -0.020456972,
          0.3146663,
          -0.23345344,
          0.028059954,
          -0.12466523,
          -0.12304188,
          0.07174567,
          -0.30703166
        ],
        [
          0.11075141,
          -0.0036088757,
          0.062951975,
          0.0516135,
          0.0359228,
          0.14692071,
          0.020640215,
          -0.17898011,
          0.011016601,
          0.07034833,
          -0.07700263,
          0.04039075,
          -0.047272075,
          0.026558831,
          0.16053666,
          -0.038308356
        ],
        [
          0.1416122,
          0.055863228,
          -0.025449181,
          0.07718306,
          0.048810754,
          0.043394748,
          -0.11252841,
          -0.17150246,
          0.00054056797,
          0.15410902,
          0.09881379,
          -0.0430645,
          -0.010608482,
          0.1499227,
          0.10439071,
          0.12215215
        ],
        [
          -0.016445752,
          0.09205386,
          -0.0036664626,
          0.03323746,
          -0.01921616,
          -0.14964001,
          0.050179463,
          -0.024087679,
          0.08906889,
          0.056268804,
          0.05300388,
          0.016233023,
          -0.09123491,
          0.053152874,
          0.095879346,
          0.061829433
        ],
        [
          -0.057656232,
          -0.006587399,
          -0.2939325,
          -0.087494105,
          0.064045556,
          -0.13001277,
          0.23321304,
          0.031461686,
          -0.20673046,
          0.29386988,
          0.13194734,
          -0.2592149,
          -0.21445543,
          -0.110779464,
          0.18702832,
          -0.2503936
        ],
        [
          -0.9717939,
          0.060533307,
          -0.35908803,
          0.005551747,
          0.5404276,
          -0.06901818,
          0.09122904,
          -0.05327279,
          -0.2821628,
          0.54016745,
          0.026545294,
          0.04244303,
          -0.07064007,
          -0.25113875,
          0.33650154,
          -0.14665893
        ],
        [
          -0.17435412,
          0.100524954,
          -0.25571316,
          0.050810862,
          0.31798872,
          -0.15725231,
          0.102373354,
          -0.20526044,
          0.04446776,
          0.21913597,
          0.08012993,
          -0.0019578051,
          0.13174134,
          -0.10333098,
          0.1565357,
          0.042181224
        ],
        [
          -0.07875777,
          0.0052465685,
          -0.0027532035,
          0.09938651,
          0.19910401,
          -0.06819097,
          0.06688792,
          -0.1998494,
          0.03894871,
          0.14422761,
          -0.0097870035,
          0.028034655,
          0.0014660221,
          -0.005958039,
          0.22423731,
          -0.039870143
        ],
        [
          0.11831507,
          0.0064836377,
          -0.091170296,
          0.0919183,
          0.1234045,
          0.007353699,
          -0.07080132,
          -0.10527914,
          0.15120594,
          0.06788414,
          0.046494793,
          -0.021542678,
          0.06839292,
          -0.01467684,
          0.13405679,
          0.15321602
        ],
        [
          0.036510527,
          0.009693513,
          -0.12385775,
          0.08449454,
          0.20617542,
          -0.10846823,
          -0.08078785,
          0.007869234,
          0.18581171,
          0.122846045,
          0.21892323,
          0.12711743,
          -0.031833034,
          -0.031967644,
          0.12726565,
          -0.016699752
        ],
        [
          0.112773,
          0.018745592,
          0.05993741,
          0.10137121,
          -0.16868715,
          0.15103488,
          0.31941098,
          0.12037866,
          0.28238368,
          0.49339113,
          0.7802977,
          0.2312363,
          -0.020745741,
          0.3100994,
          -0.33879748,
          0.02596031
        ],
        [
          0.38767847,
          -0.7995723,
          0.09465932,
          0.37303698,
          0.26637557,
          -0.18677214,
          0.03896524,
          -0.043470245,
          -0.13480392,
          0.013402452,
          0.542465,
          0.26681337,
          0.11605772,
          0.64247453,
          0.0013259861,
          0.3588676
        ],
        [
          0.69693315,
          -0.09969993,
          0.15199116,
          0.11687727,
          0.16305807,
          0.5075476,
          -0.09474077,
          1.1237713,
          0.6216189,
          -0.15414695,
          0.7661925,
          -0.3233108,
          0.037687093,
          0.63305485,
          0.100100085,
          1.2444248
        ],
        [
          0.3060777,
          0.13648008,
          -0.033690516,
          -0.26469046,
          0.27889863,
          0.1429503,
          -0.012888153,
          0.35379857,
          0.4456433,
          -0.93058413,
          -0.6736181,
          0.519655,
          -0.20938535,
          0.45005238,
          -0.07890566,
          0.3367918
        ],
        [
          1.4458503,
          -0.10552311,
          0.028371308,
          -0.2912089,
          -0.24546508,
          0.14487068,
          -0.049769536,
          -0.19215265,
          0.7795559,
          -0.12880875,
          0.5929097,
          0.304292,
          0.005179482,
          1.0597024,
          -0.6078689,
          0.52111006
        ],
        [
          -0.106836624,
          0.26665592,
          0.34094587,
          0.019556932,
          -0.11624413,
          0.157833,
          0.10553913,
          0.05385866,
          0.1737496,
          -0.27910355,
          0.3501713,
          0.11416004,
          -0.08143591,
          0.24864583,
          -0.16539793,
          0.13431889
        ],
        [
          0.3090632,
          0.23826149,
          0.064175814,
          -0.12368698,
          -0.29576823,
          -0.12583295,
          0.45155478,
          0.2654541,
          -0.2931876,
          0.18374115,
          0.2971388,
          -0.22550102,
          -0.072871566,
          -0.044712894,
          -0.21720777,
          -0.055217702
        ],
        [
          -0.41453353,
          -0.34458223,
          -0.16691615,
          0.29855424,
          0.050861217,
          -0.06292741,
          0.10007057,
          -0.47388327,
          0.040719256,
          0.22719438,
          -0.28128365,
          0.0014971155,
          -0.18726848,
          -0.0013147629,
          -0.23049779,
          -0.086292356
        ],
        [
          -0.3223637,
          -0.6731149,
          0.36813864,
          0.13264656,
          -0.94430506,
          -0.13604045,
          -0.54017204,
          -0.42439672,
          -0.16959226,
          0.10695645,
          -0.6369083,
          -0.0007926368,
          -0.3262197,
          -0.057004448,
          -0.85909355,
          -1.1362677
        ],
        [
          -0.3247874,
          0.102607906,
          -0.4121552,
          -0.40514392,
          0.15880994,
          -0.22564836,
          0.22258717,
          0.19728027,
          -0.32117704,
          0.054592066,
          -0.01528954,
          -0.45411003,
          0.28295332,
          -0.2738883,
          0.18595964,
          0.113950334
        ],
        [
          -0.14805272,
          -0.71022713,
          0.12380602,
          0.18917099,
          -0.8483896,
          -0.55768937,
          -0.3264217,
          -0.5273557,
          0.038867664,
          0.5986814,
          -0.20720685,
          0.13365729,
          -0.017947583,
          0.036578454,
          -0.7634691,
          -0.7693064
        ],
        [
          0.28297976,
          -0.17760353,
          -0.32846767,
          -0.25130767,
          0.26541683,
          -0.22126321,
          0.0861971,
          -0.40427396,
          -0.06917302,
          0.32407805,
          0.025050037,
          -0.42539397,
          -0.12510742,
          -0.26740113,
          -0.10249805,
          -0.3808695
        ],
        [
          0.043089032,
          -0.47306857,
          0.09350237,
          0.08242767,
          -0.5281851,
          0.08296715,
          -0.43742374,
          -0.43040577,
          -0.1980886,
          0.063469775,
          -0.36970994,
          -0.032413617,
          -0.13689062,
          -0.2876829,
          -0.5241935,
          -0.7144301
        ],
        [
          -0.29385805,
          0.028348818,
          -0.385204,
          -0.4021128,
          0.24679446,
          -0.15900747,
          0.36425608,
          0.09520603,
          -0.37573668,
          0.22717783,
          -0.09794323,
          -0.48054156,
          0.21847722,
          -0.44759658,
          0.20915185,
          -0.08086339
        ],
        [
          -0.061757125,
          -0.11083005,
          0.04076235,
          -0.09273661,
          -0.118792504,
          0.16583346,
          0.05960757,
          0.04133728,
          -0.12947929,
          -0.03913799,
          -0.17020385,
          -0.15303515,
          0.11882581,
          -0.01768218,
          -0.13306619,
          0.0175182
        ],
        [
          0.020681629,
          -0.17982747,
          0.12151274,
          0.1464589,
          -0.056498535,
          -0.13314009,
          0.10550777,
          -0.02463703,
          0.10153825,
          -0.21781652,
          -0.16304974,
          -0.04322704,
          0.019439759,
          -0.16239011,
          -0.14155293,
          0.15413912
        ],
        [
          -0.17962582,
          -0.068274565,
          -0.19753794,
          -0.017685782,
          0.41204143,
          -0.09400131,
          0.12360329,
          0.013774463,
          0.04199042,
          -0.6662544,
          -0.34064424,
          -0.100786194,
          -0.00914925,
          0.32277852,
          0.54592663,
          0.17610654
        ],
        [
          -0.6398977,
          -0.5058855,
          -0.24129796,
          0.1843187,
          0.27129933,
          -0.058672108,
          0.019723514,
          0.089678735,
          0.44735846,
          -0.20808053,
          -1.1739361,
          0.7345987,
          0.01788176,
          0.0007262487,
          -0.08294488,
          -0.23799619
        ],
        [
          -0.64472413,
          0.11062643,
          0.006193152,
          -0.16174816,
          0.2421115,
          -0.15639536,
          0.059816007,
          0.104691796,
          0.25054842,
          -0.11526481,
          -0.120723486,
          -0.018436436,
          0.20436788,
          -0.122619994,
          0.35613462,
          0.038294762
        ],
        [
          -0.1229229,
          0.06381287,
          -0.021038016,
          0.050740547,
          0.16549307,
          -0.10468181,
          -0.070610315,
          -0.1822216,
          0.044129957,
          -0.0391052,
          0.11704911,
          0.1148279,
          -0.08620225,
          0.09772899,
          0.23062952,
          0.18910281
        ],
        [
          -0.17125827,
          -0.20855266,
          -0.04520811,
          0.025323264,
          -0.048574623,
          0.11854177,
          0.02279978,
          0.101744674,
          0.0016874297,
          0.043773763,
          -0.11770317,
          -0.09530048,
          0.06657635,
          -0.12265153,
          -0.020131519,
          0.02082964
        ],
        [
          0.04374077,
          -0.18269114,
          0.12847735,
          0.006766273,
          -0.26624086,
          0.067157395,
          0.06649972,
          0.00887791,
          -0.053190693,
          -0.034439053,
          -0.25164336,
          -0.05414339,
          -0.03848145,
          0.06675432,
          -0.15326646,
          -0.3521943
        ],
        [
          0.5111686,
          -0.16903037,
          0.09152391,
          -0.06502359,
          -0.19399513,
          -0.14701563,
          -0.13115102,
          0.12540603,
          -0.018876469,
          -0.3626909,
          -0.3841852,
          -0.038618922,
          0.09278296,
          -0.12741077,
          -0.20080417,
          -0.14541845
        ],
        [
          0.06618549,
          -0.0026829632,
          0.065480076,
          -0.16404577,
          -0.7719784,
          -0.16102128,
          -0.08176799,
          0.09907861,
          -0.17606784,
          0.72018343,
          0.121443756,
          -0.18807982,
          -0.2225266,
          -0.35401115,
          -0.5682109,
          0.11217141
        ],
        [
          -0.6361132,
          0.21997629,
          0.27894372,
          0.24202722,
          -0.29829904,
          0.013878388,
          0.06676851,
          -0.119400956,
          -0.25654024,
          0.43428296,
          -0.0016740662,
          0.07271462,
          0.15648131,
          -0.3134631,
          -0.027317682,
          -0.06561618
        ],
        [
          0.1546318,
          0.0011949551,
          0.14009997,
          -0.03790214,
          0.18355769,
          -0.018549902,
          -0.03275197,
          -0.09919832,
          0.17972516,
          0.05235093,
          0.15692846,
          0.29385176,
          -0.08457002,
          0.08274504,
          0.18628071,
          0.068247184
        ],
        [
          -0.10446276,
          -0.1752356,
          -0.042850647,
          0.24485739,
          -0.42687988,
          -0.03430286,
          0.19241442,
          0.08436069,
          0.21149163,
          0.4140716,
          0.5196938,
          -0.13545112,
          -0.060756512,
          0.07281202,
          -0.09348835,
          -0.1076975
        ],
        [
          -0.15759844,
          -0.015392016,
          -0.18855697,
          0.09505054,
          0.12011385,
          -0.14264265,
          0.079574004,
          -0.06584824,
          -0.07340651,
          0.1075896,
          0.22971757,
          0.085164316,
          -0.13576098,
          -0.2522654,
          0.16355076,
          0.04329892
        ],
        [
          -0.2405121,
          -0.19169432,
          -0.04678118,
          0.2447452,
          0.2734429,
          -0.027440652,
          0.20374504,
          -0.074409485,
          0.14477319,
          -0.16239522,
          0.020741582,
          -0.089522175,
          -0.1687271,
          0.037935782,
          0.12713858,
          -0.15120655
        ],
        [
          -0.029511748,
          0.1368098,
          -0.13950944,
          0.10628255,
          -0.02105839,
          0.069607794,
          -0.06394751,
          0.03333733,
          -0.1547431,
          0.5161661,
          0.58090806,
          -0.017319279,
          0.044580523,
          -0.34268335,
          -0.5326454,
          -0.035349265
        ],
        [
          -0.37931195,
          0.18568036,
          -0.09980816,
          -0.08412568,
          -0.027833086,
          -0.08275676,
          0.06266519,
          -0.073433354,
          -0.2069367,
          0.24114373,
          -0.13010602,
          -0.121251725,
          0.0439184,
          -0.1433208,
          0.01742726,
          -0.13906434
        ],
        [
          -0.1805277,
          0.09512988,
          -0.15423384,
          0.1533402,
          0.21755509,
          -0.012693207,
          -0.04550165,
          0.0053013214,
          -0.6118338,
          -0.19728287,
          0.43589044,
          -0.046033967,
          0.00364743,
          -0.17965549,
          0.08037391,
          -0.36170778
        ],
        [
          0.279765,
          -0.17796957,
          -0.025271988,
          0.108129635,
          0.19576585,
          -0.048766524,
          0.16354875,
          -0.20218255,
          -0.3645261,
          0.23167224,
          0.30736744,
          0.13100679,
          -0.001798791,
          -0.21245222,
          0.076328,
          0.004711374
        ],
        [
          0.1961018,
          0.1886545,
          -0.04967329,
          0.0030500824,
          0.06841784,
          -0.069090225,
          -0.01496836,
          -0.078512795,
          0.05626842,
          0.43083668,
          0.3023455,
          0.026590895,
          0.060119677,
          -0.023617316,
          -0.038395718,
          0.19448729
        ],
        [
          0.38419664,
          0.05514931,
          -0.05626634,
          -0.06240176,
          -0.07479382,
          -0.03389906,
          -0.034725897,
          0.09103961,
          0.10881164,
          0.35794634,
          0.25434324,
          -0.11824479,
          -0.043488603,
          -0.091092855,
          -0.001114308,
          0.378209
        ],
        [
          0.2165467,
          0.03088818,
          0.060333755,
          -0.008169852,
          0.585461,
          0.0017495811,
          0.06326868,
          0.0321841,
          -0.21944192,
          0.43478453,
          0.14731362,
          0.26243013,
          -0.05159745,
          -0.009894089,
          -0.23795679,
          -0.14143714
        ],
        [
          0.037150525,
          -0.028879102,
          0.04674414,
          0.040568586,
          -0.08550747,
          -0.019904014,
          -0.20243177,
          -0.044724964,
          0.02905085,
          -0.33000425,
          0.071981534,
          0.18556686,
          -0.047474273,
          0.022679888,
          -0.14903231,
          -0.1007439
        ],
        [
          0.26603836,
          0.14371708,
          0.008891464,
          0.021217458,
          0.086405754,
          -0.049986508,
          -0.07141042,
          0.0933492,
          -0.13802506,
          0.2618911,
          -0.19868927,
          -0.055098474,
          -0.028390683,
          -0.042683452,
          -0.14262769,
          -0.37171078
        ],
        [
          -0.54970473,
          -0.4020079,
          0.27962306,
          0.03717739,
          -0.4455536,
          -0.46199787,
          -0.023956524,
          -0.16451319,
          -0.20812266,
          0.39984828,
          -0.5445893,
          0.007066325,
          -0.028604034,
          -0.32794124,
          -0.1823328,
          -0.37451604
        ],
        [
          -0.55964375,
          -0.055568103,
          -0.37403515,
          0.021790113,
          0.20379966,
          -0.0062367376,
          0.052005358,
          -0.49957168,
          -0.27326936,
          -0.14731112,
          -0.73030716,
          -0.42799276,
          -0.03601322,
          -0.25782326,
          0.08453109,
          -0.43105978
        ],
        [
          0.10941683,
          -0.04069135,
          0.013165462,
          0.01290563,
          -0.09270341,
          -0.11439967,
          0.024598267,
          -0.005039953,
          -0.17803769,
          0.2772443,
          0.024334658,
          0.08529257,
          -0.01027819,
          -0.36975226,
          -0.15821955,
          -0.19435108
        ],
        [
          0.25714624,
          -0.1746489,
          0.03118295,
          0.029620733,
          0.051090445,
          0.006590767,
          0.07929675,
          0.1492109,
          0.11528523,
          0.23941703,
          0.41507807,
          -0.09855968,
          0.11522815,
          -0.09205851,
          -0.086667255,
          0.17491087
        ],
        [
          0.11201632,
          -0.016009629,
          0.1940891,
          0.23924446,
          -0.18274172,
          0.190813,
          -0.026432859,
          0.097354755,
          0.16282547,
          -0.006218971,
          0.6411462,
          0.09787321,
          0.024036026,
          0.07888993,
          -0.33986047,
          0.1617018
        ],
        [
          -0.32552585,
          0.4885987,
          -0.297321,
          0.32523295,
          0.1695528,
          0.04693123,
          0.33080143,
          -0.7958485,
          -0.59774333,
          0.27331105,
          -1.37203,
          -0.13956401,
          -0.08323301,
          -0.2869149,
          0.18025677,
          -0.567346
        ],
        [
          0.29460767,
          0.16217473,
          0.3369698,
          0.2521143,
          0.2944778,
          0.037079457,
          -0.036196418,
          -0.76139826,
          -0.13952357,
          -0.99273264,
          -0.19387309,
          0.34738046,
          0.13109273,
          0.58810824,
          0.90414935,
          0.33421546
        ],
        [
          0.4896183,
          0.45573655,
          0.08308815,
          -0.45664844,
          0.9394355,
          0.8316012,
          0.5884162,
          0.730142,
          0.062599346,
          -1.1508529,
          0.33668563,
          0.39839563,
          0.6098718,
          0.82746786,
          1.0533494,
          1.3954375
        ],
        [
          0.111857496,
          -0.087354176,
          -0.04516407,
          0.031351194,
          -0.08729966,
          -0.0134347435,
          -0.054068398,
          -0.11772773,
          0.085581094,
          -0.08139017,
          -0.3379376,
          0.13561006,
          -0.05331149,
          0.17388344,
          -0.25143048,
          -0.07493545
        ],
        [
          0.119190656,
          -0.078175165,
          0.028859412,
          0.14407581,
          -0.0021833475,
          0.31063747,
          -0.025499212,
          -0.07277243,
          0.34039176,
          -0.2964702,
          -0.3227832,
          -0.102122575,
          0.10929294,
          0.17886105,
          -0.1377744,
          0.07107493
        ],
        [
          -0.33889142,
          -0.28185856,
          0.083034754,
          0.18904088,
          0.013701104,
          0.28234833,
          0.026334066,
          -0.15962447,
          0.29711708,
          -0.8907331,
          -0.76113397,
          -0.09028033,
          0.09613014,
          -0.08233407,
          0.10173274,
          -0.22848383
        ],
        [
          1.0254898,
          -0.029440412,
          0.27111033,
          0.41190684,
          -0.9526613,
          -0.48923668,
          -0.073268145,
          0.2372799,
          0.5979792,
          0.5037697,
          -0.09901801,
          0.42241216,
          0.33210003,
          0.3196659,
          -0.94634336,
          0.19884335
        ],
        [
          -0.8311104,
          0.50039876,
          -0.62249273,
          -0.38662285,
          -0.33524826,
          -0.06795974,
          0.27052173,
          -0.9628294,
          -0.5455305,
          0.0626772,
          -0.6832997,
          -0.23628387,
          0.10326559,
          -1.1466663,
          0.35239023,
          -0.28981838
        ],
        [
          0.59794134,
          0.044053033,
          0.494568,
          0.36399627,
          -0.1618724,
          0.17245124,
          0.07662545,
          0.62778854,
          -0.018858695,
          -0.7131449,
          0.22800821,
          0.43466392,
          -0.2511126,
          0.6037826,
          -0.16684006,
          0.3860278
        ],
        [
          0.34065127,
          -0.34410036,
          0.008359364,
          0.28497332,
          0.4452986,
          0.32313317,
          -0.22374998,
          0.09099613,
          -0.14186367,
          -1.140132,
          -0.28891405,
          0.21930109,
          -0.17917426,
          0.37629116,
          0.22668186,
          0.22779156
        ],
        [
          0.110880025,
          0.49069643,
          0.15707028,
          0.021079147,
          -0.17000507,
          0.056613468,
          0.21382527,
          0.32256925,
          0.1780018,
          -0.6292405,
          -0.80542165,
          0.016313871,
          0.16160914,
          0.4140832,
          0.25860932,
          -0.16257656
        ],
        [
          0.59176517,
          0.33624586,
          0.40226483,
          0.3598844,
          -0.3121776,
          0.48395473,
          0.0011092414,
          0.4509096,
          0.33900267,
          -0.55510324,
          -0.7263368,
          0.17628847,
          -0.2699533,
          0.18524848,
          0.45979062,
          -0.01597947
        ],
        [
          -1.3074961,
          0.63518023,
          -0.17660211,
          -0.72060215,
          1.6888481,
          0.06384929,
          0.63461477,
          -0.3374852,
          0.04370282,
          -1.1938676,
          -0.61506945,
          0.090081304,
          -0.3066837,
          -0.112078674,
          1.3258541,
          0.13783811
        ],
        [
          0.2638628,
          0.4320038,
          0.71848625,
          0.69693065,
          1.3212262,
          1.0429174,
          0.35141337,
          1.0470158,
          1.1514375,
          -1.1712357,
          -0.08829275,
          1.1640073,
          -1.1823032,
          1.2067487,
          0.30514294,
          1.3705239
        ],
        [
          -0.058374226,
          0.11063849,
          0.0669757,
          0.029419407,
          0.011282199,
          0.06522611,
          -0.06168415,
          0.004532131,
          0.038366266,
          0.076379985,
          0.031493567,
          -0.035054237,
          -0.017953223,
          0.052460734,
          0.033536777,
          0.074644424
        ],
        [
          -0.038618386,
          0.28561085,
          0.08394902,
          0.062476378,
          -0.14008994,
          0.13008882,
          0.24552388,
          0.18007573,
          -0.41988856,
          0.016781354,
          0.6824354,
          0.030259492,
          -0.16849065,
          -0.31691992,
          0.19564548,
          0.052248854
        ],
        [
          0.2188516,
          -0.04986266,
          0.13107038,
          0.2952759,
          -0.5164879,
          0.4819963,
          0.039112866,
          0.37780383,
          0.5043382,
          0.26986164,
          0.09852399,
          0.16459,
          -0.18239708,
          0.15627237,
          -0.26171923,
          0.12147827
        ],
        [
          0.9428439,
          -0.0167944,
          0.112533495,
          -0.30212432,
          -0.9142563,
          0.105749674,
          0.10555064,
          0.38950706,
          0.35582387,
          0.90314096,
          0.8148252,
          -0.5560407,
          0.65641963,
          0.024262022,
          -0.5362984,
          -0.26592913
        ],
        [
          0.541408,
          -0.32118717,
          0.27263367,
          -0.010167153,
          -0.058390033,
          0.97791743,
          -0.39354706,
          0.3862544,
          0.20670664,
          0.25204077,
          0.20585954,
          0.3285622,
          0.14484526,
          1.0296723,
          -0.04309162,
          0.27607465
        ],
        [
          -0.12646514,
          0.118288636,
          0.5018508,
          0.40116328,
          -0.056048293,
          -0.27947396,
          -0.20492011,
          -0.45067802,
          0.77679026,
          -0.34289244,
          -1.0020574,
          0.574656,
          -0.14191832,
          0.31036326,
          -0.44206336,
          -0.113578
        ],
        [
          -0.059854582,
          0.078893065,
          0.07414853,
          0.07079295,
          0.015309023,
          -0.06526412,
          -0.061113674,
          -0.067599855,
          0.11259507,
          0.07989335,
          0.0807604,
          -0.027287181,
          -0.10644282,
          0.09215001,
          0.017681133,
          0.073152654
        ],
        [
          0.014336338,
          -0.18844102,
          0.027908936,
          -0.05012787,
          -0.3012205,
          -0.14176247,
          0.01649904,
          0.13108154,
          -0.21199463,
          0.449782,
          0.088242754,
          -0.06100173,
          0.07848498,
          -0.12898467,
          -0.3861647,
          -0.026995867
        ],
        [
          0.00596747,
          -0.36434585,
          -0.00885132,
          -0.11961675,
          -0.012839553,
          -0.13082281,
          -0.1924585,
          0.10998215,
          0.08013527,
          -0.12777309,
          -0.28600422,
          -0.0036070016,
          0.075936735,
          0.22295178,
          -0.29806483,
          -0.14732118
        ],
        [
          -0.013880616,
          -0.019673292,
          -0.02356702,
          0.026068192,
          -0.12780571,
          -0.027571758,
          -0.020097466,
          -0.029821666,
          -0.017856378,
          0.23332433,
          -0.057074837,
          0.017115926,
          0.05232736,
          -0.24761909,
          0.045391828,
          -0.053283513
        ],
        [
          0.008558041,
          -0.21151862,
          -0.04309598,
          -0.011098672,
          0.027055057,
          0.072972685,
          -0.02953035,
          0.13833462,
          0.04506938,
          -0.37915567,
          -0.61591303,
          -0.024789182,
          -0.14594167,
          -0.039199192,
          -0.03668372,
          -0.2013751
        ],
        [
          0.2433574,
          -0.035424035,
          -0.029389156,
          0.004214631,
          -0.014803249,
          0.09610934,
          -0.076587684,
          -0.073491804,
          -0.21398851,
          -0.26649615,
          0.07410238,
          -0.029618613,
          0.1648658,
          -0.09381262,
          -0.10541217,
          -0.049416702
        ],
        [
          -0.12887411,
          -0.18218644,
          0.030483587,
          -0.11603663,
          -0.4097556,
          0.017360797,
          0.1357793,
          -0.049522433,
          -0.26425844,
          0.24681437,
          -0.015934857,
          -0.19626917,
          0.021380283,
          -0.21739644,
          -0.2311431,
          -0.17934029
        ],
        [
          -0.15671965,
          -0.01855842,
          0.028197698,
          -0.21919776,
          0.040531117,
          0.08181088,
          -0.18252286,
          -0.10697753,
          0.27268738,
          -0.89595175,
          -0.17610946,
          -0.15344599,
          0.10164018,
          0.3434616,
          0.047377326,
          -0.18828213
        ],
        [
          0.36152264,
          -0.12757258,
          0.08972511,
          0.07258822,
          0.020812808,
          0.050416924,
          -0.19582528,
          0.095761605,
          0.27636838,
          -0.15022507,
          -0.1834206,
          -0.022253875,
          -0.05423347,
          0.0023113892,
          0.17508198,
          -0.08467876
        ],
        [
          -0.101591095,
          -0.15124069,
          -0.13352095,
          0.06408736,
          -0.03907318,
          -0.0067641246,
          -0.12144843,
          0.15186858,
          -0.26708874,
          0.07710691,
          0.23020224,
          -0.083364435,
          -0.26697677,
          -0.027559528,
          -0.32968032,
          0.017660502
        ],
        [
          0.37174362,
          -0.2954673,
          0.021124674,
          0.019074704,
          -0.5533177,
          0.1479149,
          0.034087606,
          -0.025689077,
          -0.25837123,
          0.116232224,
          -0.105567954,
          -0.20869885,
          0.10420155,
          -0.33729255,
          -0.37161672,
          -0.5117436
        ],
        [
          0.17435683,
          -0.07837563,
          -0.053217918,
          -0.10946763,
          -0.085883364,
          0.12601437,
          0.0074404133,
          -0.10251355,
          -0.44638002,
          0.15211323,
          0.14873251,
          0.058555275,
          -0.094095506,
          -0.34829545,
          -0.5876169,
          -0.38702735
        ],
        [
          0.1591273,
          -0.27201432,
          -0.033309285,
          0.012119676,
          -0.40249363,
          0.040868573,
          -0.028131478,
          0.17259523,
          -0.31330672,
          0.37111232,
          0.16676822,
          -0.03548892,
          -0.08733084,
          -0.12231855,
          -0.64104646,
          -0.11180445
        ],
        [
          -0.40029186,
          -0.0021013825,
          -0.004271506,
          -0.08029537,
          0.13787393,
          0.10708223,
          -0.062234238,
          -0.09029704,
          -0.21808776,
          -0.37362826,
          -0.57167697,
          -0.054822583,
          0.10054284,
          -0.32506928,
          0.30393568,
          -0.22844392
        ],
        [
          0.41801274,
          -0.23876087,
          -0.09295257,
          0.038989864,
          0.112042114,
          0.2692673,
          -0.06779736,
          0.05454433,
          0.13454579,
          -0.23305489,
          -0.022459242,
          -0.018263305,
          0.10257323,
          0.11822817,
          -0.03519117,
          0.031879053
        ],
        [
          -0.031886254,
          -0.026186375,
          -0.025648406,
          -0.18889162,
          0.22605728,
          0.050828926,
          0.08148083,
          0.14125131,
          -0.2912672,
          -0.037581835,
          0.16475487,
          -0.034794606,
          0.09599612,
          -0.05182391,
          0.14996687,
          0.027693037
        ],
        [
          -0.4234153,
          0.016670922,
          -0.007773357,
          0.1757017,
          0.46542972,
          0.13265634,
          0.0059981323,
          0.12874681,
          0.03963719,
          -0.30833092,
          0.08296395,
          -0.0008372456,
          0.092080094,
          0.005821377,
          0.423109,
          0.37909555
        ],
        [
          -0.25052345,
          0.07505478,
          -0.025472743,
          -0.112495184,
          0.2878346,
          0.12481156,
          -0.044951253,
          0.05313321,
          0.13289678,
          -0.005156947,
          -0.40234944,
          -0.06883815,
          0.08898367,
          -0.004553026,
          0.43906105,
          0.19363955
        ],
        [
          -0.36097637,
          -0.14831582,
          0.07369979,
          0.049066942,
          -0.09220969,
          0.18742086,
          0.015310824,
          -0.027558764,
          0.24138814,
          -0.20950404,
          -0.13745475,
          0.24891408,
          0.044050552,
          0.67685145,
          0.00294145,
          0.05421285
        ],
        [
          -0.07762261,
          -0.21009867,
          -0.04578022,
          0.017839367,
          -0.020723732,
          0.3536581,
          -0.009647311,
          0.04447904,
          -0.029261744,
          -0.29488358,
          -0.105904296,
          0.01639274,
          -0.15860482,
          0.115574755,
          -0.014313003,
          -0.02570079
        ],
        [
          -0.17755577,
          -0.04194219,
          0.10306368,
          -0.031759337,
          -0.1528193,
          0.06590763,
          0.12926929,
          -0.16093071,
          0.02344157,
          -0.38209993,
          -0.19969225,
          0.02694751,
          0.20666552,
          -0.1411225,
          0.04671873,
          -0.12633774
        ],
        [
          -0.12519759,
          -0.06942484,
          0.058520965,
          0.12798485,
          -0.16167545,
          0.035573304,
          -0.09914659,
          -0.044788927,
          -0.16728926,
          -0.071857855,
          -0.77082205,
          0.012758287,
          -0.043193497,
          -0.40206328,
          0.025392761,
          -0.35416397
        ],
        [
          -0.37095526,
          0.04610811,
          0.067616865,
          -0.0366977,
          -0.10327298,
          0.016736062,
          0.18868378,
          -0.029693723,
          0.0024533488,
          0.19343317,
          -0.33838838,
          -0.09911956,
          0.026162567,
          -0.37088007,
          -0.12215054,
          -0.026216406
        ],
        [
          -0.44728798,
          -0.0052987128,
          0.02845702,
          0.055662803,
          -0.053931423,
          0.027931476,
          0.035111044,
          0.0062433975,
          -0.30014142,
          -0.050689653,
          -0.20723669,
          -0.18121606,
          -0.06090769,
          -0.116009556,
          -0.06412626,
          0.09927376
        ],
        [
          -0.27857035,
          -0.031490788,
          0.03004341,
          -0.19885017,
          -0.1249377,
          0.10054057,
          0.114560015,
          0.05992057,
          -0.07344535,
          0.0021652358,
          -0.38574892,
          -0.11752971,
          -0.0445156,
          -0.18266527,
          0.062138483,
          0.09554835
        ],
        [
          -0.11092877,
          -0.06557236,
          -0.008482036,
          -0.0687174,
          0.2713909,
          -0.07580061,
          0.11478918,
          0.087748274,
          0.18111315,
          0.048332587,
          -0.24904038,
          0.06291996,
          0.086797066,
          0.23004816,
          0.37497273,
          0.2494973
        ],
        [
          -0.027901445,
          0.1942451,
          -0.13191727,
          -0.042243876,
          -0.017644005,
          -0.045181505,
          0.056022573,
          0.16075304,
          -0.08293372,
          -0.32154524,
          -0.22101979,
          -0.18345186,
          0.084993415,
          0.113984466,
          0.07361909,
          0.0029650033
        ],
        [
          -0.4567074,
          0.036600493,
          0.038456943,
          -0.09904359,
          -0.1541816,
          0.09055692,
          0.09635147,
          0.064210474,
          -0.29692072,
          0.21642256,
          -0.2887197,
          -0.07939337,
          0.03635042,
          -0.36252922,
          -0.071131036,
          -0.27682334
        ],
        [
          -0.08619411,
          -0.09175173,
          -0.027350264,
          0.015063214,
          -0.25343737,
          -0.06373639,
          0.10164108,
          0.3002685,
          -0.3192487,
          0.19746163,
          -0.20072585,
          0.061173692,
          0.11393607,
          -0.26191443,
          -0.20532757,
          -0.18951516
        ],
        [
          0.43758774,
          -0.09482995,
          -0.077959046,
          -0.13677637,
          -0.08267975,
          -0.015769953,
          0.12493132,
          0.09754307,
          -0.09774902,
          -0.12893753,
          -0.065040596,
          -0.28129482,
          -0.021326065,
          -0.21395804,
          -0.14838925,
          0.1232127
        ],
        [
          0.17983106,
          0.03161347,
          0.021622874,
          -0.16552117,
          -0.2036224,
          0.0006449386,
          0.1723006,
          0.40032208,
          -0.14027856,
          0.20263514,
          0.17551653,
          -0.23161341,
          0.07182759,
          -0.31989765,
          -0.38719842,
          0.19244501
        ],
        [
          0.09536968,
          -0.22463778,
          0.07903127,
          -0.1084512,
          -0.38655475,
          0.24810879,
          -0.14174302,
          0.21462947,
          0.05878009,
          -0.3712488,
          0.06901915,
          0.1398815,
          0.059779447,
          0.1424222,
          -0.12288067,
          0.061691083
        ],
        [
          -0.09633276,
          -0.2168098,
          0.14653558,
          -0.06341856,
          -0.14919186,
          0.10914302,
          -0.07951708,
          0.30516595,
          0.4836626,
          -0.04128539,
          -0.3051106,
          0.15103996,
          -0.111830026,
          0.54442674,
          -0.13934082,
          -0.2863661
        ],
        [
          -0.09592729,
          -0.048159286,
          0.17024648,
          0.03192237,
          -0.56297916,
          0.076517574,
          -0.0515886,
          0.29002374,
          0.13873273,
          0.14273898,
          -0.22056426,
          0.08967057,
          0.24488904,
          -0.26353425,
          -0.2746809,
          -0.07528743
        ],
        [
          0.18407813,
          -0.1261674,
          0.01872809,
          -0.05246615,
          0.043557703,
          -0.045975357,
          -0.012071764,
          -0.01088796,
          -0.10730076,
          0.18648359,
          0.27535886,
          -0.0030765806,
          -0.2353331,
          0.21177973,
          -0.24953924,
          -0.01728226
        ],
        [
          0.033147156,
          -0.06353926,
          0.033438787,
          -0.04086858,
          0.14015397,
          -0.00418086,
          -0.14131325,
          0.18916729,
          -0.0368861,
          -0.5146774,
          0.20000784,
          -0.037377723,
          0.03903294,
          0.17332454,
          0.13822338,
          0.31484848
        ],
        [
          -0.38466373,
          0.0073463684,
          0.037877433,
          -0.0604303,
          -0.55181724,
          0.1503513,
          -0.098292045,
          0.23936264,
          -0.12323828,
          0.60526264,
          0.27216935,
          -0.06968139,
          0.04678981,
          -0.27768132,
          -0.38603473,
          -0.42397782
        ],
        [
          -0.36144027,
          0.0565364,
          -0.19286974,
          -0.010561534,
          0.009130101,
          0.022022063,
          -0.04427597,
          0.012326475,
          -0.2800195,
          -0.40120295,
          -0.19510654,
          -0.20710687,
          0.031567793,
          -0.29249582,
          0.097823486,
          -0.25354335
        ],
        [
          0.2884642,
          0.0030222798,
          -0.07368248,
          -0.29580864,
          -0.24295536,
          -0.16982536,
          -0.055363968,
          0.10934417,
          -0.04996506,
          0.11729837,
          0.117458135,
          0.07477439,
          0.027973223,
          0.0051506893,
          -0.28443083,
          -0.0747198
        ],
        [
          -0.010712566,
          0.17991817,
          0.03825245,
          -0.118735015,
          -0.17078827,
          0.04494939,
          0.10043401,
          0.045706086,
          -0.2619145,
          -0.031086331,
          -0.19595933,
          0.13901825,
          -0.06076949,
          -0.2108923,
          -0.012930373,
          0.03456014
        ],
        [
          0.4860501,
          -0.03768913,
          0.018314086,
          -0.15128273,
          0.17879078,
          0.10070506,
          0.008890273,
          0.04275055,
          0.025591668,
          -0.19905105,
          -0.058364812,
          -0.07524022,
          0.04436355,
          -0.004091102,
          -0.017775124,
          0.13278559
        ],
        [
          0.2075209,
          -0.2729007,
          -0.054757312,
          -0.0050842767,
          -0.059429236,
          -0.080678314,
          0.11009273,
          0.14801861,
          0.0034383254,
          0.21872187,
          0.31855425,
          -0.124059655,
          0.005094906,
          0.14983076,
          -0.040230475,
          -0.057547223
        ],
        [
          -0.038423784,
          -0.05393782,
          -0.08619644,
          0.13808575,
          0.19669491,
          -0.014170381,
          0.020775728,
          0.30476955,
          -0.11847267,
          -0.16081977,
          -0.08814289,
          -0.049705643,
          -0.0012260274,
          -0.34733197,
          0.17868571,
          -0.30931544
        ],
        [
          -0.30289552,
          -0.061749004,
          0.13552964,
          0.057770003,
          -0.24406312,
          0.14228997,
          0.015716603,
          -0.04834031,
          -0.1539654,
          -0.00324263,
          -0.12108061,
          -0.08785853,
          0.097053856,
          -0.15501149,
          -0.22479533,
          -0.10682508
        ],
        [
          0.23553939,
          0.20433852,
          0.16698256,
          -0.084758036,
          -0.26841992,
          0.09965114,
          0.1072054,
          0.14725536,
          -0.4254294,
          -0.30960733,
          -0.042015217,
          -0.1525863,
          0.15519607,
          -0.539381,
          -0.05345868,
          -0.06963008
        ],
        [
          0.007740888,
          -0.04090664,
          0.124468684,
          -0.038242802,
          -0.2259416,
          0.041034896,
          -0.058723897,
          0.3349591,
          -0.14114903,
          -0.07448796,
          -0.13474701,
          0.026976524,
          -0.01545818,
          -0.21396285,
          -0.24193445,
          -0.1351155
        ],
        [
          -0.6822043,
          -0.10258702,
          0.06435948,
          -0.043460082,
          -0.074178815,
          -0.054628048,
          0.12496593,
          0.11826454,
          -0.13915576,
          -0.26034516,
          -0.04196539,
          -0.05423598,
          0.11786887,
          -0.17937005,
          -0.011983306,
          0.020422295
        ],
        [
          0.20211866,
          -0.18886513,
          0.083774894,
          0.1200884,
          -0.24130823,
          0.048481543,
          -0.06854733,
          -0.14100772,
          0.0018594242,
          -0.7178703,
          -0.4606543,
          0.18989193,
          0.22218114,
          0.10817284,
          -0.039572056,
          -0.11443706
        ],
        [
          0.5434074,
          -0.0071084937,
          0.01793123,
          0.025948783,
          0.047338426,
          0.16136327,
          -0.0102490485,
          -0.13177224,
          -0.08269009,
          -0.68408436,
          -0.5160961,
          0.07225299,
          -0.0011593807,
          -0.006787322,
          0.121127956,
          -0.091868825
        ],
        [
          0.5223339,
          0.49913946,
          -0.19384107,
          -0.048644554,
          -0.5917773,
          -0.03839272,
          -0.10358412,
          0.06434671,
          -0.40528637,
          0.77884996,
          1.1615981,
          -0.3280428,
          0.04756127,
          -0.033636574,
          -0.6366965,
          0.410332
        ],
        [
          0.28738683,
          0.09923644,
          -0.11749981,
          0.08766678,
          -0.37738854,
          -0.031971358,
          -0.016377632,
          -0.045734692,
          -0.2528183,
          0.47262204,
          0.7728656,
          -0.17849231,
          -0.056541886,
          -0.216462,
          -0.10872422,
          -0.018885436
        ],
        [
          0.032391574,
          0.087881126,
          0.022938753,
          0.10479286,
          -0.10569231,
          -0.08361619,
          -0.04878027,
          -0.10406456,
          -0.40901384,
          0.5678589,
          0.56910276,
          -0.25821215,
          -0.02328665,
          0.31410974,
          -0.2981027,
          0.10380034
        ],
        [
          0.089688905,
          -0.093279235,
          -0.034254953,
          0.0031431708,
          -0.022894133,
          -0.038859233,
          -0.13542385,
          0.03757679,
          0.19785154,
          0.16667496,
          0.64151645,
          0.07088094,
          -0.14384548,
          0.38447443,
          -0.36660936,
          0.16663498
        ],
        [
          0.5256691,
          0.10663597,
          -0.08078581,
          -0.027522037,
          -0.22386977,
          0.10712909,
          -0.01710729,
          0.2349416,
          -0.1739725,
          0.17573313,
          -0.039575666,
          0.109537974,
          -0.18808535,
          -0.20481472,
          -0.12422836,
          -0.3558258
        ],
        [
          -0.14236026,
          0.13822421,
          -0.017512701,
          -0.05637598,
          0.055182956,
          0.046464853,
          -0.069723666,
          -0.019680368,
          0.17407489,
          -0.48331103,
          -0.34432945,
          -0.09195138,
          -0.123728395,
          0.19899803,
          0.21042413,
          0.18094626
        ],
        [
          -0.1300207,
          -0.3970382,
          0.041819982,
          0.08273991,
          -0.028833134,
          0.0238895,
          -0.00080341956,
          -0.23956938,
          0.3014274,
          -0.10184974,
          -0.94699013,
          -0.06784179,
          0.023754843,
          0.61155146,
          -0.056798615,
          -0.1876984
        ],
        [
          -0.28119996,
          -0.079996295,
          0.12262263,
          0.4671055,
          0.100974075,
          0.13416532,
          -0.08799911,
          -0.015486746,
          -0.39073285,
          -0.49570176,
          -1.3143886,
          0.16735698,
          0.17500876,
          -0.11165046,
          0.14290708,
          -0.13582861
        ],
        [
          -0.02571094,
          0.14851965,
          0.075070985,
          0.100559264,
          -0.13469759,
          0.1994859,
          0.10508472,
          -0.00763928,
          0.089027815,
          -0.58895975,
          -0.4596566,
          -0.19537322,
          0.01223104,
          0.10045581,
          -0.060431637,
          0.2902819
        ],
        [
          0.07707199,
          -0.011154025,
          -0.04504282,
          -0.10096338,
          -0.20939803,
          0.17145906,
          0.004888821,
          -0.054498725,
          -0.15054435,
          -0.15547782,
          -0.24447057,
          -0.17514706,
          0.06814043,
          -0.30556536,
          -0.1467326,
          -0.036819384
        ],
        [
          -0.01661808,
          0.0674302,
          -0.057117805,
          -0.07063713,
          -0.17973857,
          0.1353885,
          0.02300684,
          0.1700987,
          -0.13974649,
          0.2589778,
          0.0026146497,
          -0.18598829,
          0.10936565,
          -0.27011412,
          -0.11967788,
          0.053565055
        ],
        [
          -0.0055283858,
          -0.1883168,
          -0.045384437,
          -0.016064638,
          0.10760592,
          0.23970896,
          -0.00501491,
          -0.1086551,
          -0.12671375,
          -0.42792335,
          0.00959157,
          0.0748635,
          0.08021894,
          0.06545598,
          -0.040260762,
          -0.16702671
        ],
        [
          0.14450614,
          -0.13126767,
          0.0114454655,
          -0.018736072,
          0.21711832,
          0.16443819,
          -0.02451636,
          -0.04391885,
          0.13714477,
          -0.58960205,
          -1.2035904,
          0.06377151,
          -0.04838831,
          -0.1602046,
          0.49860713,
          0.12995611
        ],
        [
          -0.03856601,
          -0.048744414,
          -0.004187481,
          -0.039638646,
          0.0629704,
          0.30294734,
          0.010999777,
          0.18974909,
          0.09044911,
          -0.16262932,
          -0.056402437,
          0.0262711,
          0.049697135,
          0.120693326,
          -0.13366838,
          -0.04989733
        ],
        [
          0.07279757,
          -0.14612734,
          -0.14009076,
          -0.08687952,
          0.13005704,
          0.18667984,
          0.15349501,
          0.06806761,
          -0.14350057,
          -0.09896745,
          0.047572955,
          -0.02679077,
          0.18776967,
          -0.023759827,
          0.13509865,
          -0.029626695
        ],
        [
          -0.05813168,
          -0.14050679,
          0.038258627,
          -0.03562652,
          -0.11641216,
          0.3151807,
          0.069940984,
          0.25725576,
          0.06836789,
          -0.2730366,
          0.05985383,
          -0.030717228,
          -0.121213265,
          0.19882718,
          -0.21461615,
          0.10166368
        ],
        [
          -0.008328296,
          0.054561425,
          0.07560479,
          -0.06778329,
          0.056844164,
          0.1524186,
          0.09049124,
          0.15666664,
          -0.32131407,
          -0.3552287,
          0.04598473,
          0.017942285,
          0.15966763,
          -0.06278937,
          0.15341015,
          -0.06529127
        ],
        [
          -0.074424855,
          -0.09729345,
          0.086046904,
          -0.0758264,
          -0.020090288,
          0.026048591,
          -0.082035735,
          -0.012299728,
          -0.17933495,
          0.0024741683,
          -0.090466395,
          -0.10581681,
          0.0529941,
          0.0061343615,
          -0.04011991,
          -0.057142764
        ],
        [
          -0.09548048,
          -0.14534739,
          -0.037636116,
          -0.06424914,
          -0.1417833,
          0.05392347,
          -0.067185916,
          0.12628706,
          -0.05496973,
          -0.031312577,
          -0.08681619,
          -0.012980116,
          0.0962016,
          -0.10827989,
          -0.16727243,
          -0.19530602
        ],
        [
          -0.07821334,
          -0.036828656,
          -0.058645733,
          -0.021494068,
          -0.11034391,
          0.1651135,
          -0.063613296,
          0.17773877,
          0.022367941,
          -0.011073042,
          -0.18961675,
          -0.049135897,
          -0.0136401085,
          -0.15765528,
          -0.09210929,
          -0.09601247
        ],
        [
          -0.12568472,
          -0.02426891,
          0.086136505,
          0.05452337,
          -0.116906464,
          0.12544559,
          -0.059104253,
          0.058079153,
          -0.12967505,
          -0.06987194,
          -0.16700347,
          -0.050216313,
          0.122513495,
          -0.10655042,
          -0.15922205,
          -0.17805792
        ],
        [
          0.046455633,
          -0.16924623,
          -0.037480664,
          -0.08545999,
          0.023477096,
          0.008871045,
          0.17521456,
          -0.039361857,
          -0.44894582,
          -0.34199366,
          -0.21192431,
          0.27654,
          0.034863673,
          -0.22605135,
          -0.16423464,
          0.0045380373
        ],
        [
          -0.12383624,
          -0.0674672,
          0.023772033,
          -0.07644357,
          -0.22772108,
          0.19488713,
          9.4645475E-05,
          0.15752792,
          0.052617706,
          -0.09996698,
          -0.15030462,
          -0.022988077,
          0.019235337,
          -0.07032415,
          -0.18647298,
          -0.07533529
        ],
        [
          -0.90799487,
          0.007910407,
          0.11158914,
          -0.07365475,
          0.111541696,
          0.026395157,
          -0.011864232,
          0.21111244,
          -0.19217029,
          -0.43657646,
          -0.057887573,
          -0.17868496,
          -0.097998366,
          -0.43530673,
          -0.010476056,
          -0.35352278
        ],
        [
          -1.0051025,
          -0.048165444,
          0.082784586,
          -0.031502414,
          -0.097777374,
          0.22058812,
          -0.069161855,
          0.10011829,
          -0.4800222,
          -0.2518489,
          -0.42430606,
          -0.112050325,
          -0.0060054767,
          -0.77107054,
          0.29632813,
          -0.26083854
        ],
        [
          -0.56441784,
          -0.1786497,
          0.107273996,
          -0.040538497,
          -0.21796781,
          0.2554935,
          -0.041822497,
          0.26611662,
          -0.24949764,
          -0.6543461,
          -0.16676436,
          0.02930237,
          0.062075216,
          -0.06496416,
          -0.20784053,
          -0.11346238
        ],
        [
          -0.32597518,
          0.2656184,
          0.12193651,
          0.34884107,
          -0.25392646,
          -0.05236746,
          0.42064652,
          -5.711845E-06,
          0.30826795,
          0.2853838,
          -0.06915197,
          0.13163623,
          -0.3937874,
          -0.0027649498,
          -0.23164694,
          0.28313607
        ],
        [
          -0.0460096,
          -0.064700045,
          0.03654339,
          -0.12627296,
          -0.0035831623,
          0.10193015,
          -0.07906997,
          0.0014915264,
          -0.17919286,
          -0.06269047,
          -0.12010601,
          -0.037660375,
          0.03452087,
          -0.014615063,
          -0.04964385,
          -0.12566334
        ],
        [
          0.045805335,
          -0.03329927,
          0.04603573,
          0.027455062,
          -0.16060466,
          -0.034603693,
          -0.07822983,
          0.17802475,
          -0.17144628,
          -0.16272028,
          -0.015960908,
          -0.08465585,
          -0.07233384,
          -0.008258904,
          -0.0042375396,
          -0.16689034
        ],
        [
          -0.08515846,
          -0.17023912,
          0.021581208,
          -0.05961176,
          -0.011956653,
          0.017460292,
          0.058318872,
          0.15858807,
          -0.11426219,
          -0.06817118,
          -0.09038684,
          -0.043777708,
          -0.03461932,
          0.0031714602,
          -0.1397263,
          -0.09377009
        ],
        [
          0.038838223,
          -0.096168414,
          0.04785198,
          0.027168702,
          -0.00616274,
          0.1354522,
          -0.053176906,
          -0.009272958,
          -0.014506748,
          -0.037754588,
          -0.102446645,
          0.05488872,
          0.054161128,
          -0.10024186,
          -0.1828384,
          -0.017472114
        ],
        [
          0.10246978,
          -0.12696046,
          0.15628931,
          0.07399245,
          -0.28955916,
          0.007457816,
          0.028430184,
          0.038912445,
          0.1422194,
          -0.08761863,
          -0.14935707,
          -0.02811187,
          -0.0069613284,
          -0.069973,
          -0.23695694,
          0.025443442
        ],
        [
          0.23829852,
          0.008566878,
          0.15848376,
          -0.17409721,
          -0.35238105,
          0.21807817,
          0.025182538,
          0.3018537,
          0.18142097,
          -0.021829242,
          0.040650927,
          0.02111173,
          0.1945168,
          0.25343835,
          -0.23626238,
          0.28616434
        ],
        [
          -0.11743226,
          0.00011713408,
          0.09712373,
          -0.1546485,
          -0.13186675,
          -0.016503865,
          0.013663594,
          0.008557923,
          -0.14282648,
          0.3769425,
          -0.2776395,
          -0.048828814,
          -0.027126,
          -0.30100292,
          -0.20383547,
          -0.105805814
        ],
        [
          0.013392506,
          -0.07788913,
          0.027473507,
          -0.09236445,
          -0.3942514,
          -0.14130928,
          0.1270383,
          0.17790481,
          -0.19357058,
          0.34958687,
          0.2329336,
          0.0006589261,
          0.040245097,
          -0.09768624,
          -0.31811666,
          -0.118978225
        ],
        [
          0.20024109,
          -0.018576417,
          0.15398161,
          -0.06859723,
          -0.11881073,
          -0.054657962,
          0.34284833,
          0.17967637,
          0.024892325,
          0.09607549,
          0.11507957,
          -0.28561088,
          0.10556033,
          0.0417645,
          0.042508088,
          0.10428207
        ],
        [
          0.016232643,
          -0.3580267,
          0.103376456,
          -0.040735997,
          -0.2501061,
          0.0034241027,
          -0.032083496,
          0.17263491,
          0.09286624,
          -0.3048973,
          -0.068423204,
          0.058469262,
          -0.05331781,
          0.19013119,
          -0.30554694,
          -0.17514543
        ],
        [
          -0.064350225,
          0.03931794,
          -0.020176332,
          0.12689526,
          -0.19173427,
          0.024747094,
          0.15419184,
          0.22631617,
          -0.1729319,
          0.035291575,
          0.0368471,
          -0.1912828,
          0.014975139,
          -0.5023764,
          -0.24355744,
          -0.054670487
        ],
        [
          -0.2678104,
          -0.120444044,
          0.033529513,
          0.08214615,
          0.0044675968,
          -0.0848721,
          0.1537801,
          0.10277423,
          0.031580545,
          0.48199987,
          0.01151508,
          -0.022199122,
          0.05179336,
          -0.3261755,
          -0.09617694,
          -0.1457687
        ],
        [
          0.13420427,
          -0.15146604,
          0.15634918,
          0.072465114,
          0.04114924,
          0.024109354,
          0.08370192,
          0.06190355,
          0.097174086,
          0.1692193,
          -0.11176134,
          0.21180755,
          0.24823515,
          0.34024686,
          -0.2506723,
          0.21482831
        ],
        [
          -0.5298249,
          0.15221833,
          0.17271814,
          0.02110323,
          -0.6214402,
          -0.057192616,
          0.03535419,
          0.25162286,
          0.44149438,
          0.21209228,
          0.065192856,
          -0.09101379,
          0.32494414,
          -0.29842257,
          -0.14996046,
          -0.025199534
        ],
        [
          -0.43230844,
          0.13171588,
          0.0063265753,
          0.03537857,
          0.48492533,
          -0.074492775,
          0.02312858,
          0.081610784,
          -0.0025784923,
          0.2582328,
          0.4186587,
          0.021649405,
          0.19210488,
          -0.27661026,
          -0.020289687,
          0.034200117
        ],
        [
          -0.13483733,
          0.22458583,
          -0.11409966,
          -0.02769499,
          -0.16036037,
          -0.0152927125,
          0.113669574,
          0.18856443,
          -0.29339764,
          0.20887832,
          0.3829502,
          -0.13141139,
          0.054836415,
          -0.41041735,
          0.10407952,
          0.12163116
        ],
        [
          -0.45742616,
          0.20220587,
          -0.13185124,
          -0.12823035,
          0.72441584,
          0.06624185,
          0.00209444,
          0.15188193,
          -0.27919212,
          0.031134572,
          0.23669697,
          -0.076767266,
          -0.0114576705,
          0.13350382,
          0.39887193,
          -0.2937204
        ],
        [
          -0.11690227,
          0.11034439,
          0.03322448,
          -0.23436242,
          0.14333953,
          0.025625233,
          0.07861313,
          -0.1379045,
          0.12220163,
          0.3881248,
          1.2039101,
          -0.080074504,
          0.31689855,
          0.031875495,
          -0.06538562,
          0.20233482
        ],
        [
          0.38498765,
          -0.3405332,
          -0.077657774,
          0.1083029,
          -0.040362727,
          -0.2665268,
          0.15257339,
          0.028843405,
          0.63399196,
          0.10970539,
          -0.022946998,
          0.21429624,
          0.0822094,
          0.45901582,
          0.07013129,
          0.18486215
        ],
        [
          -0.6215854,
          0.22354531,
          -0.31179777,
          0.017378373,
          -0.011101015,
          -0.10380307,
          -0.17824048,
          0.009722213,
          0.32767463,
          -0.475211,
          -0.6373155,
          -0.20506051,
          0.030052807,
          -0.055964272,
          -0.10568713,
          0.39606845
        ],
        [
          0.7417035,
          -0.7387284,
          -0.20621714,
          0.18731822,
          1.0657977,
          -0.223982,
          -0.039820604,
          -0.063907444,
          0.4886287,
          -0.5155594,
          -0.01756735,
          -0.090574645,
          -0.24771202,
          0.9260911,
          0.24993731,
          0.5073027
        ],
        [
          -0.2799233,
          0.33232343,
          0.10512439,
          -0.012857436,
          0.059718292,
          0.11987221,
          0.12734342,
          -0.028486576,
          -0.6663412,
          -0.66646934,
          -0.866442,
          -0.18160234,
          -0.33818302,
          -0.31045452,
          0.21413516,
          0.033079598
        ],
        [
          -1.1592406,
          0.3319329,
          0.012748678,
          -0.35212606,
          0.47104108,
          -0.20427674,
          -0.060412332,
          -0.06539208,
          -0.40194705,
          -0.23418164,
          -1.2183379,
          -0.5715619,
          0.15241249,
          -0.8888988,
          0.6132269,
          -0.22331081
        ],
        [
          -1.291626,
          0.39121735,
          -0.057621293,
          -0.50854707,
          1.2183992,
          -0.26405722,
          0.35041183,
          -0.7184309,
          -1.5201836,
          -1.0827411,
          -1.9921703,
          -0.25262794,
          -0.23121698,
          -1.1817712,
          1.6461055,
          -1.0484649
        ],
        [
          0.710698,
          -0.81746453,
          -0.12316506,
          -0.41098535,
          0.35238865,
          0.1887616,
          -0.21887077,
          -0.36983675,
          0.6615306,
          1.047642,
          0.8807365,
          0.36492842,
          -0.3643287,
          0.6881373,
          -0.57403797,
          1.0257648
        ],
        [
          1.8951181,
          -0.8532785,
          -0.28731242,
          -0.007065333,
          0.50322163,
          0.5817738,
          -0.007287331,
          -0.022277016,
          1.2332236,
          -0.17277086,
          0.98443717,
          0.50435156,
          -0.027232604,
          1.0486634,
          -0.67629516,
          0.504375
        ],
        [
          0.07683355,
          -0.011775218,
          0.09398136,
          0.08938584,
          0.040393975,
          0.06860561,
          -0.047133084,
          0.046632525,
          0.044785883,
          -0.044992153,
          -0.0021838523,
          0.10962029,
          0.037682608,
          0.10155391,
          -0.024584373,
          0.1258771
        ],
        [
          0.7577575,
          -0.23240328,
          0.112673976,
          -0.10692177,
          0.3704968,
          0.0025236516,
          0.23199,
          -0.65427727,
          0.13178508,
          -0.467361,
          -0.77521604,
          0.17146887,
          -0.39249197,
          0.6191684,
          0.30176482,
          0.0048606438
        ],
        [
          1.1985999,
          -0.55468905,
          0.29522,
          0.3748254,
          -0.09399464,
          0.19906196,
          -0.0727033,
          0.33258843,
          1.1022553,
          0.037856888,
          0.030471794,
          0.47404885,
          -0.9174556,
          0.5123477,
          -0.1774277,
          0.20475176
        ],
        [
          0.37086,
          -0.5561632,
          -0.08957544,
          0.48512384,
          -0.882176,
          -0.19585724,
          -1.1563822,
          -0.08908069,
          0.026991103,
          0.65419966,
          0.3759676,
          0.53468156,
          0.2179373,
          0.00011297435,
          -1.1115185,
          -0.23523737
        ],
        [
          -0.25777957,
          -0.014914006,
          -0.42044535,
          -0.2018471,
          -0.09896622,
          -0.6148241,
          -0.030554634,
          -0.19974717,
          -0.19077282,
          0.8004861,
          0.067169935,
          -0.24551941,
          0.05288774,
          -0.17650928,
          0.19762905,
          -0.011001603
        ],
        [
          0.06277027,
          0.19041905,
          -0.0762204,
          -0.25057417,
          -0.108552426,
          -0.31113487,
          0.1749844,
          0.23860921,
          -0.13934891,
          0.45656526,
          0.45356876,
          -0.4252533,
          0.143115,
          -0.21952084,
          -0.056797545,
          0.3321788
        ],
        [
          -0.08602194,
          0.10402828,
          0.0024775187,
          -0.124875985,
          0.25411966,
          -0.026037872,
          -0.009886975,
          -0.13565181,
          -0.1778365,
          0.05171673,
          0.020289639,
          0.048924774,
          0.10818599,
          -0.15301397,
          0.014953611,
          0.0021363243
        ],
        [
          0.6281945,
          -0.37797767,
          0.0848984,
          0.39049578,
          0.19683743,
          0.06728773,
          -0.077419244,
          0.25025204,
          0.59731454,
          -0.41169763,
          -0.48826343,
          0.3932619,
          0.056980133,
          0.7595189,
          -0.27495494,
          -0.6406208
        ],
        [
          -0.0113318525,
          -0.62175,
          0.24253958,
          0.19521438,
          0.23043762,
          0.512485,
          -0.28215063,
          -0.22989869,
          -0.13577831,
          -0.41553745,
          -0.21606822,
          0.38498616,
          0.5412235,
          0.22037362,
          -0.09507767,
          -0.47335202
        ],
        [
          0.17883296,
          -0.61588645,
          0.8785037,
          0.14863762,
          -1.0946221,
          -0.366819,
          -0.5846919,
          -0.040095445,
          -0.23911527,
          0.12797485,
          0.4627349,
          0.29394248,
          0.27750042,
          0.71639484,
          -0.9629261,
          -0.41429004
        ],
        [
          -0.74410045,
          -0.11871467,
          0.093772806,
          0.041730255,
          0.4931185,
          -0.070648625,
          0.34145576,
          -0.5350497,
          -0.30693877,
          0.54179496,
          0.03167809,
          -0.3842368,
          0.116176195,
          -0.7349088,
          0.1916871,
          -0.22709009
        ],
        [
          -0.17387411,
          -0.6667374,
          -0.26147574,
          -0.30463243,
          -1.2347708,
          -0.05410061,
          -0.04109552,
          -0.3914271,
          0.17000811,
          -0.020529367,
          -0.23819807,
          0.36603224,
          0.027126243,
          -0.15347013,
          -0.50211185,
          -0.5120587
        ],
        [
          -0.78141797,
          1.2513916,
          0.24825634,
          -0.6568493,
          1.2536557,
          -0.012263234,
          0.31895465,
          -0.00032151357,
          -0.08939042,
          -0.35525563,
          -0.24358372,
          -0.89540464,
          0.46742752,
          -0.3672407,
          0.9079285,
          0.7267113
        ],
        [
          -0.13577327,
          0.15555766,
          0.09382026,
          0.12756732,
          0.62207717,
          0.09369671,
          0.27529252,
          0.09543257,
          0.01722367,
          -0.6772976,
          -0.69238245,
          0.027357548,
          -0.029414767,
          0.24005683,
          0.7699152,
          0.7723544
        ],
        [
          -1.3181591,
          0.47278392,
          0.1297514,
          -0.21060449,
          0.73084885,
          0.0913881,
          -0.16153513,
          -0.05271804,
          1.526048,
          -1.6794542,
          -1.7507374,
          -0.13233759,
          0.15323769,
          0.26373944,
          1.4182628,
          0.27847165
        ],
        [
          -0.5539908,
          0.44810107,
          0.16916637,
          -0.009907565,
          1.5217818,
          0.14435983,
          0.13227162,
          -0.44338083,
          0.5165223,
          -0.77386606,
          -0.4908191,
          -0.13124153,
          0.5163697,
          0.5795813,
          1.1744359,
          0.35336402
        ],
        [
          -0.114001974,
          0.05802108,
          0.09876189,
          0.033006866,
          0.044029336,
          -0.024294619,
          -0.047638394,
          0.0719967,
          0.08186883,
          -0.030587627,
          -0.10147902,
          0.10859117,
          0.053150576,
          0.05907357,
          -0.055222142,
          -0.05229278
        ],
        [
          -0.058739726,
          -0.051135417,
          0.075627364,
          -0.019323485,
          0.09642228,
          0.055069186,
          0.0970569,
          0.0007916918,
          -0.06595844,
          -0.047621306,
          0.029073045,
          -0.07745274,
          0.09904255,
          -0.111208886,
          0.11452738,
          -0.07303058
        ],
        [
          0.079357594,
          0.03326131,
          0.08272091,
          -0.039349973,
          -0.08550383,
          -0.039609857,
          -0.11027006,
          -0.006909102,
          0.027890954,
          0.03236111,
          0.07406154,
          -0.10421034,
          -0.015238976,
          0.00963995,
          0.0029794236,
          0.0039310213
        ],
        [
          -0.21129048,
          -0.27707738,
          -0.002163381,
          0.07988725,
          -0.23649967,
          0.21998101,
          0.25538304,
          -0.040167566,
          -0.032780666,
          -0.2176253,
          0.6497217,
          0.08939479,
          -0.0978044,
          0.243144,
          -0.06428761,
          0.30715784
        ],
        [
          0.36440206,
          0.36116058,
          0.04400893,
          0.1725651,
          0.060217325,
          -0.061486367,
          0.39413843,
          0.30366325,
          0.69936925,
          0.10678894,
          -0.057111736,
          -0.11702899,
          -0.032795116,
          0.16709842,
          0.02241352,
          0.9948003
        ],
        [
          -0.05413665,
          0.49134448,
          0.13192166,
          0.102149054,
          -0.49375463,
          -0.03206415,
          0.30971244,
          0.7412438,
          0.6723963,
          -0.36648685,
          -0.5872447,
          0.46693176,
          0.1968792,
          0.76475126,
          0.0475389,
          0.1340026
        ],
        [
          0.02650684,
          -0.0814264,
          -0.06822597,
          -0.07902862,
          -0.036207702,
          -0.096509404,
          0.066637255,
          -0.102750905,
          0.07940092,
          -0.069224365,
          0.025988124,
          0.04028082,
          0.004369639,
          -0.017791353,
          0.046677172,
          -0.11017147
        ],
        [
          0.07535696,
          -0.076271184,
          -0.086060844,
          0.092517965,
          0.00017642631,
          -0.09152139,
          0.06665042,
          -0.06585684,
          0.05903574,
          0.037479214,
          0.037968613,
          -0.06573965,
          -0.077678576,
          -0.028112499,
          -0.0020885083,
          0.06650973
        ],
        [
          -0.08672452,
          -0.07798314,
          0.067548275,
          0.005105683,
          0.028909447,
          0.024216538,
          -0.013689754,
          -0.059740983,
          -0.03160206,
          -0.091108024,
          0.018395443,
          0.09096919,
          -0.088808104,
          -0.076356724,
          0.011778167,
          0.06588581
        ],
        [
          0.2506461,
          0.6342151,
          0.030694643,
          -0.12270436,
          0.16166832,
          -0.02434705,
          0.10100672,
          0.03973947,
          -0.15633762,
          -0.16223052,
          0.047830425,
          -0.056228243,
          0.099108376,
          -0.03088437,
          0.082699664,
          0.6895094
        ],
        [
          -0.08731425,
          0.4704442,
          0.16008158,
          -0.06978406,
          0.26817256,
          0.1170288,
          0.29095885,
          -0.5434401,
          0.787675,
          -0.15150087,
          -0.5047038,
          0.11764555,
          -0.03628424,
          -0.03676876,
          0.60741574,
          0.15680873
        ],
        [
          0.08892471,
          0.38741434,
          -0.021997852,
          0.13543198,
          -0.029435918,
          0.049309295,
          -0.25243327,
          0.15839337,
          -0.3567048,
          -0.28827754,
          0.31213397,
          0.1617873,
          0.2822967,
          -0.12898579,
          0.027073827,
          -0.33408082
        ],
        [
          0.008849791,
          -0.09610433,
          -0.0517343,
          0.07484152,
          -0.021922054,
          -0.092693426,
          -0.09111084,
          -0.088126756,
          -0.0023013786,
          0.095684975,
          0.1092341,
          -0.03521002,
          0.10580346,
          -0.03340666,
          0.09901649,
          0.02871233
        ],
        [
          -0.046662617,
          0.040650215,
          0.022886543,
          -0.07217451,
          0.013508537,
          -0.1005384,
          -0.08189617,
          0.06294889,
          -0.03756286,
          -0.07140353,
          -0.03066561,
          0.0060096653,
          -0.02934816,
          0.033446554,
          -0.08058559,
          0.060362227
        ],
        [
          -0.02536967,
          0.0573587,
          0.065701276,
          -0.053813078,
          0.089455605,
          0.11443172,
          -0.06554765,
          -0.047694493,
          -0.018780183,
          0.0026953078,
          -0.053470533,
          0.04236029,
          0.11377901,
          0.060645666,
          -0.05357853,
          -0.0871073
        ],
        [
          0.72483516,
          -0.099336095,
          0.16076778,
          -0.27260256,
          -0.61610824,
          -0.24784938,
          -0.15518872,
          -0.38281932,
          -0.2949038,
          -0.36266723,
          -0.099312425,
          -0.18906814,
          -0.21960035,
          -0.13000858,
          -0.63790137,
          -0.5183184
        ],
        [
          -0.26615486,
          -0.73017275,
          0.025084773,
          0.3924188,
          -0.93159187,
          0.61567384,
          -0.47439352,
          -0.01742309,
          -0.11510652,
          -0.5607894,
          -0.3712637,
          0.39629883,
          0.42297268,
          0.21393344,
          -0.62698525,
          -0.63802755
        ],
        [
          0.116668925,
          -0.11185709,
          0.4443358,
          0.52783716,
          -0.1462577,
          0.27297142,
          -0.4024433,
          0.093365096,
          0.14095756,
          -0.5140651,
          -0.103762545,
          0.12732321,
          -0.15782596,
          0.41287452,
          -0.2176507,
          0.096030936
        ],
        [
          -0.026602434,
          -0.04656581,
          -0.066484764,
          -0.11278057,
          0.05498325,
          -0.0035995326,
          0.097250745,
          0.01115799,
          -0.03127132,
          -0.06767777,
          0.09908752,
          -0.08360915,
          0.11146309,
          -0.023962082,
          0.032757685,
          0.094121
        ],
        [
          0.078386694,
          0.080539964,
          0.106967404,
          0.0573254,
          -0.035325795,
          0.053256027,
          0.09909326,
          -0.021887429,
          0.053253464,
          0.07646557,
          0.08367601,
          -0.07387332,
          0.086718254,
          0.029650148,
          0.032365717,
          -0.019746944
        ],
        [
          -0.10550701,
          0.03447605,
          0.06949255,
          -0.1113081,
          -0.11137081,
          -0.027309444,
          0.08418329,
          -0.07881624,
          -0.015736455,
          0.085068,
          0.11298275,
          -0.07629172,
          -0.07774419,
          0.021987442,
          -0.04377353,
          0.014815079
        ],
        [
          0.44386017,
          0.2623062,
          -0.18881959,
          -0.11524907,
          -0.5522194,
          0.0664299,
          0.03165201,
          0.20223415,
          -0.1724638,
          0.24332505,
          0.69082004,
          -0.31022072,
          -0.087842576,
          -0.15897252,
          -0.48187315,
          -0.24727432
        ],
        [
          -0.08366656,
          0.39602962,
          0.17691122,
          0.69204444,
          -0.66022325,
          -0.5355657,
          0.4220357,
          -0.2581138,
          0.22693723,
          0.056888185,
          0.5593674,
          0.37348855,
          0.21530263,
          0.7424643,
          -0.6954168,
          0.059930306
        ],
        [
          0.24097183,
          0.47488093,
          0.33698782,
          0.01186091,
          0.26408103,
          -0.20518312,
          0.42885557,
          -0.0030919749,
          0.043509465,
          0.046619255,
          0.62151116,
          0.103797995,
          0.29539216,
          -0.27676955,
          0.4383878,
          0.36516502
        ],
        [
          -0.21132639,
          0.68345994,
          0.13327405,
          0.0589063,
          -0.047481567,
          0.33923212,
          0.16419403,
          -0.28739017,
          -0.11811897,
          -0.20094171,
          0.057562284,
          -0.18879072,
          -0.23616764,
          0.016891835,
          6.603713E-05,
          0.15856254
        ],
        [
          -0.39100832,
          0.33001992,
          -0.5116432,
          -0.035439402,
          0.055288605,
          -0.03931145,
          0.17445113,
          -0.043249246,
          -0.21662204,
          0.0880915,
          -0.018844888,
          -0.10699114,
          -0.053060107,
          0.02539316,
          0.20245802,
          -0.14460759
        ],
        [
          -0.14788727,
          0.1812803,
          0.010223937,
          -0.06523662,
          -0.111756295,
          -0.24733005,
          0.28028554,
          -0.09016305,
          -0.23600788,
          0.49450833,
          0.59171885,
          0.07404116,
          0.0691548,
          0.19756725,
          -0.1786505,
          0.083446
        ],
        [
          -0.47842067,
          -0.80052,
          0.18300752,
          0.13395284,
          -0.08609373,
          -0.13124813,
          -0.22672935,
          -0.52300656,
          -0.3205099,
          0.53978294,
          -0.6913235,
          -0.10759045,
          -0.092312574,
          -0.1863139,
          -0.28771108,
          -1.4546531
        ],
        [
          -0.5998297,
          -0.27102515,
          0.034185153,
          -0.16729419,
          0.03484989,
          -0.03521212,
          -0.0962228,
          -0.4512327,
          -0.04648884,
          0.031369455,
          -0.26977685,
          0.09985038,
          -0.18925297,
          -0.29506254,
          0.23053336,
          -0.337882
        ],
        [
          0.00509477,
          0.031294957,
          -0.0514048,
          -0.06588566,
          -0.05736621,
          -0.0060084304,
          0.09716551,
          0.11115021,
