{
  "Layers": [
    {
      "_wInc": 1,
      "_wDec": 1,
      "_wNothing": 1773233728025,
      "EnableNNUE": true,
      "Weights": [
        [
          0.21132575,
          0.4439296,
          0.23614731,
          -0.17869401,
          0.755839,
          0.45648104,
          -0.9161411,
          -0.009957978,
          0.84966683,
          0.13965511,
          -0.069937706,
          0.65581703,
          -0.7224899,
          -0.41745088,
          -0.08583212,
          0.5287713
        ],
        [
          0.14289798,
          0.091003954,
          -0.32302457,
          -0.61428666,
          -0.10666438,
          -0.7260581,
          0.20740603,
          0.036016222,
          -0.4710912,
          0.1591969,
          -0.17693721,
          -0.068886206,
          -0.18782608,
          -0.0046795234,
          -0.006264582,
          -0.17464098
        ],
        [
          0.43830907,
          -0.08630581,
          -0.29760814,
          -0.7872416,
          -0.19661592,
          -0.69752365,
          0.36680868,
          -0.12681949,
          -0.3783309,
          0.49723676,
          -0.46045464,
          -0.42064172,
          -0.32420075,
          -0.30288467,
          -0.6607861,
          0.17626725
        ],
        [
          0.59664595,
          -0.07884598,
          -0.34367666,
          -0.9496454,
          -0.76740897,
          -0.9338006,
          0.39105603,
          -0.23092581,
          -0.24557035,
          0.31596905,
          -0.619626,
          -0.2931502,
          -0.76450735,
          -0.6928586,
          -0.40848535,
          0.16344501
        ],
        [
          -0.2229039,
          0.020881131,
          -0.521946,
          -0.38571805,
          0.26506206,
          -0.66212076,
          0.18813816,
          -0.19252159,
          0.023610443,
          0.20541413,
          -0.6237274,
          -0.2590163,
          -0.26928696,
          -0.56158817,
          -0.28472367,
          -0.03233126
        ],
        [
          0.057241876,
          -0.025244948,
          -0.8054115,
          -0.17725661,
          -0.16658577,
          -0.4681213,
          -0.38826564,
          0.08690792,
          -0.038870577,
          -0.5055157,
          0.35157588,
          -0.25411725,
          -0.0148885045,
          -0.2950679,
          0.23774417,
          -0.6625399
        ],
        [
          -0.09906919,
          0.18852943,
          -0.36420703,
          -0.2635261,
          0.07728653,
          -0.006617235,
          -0.08105326,
          -0.13359982,
          -0.08902712,
          -0.01186341,
          -0.27581748,
          -0.20515926,
          -0.0547033,
          -0.23600821,
          0.19040297,
          0.01588142
        ],
        [
          0.16466287,
          0.09065224,
          -0.29195893,
          -0.109542705,
          -0.010461199,
          -0.25308448,
          -0.28902242,
          0.113456085,
          -0.109016314,
          -0.016474796,
          -0.029994609,
          -0.10551796,
          0.021026136,
          0.044273343,
          0.06693579,
          -0.039186615
        ],
        [
          -3.014756,
          2.916398,
          1.1520605,
          -2.9267447,
          0.6315131,
          5.3399887,
          -1.4359915,
          -1.4966265,
          -1.243165,
          -0.34670198,
          2.5530121,
          -0.15661532,
          1.8720574,
          1.1996433,
          -3.2218122,
          -1.9080455
        ],
        [
          0.03281587,
          0.054580808,
          0.33883062,
          0.009512114,
          0.025364872,
          0.21709517,
          0.19342053,
          0.04376809,
          -0.10726955,
          -0.058001656,
          0.30123734,
          0.21486276,
          0.10141278,
          0.12049897,
          -0.07107585,
          0.13436818
        ],
        [
          -0.02024529,
          0.056487016,
          0.2133633,
          0.124636374,
          0.074053645,
          0.15596254,
          -0.11037068,
          0.05553787,
          0.06373274,
          -0.0527366,
          0.14050123,
          0.052581407,
          0.12225739,
          0.056618284,
          0.14470826,
          0.11186101
        ],
        [
          -0.2726582,
          0.27828923,
          0.20904297,
          0.2544173,
          0.097780846,
          0.90282494,
          -0.06888547,
          0.21398024,
          0.07800969,
          0.021163782,
          0.14862694,
          -0.17986909,
          0.26159528,
          0.2559554,
          0.003352121,
          -0.28128833
        ],
        [
          -0.17088154,
          0.015744621,
          0.08812785,
          0.20175953,
          0.065181665,
          0.3636368,
          0.100196786,
          0.1986263,
          0.10863694,
          -0.057653595,
          0.43376726,
          -0.031736366,
          -0.04223449,
          0.047493573,
          -0.13109532,
          -0.09314577
        ],
        [
          -0.15644938,
          -0.036594927,
          0.19622186,
          0.23383276,
          -0.025747709,
          0.4505043,
          0.0768977,
          -0.011064903,
          -0.092500396,
          -0.011629131,
          0.16066734,
          0.038779363,
          0.087574996,
          0.07664436,
          -0.087281756,
          -0.15448579
        ],
        [
          -0.16064662,
          -0.12072875,
          0.16839232,
          0.21917884,
          0.03284955,
          0.29068503,
          0.15019408,
          0.11490625,
          -0.046975918,
          0.0996029,
          0.26048416,
          -0.05171419,
          -0.083619975,
          0.011547701,
          -0.06773377,
          -0.09207423
        ],
        [
          -0.15016815,
          -0.057207152,
          0.110754326,
          0.24783696,
          -0.05483339,
          0.15921053,
          0.056806993,
          0.120303944,
          0.11984747,
          0.07000338,
          0.07514926,
          0.20801157,
          -0.11887983,
          -0.027314985,
          -0.08515953,
          0.028891217
        ],
        [
          -0.0835654,
          0.042428285,
          0.0784563,
          0.016857773,
          -0.059485003,
          0.06982381,
          0.23292246,
          0.13900343,
          -0.079948075,
          0.10810583,
          0.06713306,
          0.23154461,
          -0.04453646,
          0.0026371249,
          -0.07120875,
          0.016809471
        ],
        [
          -0.108784676,
          -0.019152356,
          0.12341378,
          0.13264097,
          0.09686551,
          0.12062056,
          0.00302227,
          -0.14410937,
          0.057785124,
          0.016552659,
          0.110046364,
          0.18166822,
          0.010445412,
          0.026047911,
          -0.13284135,
          -0.0087811705
        ],
        [
          0.04226617,
          0.12841392,
          0.12012108,
          0.123086296,
          0.0631238,
          0.15443689,
          0.12914225,
          0.19522884,
          0.06315256,
          0.03999536,
          0.19534148,
          0.16143468,
          0.03463414,
          0.08586961,
          -0.060824394,
          0.01848014
        ],
        [
          -0.05010463,
          -0.09186707,
          0.09133077,
          0.014825971,
          0.019916229,
          0.05406117,
          0.007226412,
          0.020137029,
          0.016756538,
          0.015016275,
          0.11304767,
          0.26639077,
          -0.0575877,
          -0.12945771,
          -0.09053104,
          0.0142765585
        ],
        [
          -0.07951231,
          -0.07965905,
          0.06754576,
          0.18586539,
          -0.041038275,
          0.17863277,
          0.0717006,
          -0.02253515,
          0.0038977019,
          -0.03965609,
          0.179612,
          0.16294679,
          -0.06948032,
          0.033854168,
          -0.18541324,
          -0.0771063
        ],
        [
          -0.15155047,
          0.11985453,
          0.10370585,
          0.18012743,
          -0.032379203,
          0.16671258,
          0.025245626,
          0.08381079,
          0.009759139,
          -0.028988818,
          0.023857286,
          0.22828671,
          0.036616098,
          -0.030325698,
          -0.04457123,
          -0.07666111
        ],
        [
          0.08175717,
          0.014833257,
          0.20507093,
          0.012110432,
          -0.006680515,
          0.2018606,
          0.028687712,
          0.13139524,
          0.109563194,
          0.084961094,
          0.0018502325,
          0.31497964,
          0.04893734,
          -0.08325091,
          -0.17418578,
          0.046874188
        ],
        [
          0.091660455,
          0.07291085,
          0.037601415,
          0.17836206,
          0.03203409,
          0.003424422,
          0.084324546,
          0.15407488,
          -0.022665713,
          0.03953519,
          -0.021332068,
          0.15190375,
          0.07060862,
          0.014246977,
          -0.20713776,
          0.010465525
        ],
        [
          -0.05302832,
          0.041760772,
          -0.03997099,
          0.019084059,
          -0.00893037,
          0.12521583,
          0.22095597,
          -0.049764913,
          0.011205528,
          0.03044591,
          0.0662198,
          0.20638299,
          0.09664401,
          -0.019393226,
          -0.23374239,
          0.13989118
        ],
        [
          0.13245678,
          -0.22433853,
          -0.14993322,
          0.3910865,
          -0.15208481,
          -0.19565642,
          0.2441403,
          0.021462912,
          0.15720044,
          -0.057839304,
          0.14701699,
          0.03156338,
          0.12319975,
          0.24229372,
          0.81939137,
          0.4384364
        ],
        [
          0.17704567,
          -0.08790868,
          0.10075648,
          0.17917119,
          0.016456466,
          -0.05983511,
          0.18535396,
          0.17668632,
          0.1715762,
          0.021219192,
          0.09167931,
          -0.014826691,
          -0.08586375,
          -0.13178845,
          0.14249432,
          -0.1901021
        ],
        [
          -0.0067899344,
          -0.17361468,
          0.11242774,
          0.18306653,
          -0.08858981,
          -0.12304322,
          0.124781854,
          0.16562347,
          -0.04499431,
          -0.026863748,
          0.095326506,
          0.02581768,
          -0.09755475,
          -0.116390884,
          0.051877283,
          0.03846331
        ],
        [
          0.020880051,
          -0.0048940335,
          0.18420796,
          -0.009140615,
          -0.073217,
          0.20452255,
          0.15934455,
          0.13576281,
          -0.008347318,
          0.20564811,
          0.18339331,
          -0.000543119,
          -0.14618878,
          -0.16865861,
          0.040016465,
          -0.09289642
        ],
        [
          -0.10905862,
          -0.087448336,
          0.14846225,
          0.120432384,
          -0.0027536934,
          0.23272371,
          0.060543347,
          0.0041751177,
          0.09758321,
          0.14538871,
          0.027324563,
          0.18138498,
          0.027683973,
          -0.08103588,
          -0.112855785,
          -0.10278988
        ],
        [
          0.06660582,
          -0.026091708,
          0.037194494,
          0.25813502,
          0.031283114,
          0.04695959,
          0.03981528,
          0.17916903,
          0.038083375,
          0.10463814,
          0.102878965,
          0.05468437,
          0.04499052,
          -0.05218971,
          0.05289548,
          0.033645816
        ],
        [
          0.11748347,
          -0.14428723,
          0.06982358,
          0.10273682,
          -0.08027988,
          0.21093702,
          0.16058412,
          0.13743794,
          -0.028471122,
          0.08365723,
          0.22476865,
          0.21563348,
          -0.06891488,
          -0.081793934,
          -0.13994479,
          -0.16422519
        ],
        [
          0.08481032,
          -0.04922989,
          0.17057697,
          0.23404141,
          -0.04199312,
          0.09998504,
          0.17207178,
          0.017955104,
          0.11028048,
          0.13244377,
          0.18538718,
          0.020052714,
          0.019801587,
          -0.21827671,
          0.018904585,
          0.026230544
        ],
        [
          -0.1093508,
          -0.0678279,
          -0.033839617,
          0.14285608,
          -0.118528195,
          0.062052496,
          0.026885845,
          0.017073404,
          0.037598267,
          0.12363006,
          0.18368734,
          0.16011429,
          0.07622836,
          -0.021244308,
          -0.021860197,
          0.0120389275
        ],
        [
          0.058348957,
          0.0016285414,
          0.024816435,
          0.110123195,
          0.035043463,
          0.081497155,
          0.046562638,
          0.10140157,
          0.121227376,
          0.004831058,
          0.105309,
          0.07845187,
          -0.04471847,
          -0.088459924,
          0.023288101,
          -0.09134683
        ],
        [
          0.13346377,
          -0.13655296,
          -0.018136512,
          0.048212808,
          -0.0011878351,
          0.27897903,
          0.16273516,
          0.1804252,
          0.0970413,
          0.005578962,
          0.103389435,
          0.061177593,
          -0.089390494,
          -0.10169369,
          -0.16076395,
          0.010488844
        ],
        [
          0.11871286,
          -0.16636863,
          -0.059380885,
          0.176143,
          -0.1167722,
          0.2276049,
          0.2133789,
          -0.036169823,
          0.15361358,
          0.07977929,
          0.14692132,
          0.09904374,
          0.048908595,
          -0.19877598,
          -0.21556926,
          -0.07659735
        ],
        [
          0.08383843,
          -0.069283135,
          0.059465766,
          0.05873772,
          -0.070548065,
          0.21755812,
          0.05539516,
          0.0077784406,
          0.120151095,
          0.26194796,
          0.086396895,
          0.13186702,
          0.044343013,
          -0.06824127,
          -0.20915097,
          -0.024853706
        ],
        [
          0.030981084,
          -0.16893071,
          -0.02519776,
          0.16041125,
          -0.06852131,
          0.1546506,
          -0.13861087,
          -0.022649696,
          -0.01755881,
          0.05406924,
          0.100070976,
          0.1608989,
          -0.009480575,
          -0.09594011,
          -0.13661757,
          -0.0001797101
        ],
        [
          0.558504,
          0.27748987,
          -0.47032106,
          0.7096695,
          0.015139574,
          -0.9047554,
          1.0193317,
          1.2375076,
          0.67759454,
          -0.022563346,
          -0.90145993,
          1.1833373,
          -0.16014753,
          -0.37694678,
          0.10561868,
          -0.72593546
        ],
        [
          0.49847943,
          -0.4411392,
          -0.4878395,
          0.4728136,
          -0.1315442,
          -0.269244,
          0.20752385,
          0.028437695,
          0.06810228,
          -0.20902763,
          -0.4061748,
          0.283262,
          0.20010643,
          -0.34959587,
          0.1410427,
          0.32826972
        ],
        [
          0.21088503,
          -0.5954108,
          -0.78410673,
          0.31846827,
          -0.20682484,
          0.032503236,
          0.1358798,
          0.41973275,
          0.61208373,
          -0.018826444,
          -0.26189342,
          0.22575767,
          -0.18831697,
          -0.21733008,
          -0.019683057,
          0.1151858
        ],
        [
          0.06191038,
          -0.33984587,
          0.02079375,
          0.20406915,
          0.03740208,
          0.36994702,
          0.21171139,
          0.007825687,
          0.18995577,
          -0.007385819,
          -0.043839205,
          0.19437394,
          0.05102538,
          -0.06432602,
          -0.26265886,
          0.20386735
        ],
        [
          -0.03286304,
          -0.19132833,
          0.1030155,
          0.15712897,
          -0.10860067,
          0.16636497,
          0.051815767,
          0.12722725,
          0.21520711,
          0.087031804,
          0.098606385,
          0.13256831,
          -0.043920163,
          -0.04373833,
          -0.27495667,
          -0.09570044
        ],
        [
          -0.028135438,
          -0.089510344,
          0.10716815,
          0.119416825,
          0.07442308,
          0.19568282,
          0.06922987,
          -0.0047971546,
          0.03698922,
          0.115988664,
          0.11257895,
          0.04895185,
          0.115471326,
          -0.16363609,
          -0.16725707,
          0.04449591
        ],
        [
          -0.020841025,
          -0.0039449297,
          -0.05764687,
          -0.10022364,
          0.35692975,
          0.0645478,
          0.40447795,
          0.13613507,
          0.009450505,
          0.041306593,
          0.20314981,
          0.094923995,
          0.051883567,
          -0.20887227,
          -0.5041277,
          -0.17583089
        ],
        [
          0.068738446,
          0.070825845,
          -0.3004855,
          0.24176258,
          0.55059826,
          0.57911617,
          0.20852207,
          0.014590484,
          0.26070833,
          0.2407564,
          -0.513456,
          0.43759695,
          0.05778854,
          0.15436374,
          -0.46837577,
          0.24669255
        ],
        [
          -0.14269145,
          -0.09034909,
          -0.16150278,
          0.06607271,
          0.24952888,
          0.5573522,
          0.4341307,
          0.021834178,
          0.21540193,
          0.61710066,
          -0.3483065,
          0.18805559,
          0.04005046,
          0.063917354,
          -0.7321428,
          0.1997747
        ],
        [
          -0.037396427,
          -0.3210872,
          -0.08408564,
          -0.077606164,
          0.04550141,
          0.23267293,
          0.28073773,
          0.08053787,
          0.067432664,
          0.051817518,
          -0.0052016834,
          0.09466419,
          -0.19710602,
          -0.33545253,
          -0.62945926,
          0.19934785
        ],
        [
          0.05238187,
          -0.19485721,
          0.116004154,
          0.04921334,
          -0.10074826,
          0.11113868,
          0.24696453,
          0.15203923,
          0.058744304,
          0.13300769,
          0.051440652,
          0.22896498,
          0.023036681,
          -0.109320536,
          -0.19879696,
          0.18977591
        ],
        [
          -0.03866395,
          -0.066986226,
          0.1456344,
          0.19496812,
          0.0009594162,
          0.08143223,
          0.105579935,
          0.09653817,
          0.03050138,
          0.11926871,
          -0.0006464091,
          0.12255789,
          0.11325153,
          0.05452751,
          -0.18692318,
          0.10167092
        ],
        [
          -0.09418505,
          0.49171323,
          -0.63552034,
          0.2098152,
          -0.011696503,
          -2.0772038,
          0.46864653,
          -0.038565688,
          -0.28821194,
          0.3092678,
          -0.08458897,
          0.33954525,
          0.22892436,
          -0.25600696,
          0.07053919,
          0.034593053
        ],
        [
          -0.7274095,
          0.516275,
          -0.049589504,
          1.1006781,
          -0.10633541,
          -1.7970203,
          1.2811381,
          0.40298104,
          -1.3241966,
          0.853915,
          -0.8520879,
          1.3484023,
          -0.19024989,
          0.26225552,
          0.14888376,
          0.39297056
        ],
        [
          0.03800582,
          -0.2635095,
          1.4815967,
          0.771907,
          -0.2095808,
          0.18556957,
          -0.029537076,
          -0.44554725,
          0.6293479,
          -1.1236275,
          1.0129156,
          -1.3765173,
          -0.6765926,
          0.9643319,
          -0.1773282,
          0.2187003
        ],
        [
          0.20969501,
          -0.014131606,
          0.3762222,
          -0.5031574,
          0.023771355,
          1.0212787,
          -0.72089344,
          0.19095474,
          -0.3347862,
          -0.5059057,
          0.0010307508,
          -0.13968913,
          0.03381032,
          0.12756853,
          0.060569152,
          0.16876006
        ],
        [
          0.61514586,
          0.36043072,
          -0.020323528,
          -0.10525131,
          -0.16707852,
          0.460453,
          -0.5332396,
          0.03742175,
          -0.7059133,
          0.09617646,
          -0.19454464,
          -0.2468918,
          0.019016692,
          0.20043309,
          0.34162012,
          -0.8363278
        ],
        [
          0.55245453,
          0.9810755,
          0.75203127,
          0.7908746,
          -0.32052588,
          0.29758388,
          -0.65611726,
          -0.13629708,
          -0.08886392,
          -0.07273645,
          -0.20975953,
          -0.5934181,
          -0.03419383,
          -1.0910597,
          0.90513474,
          -0.10276521
        ],
        [
          0.05053476,
          -0.13897225,
          -0.30043083,
          -0.04780076,
          0.28829777,
          -0.17005223,
          0.33781934,
          0.49747327,
          0.17175806,
          0.06758107,
          -0.18495464,
          -0.18066376,
          -0.2354637,
          -0.17526948,
          0.22575825,
          0.24130356
        ],
        [
          -0.13967411,
          -0.09707006,
          0.32744494,
          0.05576614,
          0.31506932,
          0.69815826,
          0.43599617,
          -0.058470566,
          0.16186492,
          0.2606567,
          0.014596575,
          -0.46440202,
          0.21166416,
          0.0010668262,
          -0.22507398,
          -0.17761281
        ],
        [
          0.38532713,
          -0.636184,
          -1.2473854,
          -0.2482216,
          -0.060806505,
          -0.5978623,
          0.2704152,
          -0.047770385,
          0.00077073066,
          0.16359636,
          -1.4884036,
          -0.3670086,
          -0.48307294,
          -0.5114949,
          -0.22774528,
          0.029918112
        ],
        [
          0.18483458,
          -0.084358595,
          -0.87612253,
          -0.1406737,
          0.337248,
          -0.32090545,
          -0.017434461,
          0.33281264,
          0.01436798,
          0.16772342,
          -0.55571926,
          0.3862821,
          -0.2941192,
          -0.4436389,
          -0.5066213,
          -0.10467249
        ],
        [
          0.6491615,
          -0.33986136,
          -1.9971919,
          0.52776825,
          -0.28404915,
          0.07618683,
          -0.36266574,
          0.17475858,
          0.11338605,
          -0.57249135,
          -2.5749595,
          0.028905291,
          -0.16374718,
          -0.8552276,
          -0.56768864,
          -0.8767078
        ],
        [
          -0.033144362,
          0.4108094,
          -2.171412,
          0.25167513,
          0.7936497,
          0.5131447,
          0.081508294,
          -0.28842002,
          -0.7971861,
          0.09685549,
          -1.0921484,
          0.47966287,
          -1.0357066,
          -0.6730886,
          -1.246301,
          -0.47915655
        ],
        [
          0.21351999,
          -0.35354912,
          -0.95563495,
          -0.21181493,
          -0.08190538,
          -0.18788056,
          -0.2731823,
          0.05319043,
          0.15121616,
          -0.025278024,
          -0.75393724,
          -0.6725863,
          -0.16160801,
          -0.2935931,
          -0.4853628,
          -0.40404186
        ],
        [
          -0.04992213,
          0.13635856,
          -0.7455254,
          -0.037130367,
          0.34825778,
          0.07513929,
          0.24330612,
          0.19500288,
          -0.04743419,
          0.10425903,
          -0.4463533,
          -0.023999041,
          -0.28241986,
          -0.12403403,
          -0.16493922,
          -0.09820961
        ],
        [
          0.038792986,
          0.05963698,
          -0.031447504,
          -0.10156845,
          0.06918546,
          -0.19238696,
          -0.10532423,
          -0.008640497,
          -0.017673079,
          -0.11077035,
          -0.20936762,
          0.18726125,
          0.041652728,
          0.0023377917,
          0.06357954,
          0.062026046
        ],
        [
          -0.033938333,
          0.20815192,
          -0.20771451,
          -0.15559731,
          0.0066278926,
          -0.33225447,
          -0.14850397,
          0.07144056,
          -0.14650154,
          -0.030578556,
          0.15081216,
          0.07116229,
          0.032396443,
          -0.057385415,
          -0.088485986,
          0.07505509
        ],
        [
          -0.13960513,
          -0.14530937,
          0.15299252,
          -0.32408243,
          0.13081168,
          0.10889726,
          0.10847953,
          -0.02536402,
          -0.20310761,
          -0.07952833,
          0.11805966,
          -0.014303349,
          0.30380088,
          0.0075970283,
          -0.14338037,
          0.014660711
        ],
        [
          -0.22540526,
          0.08384095,
          0.47238907,
          -0.6066447,
          0.06913466,
          0.13420133,
          0.081567846,
          -0.02374304,
          -0.022993311,
          0.4224085,
          0.103726774,
          -0.246018,
          0.13224582,
          -0.095400214,
          -0.09700483,
          0.10845686
        ],
        [
          -0.05304864,
          -0.23445919,
          -0.019918866,
          -0.1160553,
          0.31074473,
          0.49853733,
          0.7362908,
          0.06664231,
          -0.30435333,
          0.08172369,
          0.60909265,
          0.5144954,
          0.10419375,
          0.36114287,
          0.0858552,
          0.025408853
        ],
        [
          0.06433731,
          -0.13895537,
          0.06600766,
          -0.03651693,
          0.13215293,
          -0.057325546,
          0.25392577,
          -0.034678504,
          0.18781683,
          0.19613604,
          0.29846296,
          0.034580354,
          0.08366179,
          0.11217216,
          0.37250444,
          0.13931027
        ],
        [
          0.015069982,
          -0.07349514,
          -0.13993178,
          -0.15724553,
          0.028929975,
          -0.16335559,
          -0.19489041,
          -0.0016586838,
          -0.16381888,
          -0.009873754,
          -0.25525478,
          -0.15192583,
          0.044205364,
          -0.02136446,
          0.12355057,
          -0.103933826
        ],
        [
          0.11275508,
          -0.11561035,
          -0.24005982,
          -0.38271862,
          0.085155584,
          -0.19412933,
          0.0007493776,
          0.13514005,
          -0.05602899,
          -0.0014005951,
          -0.17102945,
          0.029203117,
          0.028207561,
          0.0046540126,
          -0.012943515,
          0.036291588
        ],
        [
          0.01791391,
          -0.20744553,
          -0.14480793,
          0.2832891,
          0.006779974,
          0.06275168,
          -0.52099544,
          0.21439347,
          0.12984526,
          -0.13604756,
          -0.07407096,
          0.21390924,
          -0.13035071,
          -0.05582318,
          -0.09397446,
          0.09646375
        ],
        [
          0.024078215,
          -0.064479716,
          0.3184807,
          0.033456177,
          -0.08049473,
          -1.2239926,
          0.15591043,
          -0.1702867,
          -0.21052161,
          0.5549142,
          -0.27019602,
          0.83636504,
          0.030744445,
          -0.11835176,
          -0.08805378,
          -0.024056505
        ],
        [
          0.022824079,
          -0.1386555,
          0.327382,
          0.78987885,
          -0.1390167,
          -1.7585068,
          0.1355364,
          0.57460815,
          0.256086,
          0.09174654,
          0.32726294,
          0.18478037,
          0.17281476,
          0.08500708,
          -0.0016004372,
          0.22741981
        ],
        [
          -0.009181015,
          -0.029118393,
          0.4041094,
          -0.07427007,
          -0.06879852,
          -0.185236,
          0.10988923,
          0.09153688,
          0.53580517,
          -0.016115837,
          0.05619785,
          -0.0019532705,
          0.38588786,
          0.111642376,
          -0.037596866,
          0.11563675
        ],
        [
          0.0584864,
          0.08611707,
          -0.29547346,
          -0.0029092734,
          0.0782649,
          -0.05505822,
          -0.22376055,
          -0.097717516,
          -0.16929452,
          0.026383616,
          -0.105541535,
          0.46001765,
          0.07598697,
          0.0010514164,
          -0.12688658,
          0.03352421
        ],
        [
          0.038763512,
          0.036301427,
          -0.24522513,
          0.70014876,
          0.053937305,
          -0.44221455,
          -0.00094742293,
          -0.032505594,
          0.12053386,
          0.23917273,
          -0.08230605,
          0.4827069,
          0.04001859,
          -0.041457754,
          -0.17586964,
          -0.057738118
        ],
        [
          0.22282891,
          -0.10624792,
          -0.25031036,
          0.28462037,
          0.22521758,
          1.0411191,
          -0.29148647,
          -0.12964515,
          0.18029602,
          -0.005980871,
          0.2980594,
          -0.1413042,
          -0.29582712,
          -0.05961887,
          0.00039050102,
          0.013169167
        ],
        [
          -0.04670125,
          0.10440185,
          -0.42337364,
          0.64482653,
          -0.09935698,
          0.55404043,
          -0.12580828,
          0.0958165,
          0.17750123,
          -0.20303611,
          0.06182403,
          -0.4481462,
          -0.3680659,
          -0.060928807,
          -0.03140017,
          -0.06679121
        ],
        [
          -0.028561333,
          0.048005812,
          0.14504458,
          0.7143295,
          0.046315286,
          0.3412222,
          0.5143794,
          0.046258967,
          0.2124147,
          -0.04723367,
          -0.18358876,
          -0.18105814,
          -0.21350215,
          -0.022029726,
          -0.1817637,
          0.20465353
        ],
        [
          0.058247168,
          0.07544469,
          -0.22573242,
          -0.13930638,
          0.1262846,
          0.32509276,
          0.02694139,
          -0.067397885,
          -0.052536804,
          0.026440008,
          -0.10139116,
          0.17098314,
          -0.14289728,
          -0.04806178,
          -0.028978059,
          -0.1255957
        ],
        [
          0.064238906,
          -0.057258394,
          0.00080037874,
          0.11119863,
          0.08033582,
          1.177471,
          -0.49345237,
          -0.15425758,
          0.32076862,
          -0.20973772,
          -0.0169035,
          -0.42397895,
          -0.17144471,
          -0.064807914,
          0.11051637,
          -0.08130968
        ],
        [
          0.046030987,
          -0.13064675,
          -0.3654435,
          -0.41894177,
          0.007617051,
          0.1564714,
          -0.13430373,
          0.01557116,
          -0.014297606,
          -0.021133792,
          -0.5454603,
          -0.4606793,
          -0.1796344,
          -0.057373744,
          0.059935976,
          0.21051951
        ],
        [
          0.02000284,
          -0.015326896,
          -0.1900968,
          -0.29649904,
          0.019978534,
          0.14530396,
          0.05422916,
          0.07942204,
          0.058466,
          -0.15988769,
          -0.02197444,
          -0.39716557,
          0.082915545,
          -0.14489305,
          -0.0237313,
          -0.020790858
        ],
        [
          0.045802556,
          0.014250324,
          -0.042370737,
          0.7407012,
          0.0758512,
          0.6320657,
          0.20166297,
          -0.047716547,
          -0.040509097,
          -0.08131408,
          0.30017617,
          -0.45349547,
          -0.13666005,
          -0.07532193,
          -0.009313966,
          -0.15274502
        ],
        [
          0.1016465,
          -0.04090778,
          -0.025143739,
          0.1066281,
          0.115384005,
          0.41352123,
          0.5355104,
          0.2592534,
          0.0016538897,
          0.031406686,
          0.12150213,
          0.30025405,
          0.2362569,
          -0.124910764,
          -0.033367272,
          -0.014211161
        ],
        [
          0.118150435,
          0.065429516,
          -0.23127598,
          0.21478479,
          0.015981352,
          -0.48871028,
          0.349394,
          0.1231477,
          0.18393593,
          -0.17702718,
          0.5274374,
          -0.3007556,
          0.05746943,
          -0.07885041,
          0.061700787,
          -0.10268925
        ],
        [
          0.17656407,
          -0.3430508,
          -0.70971864,
          0.028162409,
          -0.07269547,
          -0.90387225,
          -0.03254744,
          -0.32083148,
          -0.14898048,
          0.31579724,
          -0.6519072,
          0.034925617,
          -0.4811867,
          -0.22901097,
          0.022638071,
          0.29139847
        ],
        [
          -0.081482604,
          0.13257894,
          -0.3625681,
          -0.11138634,
          0.18594316,
          0.28074175,
          -0.22284193,
          0.27625442,
          -0.33168605,
          0.14467755,
          -0.2852324,
          0.40667918,
          -0.17406647,
          0.06710215,
          -1.0897945,
          -0.8679961
        ],
        [
          -0.09034612,
          -0.035585746,
          -0.1358121,
          -0.13063395,
          -0.009595768,
          -0.18995531,
          0.021790791,
          -0.05338139,
          -0.032519575,
          0.0715964,
          -0.11314792,
          0.30927,
          -0.004444347,
          -0.044202887,
          0.031570982,
          -0.15766914
        ],
        [
          -0.1789188,
          0.12334748,
          0.22323237,
          0.13182695,
          0.16511816,
          -0.66457236,
          0.5680166,
          -0.09395632,
          -0.0064117075,
          0.028863193,
          -0.20339733,
          0.5117863,
          -0.0051230937,
          -0.0030119098,
          0.14829463,
          0.179863
        ],
        [
          -0.01886637,
          -0.041916672,
          0.05225784,
          -0.29359564,
          0.0548278,
          -0.78395444,
          0.6427156,
          0.17624341,
          0.2642744,
          -0.07567738,
          -0.025128514,
          0.28049964,
          0.24626619,
          0.006953636,
          0.018493818,
          0.14489405
        ],
        [
          0.22607303,
          0.013130029,
          0.29706928,
          0.207077,
          0.33083153,
          -0.58407193,
          0.5276153,
          0.036341187,
          -0.15277609,
          0.09089849,
          -0.005443031,
          0.6729952,
          0.07081888,
          0.12825476,
          0.0172718,
          -0.34250942
        ],
        [
          0.30769014,
          0.2939925,
          0.37236828,
          1.0861852,
          -0.44673574,
          1.1302974,
          -0.968867,
          0.16319725,
          1.0999348,
          0.061593637,
          0.15296467,
          -0.17324902,
          0.059381455,
          -0.23492506,
          -0.28726855,
          -0.56012166
        ],
        [
          0.503993,
          0.2589532,
          0.41868356,
          -0.314439,
          1.5846882,
          0.4835923,
          0.7153766,
          -1.1257511,
          -1.6312957,
          1.2092149,
          0.5423465,
          0.74813217,
          0.7959259,
          0.83655334,
          -0.3496769,
          1.0441178
        ],
        [
          0.15193363,
          0.082289904,
          0.30713823,
          -0.26792362,
          -0.029282719,
          -0.117238805,
          -0.18642004,
          0.0038385033,
          -0.0069343285,
          -0.048927903,
          -0.31833947,
          0.03815485,
          6.7870424E-05,
          0.10584532,
          0.0033456031,
          -0.16730474
        ],
        [
          0.09967765,
          0.04181703,
          0.2259394,
          0.37777445,
          -0.31456828,
          0.21284465,
          -0.48990265,
          -0.16974254,
          0.017719937,
          -0.42476547,
          -0.12557757,
          -0.47203058,
          0.04963675,
          0.28808826,
          0.043722555,
          0.11115369
        ],
        [
          0.017135866,
          -0.14369465,
          0.30633596,
          -0.17518447,
          0.07448052,
          -0.36378542,
          -0.66004246,
          -0.077434905,
          -0.0050911247,
          -0.2933975,
          0.10715369,
          -0.0767291,
          0.17497438,
          0.11105158,
          0.1817558,
          0.12169418
        ],
        [
          -0.011948507,
          -0.19880414,
          -0.33615947,
          -0.14984241,
          -0.10091639,
          -0.24878749,
          -0.5469804,
          0.24616185,
          0.2554578,
          -0.2614027,
          -0.06923734,
          -0.9424988,
          -0.12669897,
          0.09441189,
          -0.074117824,
          0.39641714
        ],
        [
          -0.31004962,
          -0.14488097,
          -0.03330879,
          -0.18195164,
          0.3052585,
          0.0900973,
          0.054840576,
          0.08682634,
          -0.26126355,
          0.583469,
          -0.27500522,
          0.2869178,
          -0.100278065,
          -0.34206057,
          0.24149475,
          0.16990724
        ],
        [
          0.051479615,
          -0.16198693,
          0.3595538,
          -0.4249018,
          -0.114089124,
          -1.4810531,
          -0.5836483,
          0.5928544,
          1.0502517,
          -0.04343496,
          0.3666268,
          -0.5244126,
          1.0277915,
          0.07335131,
          1.3160036,
          0.6499841
        ],
        [
          -0.11503953,
          0.17393227,
          0.07961702,
          -0.116163425,
          -0.21165448,
          0.9162591,
          -0.13593675,
          0.076933935,
          -0.37952992,
          -0.17421563,
          -0.2543102,
          0.03156362,
          0.082275935,
          0.1960945,
          0.2992648,
          -0.19779049
        ],
        [
          0.6020995,
          0.100596875,
          0.089407355,
          0.3721084,
          0.22230521,
          0.18526189,
          -0.47567654,
          0.08926304,
          -0.06066955,
          -0.15867856,
          -0.46531737,
          -0.0043660617,
          0.17494346,
          0.08779402,
          -0.009632248,
          0.1713935
        ],
        [
          0.31529495,
          0.4657784,
          -0.14247245,
          -0.32215813,
          -0.16767497,
          -0.80003065,
          -0.13459885,
          0.008313464,
          0.3914322,
          0.6193072,
          0.25915912,
          -0.019116402,
          0.103870384,
          0.31591782,
          0.1520445,
          0.48692006
        ],
        [
          -0.19426492,
          0.31897163,
          0.028197983,
          0.16930765,
          0.12075585,
          -0.61999995,
          -0.14526726,
          -0.65447223,
          0.121337414,
          -0.12834172,
          -0.010282763,
          -0.19048747,
          0.344587,
          0.20248045,
          0.6138352,
          -0.27305856
        ],
        [
          -0.35577863,
          -0.6341157,
          0.13893965,
          0.37872374,
          0.36041495,
          -2.27903,
          0.7865861,
          0.41628626,
          -0.90364885,
          -0.2757369,
          -1.3118312,
          0.9094195,
          -0.15266028,
          -0.8550916,
          -0.051691167,
          0.028474338
        ],
        [
          0.054958288,
          -0.056558866,
          0.123802714,
          0.041692093,
          -0.022327812,
          0.039370902,
          -0.08188878,
          -0.04495596,
          0.10306554,
          0.09603455,
          -0.07279784,
          -0.05956934,
          0.12322381,
          0.10032287,
          -0.06416947,
          0.045238037
        ],
        [
          0.08425823,
          0.38073704,
          0.31430444,
          -0.2706274,
          0.15316461,
          -0.15356348,
          0.056085963,
          -0.36607236,
          -0.25243488,
          0.35370383,
          0.2765448,
          0.14705628,
          -0.44280836,
          0.22025333,
          0.38247678,
          0.1301765
        ],
        [
          0.016800724,
          -0.026744865,
          0.25604978,
          0.29365274,
          -0.07087587,
          -2.1370792,
          -0.0038012003,
          0.14629884,
          -0.56984437,
          0.015726477,
          0.49981704,
          -0.0085128965,
          0.21777491,
          0.25801647,
          -0.14104022,
          0.20079881
        ],
        [
          0.2954556,
          0.5560403,
          0.23650636,
          -0.55624884,
          0.28493384,
          -1.4327358,
          0.020846935,
          -0.4105772,
          0.007494181,
          0.4528663,
          0.588673,
          -0.31427884,
          -0.15083197,
          0.53086025,
          0.27996594,
          0.3678733
        ],
        [
          -0.13686994,
          -0.02770328,
          0.6251949,
          -1.3598222,
          -0.054254163,
          1.2184591,
          -0.53374785,
          0.030580286,
          -0.27193272,
          0.18521218,
          0.16106626,
          -0.69039965,
          0.3196322,
          0.5878922,
          0.534257,
          0.5095129
        ],
        [
          0.32373837,
          -0.4090684,
          0.29129922,
          0.9302454,
          -0.16490898,
          -0.17210345,
          -0.2993151,
          0.6542971,
          -0.029104915,
          0.60183877,
          0.2590284,
          0.18032506,
          -0.5317994,
          0.029979015,
          0.19016114,
          0.43847215
        ],
        [
          -0.12596735,
          0.006792561,
          -0.09587634,
          -0.0035253426,
          -0.09473997,
          0.12510388,
          0.09094617,
          -0.068020016,
          -0.10523585,
          -0.03931959,
          0.07467531,
          0.025079234,
          -0.11536846,
          -0.011525901,
          -0.08251141,
          0.016097061
        ],
        [
          -0.094224915,
          -0.019754328,
          -0.15784462,
          0.21406,
          0.0811029,
          -0.2070197,
          -0.08723903,
          -0.07671796,
          0.034737732,
          -0.2273576,
          0.3080937,
          -0.08347259,
          -0.08988691,
          -0.010821126,
          0.2585373,
          -0.054702904
        ],
        [
          0.066582076,
          0.04512414,
          -0.5350404,
          -0.25302216,
          0.09225481,
          -0.11936758,
          -0.10764405,
          -0.33548817,
          -0.12830047,
          -0.092618555,
          0.2985442,
          -0.27439445,
          -0.19150542,
          0.16360396,
          0.27146733,
          0.08295231
        ],
        [
          0.054075837,
          0.09778017,
          0.16044013,
          -0.07240062,
          -0.10887427,
          -0.06418647,
          -0.46639365,
          -0.079096235,
          -0.11874524,
          -0.108408645,
          0.043828346,
          0.039576143,
          -0.014778946,
          0.015171318,
          0.13517028,
          0.069734246
        ],
        [
          -0.046039645,
          0.03957686,
          0.27827176,
          -0.4198342,
          -0.07833442,
          0.06395974,
          -0.17946179,
          -0.03725393,
          -0.009687822,
          -0.1092091,
          -0.06754299,
          -0.16567506,
          -0.13151433,
          0.0807074,
          0.19586037,
          -0.17008375
        ],
        [
          0.15931298,
          0.029804302,
          -0.12715456,
          0.1724013,
          -0.0019216967,
          -0.36346695,
          -0.18576226,
          -0.3361828,
          0.007829632,
          -0.29338992,
          0.31413245,
          0.00088493107,
          -0.221104,
          0.031442225,
          0.06339336,
          -0.27394366
        ],
        [
          -0.023465814,
          0.042130783,
          0.017603114,
          -0.090325944,
          -0.06521243,
          -0.3781829,
          -0.24069035,
          0.022914635,
          -0.17968477,
          -0.12359722,
          -0.08821632,
          -0.10169009,
          -0.102329336,
          0.0872836,
          0.14759685,
          -0.08027164
        ],
        [
          0.14468174,
          0.066753864,
          -0.07374422,
          -0.2020694,
          0.04850484,
          0.4035561,
          -0.22234704,
          -0.270007,
          0.28826815,
          0.029681768,
          0.16783042,
          0.13491055,
          -0.078375764,
          -0.0885854,
          0.0059672915,
          -0.19562428
        ],
        [
          0.04367363,
          -0.071353205,
          0.048856087,
          0.036628485,
          -0.015882544,
          -0.5022002,
          -0.1022191,
          -0.25068074,
          -0.23249358,
          0.060446914,
          0.08490336,
          -0.40937826,
          -0.09644658,
          0.100601666,
          0.025967877,
          -0.016869366
        ],
        [
          0.007665746,
          -0.051427506,
          0.037744872,
          -0.009633092,
          -0.031212127,
          -0.2531225,
          -0.4960328,
          0.15979174,
          0.23263775,
          0.15368171,
          -0.22783402,
          -0.27141747,
          -0.13067392,
          0.071194105,
          0.10320292,
          0.053226247
        ],
        [
          0.015213386,
          0.12418948,
          0.1777532,
          -0.21574008,
          -0.09051751,
          -0.22184166,
          -0.27842003,
          -0.16822636,
          -0.019709632,
          0.18997833,
          -0.1571666,
          -0.14140807,
          0.121905066,
          0.038467646,
          0.013655362,
          -0.021427454
        ],
        [
          0.00055819855,
          0.051071677,
          0.13894069,
          -0.36239162,
          -0.105758145,
          0.27966225,
          -0.09538577,
          0.16234212,
          -0.2030302,
          -0.05288962,
          0.1890567,
          0.2417787,
          -0.22398311,
          0.10103098,
          -0.0013506422,
          0.009285812
        ],
        [
          -0.0097194435,
          0.103468575,
          0.13140008,
          -0.42431962,
          0.0049401075,
          0.504981,
          -0.4171097,
          -0.0060682395,
          -0.04013299,
          -0.12885538,
          0.15148331,
          -0.2732529,
          -0.00956512,
          0.14611691,
          0.055265363,
          -0.12176163
        ],
        [
          -0.0008282705,
          0.06800561,
          -0.07392494,
          0.026109282,
          -0.07145559,
          0.56624824,
          -0.32227156,
          -0.40000376,
          -0.278016,
          -0.16951054,
          0.14310871,
          -0.10108562,
          -0.06172717,
          0.10585726,
          0.045374528,
          -0.16063876
        ],
        [
          -0.110160045,
          0.054535247,
          -0.37438807,
          0.07504969,
          -0.121322595,
          0.01966368,
          -0.22063129,
          -0.3160408,
          -0.115884826,
          -0.14247794,
          0.4097503,
          -0.15223493,
          0.08399557,
          0.11084274,
          0.19598445,
          0.08219069
        ],
        [
          -0.066587985,
          0.036791347,
          -0.06823966,
          -0.06907542,
          0.00501075,
          -0.16273914,
          0.05248452,
          -0.09352584,
          -0.2225331,
          -0.06444693,
          0.51190215,
          -0.11721265,
          0.12040244,
          0.27852467,
          0.09541246,
          -0.0532857
        ],
        [
          -0.11169375,
          0.18213172,
          -0.1413058,
          -0.6711137,
          -0.022347832,
          -0.0312387,
          -0.32182023,
          -0.2337776,
          -0.08085323,
          0.24811342,
          0.09429352,
          -0.15759937,
          0.23066506,
          0.22363432,
          0.11235702,
          -0.13774915
        ],
        [
          0.029490348,
          0.26053607,
          0.05637526,
          0.25216687,
          0.1057868,
          0.24293393,
          0.17408173,
          -0.30445325,
          -0.32204142,
          -0.24163388,
          -0.5010033,
          0.20466037,
          0.10046079,
          0.10255741,
          0.23849837,
          -0.08206589
        ],
        [
          -0.09620813,
          0.15266632,
          0.36981076,
          0.26505908,
          0.04833146,
          0.055253174,
          0.17176981,
          -0.25609836,
          -0.33526644,
          -0.14287856,
          -0.15714324,
          -0.018031634,
          -0.014060672,
          0.15853234,
          0.24852958,
          0.09912779
        ],
        [
          0.031175882,
          0.09356346,
          -0.083631046,
          -0.19543083,
          0.019988487,
          -0.030347524,
          -0.17946278,
          0.11977643,
          -0.061944682,
          0.059591707,
          -0.18679217,
          0.0516823,
          0.19301265,
          0.27109066,
          -0.13917,
          -0.0060721342
        ],
        [
          -0.07598446,
          0.0012806095,
          -0.3093459,
          0.14696406,
          0.119992845,
          -0.054834265,
          0.008403626,
          0.18685026,
          -0.20503119,
          0.04479164,
          -0.5302445,
          0.2121948,
          0.044497237,
          0.011777073,
          -0.04052795,
          -0.14931795
        ],
        [
          -0.053424582,
          0.02225258,
          -0.16287194,
          -0.3604627,
          0.079173274,
          -0.6519688,
          -0.03753415,
          0.3473504,
          -0.042239703,
          -0.28975627,
          -0.52610505,
          -0.065362714,
          0.103549466,
          0.0025116752,
          0.15642811,
          -0.09411591
        ],
        [
          0.012400028,
          0.022383856,
          -0.0101782875,
          -0.2960926,
          0.17977655,
          -0.3640443,
          -0.10610653,
          0.15655997,
          0.11592587,
          -0.031762943,
          -0.17388949,
          -0.13486208,
          0.36220556,
          0.07952536,
          0.16791719,
          -0.05466833
        ],
        [
          0.098431565,
          0.02857244,
          0.28828877,
          -0.29643947,
          0.21042158,
          -0.36583006,
          -0.25928262,
          0.07962282,
          0.2706372,
          0.0017734597,
          -0.5157313,
          0.14516932,
          0.11905842,
          0.14016207,
          0.19894947,
          -0.085299745
        ],
        [
          -0.105261244,
          -0.016007777,
          0.31646365,
          -0.05173751,
          0.02135561,
          -0.31859273,
          -0.08968736,
          -0.012013255,
          0.16215554,
          -0.15603416,
          0.38509932,
          0.15538654,
          -0.04673265,
          -0.024445323,
          0.19916745,
          0.20596819
        ],
        [
          -0.01634176,
          0.13748609,
          0.16724429,
          -0.57706887,
          0.0601104,
          -0.5783805,
          -0.13459207,
          -0.1131229,
          0.09916742,
          -0.0050395927,
          -0.5085318,
          -0.0461199,
          -0.10218193,
          0.20618372,
          0.019161453,
          -0.09805256
        ],
        [
          -0.06640711,
          0.17400667,
          0.12972063,
          -0.39927948,
          0.050047275,
          -0.54227674,
          0.15405792,
          0.07183168,
          -0.10432952,
          -0.18161824,
          0.011192733,
          -0.24019496,
          -0.094218664,
          0.17564325,
          0.09182935,
          0.10340191
        ],
        [
          0.057226796,
          0.13287465,
          -0.09198524,
          -0.027814891,
          0.0496574,
          -0.09385591,
          -0.09453155,
          0.02622895,
          -0.029246148,
          0.06754954,
          0.17428422,
          -0.044220384,
          -0.32576713,
          0.06792232,
          0.1875297,
          0.22817329
        ],
        [
          0.03670917,
          0.05453433,
          -0.03103289,
          -0.23050848,
          0.044825207,
          0.46225393,
          -0.12252478,
          -0.1760697,
          -0.082710706,
          0.13344605,
          0.50600606,
          -0.24104095,
          -0.20369181,
          0.06627445,
          0.1395998,
          0.15152344
        ],
        [
          0.018038543,
          0.03229364,
          -0.44308048,
          0.07234527,
          0.0037320214,
          0.57177365,
          -0.048726402,
          -0.08256367,
          -0.22414914,
          -0.24292496,
          -0.2109087,
          0.05078817,
          -0.260011,
          0.1307538,
          0.13950254,
          0.14163302
        ],
        [
          0.098243475,
          0.21869054,
          0.017710004,
          0.0109231705,
          -0.05188673,
          -0.64086723,
          -0.112468384,
          -0.34949768,
          -0.07614261,
          -0.10647793,
          0.18344477,
          -0.09970449,
          0.0060376665,
          0.13215432,
          0.25655374,
          0.12679167
        ],
        [
          -0.14799297,
          0.102356955,
          -0.037538994,
          0.39824632,
          -0.13385752,
          0.08529672,
          -0.30157313,
          -0.16931786,
          -0.25141656,
          -0.3737306,
          0.23687847,
          0.08904497,
          -0.16362326,
          0.12278446,
          0.3084709,
          0.07364812
        ],
        [
          -0.026654493,
          0.1696379,
          0.1988116,
          0.55614835,
          -0.042667627,
          -0.59059423,
          0.020004287,
          -0.16985169,
          -0.18181133,
          -0.35743576,
          0.33895284,
          0.17668508,
          -0.3546128,
          0.11090366,
          0.26566955,
          0.0766435
        ],
        [
          0.0011840693,
          0.03593014,
          -0.017690623,
          -0.061738018,
          -0.027153648,
          -0.61753047,
          -0.20398423,
          0.07762652,
          -0.11613001,
          -0.4327346,
          0.2426677,
          0.016557517,
          -0.12812889,
          0.17425735,
          0.36115238,
          0.09770152
        ],
        [
          -0.09756213,
          0.03247557,
          -0.20457678,
          -0.065601476,
          -0.09059188,
          0.093077034,
          -0.41987306,
          0.036245257,
          -0.13758817,
          -0.069631204,
          0.07240979,
          -0.26345137,
          -0.24012242,
          0.053072505,
          0.24632233,
          0.19981316
        ],
        [
          -0.08032685,
          0.13895309,
          0.2381206,
          0.5466008,
          0.013127983,
          -0.0722924,
          -0.037908487,
          -0.13931206,
          -0.21555187,
          -0.22513767,
          0.035137556,
          0.27282807,
          -0.16793321,
          0.062771924,
          0.24837944,
          0.040365137
        ],
        [
          -0.16985258,
          0.00661854,
          -0.038971238,
          0.20969912,
          0.010432507,
          -0.41483304,
          -0.15923126,
          0.08878035,
          -0.11821868,
          -0.2654762,
          0.0023459801,
          -0.030949133,
          -0.115296416,
          -0.090692505,
          0.22834897,
          0.0351421
        ],
        [
          -0.020955576,
          0.023354769,
          0.014406677,
          0.24383974,
          -0.026296077,
          -0.23219365,
          -0.009797928,
          -0.051971413,
          -0.04825933,
          -0.35749447,
          0.029394891,
          0.015050708,
          -0.3767087,
          0.08647537,
          0.34390876,
          -0.08654514
        ],
        [
          -0.09946134,
          0.08969764,
          0.014343399,
          -0.35111824,
          0.04290946,
          -0.48152593,
          -0.23270874,
          -0.118027054,
          -0.2555881,
          -0.011695453,
          -0.027723951,
          -0.16430856,
          -0.04363569,
          -0.012648968,
          0.1341843,
          -0.051363587
        ],
        [
          -0.02530779,
          0.057952136,
          -0.0005287186,
          -0.16265416,
          -0.015451098,
          0.07658246,
          -0.19755799,
          -0.059289042,
          -0.090470284,
          -0.093043275,
          -0.085651346,
          -0.030528475,
          -0.058175907,
          -0.056879986,
          0.13601087,
          0.027397959
        ],
        [
          0.027410476,
          0.086061165,
          -0.014486443,
          -0.012976896,
          0.01892929,
          -0.81185216,
          -0.16511948,
          0.06721833,
          0.2096665,
          -0.26912898,
          -0.21591197,
          0.17682494,
          -0.016440038,
          0.049293224,
          0.08678576,
          0.03126851
        ],
        [
          -0.040353455,
          0.13593237,
          -0.3879998,
          -0.16249442,
          0.010601562,
          -0.6294995,
          -0.0018162993,
          -0.12680455,
          -0.038140763,
          0.06016724,
          -0.0034383317,
          -0.010204774,
          0.096617006,
          -0.10642618,
          0.12280565,
          -0.12643889
        ],
        [
          0.055057798,
          0.0649962,
          -0.21777529,
          -0.068374746,
          0.058867577,
          -0.2332501,
          -0.07489328,
          -0.10743899,
          -0.09551947,
          -0.021758638,
          0.39101434,
          0.24711987,
          -0.13145281,
          -0.14173351,
          0.11865027,
          -0.014636681
        ],
        [
          0.11254466,
          0.18620136,
          0.07201357,
          -0.25425816,
          -0.020520717,
          -0.5523418,
          -0.16015129,
          -0.06566585,
          0.18926376,
          0.062349185,
          -0.29313645,
          -0.03829795,
          -0.06764007,
          0.094559625,
          0.19428368,
          -0.24468929
        ],
        [
          0.147757,
          0.11980138,
          0.38225323,
          -0.23747166,
          0.13130613,
          -0.23723583,
          -0.33708715,
          0.11668688,
          -0.11445566,
          0.035737038,
          -0.1424301,
          0.08000257,
          0.13702151,
          0.06576766,
          0.13669899,
          -0.2638137
        ],
        [
          0.049902074,
          0.055459667,
          0.022747999,
          -0.6225175,
          -0.014359423,
          -0.40754056,
          -0.2458807,
          -0.10451769,
          0.11794662,
          -0.111325115,
          -0.32876527,
          -0.061789855,
          0.17993656,
          0.11077013,
          0.1477181,
          0.08968078
        ],
        [
          0.1420841,
          0.073493436,
          0.043306593,
          -0.13717546,
          0.0069890507,
          0.87020963,
          -0.22153799,
          0.44840008,
          0.11112738,
          -0.24352792,
          -0.21336108,
          -0.022059102,
          0.431501,
          0.04964819,
          0.0762028,
          -0.053298518
        ],
        [
          0.3404388,
          0.032510284,
          0.0037630629,
          -0.5552517,
          0.016040068,
          -0.4074617,
          -0.16005063,
          0.37707728,
          -0.06976985,
          -0.092321776,
          -0.113386415,
          -0.32394686,
          0.11193658,
          0.25461397,
          0.18725583,
          -0.12381202
        ],
        [
          0.14701986,
          0.05190861,
          -0.62190956,
          -0.18284835,
          -0.062466275,
          -0.92433107,
          -0.006254992,
          0.45261905,
          0.050708845,
          -0.09637384,
          0.2824438,
          0.040113803,
          0.0847649,
          0.2778397,
          -0.14341304,
          0.22969005
        ],
        [
          0.09902243,
          0.15254894,
          -0.017947806,
          0.13892572,
          -0.08133099,
          -0.66009635,
          -0.06354596,
          0.06820455,
          0.069987014,
          -0.04526129,
          -0.024405625,
          -0.3955911,
          -0.41114658,
          -0.17537394,
          0.20488818,
          -0.4993383
        ],
        [
          0.08518739,
          0.17673528,
          0.18082207,
          0.43002072,
          0.013140894,
          -0.56175494,
          0.75759536,
          -0.27180514,
          -0.197057,
          -0.2807421,
          -0.58434534,
          0.5216217,
          -0.24085034,
          0.029624136,
          0.029342528,
          -0.081278056
        ],
        [
          0.026779827,
          -0.020134792,
          0.03612937,
          -0.53322077,
          -0.16199145,
          0.40494913,
          0.0035931482,
          0.17562136,
          -0.21954155,
          -0.10237235,
          -0.58218294,
          -0.3516617,
          -0.16321051,
          0.0013208207,
          0.099113666,
          -0.03646722
        ],
        [
          -0.018966338,
          0.10341098,
          -0.09001006,
          1.0593088,
          -0.20145857,
          0.14712524,
          -0.7141795,
          0.12812826,
          0.36572543,
          -0.5794784,
          0.022464836,
          -0.035383325,
          0.009208915,
          -0.17762765,
          0.020710751,
          0.15760906
        ],
        [
          0.03746261,
          0.12437789,
          0.35466212,
          -0.3079669,
          -0.12174117,
          0.2106651,
          -0.78650653,
          0.112789504,
          -0.16273269,
          0.008960095,
          0.42683536,
          -0.106285736,
          0.0045730323,
          0.0028641594,
          0.055177458,
          -0.0050211
        ],
        [
          0.09578729,
          0.10281743,
          -0.012016565,
          -0.16427554,
          -0.11827397,
          0.19777492,
          -0.30496418,
          0.008572854,
          0.17289679,
          -0.16671465,
          -0.1167582,
          -0.24122469,
          -0.23095602,
          0.37160876,
          0.113905385,
          0.008718516
        ],
        [
          0.3551402,
          0.02692635,
          0.01503722,
          0.20030347,
          -0.1373945,
          0.77228105,
          -0.13199481,
          -0.07026865,
          -0.021572983,
          -0.17571221,
          0.099741496,
          -0.2292335,
          -0.022709772,
          0.072397694,
          -0.03851032,
          -0.1954572
        ],
        [
          0.31266043,
          0.027124994,
          -0.040192746,
          -0.5581274,
          -0.047967624,
          0.31866273,
          0.21564226,
          0.1269603,
          -0.06271749,
          0.076442525,
          -0.19714174,
          0.3609811,
          -0.30874106,
          0.07256863,
          0.0032841954,
          -0.30622762
        ],
        [
          0.21480486,
          0.04517315,
          0.025916863,
          0.110243425,
          -0.12815177,
          0.2512457,
          -0.20600191,
          -0.078512825,
          0.0035299144,
          -0.012260874,
          0.059223358,
          -0.27662244,
          -0.012134833,
          0.032213632,
          0.012853371,
          -0.040908933
        ],
        [
          0.08027756,
          0.014152268,
          -0.40045515,
          -0.116610594,
          -0.14040007,
          -0.17054145,
          -0.14021274,
          0.041879024,
          -0.03083723,
          -0.037842527,
          -0.15673803,
          -0.08451106,
          0.074835554,
          0.021313312,
          -0.012455968,
          -0.29365662
        ],
        [
          0.13588339,
          0.06675898,
          0.0033899478,
          0.0852721,
          -0.13093567,
          0.09403481,
          -0.100028545,
          -0.19085874,
          -0.13306627,
          -0.10212735,
          -0.23531307,
          -0.039749227,
          0.019858783,
          -0.013837777,
          -0.0059539517,
          -0.15310122
        ],
        [
          -0.011208819,
          0.058365334,
          0.012144967,
          -0.118960604,
          -0.12744173,
          -0.3418482,
          -0.049026906,
          -0.034883816,
          -0.040770933,
          -0.25190762,
          0.18270338,
          0.056494396,
          0.18308343,
          0.26370046,
          0.022612639,
          0.018532041
        ],
        [
          0.20128188,
          0.18784757,
          0.43099868,
          -0.6518271,
          0.014589846,
          0.5511638,
          -0.2088258,
          -0.43442148,
          -0.32147047,
          0.34421206,
          0.22364202,
          -0.42187563,
          0.16441429,
          0.23339655,
          0.09089592,
          -0.026249647
        ],
        [
          -0.011121623,
          0.15615833,
          0.047443926,
          0.030430404,
          -0.030534238,
          -0.18571134,
          -0.20185654,
          0.24199532,
          -0.010319974,
          -0.07327172,
          0.25131235,
          -0.17009433,
          -0.052233215,
          0.20859739,
          0.19838046,
          0.19171542
        ],
        [
          0.034598798,
          0.18763006,
          0.22280775,
          0.06422307,
          0.1747054,
          -0.082132906,
          -0.006967758,
          0.10062315,
          -0.06622911,
          -0.253683,
          -0.028550856,
          -0.0582276,
          0.08737485,
          0.05812845,
          0.17388564,
          0.089748606
        ],
        [
          0.0066566993,
          0.08092611,
          -0.014193736,
          -0.1973034,
          0.105494075,
          -0.31513637,
          -0.0011595421,
          -0.16835986,
          0.17126949,
          -0.26048902,
          0.30491546,
          -0.18053159,
          -0.08456616,
          0.110547885,
          0.3282778,
          -0.2126322
        ],
        [
          0.052276213,
          0.04629913,
          0.22193852,
          -0.1227415,
          0.12979306,
          -0.03374532,
          -0.02389348,
          -0.063393146,
          0.040573493,
          -0.0710747,
          0.20152968,
          -0.018141517,
          -0.018371519,
          0.1962975,
          0.37967327,
          0.02700819
        ],
        [
          0.02923745,
          -0.015924193,
          0.009950364,
          -0.18026762,
          -0.008792674,
          -0.12179112,
          -0.11650772,
          -0.062848136,
          -0.055255637,
          -0.03162932,
          -0.037485242,
          -0.17175874,
          0.033404764,
          0.10614127,
          0.20257229,
          0.11565097
        ],
        [
          -0.055165116,
          0.091764234,
          0.0838649,
          -0.23725216,
          0.07850122,
          -0.11480463,
          -0.10123787,
          -0.17626196,
          -0.007854881,
          -0.065589346,
          0.021245131,
          -0.16221267,
          -0.04323912,
          0.23718223,
          0.22553056,
          -0.091361254
        ],
        [
          0.02979937,
          -0.211746,
          -0.039770316,
          -0.10886259,
          0.019698124,
          -0.07445278,
          -0.10266032,
          -0.11193046,
          -0.022351228,
          -0.12413638,
          -0.061302785,
          -0.046460472,
          -0.012025805,
          0.09126495,
          0.10547232,
          0.09449178
        ],
        [
          0.038868096,
          0.0018484489,
          0.0066158064,
          -0.13324155,
          0.061894335,
          -0.18912864,
          -0.0842249,
          -0.014998956,
          -0.10007598,
          -0.09939215,
          -0.050936926,
          -0.031603567,
          -0.06894191,
          0.11108351,
          0.12759376,
          0.12975663
        ],
        [
          0.025183741,
          -0.06415411,
          -0.0038391745,
          -0.20620166,
          0.101852275,
          -0.10569408,
          -0.0009984153,
          -0.02376839,
          0.050011143,
          -0.2109683,
          0.05506229,
          -0.09233509,
          -0.029714037,
          0.16188562,
          0.13185191,
          0.12829435
        ],
        [
          -0.08263761,
          -0.09109274,
          0.24971874,
          0.0020692905,
          0.11310365,
          -0.42102894,
          -0.00542221,
          -0.05209985,
          0.008424934,
          -0.005328385,
          0.20751344,
          0.028133089,
          -0.045193467,
          0.15517542,
          0.055905737,
          0.13176146
        ],
        [
          -0.51234645,
          -0.3147121,
          0.46628225,
          0.65160745,
          0.062105406,
          -1.2667348,
          0.30786568,
          0.15806079,
          0.033992793,
          -0.16875046,
          0.5256651,
          0.02471889,
          -0.24329723,
          0.2857115,
          0.3220618,
          0.51001626
        ],
        [
          0.10318707,
          -0.14094873,
          0.46772003,
          -0.94382495,
          0.12874892,
          1.4063872,
          -0.28652894,
          0.1827197,
          0.15331942,
          0.2748665,
          0.08500568,
          -0.32460615,
          0.80610377,
          0.5977957,
          0.08758328,
          -0.41636434
        ],
        [
          -0.010895396,
          -0.24753226,
          0.24033515,
          -0.1903219,
          -0.07472391,
          -0.13064069,
          -0.17079455,
          0.06322145,
          0.07724952,
          0.01840161,
          0.11338287,
          0.02414683,
          0.27130616,
          0.057606373,
          0.22841835,
          -0.0125998445
        ],
        [
          -0.06733173,
          -0.0589599,
          0.22838478,
          -0.2852119,
          0.06783114,
          -0.3675566,
          0.01196308,
          0.015872609,
          0.070315085,
          0.002469825,
          0.007608593,
          -0.12652113,
          0.123701975,
          0.15371338,
          0.09830705,
          -0.039515667
        ],
        [
          0.08309995,
          -0.06512905,
          -0.02655895,
          -0.17639093,
          0.05339487,
          -0.15102851,
          -0.09591777,
          0.08437097,
          -0.0232592,
          -0.1233639,
          -0.013283342,
          -0.11029488,
          0.13082695,
          0.16897348,
          0.24294382,
          -0.042145804
        ],
        [
          0.023671288,
          0.043796092,
          -0.040327277,
          -0.13792266,
          0.039169833,
          -0.18423536,
          -0.051332112,
          0.00618145,
          0.0031575079,
          0.013427368,
          -0.005171865,
          -0.11663017,
          0.100317635,
          0.051468868,
          0.0490748,
          -0.025661651
        ],
        [
          -0.017517615,
          0.061069876,
          0.07695946,
          -0.17182295,
          -0.038666084,
          -0.26206693,
          -0.08472591,
          -0.064860076,
          0.058721583,
          -0.096782975,
          -0.07122523,
          -0.09391767,
          -0.09167882,
          0.075995594,
          0.14149106,
          -0.04758957
        ],
        [
          -0.13341907,
          -0.123649694,
          0.01463772,
          -0.26572728,
          0.009927325,
          -0.18520421,
          -0.0036281168,
          -0.013519905,
          0.039285637,
          -0.041242924,
          0.051804963,
          -0.0771362,
          0.11203646,
          0.060884375,
          0.102980785,
          0.059555307
        ],
        [
          0.03615137,
          0.13840778,
          0.07282238,
          -0.0145386355,
          0.18234469,
          0.06840352,
          -0.19850986,
          0.14673488,
          0.14177805,
          -0.1579949,
          -0.32610503,
          0.004808932,
          0.07937074,
          0.24715671,
          0.17885157,
          0.13385347
        ],
        [
          0.005823359,
          0.09300891,
          0.36948267,
          -0.3080047,
          0.14794515,
          0.24379538,
          0.010475854,
          -0.23888406,
          -0.06898575,
          -0.15151046,
          0.25664422,
          -0.0647801,
          -0.076388255,
          0.16764316,
          0.236971,
          -0.07470958
        ],
        [
          0.10059336,
          -0.02370114,
          0.23045832,
          -0.20332876,
          0.19031149,
          -0.71855336,
          -0.03660593,
          -0.2660534,
          -0.08617703,
          0.016147684,
          -0.26194414,
          -0.11121871,
          -0.04108221,
          0.105897315,
          0.05693056,
          0.22491482
        ],
        [
          -0.06256513,
          0.039338347,
          0.18871878,
          -0.062821634,
          0.104668595,
          -0.22939913,
          -0.0691494,
          0.06951616,
          -0.10794025,
          -0.0092339255,
          0.08579603,
          -0.031454965,
          -0.11609584,
          0.13457674,
          0.07274156,
          0.1397109
        ],
        [
          -0.13660616,
          -0.014067139,
          0.18693623,
          0.10623528,
          0.11301034,
          -0.8983897,
          1.1707673,
          -0.08607652,
          -0.34592837,
          -0.2691092,
          0.27524346,
          -0.15291241,
          0.09166752,
          0.052429326,
          0.2021882,
          0.24899748
        ],
        [
          -0.08617313,
          -0.04475261,
          0.07091728,
          -0.22004688,
          0.11562418,
          -0.32862172,
          -0.24444966,
          -0.06683479,
          0.09613626,
          0.040078107,
          -0.15500668,
          -0.22655238,
          0.017990593,
          -0.018388303,
          0.09230923,
          0.08660776
        ],
        [
          -0.097360924,
          0.08957808,
          -0.07119922,
          0.20317706,
          0.07357759,
          -0.22220378,
          -0.08850545,
          -0.28562668,
          -0.014350448,
          -0.25506717,
          0.1280699,
          -0.05416393,
          -0.14647035,
          -0.12170662,
          0.05053331,
          0.16153693
        ],
        [
          -0.08337199,
          0.03427823,
          -0.0667862,
          -0.21899414,
          0.13398778,
          0.28036863,
          -0.0373844,
          0.112270854,
          -0.109471045,
          0.29342335,
          -0.26605445,
          -0.3178076,
          -0.16373873,
          -0.08654106,
          0.09105338,
          -0.053906307
        ],
        [
          -0.117865495,
          0.08185843,
          -0.33543515,
          -0.15621653,
          0.13988297,
          -0.067206144,
          -0.11207051,
          -0.17486301,
          -0.12701134,
          0.093200244,
          -0.1436508,
          0.19710271,
          0.028429266,
          -0.04181762,
          -0.044540215,
          -0.055008266
        ],
        [
          -0.08569389,
          0.20075348,
          -0.20547792,
          0.8116748,
          0.17209572,
          -1.4036808,
          -0.1810098,
          -0.1377898,
          -0.32509786,
          -0.4462824,
          0.3474978,
          0.3638846,
          -0.11254329,
          -0.16694152,
          -0.095283836,
          -0.009052029
        ],
        [
          -0.172893,
          0.061592937,
          -0.32666236,
          0.2941085,
          0.25423282,
          -0.42051914,
          0.12586005,
          -0.07454512,
          0.016001131,
          0.18851827,
          0.01331394,
          -0.27529845,
          -0.16323206,
          -0.249653,
          0.06748502,
          0.007011973
        ],
        [
          -0.09700573,
          -0.11896126,
          0.055469427,
          0.54660326,
          0.1702782,
          0.16768463,
          0.23902564,
          0.011555789,
          -0.006956433,
          0.036261257,
          0.25777945,
          0.07174316,
          0.03689993,
          0.12666199,
          0.16555002,
          0.13120864
        ],
        [
          -0.15626451,
          0.0103872325,
          0.24104065,
          -0.8044369,
          0.12075338,
          0.11785596,
          1.0337023,
          -0.32005683,
          -0.2943794,
          -0.109420955,
          -0.12579322,
          -0.2725278,
          -0.14455019,
          0.025987223,
          -0.04263856,
          0.07973715
        ],
        [
          -0.006745958,
          0.015830988,
          -0.14920846,
          0.5054741,
          0.26877135,
          0.86677593,
          0.027778411,
          -0.25077555,
          -0.039398957,
          -0.17418908,
          0.7854247,
          -0.34737924,
          -0.109199814,
          -0.083358385,
          -0.18216924,
          -0.19560371
        ],
        [
          -0.15760893,
          0.13706727,
          -0.36411813,
          0.077358484,
          -0.07622477,
          -0.3073171,
          0.32611737,
          -0.2891009,
          0.21601385,
          0.54515153,
          -0.36406654,
          0.42137802,
          -0.15439522,
          0.002453524,
          -0.30302626,
          -0.15595785
        ],
        [
          0.020487657,
          -0.0028427679,
          0.041227262,
          -0.3158232,
          0.017121062,
          1.0075067,
          -0.8107197,
          -0.16652669,
          -0.31211466,
          -0.12223928,
          -0.011419106,
          -0.12056977,
          -0.07334959,
          -0.07317093,
          -0.11475877,
          -0.1500068
        ],
        [
          0.07106234,
          0.21030374,
          -0.15309608,
          -0.5718114,
          -0.097435124,
          1.943647,
          -0.6225125,
          -0.323723,
          -0.5030718,
          -0.004388385,
          0.23486435,
          -0.8152827,
          -0.1788619,
          -0.047444705,
          -0.08646178,
          -0.3421968
        ],
        [
          -0.120573826,
          -0.19756377,
          0.5893137,
          -0.1639553,
          -0.3810614,
          -0.61933386,
          0.36892512,
          0.26074153,
          -0.017050102,
          0.37979916,
          -0.54537594,
          0.15397462,
          -0.09949663,
          0.08352658,
          0.3819707,
          0.25936502
        ],
        [
          -0.09992463,
          0.039530024,
          0.7095194,
          0.5951591,
          -0.115876995,
          -1.2505337,
          0.31113538,
          -0.28098,
          0.15102169,
          -0.6188847,
          0.45521715,
          0.53368306,
          0.43205506,
          0.8015477,
          -0.15751678,
          -0.23441403
        ],
        [
          0.13497745,
          -0.117305025,
          0.124727994,
          -0.36942682,
          -0.096494325,
          0.30775926,
          -0.9266187,
          0.20600344,
          -0.695475,
          -0.43976524,
          -0.22023977,
          -0.27814925,
          -0.10246124,
          0.4458178,
          0.10756412,
          0.91319597
        ],
        [
          0.5052851,
          0.87905073,
          0.43084878,
          0.64209414,
          0.16259253,
          0.22815794,
          1.5616158,
          -0.9599345,
          -1.8201377,
          0.5419208,
          0.057187628,
          0.16575423,
          -2.004344,
          -0.6626152,
          -0.574644,
          0.09342712
        ],
        [
          0.46246934,
          -0.40038437,
          -1.3229753,
          0.09065973,
          0.7483501,
          1.1464885,
          0.62875223,
          -1.3537441,
          -1.1855103,
          1.0329665,
          -2.6485996,
          1.6262335,
          -2.6339269,
          -0.12791486,
          -0.88131124,
          -0.013787834
        ],
        [
          -0.06289786,
          -0.25260586,
          0.093388915,
          0.11453824,
          0.07311265,
          0.21028957,
          -0.5393768,
          -0.7094432,
          -0.09644716,
          0.06750123,
          -0.06456825,
          0.25210324,
          -0.6482633,
          -0.23993278,
          -0.24013928,
          -0.54584163
        ],
        [
          -0.056071844,
          -0.0011938001,
          0.26861894,
          -1.3132747,
          -0.37640446,
          1.1209347,
          -0.9294346,
          -0.1713673,
          -0.5659386,
          -0.11488953,
          0.6674344,
          -0.2165092,
          0.1295332,
          -0.037951916,
          0.29942307,
          0.15727688
        ],
        [
          0.03516846,
          0.49753958,
          -0.21188334,
          -1.8512865,
          -0.65013546,
          1.0998602,
          -0.7618334,
          -0.7271378,
          -0.017068537,
          0.30499935,
          0.06650586,
          0.61018455,
          0.09825064,
          0.17847939,
          0.30389833,
          -0.38639224
        ],
        [
          0.21092764,
          0.33273816,
          -0.78189605,
          -0.87030506,
          -0.31462783,
          -0.011186457,
          -0.90439445,
          0.20270237,
          0.21371548,
          -1.0341557,
          -0.5736813,
          -0.29002136,
          -0.17167424,
          0.111621976,
          0.032734033,
          0.07142587
        ],
        [
          -0.04114848,
          0.9068955,
          -0.17952386,
          0.1758772,
          0.5332852,
          0.6146162,
          0.26964453,
          0.39037612,
          -0.6032052,
          0.30931765,
          -0.1528263,
          0.35318288,
          -1.0079297,
          0.3364045,
          -0.25739995,
          0.31241506
        ],
        [
          -0.02641694,
          -0.017657759,
          -0.8876683,
          0.08109372,
          0.14764696,
          -0.1444183,
          -0.31760594,
          -0.7924458,
          -0.10252669,
          -0.5424959,
          -0.52586365,
          0.12474126,
          -0.6155365,
          0.07686434,
          -0.09894812,
          0.09426908
        ],
        [
          0.06811725,
          -0.46707317,
          -0.0677314,
          0.6145831,
          0.49706948,
          -0.11570246,
          0.30001572,
          -0.88161546,
          -0.62836987,
          0.21698248,
          -0.07119066,
          0.4925111,
          0.20810366,
          0.45664585,
          -0.432226,
          0.52361107
        ],
        [
          0.013052926,
          0.254792,
          0.33873537,
          0.27392608,
          -0.19026256,
          0.070258126,
          -0.44604534,
          -0.38645956,
          0.23166957,
          -0.04209267,
          -0.048186254,
          -0.11652102,
          0.07891333,
          0.33539474,
          0.19334236,
          0.08918765
        ],
        [
          -0.05985146,
          0.1432939,
          -0.31361967,
          -0.39986652,
          -0.14663273,
          -0.6808032,
          -0.7174998,
          -0.5945651,
          -0.4171535,
          -0.88955086,
          1.1380799,
          -0.662672,
          -0.31846115,
          0.07948839,
          0.15703765,
          0.1292252
        ],
        [
          0.59271395,
          0.037195865,
          0.011710471,
          0.5725408,
          0.28302693,
          -1.6645197,
          -0.7468843,
          0.19343051,
          1.243536,
          -0.72068405,
          1.095924,
          -0.79679924,
          0.26331106,
          0.102734186,
          0.6053806,
          -0.36681983
        ],
        [
          -0.117507964,
          0.31180987,
          -0.60741794,
          -0.554552,
          0.29130006,
          0.15670155,
          0.6910783,
          -0.7380424,
          -0.063548066,
          -0.15713778,
          -0.085797116,
          0.063388735,
          -0.5850293,
          -0.22608006,
          -0.15068646,
          -0.46061844
        ],
        [
          -0.5689937,
          -0.27959085,
          -0.17768787,
          -0.16806148,
          1.0911711,
          -0.21384385,
          0.90098226,
          0.44938666,
          1.0883051,
          -0.16526985,
          -0.16036713,
          0.544879,
          0.22939299,
          0.5032679,
          -0.56570375,
          0.69227785
        ],
        [
          0.30372098,
          -0.41001225,
          0.36148486,
          0.12204718,
          0.10712188,
          0.29440564,
          0.3559165,
          -0.6890868,
          0.04093575,
          0.5962597,
          -0.33195108,
          0.589794,
          -0.3141412,
          -0.45369685,
          -0.6290831,
          -0.34306842
        ],
        [
          -0.036092676,
          0.103017025,
          0.06576204,
          -1.4215461,
          0.12499883,
          -1.3041812,
          0.28222752,
          0.35032317,
          -0.00307973,
          -0.013731429,
          0.1787017,
          0.6338218,
          0.14930035,
          0.21117698,
          0.1444988,
          -0.16827023
        ],
        [
          -0.39258832,
          0.29582036,
          0.08536229,
          -1.4020846,
          -0.40552527,
          0.32190105,
          -0.5293113,
          0.27234313,
          0.07012875,
          0.72322655,
          0.8811203,
          0.34414324,
          0.39696032,
          0.33502367,
          0.2157469,
          0.5643317
        ],
        [
          0.1596511,
          -0.6896761,
          -0.1648409,
          0.5831831,
          0.4123329,
          -1.6303012,
          -1.160876,
          0.98179305,
          1.0780402,
          -0.9124648,
          0.93966377,
          -0.0064000217,
          -0.10668698,
          0.6155245,
          -0.111404985,
          0.08033504
        ],
        [
          -0.31211782,
          -0.0043122526,
          -0.22698033,
          0.058908325,
          0.143018,
          -0.40415514,
          -0.22087729,
          -0.13383007,
          -0.027091801,
          0.2675944,
          0.08621084,
          0.4559507,
          -0.30765644,
          0.109140694,
          0.118582316,
          0.07192562
        ],
        [
          -0.18247865,
          -0.1231811,
          -0.46747124,
          0.100181155,
          0.3887278,
          -0.033263493,
          -0.5642732,
          -0.7035823,
          -0.52348584,
          0.1805057,
          -0.35689196,
          0.31409028,
          -0.998985,
          -0.21526463,
          -0.1036802,
          -0.070389055
        ],
        [
          0.030359264,
          -0.18187088,
          0.014483059,
          -0.2282437,
          0.098162435,
          0.17016745,
          0.14723481,
          -0.03574569,
          -0.052197736,
          0.059757877,
          -0.04892437,
          0.1681337,
          0.20233423,
          0.02220201,
          -0.28203586,
          -0.20122434
        ],
        [
          -0.05224947,
          0.07305338,
          0.15986341,
          0.09703615,
          -0.007594211,
          0.4994469,
          -0.14045224,
          0.21730024,
          0.09277709,
          0.26713914,
          0.8116229,
          0.3445346,
          -0.051052928,
          -0.018258225,
          -0.17588653,
          0.29241607
        ],
        [
          0.012116147,
          0.22491775,
          0.65472704,
          0.25028387,
          0.06594849,
          -1.7785872,
          0.22980891,
          -0.4673533,
          -0.016856762,
          -0.4373556,
          0.13323209,
          -0.6039918,
          0.17343222,
          0.2022922,
          0.088668235,
          0.3993423
        ],
        [
          -0.38939014,
          -0.4223915,
          0.043773327,
          0.6445957,
          0.04418287,
          -0.883441,
          0.22632049,
          -0.30255696,
          0.25446168,
          -0.41438356,
          -0.28611207,
          1.0714756,
          0.6438703,
          0.48679587,
          0.19244403,
          -0.87324685
        ],
        [
          0.18831445,
          0.21354546,
          -0.23707496,
          0.13513246,
          0.23488389,
          -0.23962973,
          0.051094968,
          -0.3310838,
          -0.12804434,
          0.17362787,
          0.0034105778,
          0.073298566,
          -0.8661716,
          -0.0775923,
          -0.058881022,
          -0.041266773
        ],
        [
          -0.25239873,
          0.20462184,
          -0.22922383,
          0.020746954,
          0.1822597,
          0.005624355,
          0.025569007,
          0.2084894,
          -0.010869354,
          0.22603187,
          0.19275531,
          0.13387553,
          -0.5764769,
          0.106639944,
          -0.09409785,
          -0.16663408
        ],
        [
          -0.12376685,
          -0.069152966,
          -0.16029644,
          -0.08752419,
          0.25014314,
          0.06469883,
          0.20155448,
          -0.6746153,
          -0.33361793,
          0.15563165,
          0.39931443,
          0.25239098,
          -0.40484455,
          0.011577537,
          -0.045767512,
          0.21437782
        ],
        [
          -0.14393407,
          0.1488796,
          0.33792776,
          0.5835008,
          0.15859404,
          -0.2251206,
          0.002694744,
          -0.27352306,
          -0.069694795,
          -0.3235393,
          0.57145935,
          0.15455613,
          0.0810838,
          -0.07225518,
          -0.025335178,
          0.046065014
        ],
        [
          -0.1650811,
          0.25803354,
          0.058674444,
          0.44949344,
          -0.05187277,
          0.09027391,
          0.23755115,
          0.03348708,
          0.062662326,
          0.08429691,
          0.5282708,
          0.070595294,
          0.36745045,
          -0.0515074,
          -0.1296943,
          0.034838624
        ],
        [
          -0.08676134,
          -0.06868374,
          -0.025424791,
          -1.0533601,
          -0.014861937,
          -0.7216652,
          -0.19128455,
          0.47576466,
          0.23110197,
          0.26382574,
          1.8590198,
          0.017731642,
          0.21157414,
          -0.13432242,
          -0.116236314,
          0.34844795
        ],
        [
          0.20213109,
          0.39096674,
          -0.30515534,
          0.13926925,
          -0.038882565,
          -0.025863051,
          -0.09834903,
          -0.48681453,
          0.26821062,
          -0.45619962,
          -0.12312795,
          -0.109097816,
          0.34945482,
          0.3116788,
          0.2733251,
          0.24778849
        ],
        [
          0.087728135,
          -0.022206493,
          -0.16753145,
          0.2522809,
          -0.063522324,
          0.10330277,
          -0.20987432,
          -0.18144773,
          0.13856456,
          0.11241994,
          -0.26523384,
          -0.2711398,
          0.21066195,
          -0.146646,
          -0.13276821,
          -0.12954947
        ],
        [
          0.13475378,
          -0.13371919,
          -0.20975223,
          -0.02618067,
          0.16855687,
          -0.10254246,
          -0.18652889,
          0.16683891,
          0.0010243148,
          0.0010015069,
          -0.052116383,
          0.14047122,
          -0.20483175,
          0.07067713,
          -0.07402369,
          0.061471093
        ],
        [
          -0.12517242,
          -0.23418525,
          -0.1603873,
          -0.95753,
          0.18187068,
          -0.62950027,
          -1.1884772,
          0.17697617,
          0.2913213,
          -1.3104718,
          0.64682597,
          -0.23249446,
          0.056590214,
          -0.036960784,
          0.10588081,
          0.25134507
        ],
        [
          -0.16853517,
          -0.3253195,
          -0.4234272,
          -1.1738323,
          -0.33644566,
          -0.578639,
          -0.95414466,
          0.52029675,
          0.2523934,
          -0.5933119,
          -0.074768476,
          -1.2832292,
          -0.574359,
          -0.09207737,
          -0.029186253,
          0.39394155
        ],
        [
          -0.18652658,
          -0.1334224,
          1.0413935,
          -0.04880573,
          0.04339825,
          0.9709067,
          -0.7141798,
          0.15848345,
          -0.31701535,
          0.22579938,
          0.48408005,
          -0.26543018,
          0.3776948,
          0.5299307,
          0.01962645,
          0.8299384
        ],
        [
          -0.3372667,
          0.07535773,
          -0.34665173,
          0.15156923,
          0.092428885,
          0.13460426,
          -0.03103567,
          -0.2890658,
          -0.04143863,
          -0.03502097,
          -0.052843712,
          0.53871113,
          -0.14009757,
          -0.0415728,
          -0.07936404,
          -0.26602992
        ],
        [
          -0.4465639,
          0.48772871,
          -0.28719127,
          0.2644288,
          -0.21723115,
          0.023775239,
          0.12205729,
          -0.36937165,
          0.122229315,
          -0.06867517,
          0.05937347,
          -0.015663827,
          0.34945518,
          0.053610045,
          -0.14879921,
          0.32951468
        ],
        [
          -0.4269004,
          0.24976513,
          -0.23285215,
          -0.0033860663,
          0.08530471,
          -0.032952495,
          0.40827003,
          -0.07659732,
          0.058067355,
          -0.08661226,
          0.043817148,
          -0.0054871435,
          -0.23425257,
          0.037865013,
          0.07207733,
          0.21467006
        ],
        [
          -0.06230188,
          0.14339139,
          0.4044196,
          0.2654579,
          -0.03203908,
          0.17468217,
          -0.45170847,
          -0.40234756,
          0.36729217,
          -0.36441794,
          0.38351434,
          -0.5144781,
          0.33499795,
          -0.35960782,
          0.24920674,
          0.51444626
        ],
        [
          -0.19284976,
          -0.12067776,
          -0.44037586,
          -0.42862043,
          0.040923912,
          -0.42964217,
          0.039558563,
          0.12912767,
          -0.41594347,
          0.70084226,
          -1.0458192,
          0.18564849,
          0.11581895,
          0.11219021,
          0.08398984,
          -0.63865554
        ],
        [
          -0.30389404,
          0.42540005,
          -0.25901815,
          0.08642115,
          -0.49407616,
          0.61376995,
          0.2856969,
          0.5064803,
          -1.0161542,
          1.0692502,
          -0.27912292,
          -0.201865,
          0.5867824,
          -0.060626898,
          0.19296062,
          0.7579506
        ],
        [
          0.4682508,
          0.1918333,
          -0.38340428,
          1.797601,
          0.28616053,
          0.55378485,
          0.6443102,
          -0.08567066,
          -0.50672793,
          0.32532406,
          -1.8159821,
          0.39473116,
          -0.7639656,
          0.25570273,
          -0.010071066,
          0.53520966
        ],
        [
          0.014244469,
          -0.24753329,
          0.23357724,
          -0.078196295,
          0.05442123,
          -0.27779606,
          0.12717429,
          -0.032098558,
          -0.25365698,
          -0.004574176,
          0.40695783,
          0.8977294,
          -0.4222983,
          -0.33758572,
          -0.6394764,
          -0.029532045
        ],
        [
          0.10969581,
          -0.0035420817,
          0.119900815,
          0.13136779,
          -0.01615386,
          0.54914296,
          -0.08560576,
          -0.035224415,
          -0.03896835,
          0.13927813,
          0.19948809,
          0.35855916,
          0.053377736,
          -0.026474835,
          -0.49906373,
          -0.38148177
        ],
        [
          0.23151952,
          0.4320316,
          -2.099157,
          1.7426103,
          0.011992434,
          -1.5634296,
          -0.55560434,
          1.2096577,
          -0.37582588,
          -1.1165203,
          0.061880026,
          -0.070465356,
          0.45566142,
          0.032002445,
          1.1233311,
          0.38457593
        ],
        [
          0.28608194,
          -0.076835416,
          -0.25512022,
          0.43847498,
          -0.039270613,
          -0.7848589,
          -0.05236332,
          -0.38051268,
          -0.07951565,
          -0.07484896,
          0.091575764,
          0.14795478,
          0.2755779,
          -0.019119117,
          0.11255443,
          -0.0708477
        ],
        [
          0.25293285,
          0.3169351,
          -0.14290409,
          0.03911985,
          -0.057149347,
          -0.15893337,
          -0.17100674,
          -0.20374693,
          -0.15785646,
          0.007603063,
          0.035310812,
          -0.011155755,
          -0.10024374,
          0.083373845,
          -0.012809721,
          -0.11520858
        ],
        [
          -1.1886526,
          0.4967236,
          0.46081272,
