{
  "Layers": [
    {
      "_wInc": 1,
      "_wDec": 1,
      "_wNothing": 557988056765,
      "EnableNNUE": true,
      "Weights": [
        [
          -0.32492983,
          0.47388035,
          0.5528059,
          -0.32446724,
          0.18583219,
          0.5793601,
          0.0699504,
          0.0006685267,
          0.78107035,
          -0.31500408,
          -0.7044815,
          0.058039855,
          -0.18521379,
          0.6315657,
          -0.018062128,
          -0.7453843
        ],
        [
          0.04154832,
          0.0077093584,
          -0.2481611,
          -0.28892848,
          0.054668117,
          -0.23454703,
          0.01173889,
          0.5802616,
          0.18889141,
          0.007881534,
          0.29436097,
          -0.38659808,
          -0.2200101,
          -0.026940681,
          -0.10316372,
          -0.23149323
        ],
        [
          0.07970898,
          -0.62744695,
          -1.0017929,
          -0.28373757,
          -0.2822595,
          -0.797785,
          -0.08541991,
          -0.7750382,
          0.30708492,
          0.3719749,
          0.9527787,
          -0.00817571,
          -0.16020317,
          0.15560912,
          -0.07475555,
          0.5648393
        ],
        [
          0.6000457,
          -0.11588831,
          0.3956718,
          0.31542236,
          0.2255466,
          -0.117315136,
          -0.43856138,
          0.72310513,
          4.085551,
          -0.9126358,
          -2.3678503,
          -0.21099527,
          -0.6318424,
          0.74860674,
          -0.61704624,
          -1.8654662
        ],
        [
          -0.28117964,
          0.11236812,
          -0.19806208,
          -0.098451994,
          0.2133073,
          -0.13762718,
          -0.8494812,
          -0.04328585,
          1.7260566,
          0.02739989,
          -1.7977183,
          -0.50665706,
          -0.26237643,
          0.26046592,
          -0.38446027,
          -0.34360042
        ],
        [
          0.05724886,
          0.21798733,
          0.19530495,
          0.060603518,
          -0.27986774,
          -0.02754269,
          -0.32727113,
          -0.023037925,
          0.57540786,
          0.2921719,
          -2.1134415,
          -0.4572774,
          0.003652704,
          0.27590615,
          -0.045786206,
          -0.113117576
        ],
        [
          0.17405663,
          -0.0061593363,
          -0.12235875,
          -0.06792896,
          -0.20544277,
          -0.030642154,
          -0.25108993,
          -0.25844747,
          0.12038838,
          -0.03905925,
          -0.48408774,
          -0.13996403,
          -0.07410975,
          0.067510635,
          -0.038241573,
          0.0471583
        ],
        [
          -0.028343292,
          -0.0073374347,
          -0.078676924,
          0.044202693,
          -0.21705057,
          -0.052224543,
          -0.15212871,
          -0.04161607,
          -0.72785354,
          -0.19989115,
          -0.35841244,
          -0.1743965,
          -0.012611769,
          -0.089591615,
          0.17221826,
          -0.07418447
        ],
        [
          -1.6714282,
          -0.29200804,
          -3.5426564,
          0.15222664,
          1.2065268,
          -1.1650125,
          0.91141206,
          -2.3343778,
          -8.332703,
          2.2459073,
          7.753532,
          1.5353621,
          1.0941261,
          -2.5892162,
          1.729103,
          4.4183044
        ],
        [
          -0.23671956,
          0.07616246,
          0.11873828,
          -0.012936203,
          0.023173964,
          0.018433433,
          0.101890035,
          0.08066238,
          0.07995462,
          0.13566725,
          0.4726001,
          0.07323521,
          0.21799912,
          -0.16605586,
          -0.0013374708,
          0.020291824
        ],
        [
          -0.08545975,
          0.017888486,
          0.29883954,
          -0.021197319,
          0.15703006,
          0.03356276,
          0.143342,
          0.1782555,
          1.0170155,
          0.11263584,
          0.16402015,
          -9.18078E-05,
          0.020014789,
          -0.04549331,
          -0.107673,
          0.014104994
        ],
        [
          0.4194668,
          0.17595728,
          -0.2984699,
          0.049224522,
          -0.010605355,
          0.29342684,
          1.0625985,
          -0.14872009,
          -1.7815882,
          0.41633332,
          1.3932331,
          0.29455516,
          0.5003057,
          -0.1290361,
          0.11474992,
          0.6182983
        ],
        [
          -0.12595649,
          0.066169515,
          -0.072473615,
          -0.14851421,
          0.15919258,
          0.020943139,
          0.3462297,
          -0.021972438,
          -1.0399779,
          0.11476922,
          0.9282939,
          0.036558483,
          0.13599482,
          -0.11163289,
          0.10625373,
          0.17642875
        ],
        [
          -0.24334067,
          -0.028167317,
          -0.0059308494,
          0.06634116,
          0.0738087,
          0.017020965,
          0.08280497,
          0.021346528,
          0.268543,
          0.135741,
          0.28062373,
          0.15236212,
          0.10606501,
          -0.017507536,
          0.009517129,
          0.22255996
        ],
        [
          -0.22400047,
          0.096259676,
          0.12239005,
          -0.124646634,
          0.1812649,
          0.048027575,
          0.033259075,
          0.11827781,
          0.39562058,
          0.06456232,
          0.29655883,
          -0.09175027,
          0.12368049,
          0.07324766,
          0.0041866126,
          0.12931424
        ],
        [
          -0.05004444,
          -0.030257806,
          0.013616405,
          0.07595604,
          0.044442188,
          0.057046987,
          0.04408675,
          0.013355637,
          0.38226214,
          0.21914597,
          0.4797875,
          -0.04925431,
          -0.0086877365,
          -0.052689184,
          0.06823806,
          -0.014442453
        ],
        [
          -0.08815424,
          -0.003310497,
          -0.0169692,
          0.057301354,
          0.22425938,
          -0.05380316,
          0.1730248,
          0.14403956,
          0.3957174,
          0.18340026,
          0.4851522,
          0.036470223,
          0.006214636,
          -0.027413312,
          0.0009084674,
          0.026390504
        ],
        [
          -0.15751746,
          -0.0765382,
          0.03410165,
          0.0944118,
          0.080679566,
          0.019792667,
          0.1175196,
          0.07157368,
          0.44570395,
          0.14743729,
          0.284353,
          0.17054436,
          0.16570552,
          -0.09147989,
          0.0002065814,
          0.08055172
        ],
        [
          -1.3004282E-05,
          -0.00390863,
          0.049052853,
          -0.07121808,
          0.17463422,
          0.07663056,
          -0.0113890385,
          0.23878737,
          0.3329706,
          0.080406085,
          0.27443996,
          0.053406343,
          -0.07003717,
          0.026266035,
          -0.052331146,
          -0.044751845
        ],
        [
          -0.114904284,
          -0.0047364533,
          -0.07697232,
          -8.504242E-05,
          0.066893265,
          0.16686037,
          0.122111544,
          0.08476814,
          0.37558398,
          0.15540181,
          0.24611568,
          0.1358617,
          -0.02355656,
          -0.05326837,
          -0.019765249,
          -0.012561116
        ],
        [
          -0.16677809,
          -0.057059877,
          0.00073175074,
          -0.030016955,
          0.083839,
          0.09629154,
          0.14670601,
          0.20546968,
          0.49960953,
          0.033417426,
          0.41193804,
          0.13372624,
          -0.07653097,
          -0.08069854,
          0.17601258,
          0.06052272
        ],
        [
          -0.2492501,
          -0.10530696,
          -0.11637299,
          0.08931235,
          0.18118137,
          0.15292367,
          0.09262346,
          0.15964119,
          0.43809977,
          0.17751388,
          0.29379097,
          0.017609917,
          -0.03624698,
          -0.049112227,
          0.13798225,
          0.09666581
        ],
        [
          -0.056099214,
          -0.12166632,
          0.0068041263,
          0.10292379,
          0.12070574,
          0.030621776,
          -0.056572825,
          0.15816264,
          0.39180908,
          -0.024787938,
          0.34693447,
          0.13768387,
          0.07213386,
          -0.0068449634,
          0.13074386,
          0.026775947
        ],
        [
          -0.090905875,
          -0.128215,
          -0.021292377,
          -0.08615541,
          -0.0015973219,
          0.1224401,
          0.038888436,
          0.12342582,
          0.5782869,
          0.09286535,
          0.28757444,
          0.20247194,
          -0.080694,
          -0.16915484,
          0.095957346,
          0.10809518
        ],
        [
          -0.00042688884,
          -0.031257033,
          0.09283312,
          -0.1175961,
          0.21539116,
          0.0009451016,
          0.08280034,
          0.11543442,
          0.4393954,
          -0.021853184,
          0.46485552,
          0.17684248,
          0.06686626,
          -0.1417618,
          0.039669525,
          -0.06975237
        ],
        [
          0.5770588,
          -0.025364261,
          0.7921731,
          0.09735207,
          0.23447224,
          0.18572436,
          -0.017615773,
          0.35262784,
          3.0882616,
          0.21065643,
          -1.9060295,
          0.1611629,
          0.05444459,
          -0.20281543,
          0.046417296,
          -0.23735386
        ],
        [
          0.18966833,
          0.081952244,
          0.30989498,
          -0.046024732,
          0.10263195,
          0.1500265,
          0.08516369,
          0.21713929,
          1.9655607,
          0.07379048,
          -0.7907016,
          0.07535309,
          -0.07569906,
          0.03810476,
          -0.09066221,
          0.11266807
        ],
        [
          -0.16813327,
          -0.08316269,
          0.12184054,
          -0.11982095,
          0.10304352,
          0.018040739,
          0.06732209,
          0.19524753,
          1.0515746,
          0.23186141,
          0.045943696,
          0.11059132,
          -0.1463977,
          0.02842096,
          -0.13758247,
          -0.038650714
        ],
        [
          -0.08931574,
          -0.018453488,
          0.14786357,
          0.02975544,
          0.07618889,
          0.012489205,
          0.11047675,
          0.12698169,
          0.4513109,
          0.22409482,
          0.30238578,
          0.14789796,
          -0.078063674,
          0.054707315,
          0.09438611,
          0.121606134
        ],
        [
          -0.15419373,
          -0.055532806,
          0.22335607,
          0.11238531,
          0.07615389,
          -0.03362979,
          0.03486783,
          0.18085982,
          0.43397626,
          0.06896237,
          0.518321,
          0.22155222,
          -0.05160501,
          -0.14712347,
          0.048554588,
          0.041718245
        ],
        [
          0.013406619,
          0.078269444,
          0.22909957,
          -0.04856712,
          0.17135412,
          0.09413271,
          0.053268984,
          0.19825159,
          0.48731682,
          0.09448327,
          0.28252724,
          0.036604244,
          0.028866084,
          0.041976433,
          -0.054570623,
          0.027949378
        ],
        [
          -0.055752553,
          0.08894565,
          0.015675006,
          -0.051023085,
          0.12351583,
          0.11365363,
          0.24658751,
          0.18322356,
          0.4704788,
          0.02254611,
          0.40676597,
          0.11211622,
          0.090818115,
          0.04798011,
          -0.0738867,
          0.10908256
        ],
        [
          -0.058735587,
          0.014726073,
          -0.0099146925,
          0.011047382,
          0.12357332,
          0.006028848,
          0.2002337,
          0.12328897,
          0.41513202,
          0.19437997,
          0.48281386,
          0.14676422,
          -0.086986534,
          0.081197016,
          0.14678133,
          0.09778818
        ],
        [
          -0.11550665,
          0.023128523,
          0.19817317,
          0.013764847,
          0.15301955,
          0.008028606,
          0.022165036,
          0.32251602,
          0.49660605,
          -0.021655725,
          0.3920398,
          0.14944059,
          0.058555428,
          0.06471115,
          -0.049651656,
          0.034056462
        ],
        [
          -0.16347387,
          -0.08860747,
          0.15260738,
          0.024743786,
          0.12354,
          0.059453882,
          0.12504746,
          0.13690524,
          0.48531285,
          -0.024438815,
          0.36840597,
          0.1707679,
          -0.020845542,
          -0.019224074,
          -0.03226455,
          0.06525063
        ],
        [
          -0.055112183,
          -0.11286347,
          0.1738843,
          0.040630076,
          0.05780894,
          0.048231073,
          0.104619965,
          0.14281844,
          0.35771272,
          0.027753098,
          0.20149502,
          0.19019717,
          0.033715628,
          0.13634281,
          0.03630795,
          -0.06264963
        ],
        [
          -0.16828537,
          0.111091755,
          0.015753774,
          0.057523023,
          0.20361727,
          0.0733645,
          0.029758174,
          0.19798042,
          0.40854087,
          0.11207774,
          0.39556238,
          0.08499365,
          -0.16490613,
          0.039658222,
          0.017299807,
          0.116377376
        ],
        [
          -0.18767169,
          0.0077651953,
          0.14799774,
          -0.067779146,
          0.21908322,
          0.16877016,
          0.050425425,
          0.15098776,
          0.40177307,
          0.066970825,
          0.53617376,
          0.09047478,
          -0.0950812,
          -0.0394048,
          -0.09830546,
          0.054243915
        ],
        [
          -0.048907377,
          0.067243315,
          -0.05584326,
          -0.074970715,
          0.25776383,
          0.021858828,
          0.047179993,
          0.20682295,
          0.382517,
          -0.10710932,
          0.44154182,
          0.08790774,
          0.10125261,
          0.17106526,
          0.071991295,
          -0.03496658
        ],
        [
          -0.07598636,
          -0.11476961,
          0.3339609,
          -0.5857156,
          1.2120246,
          -0.83034366,
          0.5150004,
          0.8661875,
          1.1517279,
          0.017509356,
          0.20915209,
          -0.24509177,
          -0.7024205,
          -0.045516647,
          -0.047547743,
          -1.2259825
        ],
        [
          0.12939785,
          -0.0890442,
          0.21489032,
          0.23453704,
          0.7677312,
          -0.6932033,
          -0.46286926,
          0.60734624,
          1.7326748,
          0.08145716,
          0.39128712,
          0.07394219,
          -0.0048255683,
          0.27310142,
          0.5290289,
          -0.9093
        ],
        [
          0.0006968063,
          -0.14567655,
          0.09177835,
          0.30917355,
          0.9587334,
          0.11191231,
          -0.31012064,
          0.34114313,
          1.2948923,
          -0.12395906,
          0.07724209,
          0.031372722,
          -0.09160178,
          0.18991993,
          0.44262144,
          -0.4041972
        ],
        [
          0.018487494,
          -0.090955876,
          0.15298176,
          0.04267708,
          0.19774157,
          0.12732305,
          0.11031425,
          0.10241545,
          0.59079134,
          -0.1586517,
          0.31840727,
          0.09217838,
          -0.14273222,
          0.10760016,
          0.11485655,
          -0.0038384348
        ],
        [
          -0.17920086,
          -0.08430826,
          0.10906206,
          -0.067327194,
          0.026461044,
          0.066267245,
          0.13634774,
          0.20975389,
          0.4885535,
          -0.048128705,
          0.49589297,
          -0.02792516,
          -0.06794527,
          -0.0333449,
          0.096758924,
          0.088756
        ],
        [
          -0.20105758,
          0.07047466,
          0.16000876,
          0.036624376,
          0.020887053,
          0.09739925,
          0.00022586418,
          0.08304507,
          0.36026123,
          -0.042944882,
          0.39771685,
          -0.028482199,
          0.049097046,
          0.06964391,
          -0.012557046,
          0.08124716
        ],
        [
          -0.2482305,
          0.119202055,
          -0.22270821,
          -0.2419481,
          0.43519187,
          -0.18256626,
          -0.3142105,
          -1.2594069,
          0.44012722,
          0.32149923,
          1.8119022,
          -0.38830534,
          -0.22557351,
          0.41594198,
          0.029989546,
          0.64885575
        ],
        [
          -0.32249153,
          0.3122604,
          -0.32333517,
          -0.21743356,
          0.32254833,
          0.012730761,
          0.07450095,
          -0.19927882,
          -0.76138824,
          0.20412853,
          2.0053506,
          0.07902606,
          -0.5654778,
          0.28940248,
          0.01898594,
          0.4031806
        ],
        [
          -0.23499814,
          0.13776776,
          -0.17073067,
          -0.20964377,
          0.048980143,
          -0.061115146,
          -0.28223532,
          -0.11564424,
          0.06618553,
          0.37996417,
          1.3099396,
          0.036711957,
          -0.0072107906,
          0.29558688,
          -0.01279925,
          0.44091737
        ],
        [
          -0.24213672,
          -0.030582726,
          -0.05088343,
          -0.0061135893,
          0.059374455,
          -0.069839075,
          0.1123468,
          0.13483997,
          0.35765073,
          0.16296722,
          0.52261215,
          0.11300407,
          -0.07799902,
          -0.00842678,
          0.04593197,
          0.034374446
        ],
        [
          -0.21241978,
          -0.022437835,
          0.017626677,
          0.12965253,
          0.037415367,
          0.03491422,
          0.1289533,
          0.08527652,
          0.40304044,
          -0.023461457,
          0.37588915,
          0.20832682,
          -0.03981233,
          -0.07351931,
          0.00011211643,
          0.05504658
        ],
        [
          -0.08563353,
          -0.096835814,
          -0.02291327,
          -0.024096603,
          0.005117882,
          0.12486912,
          0.077497795,
          0.1235385,
          0.3895919,
          0.1433418,
          0.44756994,
          0.02042137,
          0.03268595,
          -0.07783889,
          0.004882117,
          0.12164471
        ],
        [
          0.09741418,
          -0.2712196,
          -0.109780915,
          -0.08098418,
          -0.058690146,
          0.08761843,
          0.03042778,
          -0.12926535,
          -0.85358685,
          0.015608769,
          -0.015632607,
          -0.20241374,
          -0.11762923,
          0.16614546,
          -0.23388565,
          0.13088946
        ],
        [
          -0.5531406,
          0.06588192,
          0.6391065,
          0.79920256,
          0.44809815,
          -0.40590933,
          -0.81761134,
          1.0253261,
          -0.4492311,
          -0.7662984,
          0.9782144,
          0.1849904,
          0.0024998202,
          -1.2336047,
          0.44099554,
          -0.5675152
        ],
        [
          -0.16928197,
          0.21483386,
          0.062159844,
          0.26070368,
          -0.18348543,
          0.899122,
          -0.23469406,
          -0.25609294,
          -0.42147842,
          0.48312363,
          0.061100073,
          -0.3647982,
          0.33544683,
          -0.82204086,
          -0.178207,
          0.5029362
        ],
        [
          -0.13959055,
          0.17511067,
          0.038561415,
          0.13022669,
          -0.1268452,
          -0.02357965,
          -0.21682206,
          0.15463684,
          -0.10943219,
          -0.30659327,
          -0.6165674,
          -0.38039842,
          0.14953913,
          -0.4203719,
          0.0701408,
          -0.37623465
        ],
        [
          -0.582394,
          -0.600487,
          0.50680983,
          0.020253854,
          -0.20295383,
          -0.70775604,
          -0.841301,
          0.45684972,
          0.17774351,
          -0.55328006,
          -0.7326292,
          -0.61479574,
          0.4601105,
          -0.3874171,
          -1.5659727,
          -0.24460506
        ],
        [
          -0.31673864,
          0.096307635,
          0.40092623,
          -0.8300256,
          0.16145732,
          -0.30854365,
          0.70958483,
          0.01310441,
          1.4468755,
          0.02974624,
          -0.98379254,
          -0.7554987,
          0.07667531,
          0.46595627,
          0.5106097,
          0.12969065
        ],
        [
          0.25704187,
          0.24338739,
          0.3982449,
          0.045743924,
          0.06470966,
          0.006880764,
          -0.21062116,
          -0.21881631,
          0.19907424,
          -0.0049241856,
          -0.9148988,
          -0.020327177,
          0.07674731,
          0.23762973,
          -0.12061359,
          0.012215012
        ],
        [
          0.13054624,
          -0.08862014,
          0.15749764,
          0.22809725,
          -0.08786521,
          0.123789944,
          -0.4016458,
          -0.6993823,
          -1.5508883,
          0.115271024,
          1.8100615,
          -0.22076999,
          -0.2842917,
          0.3563766,
          -0.12620792,
          0.40290564
        ],
        [
          -0.28771812,
          -0.7017866,
          -0.4101396,
          0.47820398,
          0.4608202,
          -1.3409817,
          -1.3707747,
          -0.08285977,
          1.1680273,
          -0.6673489,
          0.09528328,
          0.20565708,
          -0.94713694,
          0.40861648,
          0.46908957,
          -0.6297532
        ],
        [
          -0.5517979,
          0.22209518,
          -0.56372017,
          -0.33664638,
          -0.39316633,
          0.2799136,
          -0.54494596,
          -0.91527605,
          -0.36781082,
          -0.46271947,
          -0.20071234,
          -0.9315108,
          -0.5562867,
          0.6404657,
          -0.07439137,
          0.37534028
        ],
        [
          -0.6809688,
          -0.5938323,
          -0.1055894,
          0.25067717,
          0.23077701,
          -1.0389166,
          -1.375961,
          0.37059566,
          1.6748557,
          -1.0966631,
          -1.1906989,
          -0.21210867,
          -0.60440964,
          0.04638967,
          0.65714025,
          -0.7772074
        ],
        [
          -0.9714757,
          0.16475198,
          -1.1986501,
          -0.5201713,
          -0.59482276,
          -1.0690236,
          -0.05560051,
          -0.8182124,
          -1.2105956,
          -0.1895366,
          0.8358922,
          -1.0334854,
          -0.8955633,
          0.57034695,
          -0.35910648,
          0.7804686
        ],
        [
          -0.043259863,
          -0.36940655,
          -0.33694518,
          0.16585238,
          0.16863137,
          -0.9556598,
          -0.2837248,
          -0.07257245,
          0.54788095,
          -0.39906046,
          0.064166725,
          0.035311367,
          -0.43895316,
          0.19383082,
          0.39098036,
          -0.46423462
        ],
        [
          -0.5138367,
          0.1937167,
          -0.40256196,
          -0.3017528,
          -0.39862216,
          0.07588958,
          -0.2291434,
          -0.8016581,
          0.030104652,
          -0.30061272,
          -0.23371495,
          -0.8415669,
          -0.27717894,
          0.25835645,
          -0.12791209,
          0.21534969
        ],
        [
          -0.03633535,
          -0.0762927,
          -0.17861566,
          0.016351761,
          -0.20076638,
          -0.047767065,
          -0.22007814,
          -0.1137131,
          -0.3769847,
          -0.19795544,
          -0.3431538,
          -0.058725923,
          -0.042584963,
          0.015885945,
          0.033798296,
          -0.02339286
        ],
        [
          0.012498557,
          0.14232782,
          -0.004733579,
          -0.428897,
          -0.09904205,
          -0.0040592398,
          -0.08383417,
          -0.16793334,
          -0.69193375,
          -0.1420843,
          0.21290667,
          -0.12458852,
          -0.11510268,
          0.056241907,
          0.01032526,
          -0.30495435
        ],
        [
          -0.11043178,
          0.03254577,
          0.060699847,
          0.025804186,
          -0.20394023,
          0.22935289,
          -0.15504149,
          -0.19144444,
          -0.53241545,
          0.010471501,
          0.16650479,
          -0.08849562,
          0.04117507,
          0.12243074,
          -0.116821766,
          -0.2561057
        ],
        [
          -0.119400784,
          -0.01612425,
          -0.46537313,
          0.39451277,
          -0.24374537,
          0.86562407,
          -0.18093002,
          -0.45973253,
          -0.5007005,
          0.5274319,
          0.36544338,
          -0.122690275,
          -0.31923115,
          0.35249537,
          -0.04676914,
          0.4537049
        ],
        [
          0.07180389,
          -0.0018325907,
          0.030277992,
          0.23860009,
          0.69276273,
          0.042212985,
          -0.08032756,
          -0.07743789,
          0.7497574,
          0.16122425,
          1.7423416,
          0.23531641,
          0.11432416,
          0.23455407,
          -0.038066786,
          0.20503207
        ],
        [
          -0.042840634,
          0.07040514,
          -0.006247477,
          -0.1042168,
          0.0834677,
          0.046780083,
          -0.033818927,
          0.13350059,
          -0.14701256,
          -0.0012388594,
          0.6784036,
          0.23935713,
          0.08216768,
          -0.042396527,
          -0.039964948,
          0.24090883
        ],
        [
          0.083884895,
          0.02322294,
          -0.18682107,
          0.03175115,
          -0.19757214,
          0.002784477,
          -0.17596558,
          -0.08103833,
          -0.55157423,
          -0.17449151,
          -0.26512012,
          0.08482061,
          -0.047551475,
          0.030572422,
          0.106984995,
          -0.106415026
        ],
        [
          -0.015871555,
          -0.020215841,
          0.109424666,
          0.23377758,
          -0.03286359,
          0.10014236,
          -0.12722343,
          -0.39949805,
          -0.47357386,
          -0.35139576,
          -0.33529893,
          -0.19624063,
          0.17726062,
          -0.13531794,
          0.1077892,
          0.111099
        ],
        [
          -0.24792564,
          -0.03917789,
          0.37537554,
          -0.0058522685,
          0.08013701,
          -0.14029676,
          -0.27038813,
          -0.10360702,
          0.32287398,
          -0.112616956,
          -0.58555186,
          -0.0061155246,
          0.08204597,
          -0.17613016,
          0.15024409,
          -0.21241157
        ],
        [
          -0.10512703,
          0.09536047,
          0.48569158,
          0.12893833,
          0.32169375,
          -0.19333288,
          0.080011554,
          0.9228605,
          0.86500615,
          -0.03790616,
          -0.03884718,
          -0.11465369,
          -0.10177564,
          -0.0958524,
          0.22886622,
          -0.77425224
        ],
        [
          0.14808387,
          0.20002252,
          0.076190904,
          0.09263713,
          1.0795383,
          -0.64316773,
          -0.33148295,
          0.12675926,
          0.6972556,
          0.12229952,
          1.0428665,
          0.17667316,
          0.24258943,
          -0.2746411,
          0.20470949,
          -0.37461323
        ],
        [
          0.0073906914,
          -0.05305147,
          0.0017943153,
          0.05572796,
          0.25416404,
          0.16323216,
          -0.01012554,
          0.22378267,
          0.7043908,
          0.24688613,
          0.18911074,
          0.22820261,
          0.08931993,
          0.00911446,
          0.09722616,
          0.04009488
        ],
        [
          -0.12829967,
          -0.063941605,
          -0.6051021,
          -0.20012124,
          0.036316067,
          0.1560543,
          0.10805498,
          0.27171588,
          -0.18632142,
          0.50312227,
          0.57256925,
          -0.34180027,
          -0.26915133,
          0.22950062,
          0.05759922,
          0.098928794
        ],
        [
          -0.17804684,
          0.18940356,
          -0.15915586,
          0.07495729,
          0.22137663,
          0.0068562585,
          0.29361516,
          -0.3340586,
          0.60949486,
          0.3112798,
          0.41104022,
          -0.7829098,
          -0.5748056,
          -0.30373216,
          0.10114904,
          0.23172396
        ],
        [
          -0.1423858,
          0.073831454,
          0.23671284,
          -0.3226231,
          -0.011696806,
          -0.03264113,
          -0.5371789,
          0.49358693,
          -0.20380406,
          -0.003071115,
          0.53046495,
          -0.31098673,
          -0.43107325,
          -0.080887005,
          -0.05506619,
          0.1253135
        ],
        [
          -0.05560239,
          -0.030772416,
          -0.29786664,
          0.096421726,
          -0.3626087,
          0.2779012,
          -0.13325791,
          0.23270233,
          -0.3773525,
          0.5138495,
          0.086165085,
          -0.67642635,
          -0.13348526,
          0.10170247,
          -0.046877183,
          -0.017808855
        ],
        [
          -0.13050263,
          -0.02688876,
          0.29506588,
          -0.2990475,
          -0.37219727,
          -0.18621306,
          0.34946707,
          -0.47616094,
          -0.14894018,
          -0.15320826,
          0.6224466,
          -0.6850784,
          0.04370298,
          -0.030586176,
          -0.039105367,
          0.48820385
        ],
        [
          -0.1253143,
          0.07108247,
          -0.074474655,
          -0.018517276,
          0.12406132,
          -0.31616393,
          0.29246294,
          0.30438864,
          0.2883876,
          -0.19775459,
          0.35771397,
          -0.44789162,
          0.07374739,
          0.08483763,
          -0.0822441,
          0.16915457
        ],
        [
          -0.028219426,
          -0.016839737,
          0.31555167,
          -0.19539595,
          0.19608317,
          -0.18070604,
          -0.35934314,
          0.49513647,
          0.5397242,
          0.23669475,
          0.24956156,
          0.33868173,
          0.37213895,
          0.06800403,
          -0.13776325,
          -0.8317289
        ],
        [
          0.00835906,
          0.07466317,
          0.6356411,
          -0.17571557,
          0.37834623,
          -0.19104005,
          0.017016899,
          0.3699,
          0.014068394,
          0.010819314,
          -0.12708697,
          0.33163002,
          0.6747673,
          -0.042437594,
          0.0357654,
          -0.2909252
        ],
        [
          -0.045185905,
          -0.013906369,
          0.3406148,
          -0.020921938,
          -0.18631221,
          -0.20935933,
          -0.2935526,
          -0.056434236,
          -0.24385901,
          -0.42585322,
          -0.10600873,
          -0.023537828,
          0.24918994,
          0.020595897,
          0.047976453,
          -0.073689535
        ],
        [
          -0.060789485,
          0.0042785383,
          0.5643084,
          -0.16446468,
          0.21953635,
          -0.019089656,
          -0.4109632,
          -0.049309887,
          0.20943895,
          -0.21878675,
          0.4562958,
          0.10665567,
          -0.09871157,
          0.20079504,
          0.056511883,
          0.10324157
        ],
        [
          -0.0143567845,
          -0.051433053,
          0.018912945,
          0.10279792,
          -0.015132593,
          0.46599075,
          -0.066439174,
          -0.2252139,
          0.059511207,
          -0.1790638,
          -0.037278883,
          -0.3080891,
          -0.42272043,
          -0.11535026,
          -0.06755075,
          0.015662083
        ],
        [
          -0.08239527,
          -0.07666215,
          0.11226615,
          -0.09186168,
          0.30962053,
          -0.09061921,
          0.27030796,
          0.21519126,
          0.92007625,
          -0.17226519,
          -0.12040746,
          0.27861744,
          -0.0185017,
          0.019704506,
          0.061055835,
          -0.20590375
        ],
        [
          -0.48517138,
          -0.194714,
          0.13191801,
          -0.15306224,
          0.15864003,
          -0.30623075,
          -1.0756351,
          0.11456263,
          1.5522547,
          -0.56181943,
          -1.3338149,
          -0.24159205,
          -0.72940713,
          0.3341136,
          0.02469485,
          -0.7449172
        ],
        [
          -0.682835,
          0.016566154,
          -0.8690205,
          0.021438805,
          -0.074835144,
          -0.39509928,
          -0.11875119,
          -0.44163564,
          -3.2293878,
          -0.084697284,
          1.9411474,
          -0.17384087,
          -0.2437111,
          0.11440512,
          0.21722502,
          0.30239975
        ],
        [
          0.05986736,
          -0.05650242,
          -0.024376351,
          -0.024716124,
          -0.07524071,
          0.0615022,
          -0.33290383,
          -0.0031058039,
          -0.06594999,
          -0.07666193,
          -0.557121,
          -0.022782955,
          -0.020549374,
          0.09259059,
          0.05499257,
          -0.13658515
        ],
        [
          0.14158832,
          0.19245389,
          0.10300848,
          -0.06981647,
          -0.1170429,
          0.09022046,
          0.048987564,
          -0.26845735,
          0.30454418,
          -0.14179555,
          -0.73983324,
          0.060193434,
          0.01516057,
          0.20418926,
          -0.048825916,
          -0.19379975
        ],
        [
          -0.05175763,
          -0.026900606,
          0.16697876,
          0.25021937,
          -0.28779373,
          -0.09656152,
          0.5042443,
          -0.40602478,
          -0.17720734,
          0.06734636,
          0.40476593,
          0.071835525,
          -0.12308799,
          0.16702043,
          -0.10608874,
          0.381394
        ],
        [
          0.22980785,
          -0.17887017,
          -0.17990229,
          0.17717198,
          0.2856751,
          -0.32770428,
          0.25324303,
          -0.332369,
          0.08724193,
          0.017977588,
          0.24728832,
          0.35200882,
          -0.38896087,
          0.091078006,
          0.23396212,
          -0.030599372
        ],
        [
          0.56292504,
          0.8554374,
          0.07234589,
          -0.16780198,
          -0.99520165,
          0.3200533,
          -0.62984055,
          -1.0770526,
          -0.97531116,
          0.23588623,
          1.8260045,
          -0.5090812,
          -0.939414,
          -0.43604138,
          -0.32448572,
          1.1531255
        ],
        [
          -0.0071594142,
          0.27459183,
          1.0123988,
          1.1622541,
          -0.421087,
          0.84974396,
          -1.8390303,
          -0.6717576,
          -0.074635975,
          0.23699124,
          0.44508725,
          0.112349786,
          1.2044241,
          -1.0811532,
          0.6556317,
          0.8332575
        ],
        [
          0.092812926,
          -0.086124904,
          -0.06752762,
          -0.040688295,
          -0.1008431,
          0.21619236,
          0.17358045,
          -0.120078206,
          -0.932449,
          -0.103168085,
          0.4729906,
          -0.020940945,
          0.18284284,
          -0.0055815545,
          0.10584196,
          0.011943894
        ],
        [
          0.40080127,
          0.02738958,
          0.12074601,
          0.1003438,
          0.013762576,
          0.15718885,
          0.19189747,
          -0.119952485,
          -0.544014,
          -0.08611583,
          0.3211673,
          0.18637532,
          0.32215562,
          -0.28931105,
          0.16747198,
          -0.06893979
        ],
        [
          -0.03966692,
          -0.1528024,
          0.22642687,
          -0.2700075,
          0.23193948,
          0.06601059,
          -0.17872055,
          0.18921416,
          0.6673469,
          -0.12693745,
          -0.036712307,
          0.029305605,
          -0.055947635,
          -0.2100036,
          -0.0072054896,
          -0.59870166
        ],
        [
          0.121245496,
          0.0061710533,
          0.038128946,
          -0.26342666,
          0.570325,
          0.20801167,
          -0.37675166,
          0.41387072,
          0.033255573,
          -0.26358917,
          0.66136336,
          0.05663083,
          -0.32880533,
          -0.18292549,
          0.052613165,
          -0.8132473
        ],
        [
          0.3774613,
          0.40298328,
          -0.45882156,
          0.31390652,
          0.46794477,
          -0.96171033,
          -0.12503254,
          -0.38118577,
          -0.2613292,
          0.4641518,
          1.4301081,
          -0.18793912,
          -0.41526857,
          0.23612791,
          -0.29787257,
          0.20649368
        ],
        [
          0.2790739,
          0.72886866,
          0.9364634,
          -0.14153068,
          0.90416443,
          -0.085430756,
          -0.017478518,
          0.22400902,
          -0.28631705,
          -0.1445912,
          0.66243666,
          0.34419355,
          0.3860888,
          -0.7576938,
          0.687737,
          0.026580168
        ],
        [
          0.41157943,
          0.069883846,
          -0.025970535,
          -0.0055383984,
          -0.35426447,
          0.37790594,
          0.60818875,
          -0.11643734,
          -1.2564546,
          -0.48504293,
          0.53933215,
          -0.14798783,
          0.16863415,
          -0.031905945,
          0.2005463,
          0.33092174
        ],
        [
          -0.28115323,
          0.15088226,
          -0.4356468,
          0.49799553,
          -0.2885538,
          0.65004814,
          0.506047,
          -0.22643617,
          -0.993001,
          0.44155353,
          0.09295431,
          0.33037013,
          0.54756135,
          -0.8882403,
          -0.13863406,
          0.5495857
        ],
        [
          0.41689426,
          -0.36117163,
          -0.71504694,
          -0.71335435,
          0.5765727,
          -0.62971854,
          -0.6526171,
          -0.1359698,
          -0.7403067,
          -0.18699047,
          0.13727878,
          0.00022164594,
          -0.055834386,
          0.24356721,
          -0.12932733,
          0.08930395
        ],
        [
          0.5891301,
          0.27822113,
          0.3909441,
          -0.45798817,
          0.52713543,
          -1.0426574,
          -0.11125754,
          -0.2058967,
          -0.07463423,
          0.38268647,
          -0.9231058,
          0.1386452,
          -0.4798684,
          0.31408507,
          -0.06354469,
          -0.0031023086
        ],
        [
          0.08385052,
          0.6622445,
          0.5308629,
          1.0044682,
          -0.032540042,
          0.78916425,
          0.4040294,
          -0.80969197,
          -1.0833378,
          0.055995453,
          -0.023526626,
          -0.7850946,
          -0.35347143,
          0.06986212,
          -0.43520647,
          0.9171469
        ],
        [
          -0.08996107,
          0.08153292,
          -0.064294405,
          -0.028148476,
          -0.029176014,
          -0.048514687,
          -0.100276895,
          0.12076151,
          0.00028572854,
          0.014660564,
          0.047648847,
          0.008574082,
          0.05583958,
          -0.018821245,
          -0.07345728,
          -0.058060262
        ],
        [
          0.31854552,
          0.124419264,
          0.43203953,
          0.18087317,
          -0.388887,
          -0.29600093,
          0.5145067,
          0.00067299046,
          1.0901395,
          -0.18809639,
          -1.2538928,
          -0.1994105,
          -0.8331413,
          -0.03523668,
          -0.06586596,
          -0.26799467
        ],
        [
          0.39685947,
          -0.19030994,
          0.33517763,
          0.14683057,
          0.014973947,
          -0.46078932,
          -0.34331366,
          0.52496964,
          -0.30183026,
          -1.0030689,
          -0.86197037,
          0.26446784,
          0.034716953,
          0.1841066,
          -0.12856443,
          0.256965
        ],
        [
          0.45388848,
          -0.11393497,
          -0.20563765,
          0.21862043,
          -0.22531804,
          -0.06520312,
          0.20073287,
          -0.07399897,
          0.035449315,
          -0.42620242,
          -0.4176934,
          0.04995473,
          0.22672941,
          -0.029501462,
          -0.39867947,
          0.4453892
        ],
        [
          0.28320214,
          0.8219763,
          0.0068817837,
          0.43773603,
          -0.31355378,
          -0.5424293,
          1.1554064,
          -0.44539502,
          -0.6127326,
          -0.77415544,
          -0.043045606,
          0.56592935,
          0.47066954,
          -0.9327904,
          0.04929329,
          0.6542279
        ],
        [
          0.88044083,
          -0.75485784,
          -0.4994363,
          -0.040859483,
          -0.66693884,
          0.35593754,
          0.08483545,
          0.5345063,
          0.25050148,
          0.99543804,
          -0.5641737,
          -0.5564271,
          0.2493202,
          0.48139107,
          1.1181003,
          -0.7676425
        ],
        [
          -0.06968592,
          -0.029350234,
          -0.045429714,
          -0.030913802,
          0.016803391,
          -0.097958624,
          0.02133689,
          0.0025520131,
          -0.06641739,
          -0.011682176,
          0.10824419,
          0.12626243,
          -0.057591822,
          0.08868312,
          0.010441454,
          0.056070816
        ],
        [
          -0.027616782,
          0.20665583,
          -0.040072713,
          0.0026426641,
          -0.0562196,
          -0.31002703,
          0.06559088,
          -0.07362056,
          0.18673451,
          0.023502715,
          -0.7610612,
          0.09877507,
          -0.29561985,
          0.14823435,
          0.00042918796,
          -0.058210816
        ],
        [
          0.069332555,
          0.011559615,
          -0.40151292,
          0.42004043,
          0.09328215,
          -0.0889805,
          -0.80880195,
          -0.14865617,
          0.15413712,
          0.23602642,
          -0.8099255,
          -0.53948003,
          -0.18282375,
          -0.0052755764,
          -0.15426774,
          -0.34877026
        ],
        [
          0.09756243,
          0.019742357,
          -0.06665557,
          0.2937203,
          -0.16472362,
          -0.0071284617,
          0.05460226,
          -0.17987435,
          0.5476201,
          -0.113146834,
          -0.5147509,
          -0.08457902,
          -0.21457866,
          0.1527487,
          0.012941205,
          -0.06374137
        ],
        [
          0.19687526,
          -0.03940065,
          -0.16929044,
          0.059099875,
          0.06676121,
          -0.36220998,
          -0.1325305,
          -0.021312365,
          0.59573156,
          -0.24044783,
          -0.53603697,
          -0.13032126,
          0.13478641,
          0.21678723,
          0.0847636,
          -0.2696614
        ],
        [
          0.2334739,
          -0.08349006,
          0.055926494,
          -0.011376044,
          -0.29124418,
          -0.027547045,
          -0.09400991,
          -0.107497945,
          0.3264516,
          -0.2722269,
          -0.41131374,
          -0.10800557,
          -0.02113837,
          0.11727001,
          -0.00067221816,
          0.107814796
        ],
        [
          -0.057952143,
          -0.0136312945,
          -0.30965042,
          -0.011972063,
          -0.2579822,
          0.015082256,
          -0.25453866,
          -0.2896514,
          -0.43788794,
          0.11881283,
          -0.1602291,
          -0.05240757,
          -0.0572964,
          -0.1561499,
          -0.16011934,
          0.08215441
        ],
        [
          -0.010403524,
          -0.0124483,
          -0.13892141,
          -0.25691918,
          -0.16348954,
          -0.26680958,
          0.040562864,
          0.036582377,
          -0.7458537,
          -0.0038231567,
          -0.30682907,
          -0.095427506,
          -0.4020898,
          -0.17107713,
          -0.039435096,
          -0.070944004
        ],
        [
          -0.01684172,
          0.017910017,
          -0.18732254,
          0.3613486,
          -0.00022823545,
          -0.13688958,
          -0.098498285,
          0.011245986,
          -0.75272757,
          -0.0745661,
          0.14797679,
          -0.15780392,
          -0.29937553,
          -0.03827046,
          0.04325425,
          -0.08729195
        ],
        [
          0.1559763,
          -0.014879676,
          -0.0055511803,
          -0.01791329,
          0.06981404,
          0.017295811,
          0.056564257,
          -0.19564745,
          -0.050369956,
          -0.35840335,
          0.27492896,
          -0.2039037,
          -0.122240655,
          0.10361561,
          -0.025999019,
          -0.12238432
        ],
        [
          0.028704518,
          -0.018221768,
          -0.065211214,
          -0.23675826,
          -0.008163652,
          -0.4694709,
          -0.19555992,
          0.18824817,
          -0.38565454,
          -0.2724456,
          0.16476882,
          0.21002582,
          0.08893337,
          -0.014198344,
          -0.10985447,
          -0.20717497
        ],
        [
          -0.0006900682,
          -0.1029764,
          -0.16253336,
          0.013932006,
          -0.315622,
          0.13143323,
          0.31179816,
          -0.53085184,
          -0.22401795,
          -0.12596087,
          -0.52358454,
          -0.21073933,
          0.13272925,
          -0.16192244,
          -0.02706106,
          0.41126287
        ],
        [
          0.14554596,
          0.092506446,
          0.03705666,
          -0.22782241,
          -0.19105059,
          0.071427085,
          0.034351494,
          0.058984958,
          -1.3214716,
          -0.31192046,
          -0.039886188,
          -0.16323546,
          0.057459306,
          -0.087592416,
          -0.07653629,
          -0.012822439
        ],
        [
          0.047288645,
          -0.048954237,
          0.31124675,
          -0.13472413,
          -0.52426755,
          0.05241575,
          0.22278,
          -0.04802003,
          -0.7978725,
          -0.24951199,
          -0.12870859,
          -0.017237477,
          -0.08833097,
          -0.11229906,
          -0.04553381,
          -0.0297385
        ],
        [
          0.15962641,
          0.13888328,
          -0.07493565,
          -0.0845333,
          -0.32341397,
          0.41805467,
          -0.31060722,
          -0.22930866,
          -0.9060047,
          0.1908539,
          0.09995556,
          -0.37571692,
          -0.048063375,
          0.03279121,
          0.10093256,
          -0.102409646
        ],
        [
          -0.07396602,
          0.065658264,
          0.09439876,
          -0.32272133,
          -0.08227985,
          0.06990322,
          -0.07879331,
          -0.28740156,
          -0.47952443,
          -0.051992867,
          -0.25443363,
          0.114584714,
          0.24359013,
          -0.21234289,
          -0.09371125,
          0.005219603
        ],
        [
          0.08574275,
          0.13856809,
          -0.06967055,
          -0.066696204,
          -0.10346439,
          -0.046707552,
          0.012557135,
          0.063613296,
          -0.22576363,
          -0.061187282,
          0.350264,
          -0.0655286,
          -0.080777854,
          0.15334827,
          -0.098526105,
          -0.07288632
        ],
        [
          0.05227862,
          0.015543511,
          0.1356386,
          -0.08776242,
          -0.44571918,
          0.10403428,
          0.17506585,
          -0.24167806,
          -1.1131486,
          0.16381127,
          -0.044730563,
          0.10375436,
          -0.01427222,
          -0.04055714,
          -0.0049428954,
          0.11959741
        ],
        [
          0.21249822,
          0.045398917,
          -0.25164118,
          -0.108995244,
          -0.26513422,
          0.035339165,
          0.034839064,
          -0.113385856,
          -0.92617154,
          0.22757481,
          -0.3171578,
          0.23049496,
          0.03430359,
          -0.12167086,
          -0.06501082,
          -0.15266292
        ],
        [
          -0.096686766,
          -0.010051483,
          0.04071508,
          0.16974269,
          -0.20591106,
          -0.15998325,
          -0.22165847,
          -0.12135876,
          -0.6641999,
          -0.11053341,
          -0.25973755,
          -0.152864,
          0.19641928,
          -0.060592987,
          -0.037132405,
          -0.049176197
        ],
        [
          0.018311398,
          0.034937024,
          -0.19145007,
          -0.08820259,
          0.0350128,
          -0.26292458,
          0.072602205,
          -0.268132,
          -0.5446739,
          -0.13950482,
          -0.19767813,
          0.0347121,
          0.06355177,
          0.06761502,
          -0.06260886,
          0.14232856
        ],
        [
          0.0036654887,
          -0.05828559,
          0.11434879,
          -0.058277264,
          -0.1452895,
          -0.018966751,
          0.037754755,
          -0.3410817,
          -0.505975,
          -0.17111377,
          -0.1330642,
          -0.34978476,
          -0.11866653,
          0.15813051,
          -0.029824937,
          0.0216621
        ],
        [
          0.08819283,
          -0.063428186,
          -0.21058096,
          -0.1618308,
          0.18308495,
          -0.1572583,
          -0.2629792,
          0.10289083,
          -0.8446546,
          -0.03689869,
          0.14936246,
          -0.03793708,
          0.040599946,
          0.055663586,
          0.14416447,
          -0.0116357505
        ],
        [
          0.08735355,
          -0.036244854,
          -0.19743551,
          -0.13726981,
          0.098952115,
          -0.027040584,
          0.06474984,
          -0.23300868,
          -1.1902568,
          0.0999867,
          0.18460463,
          0.04738739,
          0.059375145,
          0.088223495,
          0.05280697,
          0.0424454
        ],
        [
          0.027191807,
          -0.0013138066,
          -0.036486175,
          3.4182638E-05,
          -0.03430116,
          0.18958782,
          -0.34254104,
          -0.19634779,
          -0.54157823,
          0.24475801,
          0.0107785845,
          -0.05185001,
          0.010620831,
          0.014211004,
          -0.067058176,
          -0.22348185
        ],
        [
          0.086751185,
          0.12983847,
          -0.097066395,
          -0.30009496,
          0.11459466,
          -0.06039813,
          -0.28997183,
          -0.016138216,
          -0.42072815,
          -0.3980217,
          -0.28886673,
          -0.14766914,
          -0.02044254,
          0.13383466,
          -0.0016413424,
          -0.13617308
        ],
        [
          0.08571241,
          0.15136772,
          0.19043665,
          -0.22049356,
          0.2433893,
          0.087856665,
          -0.12682728,
          0.0022595234,
          0.32293937,
          -0.023426482,
          -0.37192103,
          -0.25268674,
          0.3259705,
          -0.015456697,
          -0.25369573,
          -0.12762702
        ],
        [
          0.046164297,
          0.053480566,
          -0.4953884,
          -0.50908864,
          -0.0005993688,
          -0.09289016,
          -0.018040434,
          -0.21959741,
          0.63262784,
          0.09571684,
          -0.730151,
          -0.16136667,
          -0.2547313,
          0.04261616,
          -0.18201579,
          -0.17683628
        ],
        [
          0.08051639,
          0.15036152,
          -0.10556179,
          -0.34097335,
          -0.39789465,
          -0.029892726,
          -0.07114829,
          -0.07406679,
          0.1389364,
          -0.123585455,
          -1.1302373,
          0.050188627,
          0.09298034,
          -0.1447915,
          0.0859284,
          -0.059164967
        ],
        [
          0.07378287,
          -0.13381524,
          -0.092245564,
          -0.16695698,
          -0.17588086,
          0.014173614,
          0.18043804,
          -0.13056809,
          0.2120568,
          0.1858115,
          -0.74738425,
          0.022111947,
          0.010420255,
          -0.3123616,
          -0.05065423,
          -0.0767143
        ],
        [
          0.00042404095,
          0.14240459,
          0.099109486,
          0.07122805,
          -0.11074772,
          -0.14830194,
          0.03786085,
          -0.16891673,
          -0.7445438,
          -0.12425891,
          -0.729455,
          -0.048646875,
          0.30062374,
          -0.14355302,
          -0.1423262,
          -0.14235967
        ],
        [
          0.11984922,
          0.12311145,
          -0.21214376,
          0.16398698,
          -0.2856647,
          0.32484064,
          0.095081806,
          -0.011626266,
          0.209667,
          0.19589551,
          -0.5943786,
          -0.066865236,
          0.043709155,
          -0.20867671,
          -0.08903967,
          -0.115614414
        ],
        [
          0.20563662,
          -0.01315056,
          -0.07287482,
          0.023009602,
          -0.36951175,
          0.5069092,
          0.08315176,
          -0.060019217,
          0.56298727,
          -0.08135451,
          -1.0734121,
          -0.10751746,
          0.30046487,
          -0.17322512,
          -0.13860035,
          -0.16736794
        ],
        [
          0.19357622,
          0.05252253,
          -0.16916716,
          0.015055741,
          -0.12678382,
          0.28973493,
          -0.5120952,
          0.19609657,
          -0.40352765,
          0.23618883,
          -1.0503608,
          0.13442262,
          -0.27052945,
          -0.08710336,
          0.15036109,
          -0.38081524
        ],
        [
          0.12312433,
          0.007146617,
          -0.14557284,
          0.29582977,
          -0.009596214,
          -0.14512758,
          0.009301437,
          -0.22325607,
          0.3637854,
          0.28776792,
          -0.47725853,
          0.11803191,
          0.049972076,
          -0.16400221,
          -0.09776536,
          -0.20491463
        ],
        [
          0.22767659,
          -0.010853935,
          -0.042764325,
          -0.34801403,
          -0.1319437,
          -0.5849003,
          -0.10054577,
          -0.18591855,
          0.5102779,
          -0.14039344,
          -1.2145473,
          0.01414391,
          0.14675172,
          -0.028903048,
          0.06332412,
          -0.49400184
        ],
        [
          0.13409138,
          -0.0011430393,
          -0.2536678,
          0.16168791,
          -0.054934114,
          -0.0980866,
          0.34867588,
          -0.06965669,
          0.21337037,
          0.20847502,
          -1.2350881,
          0.11643029,
          0.23135176,
          0.011074261,
          -0.02808196,
          0.10919708
        ],
        [
          0.17227471,
          -0.05225625,
          -0.047874235,
          -0.09310883,
          -0.36825678,
          -0.1468905,
          -0.27691323,
          -0.023640925,
          0.36589852,
          0.048451323,
          -1.0439675,
          0.0639866,
          -0.18242487,
          -0.12157968,
          -0.0456919,
          -0.1547231
        ],
        [
          0.06551243,
          -0.10686009,
          0.07639953,
          -0.06411573,
          -0.25849906,
          0.31646827,
          0.32556698,
          0.093519874,
          0.04676805,
          -0.14914319,
          -1.043468,
          0.234003,
          -0.10584816,
          0.04543238,
          -0.040195435,
          0.051883306
        ],
        [
          0.036151197,
          -0.0057999855,
          0.15850978,
          0.16957627,
          -0.5135441,
          0.16667926,
          -0.06818927,
          0.09899847,
          -0.25844154,
          -0.17386125,
          -0.8589466,
          -0.056243643,
          0.10429115,
          0.022277812,
          -0.024053397,
          0.024306662
        ],
        [
          0.07331384,
          0.06664919,
          -0.2300378,
          -0.09073147,
          -0.37529016,
          0.074395865,
          -0.55075854,
          -0.14721853,
          -0.61467826,
          -0.0683053,
          -0.4866588,
          -0.26471415,
          -0.16727981,
          -0.058169134,
          -0.015125755,
          -0.187075
        ],
        [
          0.039303947,
          0.083882116,
          -0.08780372,
          -0.023456667,
          -0.4393803,
          -0.23902248,
          0.002582925,
          -0.15235299,
          0.43730268,
          -0.22227678,
          -0.83510274,
          -0.12383935,
          -0.25195083,
          -0.06310523,
          0.04380037,
          -0.0068048816
        ],
        [
          -0.10152813,
          0.045571957,
          0.16883335,
          -0.110696204,
          0.15935501,
          -0.19386038,
          -0.16501419,
          0.27210113,
          -0.6086965,
          -0.05277849,
          -0.5308677,
          -0.013257605,
          0.033473626,
          -0.0011770361,
          -0.09838769,
          -0.53620094
        ],
        [
          0.27766907,
          0.01548659,
          0.21115306,
          -0.121478625,
          0.058440693,
          -0.1811753,
          -0.118085675,
          -0.15511477,
          -0.18044701,
          -0.28603238,
          -0.15878743,
          0.14571524,
          -0.22804144,
          0.061368797,
          0.21016985,
          -0.22533156
        ],
        [
          0.14884594,
          -0.023544747,
          0.13385215,
          0.07340169,
          0.090604946,
          -0.18367094,
          -0.13952187,
          -0.012767256,
          -0.6226091,
          0.15905027,
          -0.03103468,
          -0.1759135,
          0.0897829,
          0.2649429,
          0.20504126,
          -0.14284949
        ],
        [
          0.30711195,
          0.112080395,
          -0.030299006,
          0.071947455,
          0.15679951,
          -0.29483277,
          0.12731436,
          -0.3143111,
          -0.7304739,
          0.1959751,
          -0.2253156,
          0.08678966,
          0.20270036,
          -0.11423697,
          0.05108398,
          0.14264706
        ],
        [
          0.14945215,
          0.01722353,
          0.030769091,
          0.0172018,
          0.118245386,
          -0.21599887,
          0.10165755,
          -0.21244502,
          -1.0106528,
          -0.1629237,
          0.24747498,
          0.08877871,
          -0.15952493,
          0.060823478,
          0.0803371,
          -0.11776267
        ],
        [
          0.037285283,
          0.008536609,
          0.22744808,
          0.01696576,
          0.3542004,
          -0.31632724,
          -0.02672503,
          -0.017487986,
          -0.8362413,
          -0.2917154,
          0.25253037,
          -0.34985203,
          0.28574768,
          -0.21702038,
          0.07914575,
          0.10751798
        ],
        [
          0.06812293,
          -0.1389178,
          0.029523132,
          -0.2902666,
          0.11165116,
          -0.2561375,
          -0.16424356,
          -0.3189601,
          -0.66194713,
          -0.32810944,
          0.08937146,
          -0.53475064,
          -0.07338076,
          0.11061496,
          0.14817795,
          0.07208476
        ],
        [
          -0.1124653,
          -0.33035976,
          -0.13232826,
          0.016172236,
          -0.5088067,
          -0.24455093,
          -0.02280095,
          0.53653765,
          0.49781463,
          -0.2858686,
          -1.8929011,
          -0.47578427,
          -0.39325932,
          -0.010259072,
          -0.13474919,
          -0.22162451
        ],
        [
          0.0042550564,
          0.0022237296,
          -0.19201232,
          0.11285988,
          0.65440845,
          -0.44121993,
          0.46986437,
          0.45982558,
          0.36001945,
          -0.41933137,
          -0.60524386,
          0.3577175,
          0.46899855,
          -0.119994216,
          -0.020369815,
          -0.19368678
        ],
        [
          -0.09753297,
          -0.36686328,
          0.35182726,
          0.47564718,
          -0.19424464,
          -0.37875524,
          0.17335542,
          0.5678133,
          0.9808561,
          -0.5087056,
          -0.59069467,
          0.34025913,
          -0.4723285,
          0.15585198,
          0.010076187,
          0.4908033
        ],
        [
          0.04041005,
          -0.24209826,
          0.17999864,
          -0.21000692,
          0.39226878,
          -0.04766635,
          0.14103036,
          0.6831372,
          0.9515811,
          -0.07154064,
          -0.9429263,
          0.2810405,
          -0.13647445,
          -0.30229098,
          0.34880543,
          -0.5123641
        ],
        [
          0.20629117,
          -0.08303159,
          0.053959914,
          0.14382191,
          -0.03770257,
          0.22720967,
          -0.06383571,
          0.040731166,
          -0.21707582,
          0.068983756,
          0.18138973,
          -0.041246634,
          0.26431456,
          -0.1348663,
          0.29209176,
          0.34793198
        ],
        [
          0.16508025,
          -0.16918439,
          -0.06929245,
          -0.1495126,
          0.07197799,
          0.072987184,
          0.42045975,
          -0.07563583,
          -0.42353633,
          0.31296164,
          0.90040594,
          -0.27592477,
          -0.020755647,
          -0.14329411,
          0.09759898,
          0.16175489
        ],
        [
          0.08418447,
          -0.023164049,
          -0.16123115,
          -0.33550978,
          0.7667064,
          -0.018279193,
          0.29874548,
          -0.059322063,
          -0.3147915,
          -0.037202798,
          0.62524027,
          -0.052525774,
          -0.40040615,
          -0.22440106,
          0.37037775,
          -0.42343488
        ],
        [
          0.11460724,
          -0.027703308,
          -0.378311,
          -0.14260831,
          -0.7820782,
          -0.35967386,
          -0.11653165,
          -0.17838341,
          -1.075659,
          0.27177647,
          1.0166454,
          -0.41776246,
          -0.6656725,
          -0.21543688,
          0.23509882,
          0.32441622
        ],
        [
          0.13865416,
          -0.1343716,
          -0.03866134,
          0.058379564,
          0.12133533,
          -0.40709287,
          -0.051606774,
          -0.38726014,
          -1.0764207,
          -0.29914245,
          0.5394431,
          0.084185556,
          -0.16672513,
          0.18366843,
          0.2638365,
          0.064061545
        ],
        [
          -0.029129399,
          -0.053688835,
          -0.102879636,
          0.10470074,
          0.08037977,
          -0.16090684,
          -0.395337,
          0.16794023,
          -0.65324587,
          0.056963433,
          -0.1805477,
          0.051806048,
          -0.24324295,
          -0.16851032,
          0.10302315,
          -0.2609155
        ],
        [
          0.0627715,
          -0.1281231,
          0.05767944,
          -0.01754813,
          -0.22441119,
          -0.11211148,
          -0.2005642,
          -0.034689438,
          -0.71480256,
          -0.1552315,
          -0.10206985,
          -0.08869573,
          0.09459097,
          -0.205311,
          0.09601268,
          -0.17323774
        ],
        [
          0.21243712,
          0.038460467,
          -0.0028684442,
          0.031301387,
          -0.076334774,
          -0.061957866,
          -0.19619909,
          -0.09924345,
          -0.8612882,
          -0.21731706,
          0.07633254,
          0.08418301,
          -0.117730625,
          -0.027489144,
          0.023619818,
          -0.23170464
        ],
        [
          0.18069114,
          -0.16225116,
          0.06992539,
          -0.11654565,
          0.23165911,
          -0.0068495334,
          0.24218522,
          -0.15198772,
          -1.1300054,
          -0.3945828,
          0.7824987,
          0.2329064,
          -0.1045035,
          0.04300518,
          0.11657068,
          0.33573708
        ],
        [
          0.18237013,
          -0.09275141,
          0.16022563,
          0.041838296,
          -0.19093302,
          -0.010973416,
          0.27821,
          -0.16273583,
          -0.73924446,
          -0.21869011,
          -0.14366463,
          -0.026275817,
          -0.057024997,
          -0.024285085,
          0.055910226,
          0.04948251
        ],
        [
          0.098547995,
          0.06304382,
          0.10117859,
          0.16875318,
          -0.12072821,
          0.08127239,
          0.16984496,
          -0.33489636,
          -0.781443,
          0.07402744,
          -0.21544373,
          -0.12599713,
          0.062772006,
          -0.123911984,
          -0.06201014,
          0.084002845
        ],
        [
          0.23275815,
          0.050387554,
          0.081196256,
          -0.016882578,
          -0.08957265,
          -0.1440194,
          -0.20121014,
          -0.14970447,
          -1.2031333,
          0.022870455,
          0.21359521,
          0.15722626,
          0.23939995,
          0.063775875,
          -0.0006473048,
          0.016629841
        ],
        [
          0.12522028,
          0.014611727,
          0.2371829,
          -0.15095049,
          -0.050419316,
          -0.05021242,
          0.12798257,
          -0.03146802,
          -1.0159825,
          -0.14511321,
          -0.7048007,
          -0.011395312,
          -0.011679607,
          -0.09430413,
          0.06632949,
          -0.22241487
        ],
        [
          0.15665066,
          0.110036656,
          0.22456676,
          -0.055539545,
          -0.21488562,
          -0.06650842,
          0.16346629,
          -0.024203198,
          -0.13864437,
          0.10152951,
          -0.9472796,
          -0.010890708,
          -0.05395652,
          -0.0063669076,
          -0.13472104,
          -0.010161057
        ],
        [
          0.04997231,
          0.12885135,
          0.11601667,
          0.06971757,
          -0.058340434,
          -0.0977618,
          -0.169044,
          -0.17566313,
          -0.90547585,
          -0.01560601,
          -0.31317273,
          -0.065355614,
          0.10457563,
          -0.06465239,
          -0.0494416,
          0.017592989
        ],
        [
          -0.10519561,
          0.07820018,
          0.13377918,
          -0.12052313,
          0.103036284,
          -0.22385268,
          -0.26192972,
          0.04768594,
          -0.3080153,
          -0.17175934,
          -0.4209759,
          0.021815855,
          -0.05404887,
          -0.18999282,
          0.056050535,
          -0.26608753
        ],
        [
          0.10739558,
          0.076539055,
          0.14862937,
          -0.45282534,
          -0.3326692,
          0.023029832,
          -0.21175314,
          0.06639578,
          0.30402008,
          -0.27943572,
          -0.9241561,
          -0.21350706,
          -0.16407163,
          -0.02581194,
          -0.019913033,
          -0.087930486
        ],
        [
          0.017353565,
          -0.021226265,
          -0.080780365,
          -0.1187852,
          -0.18024091,
          0.038351666,
          -0.086001806,
          0.010761195,
          -0.5876237,
          -0.029235864,
          -0.041325316,
          -0.04565447,
          0.12359613,
          0.12449737,
          0.06485822,
          -0.1541696
        ],
        [
          0.085935056,
          0.3955436,
          -0.24039643,
          0.24059011,
          0.35576314,
          0.25054428,
          0.16014871,
          -0.44332775,
          -0.5455122,
          0.8871159,
          -0.1792287,
          0.259891,
          0.4888392,
          0.12560415,
          0.04789491,
          0.18354487
        ],
        [
          0.19957072,
          0.2919611,
          0.078630105,
          -0.0051394533,
          0.36120942,
          -0.38060683,
          -0.16863793,
          -0.16651103,
          0.36484447,
          0.108908206,
          -0.22933888,
          0.24512494,
          -0.3889199,
          0.1893213,
          -0.13183665,
          -0.45294106
        ],
        [
          0.17267151,
          0.17741589,
          0.29581058,
          0.442812,
          0.2665311,
          0.46501467,
          -0.07458711,
          -0.5795367,
          -1.0226594,
          0.077456236,
          1.5350615,
          0.2021016,
          0.09720435,
          -0.092692986,
          0.20655066,
          0.05665669
        ],
        [
          0.15874602,
          0.21944399,
          0.29093364,
          0.21965367,
          -0.07108608,
          0.1311916,
          0.17708065,
          -0.321201,
          -0.6350024,
          0.0073663946,
          0.43637356,
          0.15797022,
          0.07513912,
          -0.15687202,
          0.065428935,
          -0.3201022
        ],
        [
          0.08981373,
          0.05731075,
          -0.17074715,
          0.1160235,
          0.09838529,
          -0.00037449267,
          -0.025097895,
          -0.19398384,
          -1.1606718,
          0.32836762,
          -0.057190448,
          -0.03769401,
          -0.17634916,
          0.12464832,
          0.15774757,
          0.21889369
        ],
        [
          0.07707216,
          0.021356119,
          -0.019878497,
          -0.17714885,
          -0.12706897,
          -0.41031724,
          -0.07081612,
          -0.31506184,
          -1.5537925,
          -0.16488111,
          0.59142697,
          -0.13939172,
          0.10149306,
          -0.016330287,
          0.027396105,
          0.27393726
        ],
        [
          -0.10039536,
          0.14859477,
          0.013877335,
          -0.13931923,
          0.081477255,
          -0.43989423,
          -0.2710846,
          -0.051445503,
          -0.8903878,
          -0.008275871,
          0.6048724,
          -0.17740814,
          -0.09247346,
          0.15541056,
          -0.054027397,
          -0.296985
        ],
        [
          0.07499598,
          0.34742722,
          0.008922145,
          -0.13625829,
          -0.26839617,
          -0.22943884,
          0.27523762,
          -0.16184954,
          -0.6036055,
          0.06986281,
          -0.13080043,
          -0.023803672,
          0.04423838,
          0.08859622,
          -0.027398666,
          0.061814018
        ],
        [
          0.2705759,
          -0.02777388,
          0.24817294,
          -0.0909688,
          -0.24467579,
          0.14009939,
          0.26026553,
          -0.23752499,
          -0.2925531,
          -0.022524847,
          -0.29728124,
          -0.14453642,
          0.26029423,
          0.059715535,
          -0.063145824,
          0.26890978
        ],
        [
          0.305374,
          -0.05592394,
          0.15724386,
          0.12281024,
          0.05660638,
          -0.036049377,
          -0.07690235,
          -0.029853756,
          -0.21522795,
          -0.0045249783,
          -0.79859006,
          0.015756538,
          0.1285538,
          -0.06880137,
          -0.04304814,
          -0.016191259
        ],
        [
          0.13961919,
          0.04854571,
          0.07249467,
          -0.026579576,
          -0.038411606,
          0.39070082,
          -0.019099666,
          0.08862056,
          0.12830442,
          0.123320065,
          -1.0184865,
          -0.14532009,
          -0.018642223,
          -0.12937115,
          -0.03917906,
          -0.23069055
        ],
        [
          0.25112712,
          0.10567396,
          0.07771,
          -0.07391416,
          -0.035214063,
          -0.20690434,
          -0.2053327,
          -0.09858051,
          -0.43260908,
          -0.07829629,
          -0.42642698,
          -0.13863577,
          0.026542243,
          -0.027738063,
          0.10650424,
          -0.0500774
        ],
        [
          -0.006943973,
          0.03385432,
          0.10931973,
          0.022488827,
          -0.030068204,
          -0.17433497,
          -0.041443445,
          -0.16826506,
          0.3122106,
          -0.1267304,
          -0.41964135,
          -0.14900494,
          0.12413016,
          0.059902724,
          -0.00091738545,
          -0.022564238
        ],
        [
          0.21325965,
          0.1788727,
          -0.13336195,
          -0.010120158,
          -0.10225186,
          -0.25626013,
          -0.3556518,
          0.04458037,
          0.7526297,
          0.42829868,
          -1.7069751,
          0.20841157,
          -0.47493234,
          0.18061903,
          -0.116122864,
          -0.12509915
        ],
        [
          0.29699865,
          -0.004672246,
          -0.13115813,
          -0.21460989,
          -0.16045994,
          0.1044368,
          -0.2847219,
          -0.19040652,
          0.45453513,
          0.23670214,
          -1.0085694,
          -0.15904191,
          -0.11117507,
          -0.037310842,
          -0.114864804,
          -0.2655425
        ],
        [
          0.12549731,
          0.1395235,
          -0.22645545,
          0.09171886,
          -0.13857722,
          0.20767513,
          -0.15858284,
          -0.1225144,
          0.22220308,
          0.07242747,
          -1.1145226,
          -0.09200334,
          0.050343294,
          -0.005222533,
          -0.12322531,
          -0.01831419
        ],
        [
          -0.08722355,
          0.10457148,
          0.0196492,
          0.085339405,
          0.0061645266,
          -0.16717538,
          -0.35353488,
          -0.042491604,
          0.18175192,
          -0.2684316,
          -0.5696136,
          -0.18332785,
          -0.021048758,
          0.24640137,
          -0.21839312,
          -0.32089683
        ],
        [
          0.010681582,
          0.13691512,
          0.1615023,
          0.3165504,
          -0.021542948,
          -0.124616675,
          -0.058513086,
          -0.22879313,
          0.14987858,
          -0.13319436,
          -0.9036033,
          0.064991474,
          -0.123604484,
          0.10883738,
          -0.04832198,
          -0.22687677
        ],
        [
          0.08096849,
          -0.08559767,
          0.026822602,
          -0.31726962,
          0.059069335,
          -0.20283309,
          -0.2228327,
          -0.045635972,
          0.740536,
          0.48336136,
          -0.5125876,
          -0.13450867,
          0.05292872,
          0.23471406,
          -0.16384542,
          -0.44926792
        ],
        [
          0.06681998,
          0.16554001,
          0.07489346,
          0.019453917,
          0.4713397,
          -0.38146096,
          -0.4464089,
          0.06390265,
          0.7977262,
          -0.3158865,
          -0.23517744,
          -0.5674935,
          -0.22459118,
          0.366508,
          -0.3777008,
          -0.12368118
        ],
        [
          0.15994121,
          -0.00529488,
          0.15425672,
          -0.024705825,
          0.030301316,
          -0.23795086,
          -0.07354665,
          0.16870773,
          1.0260239,
          -0.07753749,
          -0.96920246,
          -0.25463766,
          -0.19547322,
          0.18589193,
          -0.08393685,
          -0.036820862
        ],
        [
          0.17952664,
          0.03302282,
          -0.40310952,
          -0.096135385,
          -0.27750626,
          0.19388032,
          -0.048282698,
          -0.20690256,
          0.12679197,
          0.56406045,
          -0.25372016,
          0.08656972,
          0.1924217,
          0.13897689,
          -0.025188442,
          0.50926906
        ],
        [
          -0.16089891,
          -0.04809854,
          -0.029981315,
          0.26018327,
          -0.12431208,
          -0.039218817,
          0.095089756,
          -0.16376136,
          -0.8901538,
          0.14172484,
          0.83473825,
          -0.12873608,
          0.16199118,
          0.38631546,
          -0.4012277,
          0.30529934
        ],
        [
          -0.3715169,
          0.12143414,
          -0.18818551,
          0.16775069,
          -0.6971766,
          0.07179944,
          0.46902183,
          -0.56921756,
          0.031934984,
          -0.11084995,
          -0.2898694,
          -0.06042377,
          -0.20430115,
          -0.31916007,
          -0.017328583,
          0.29924238
        ],
        [
          -0.12246428,
          0.08578145,
          -0.3883627,
          -0.0022232793,
          -0.5575214,
          -0.28639063,
          0.08251233,
          0.14422636,
          -0.613293,
          -0.20177905,
          0.5623241,
          0.11135452,
          -0.46770898,
          -0.036020476,
          -0.00029092946,
          0.2058502
        ],
        [
          -0.22341315,
          -0.29270947,
          -0.28546825,
          -0.22674963,
          -0.5516446,
          0.19113885,
          0.115448795,
          0.30490538,
          -1.099246,
          0.27386525,
          0.18927695,
          0.3993599,
          0.23701997,
          -0.27332848,
          -0.017129466,
          0.5103968
        ],
        [
          -0.122508585,
          0.041534573,
          0.03151174,
          0.26862824,
          -0.6279238,
          -0.3485589,
          -0.28507856,
          0.72993785,
          -0.48344746,
          0.2831025,
          0.34391633,
          0.090427965,
          -0.5846337,
          -0.23506677,
          0.16677056,
          -0.4293087
        ],
        [
          0.23252118,
          -0.23476362,
          0.58265704,
          0.09729636,
          -0.5142405,
          -0.1064692,
          -0.36067402,
          0.82096106,
          0.76250595,
          0.12147034,
          -1.0939262,
          0.2788312,
          -0.1924318,
          -1.0131226,
          -0.28748158,
          0.24313965
        ],
        [
          -0.26740515,
          -0.07101911,
          -0.104123004,
          0.90972596,
          -0.89121073,
          -0.892237,
          0.83414555,
          -0.75440544,
          -0.36748064,
          0.4773033,
          -0.46325108,
          0.26366907,
          0.46740887,
          -0.23772086,
          -0.5257149,
          0.7220654
        ],
        [
          -0.35731843,
          -0.36784247,
          0.05923952,
          -1.4096016,
          -1.0322232,
          -1.1206824,
          1.799021,
          0.646753,
          -0.30889827,
          -0.44948,
          -1.5114717,
          0.14859387,
          -0.3147478,
          0.7272115,
          0.34249833,
          0.5071295
        ],
        [
          -0.92738485,
          0.21212465,
          -0.75206757,
          -2.9219377,
          -2.2031896,
          -0.83359236,
          1.2389575,
          0.72258425,
          -1.9962562,
          0.06472876,
          0.5687792,
          -0.843648,
          -1.2511821,
          0.8089281,
          -0.6960284,
          0.5266492
        ],
        [
          -0.2822916,
          -0.2468314,
          -0.13792528,
          -0.3524672,
          -0.2958477,
          -0.47345266,
          0.22870643,
          1.2277443,
          -0.17512015,
          0.35319227,
          -0.05199023,
          0.69609475,
          0.40104264,
          0.21157627,
          -0.04748535,
          -0.87590086
        ],
        [
          0.35964322,
          -0.09648105,
          -0.47438586,
          0.21969776,
          -0.07822137,
          0.31635353,
          0.34411275,
          -0.29277217,
          -1.5035349,
          0.26657584,
          1.1913003,
          0.0026530682,
          0.48171446,
          -0.15717721,
          0.16181462,
          0.9691421
        ],
        [
          0.13247074,
          0.21720196,
          -1.5825317,
          -0.15660536,
          0.38804686,
          0.9540969,
          0.16757235,
          0.29477444,
          -1.4194559,
          0.24093892,
          0.533845,
          -0.17563306,
          -0.7041483,
          -0.1820458,
          0.15559816,
          1.3917139
        ],
        [
          -0.099766165,
          -0.17625012,
          0.33912325,
          0.7381791,
          0.0446567,
          -0.9061657,
          0.2220019,
          -0.082322314,
          -1.1459739,
          0.6474168,
          -0.35900575,
          2.3084638,
          1.0768752,
          -1.3047403,
          0.22314753,
          1.2436172
        ],
        [
          -0.37911075,
          -0.21926308,
          0.3302738,
          0.027373776,
          -0.36782482,
          0.17706831,
          1.2435892,
          0.05845994,
          0.1327266,
          -0.33180654,
          0.14838463,
          -1.294182,
          -1.1157436,
          -0.2734507,
          -0.16606604,
          0.6486639
        ],
        [
          -0.6748502,
          0.048596,
          -1.6390433,
          -0.8193495,
          0.7161686,
          -0.6692779,
          -0.5769496,
          -1.6402245,
          -0.4104559,
          -0.25612032,
          1.7403873,
          -1.5315163,
          -1.7506013,
          0.96009624,
          0.18748437,
          1.435383
        ],
        [
          -0.8431817,
          -0.3426112,
          -0.83291215,
          0.28730553,
          0.37092665,
          -1.1894782,
          -0.2880221,
          -0.12315478,
          -0.9745247,
          -0.500902,
          0.94513357,
          0.16970326,
          -0.830728,
          0.20141883,
          0.11654879,
          0.05816977
        ],
        [
          0.28330326,
          0.20794334,
          -0.22352177,
          -1.0224237,
          -0.41199526,
          0.43982562,
          0.36136648,
          -0.103366785,
          -1.21252,
          -0.021792535,
          1.1804011,
          -0.6384218,
          -0.2159934,
          -0.053219147,
          0.028733667,
          0.09023559
        ],
        [
          0.12238245,
          0.0039698165,
          -0.03360742,
          1.028394,
          -0.605984,
          -0.035105415,
          -0.73242813,
          0.29872677,
          -0.8775996,
          0.25213364,
          0.40608752,
          -0.116376154,
          -0.3595312,
          -0.30211425,
          0.057331175,
          -0.7435963
        ],
        [
          0.21890947,
          -0.2008678,
          0.864859,
          -0.50904876,
          -0.17155296,
          -0.12726143,
          1.0279093,
          0.06853187,
          0.28014627,
          -0.30434126,
          0.20409854,
          -1.1287224,
          0.21427737,
          0.027687017,
          0.2846296,
          0.5008845
        ],
        [
          -0.56296915,
          -0.004938808,
          -1.2148557,
          -0.4003388,
          -0.7040636,
          0.2650652,
          1.2554145,
          -1.2491045,
          -0.9028836,
          0.6239757,
          0.89832205,
          -0.15696548,
          -0.5526849,
          0.6986147,
          -0.79223365,
          1.2764858
        ],
        [
          -0.3374985,
          0.008972196,
          -0.540541,
          0.5431737,
          0.1435374,
          1.285862,
          -0.28872764,
          0.10260082,
          -0.5807252,
          0.31817204,
          0.79599285,
          -1.5543416,
          -1.6969221,
          0.37747744,
          0.103114665,
          -0.35216218
        ],
        [
          -0.17104238,
          0.568209,
          0.49148083,
          0.01011738,
          -1.2716955,
          -0.2851877,
          -0.8474921,
          0.06784137,
          0.32937956,
          -0.2981791,
          0.30218682,
          -1.1129102,
          -0.6689867,
          0.5862299,
          0.047361825,
          0.2453723
        ],
        [
          0.1229814,
          0.26123628,
          -0.5075784,
          -0.0071412115,
          -0.6907058,
          0.7197774,
          -0.46096304,
          -0.48946807,
          -1.338989,
          0.4797544,
          0.24388652,
          -0.26596475,
          -0.39663383,
          -0.24550821,
          -0.023752598,
          0.622973
        ],
        [
          0.49391422,
          0.050284848,
          0.6469622,
          0.34699517,
          -0.6506077,
          0.24450605,
          1.4512931,
          -0.8699857,
          -1.2650162,
          -0.2103454,
          1.0217308,
          0.21990527,
          0.2469264,
          -0.19886115,
          0.0577062,
          1.2272878
        ],
        [
          0.112381265,
          -0.13754301,
          1.3356239,
          -0.7231566,
          -0.25162575,
          -0.4773491,
          -1.3604677,
          0.015239829,
          0.0854205,
          -0.36000657,
          0.13258116,
          0.023154952,
          0.78678787,
          0.33701777,
          -0.35710582,
          -0.78278726
        ],
        [
          -0.47937727,
          -0.04799003,
          -0.36781803,
          0.7718238,
          -0.0053897384,
          -0.28098437,
          -0.9129429,
          -0.30788398,
          -0.8006597,
          -0.24258631,
          -0.8164222,
          1.389195,
          0.93611836,
          0.25423396,
          0.10049705,
          0.8054636
        ],
        [
          -0.31230453,
          0.2156659,
          -0.7576762,
          -0.21373902,
          0.107042074,
          0.041265484,
          0.0189676,
          -0.7672966,
          -1.0949105,
          0.20574382,
          0.9580829,
          0.9452233,
          0.77554756,
          0.18394755,
          0.13935079,
          1.3302964
        ],
        [
          0.08137614,
          0.0042749904,
          0.09204655,
          -0.17301129,
          -0.22388676,
          0.36037877,
          -0.33017683,
          0.3667983,
          1.073247,
          -0.115547985,
          -0.67369044,
          0.29378557,
          0.046823382,
          0.13954674,
          -0.13866127,
          -0.5405021
        ],
        [
          -0.013108439,
          0.15608744,
          0.20220657,
          0.14813195,
          0.088829316,
          0.072662964,
          0.55208397,
          -0.27750623,
          -0.68301475,
          -0.35579145,
          0.37729767,
          0.14358844,
          0.2796274,
          -0.08616801,
          -0.11211768,
          -0.034271985
        ],
        [
          0.4804607,
          0.19748607,
          0.6022192,
          0.2341898,
          -0.59039766,
          0.48217413,
          -0.1678039,
          0.61044675,
          0.40315852,
          -0.17771254,
          -0.18101263,
          -0.49052453,
          -0.4915803,
          -0.112043306,
          -0.2182022,
          -0.90695846
        ],
        [
          0.17970762,
          0.35095626,
          -0.008056472,
          -0.24608845,
          0.074215785,
          0.031206919,
          -1.6537867,
          0.9346937,
          0.86283463,
          1.049354,
          -0.54588497,
          -0.28030053,
          -0.10368862,
          -0.14912294,
          -0.2072876,
          -1.6362221
        ],
        [
          0.029414002,
          0.24623676,
          0.045510866,
          -0.4940074,
          0.46600685,
          0.3311807,
          -1.4443256,
          0.7557681,
          -0.2602478,
          -0.059381142,
          -0.19217467,
          0.6336436,
          0.08041748,
          1.2959355,
          -0.26332077,
          -0.6605112
        ],
        [
          -0.30465072,
          -0.42193896,
          1.1771177,
          1.1275281,
          0.6119754,
          1.0833622,
          -0.0033108324,
          0.602462,
          0.90012246,
          -0.29536954,
          -0.98214245,
          0.35313058,
          0.28708822,
          -0.56838644,
          0.061688762,
          -0.21817344
        ],
        [
          -0.2749549,
          0.08447916,
          -0.34360853,
          -0.22053683,
          -0.35741958,
          0.18832998,
          0.2626231,
          0.050367754,
          -0.42485663,
          0.2529496,
          0.17564256,
          -0.16200162,
          -0.055717766,
          0.1702255,
          -0.04208573,
          0.11116285
        ],
        [
          -0.009014436,
          0.28667793,
          0.17032322,
          -0.4579322,
          -0.036602765,
          -0.28608754,
          0.97740024,
          0.0581483,
          -0.14815128,
          0.024016876,
          -0.28649902,
          0.2804461,
          -0.012360349,
          -0.19259074,
          -0.16312967,
          0.12791449
        ],
        [
          0.026958374,
          0.2009403,
          -0.2632189,
          0.24103591,
          -0.018764772,
          0.5351829,
          0.03745267,
          -0.26367882,
          -1.0430621,
          -0.27374753,
          0.7848618,
          -0.8053965,
          -0.16192123,
          0.1138144,
          0.112257734,
          0.06503622
        ],
        [
          0.3020363,
          -0.27007833,
          0.23898745,
          -0.5421225,
          -0.3101516,
          0.75394887,
          0.5771785,
          -0.54839915,
          0.5041895,
          -1.1085184,
          -0.44437772,
          0.6530999,
          -0.17088033,
          0.16826417,
          -0.17340891,
          -0.25224572
        ],
        [
          -0.09772779,
          0.22900128,
          0.015993515,
          0.276231,
          -0.36290666,
          0.6619468,
          -0.6711642,
          0.12752445,
          0.4068359,
          0.71213824,
          -0.52191067,
          0.0043264017,
          -0.123042196,
          0.019651255,
          0.39082235,
          -0.28501642
        ],
        [
          -0.14066762,
          -0.021206459,
          -0.42953536,
          0.42027253,
          0.1519525,
          0.421993,
          0.72485954,
          -0.11764985,
          0.26414287,
          -0.3252493,
          -0.116732985,
          0.3210768,
          -0.36378485,
          0.41612005,
          0.21843795,
          -0.42315406
        ],
        [
          0.18965118,
          0.12307245,
          0.01043471,
          -0.031863544,
          0.024543207,
          0.30525848,
          -0.054422826,
          -0.022156944,
          0.18334404,
          0.04003328,
          -0.348183,
          0.008432411,
          0.22246252,
          0.22687073,
          0.070345245,
          -0.16354294
        ],
        [
          0.19426042,
          -0.414084,
          -0.5113703,
          0.42928705,
          0.6805249,
          -0.07772659,
          -0.91102165,
          0.23426554,
          0.706517,
          0.24702923,
          -1.0915747,
          0.17478994,
          0.6998663,
          0.34871134,
          -0.5749996,
          -0.5888333
        ],
        [
          -0.1403288,
          -0.24329093,
          1.5516833,
          -0.09782317,
          0.6446802,
          0.7584439,
          1.1732514,
          0.55261433,
          -0.6310425,
          -0.7043538,
          0.18505618,
          -0.7245092,
          -0.07967553,
          -0.2924654,
          0.0735561,
          0.07692477
        ],
        [
          0.8056582,
          -0.115604535,
          0.17525549,
          0.97090715,
          0.19619395,
          0.7017539,
          0.53730446,
          0.7776164,
          1.0140133,
          -0.15382172,
          -1.2641191,
          0.416298,
          0.11996555,
          -0.33825064,
          0.13455988,
          -0.8395605
        ],
        [
          -0.11724668,
          -0.10653792,
          0.7241743,
          -0.93149173,
          -0.87819535,
          -0.29790688,
          0.10647939,
          -0.3116898,
          0.3120106,
          0.11741009,
          0.2972284,
          0.5046451,
          -0.6646822,
          0.8084651,
          0.2895872,
          0.038388465
        ],
        [
          0.036941312,
          0.12705345,
          0.18491219,
          -0.36308303,
          -0.17666318,
          -0.3010633,
          -0.12802891,
          0.11649426,
          -0.5759887,
          0.15286478,
          -0.025044695,
          -0.15837584,
          0.12547714,
          -0.100813895,
          0.035185043,
          -0.06974785
        ],
        [
          0.026325468,
          0.021372806,
          -0.023445662,
          0.13861871,
          0.10802095,
          -0.030646382,
          0.016766164,
          0.15503724,
          -0.14719786,
          0.064958654,
          -0.03249095,
          0.014688064,
          -0.20506646,
          -0.073572464,
          0.087954015,
          -0.36238933
        ],
        [
          0.10700478,
          -0.05507307,
          -0.1840877,
          0.2826681,
          0.08602805,
          0.0910847,
          1.0946302,
          -0.28446734,
          -0.5454581,
          -0.33393642,
          -1.2619339,
          0.3915974,
          0.535197,
          -0.0049870755,
          -0.06005891,
          0.37318546
        ],
        [
          -0.07658037,
          -0.12429212,
          -0.44710085,
          0.6965816,
          -0.32091895,
          0.48285428,
          -0.06916906,
          0.2521627,
          0.061551437,
          0.31894708,
          -1.1153849,
          0.0979498,
          -0.14318845,
          0.071503535,
          -0.2826049,
          -0.06511233
        ],
        [
          -0.4665794,
          -0.09713868,
          -0.39535785,
          0.5630396,
          0.33350143,
          0.310473,
          0.08187589,
          -0.5749276,
          -0.10014832,
          0.31194335,
          0.7127357,
          -0.24564488,
          -0.14858404,
          -0.23642921,
          -0.4432689,
          0.42124462
        ],
        [
          -0.08675493,
          -0.017725607,
          -0.6820612,
          -0.67948127,
          -0.47065222,
          -0.42467755,
          -0.44550362,
          -0.66237116,
          -0.16443121,
          -0.10264006,
          0.15862684,
          -0.33028635,
          -0.2964844,
          0.7628045,
          -0.42310843,
          -0.01516741
        ],
        [
          0.061855998,
          -0.15961613,
          -0.17737062,
          0.10417819,
          0.35142395,
          -0.09105153,
          -0.46923637,
          0.12576559,
          0.84441274,
          -0.6504096,
          -0.5556317,
          -0.3247541,
          0.009015621,
          0.11492922,
          0.14309937,
          -0.421491
        ],
        [
          -0.0016043824,
          -0.07761662,
          0.10359443,
          -0.024729017,
          0.004180762,
          -0.10616546,
          0.050255477,
          0.10140647,
          0.11103951,
          0.06827341,
          0.041868933,
          -0.04666112,
          -0.020214986,
          -0.11265396,
          0.09964103,
          0.06315337
        ],
        [
          -0.1427882,
          -0.09386915,
          -0.5446517,
          1.0597934,
          0.5666218,
          0.8081133,
          0.18745904,
          0.58507323,
          -0.17344232,
          -0.3753739,
          -1.3886466,
          -0.08508002,
          1.4247501,
          -0.43413773,
          0.48293954,
          -0.10373625
        ],
        [
          0.41949525,
          -0.063294865,
          0.23398961,
          -0.62321043,
          0.6287042,
          0.03355694,
          0.25447255,
          -0.0640432,
          -0.2120906,
          -0.26502678,
          0.4995751,
          0.09221053,
          -0.68423057,
          0.28441688,
          0.32138067,
          -0.10445991
        ],
        [
          0.07758277,
          0.07085512,
          0.36663356,
          0.11638352,
          -0.006790638,
          0.15516306,
          -0.04868352,
          -0.024958355,
          0.03763054,
          -0.0776643,
          -0.449812,
          -0.009440517,
          -0.052376498,
          0.038340777,
          -0.060933456,
          -0.10116073
        ],
        [
          -0.6438984,
          -0.5331002,
          -0.9169408,
          -0.17708221,
          0.89352244,
          -0.4628039,
          0.28140354,
          0.812069,
          -0.7755329,
          -0.18923831,
          -0.124985784,
          0.055383123,
          0.49209774,
          0.4925154,
          0.024325123,
