{
  "Layers": [
    {
      "_wInc": 1,
      "_wDec": 1,
      "_wNothing": 316039030047,
      "EnableNNUE": true,
      "Weights": [
        [
          0.053872302,
          -0.33659807,
          0.15011196,
          -0.40663537,
          -0.54154164,
          -0.38125733,
          -0.33699697,
          0.4020128,
          0.57539,
          0.19916996,
          -0.31371108,
          1.0483389,
          -0.36194247,
          0.5570979,
          -1.0881113,
          0.4002492
        ],
        [
          -0.086779475,
          0.07175244,
          0.2543704,
          -0.5745292,
          -0.12215362,
          0.19007993,
          -0.089199804,
          -0.1658389,
          0.30058286,
          -0.09618585,
          -0.18822858,
          -0.04176467,
          0.20980243,
          -0.34576467,
          -0.088793114,
          0.59550726
        ],
        [
          0.21683711,
          -1.2674563,
          0.34912124,
          -0.8134222,
          -0.04649565,
          0.26228234,
          0.30037013,
          1.2015035,
          -0.3463733,
          0.46717283,
          -0.096678436,
          0.7379955,
          -0.10587664,
          1.2036092,
          -0.3638101,
          -0.24028568
        ],
        [
          0.93815917,
          -1.3028991,
          -0.48844403,
          -1.5152586,
          0.003978974,
          -0.41877717,
          -0.2471145,
          1.2142596,
          0.23089226,
          0.9713512,
          -0.5252008,
          1.2448959,
          0.246729,
          1.5753273,
          -0.89911914,
          0.08115978
        ],
        [
          -0.080752924,
          -0.49946016,
          0.18184659,
          -0.08030573,
          -0.08673532,
          0.02842657,
          -0.16309272,
          0.22943409,
          -0.14678907,
          -0.080143705,
          0.2055852,
          0.5023389,
          0.5137131,
          0.18224832,
          -0.32781118,
          -0.24710798
        ],
        [
          0.07800544,
          -0.38129038,
          0.0021621012,
          -0.17973323,
          0.026353454,
          0.08366954,
          -0.11107888,
          -0.12340378,
          0.1337218,
          -0.21511005,
          -0.012665175,
          0.40836847,
          -0.0711971,
          0.15106393,
          -0.27390775,
          0.06585016
        ],
        [
          -0.106737785,
          -0.29216543,
          0.19589688,
          0.12607494,
          -0.107780404,
          -0.004200407,
          -0.07477994,
          0.008728368,
          -0.17535186,
          -0.16907597,
          0.04797559,
          0.07423713,
          0.049586486,
          0.0512345,
          -0.12898758,
          -0.07560218
        ],
        [
          0.056433547,
          0.07631203,
          0.01426773,
          -0.14264482,
          -0.073952205,
          0.043007605,
          -0.2114424,
          -0.25408453,
          0.070303716,
          -0.008045158,
          -0.021142468,
          -0.07373254,
          0.19995064,
          -0.3082963,
          -0.17040968,
          0.1581021
        ],
        [
          -0.696948,
          1.032294,
          0.030770164,
          0.28712013,
          0.051790465,
          0.12404313,
          -0.14138037,
          -1.0364379,
          -0.34248117,
          -0.37949553,
          -0.46150646,
          -1.2580652,
          -0.089986816,
          -1.163653,
          0.79756254,
          0.88234997
        ],
        [
          0.0686724,
          0.10204202,
          0.015508968,
          0.1834515,
          0.019789051,
          -0.052375145,
          0.07279116,
          0.13599217,
          0.0009500872,
          0.18078293,
          0.019269861,
          0.09815062,
          -0.105656385,
          0.21760252,
          0.046858985,
          0.18495621
        ],
        [
          0.017283969,
          0.14921214,
          0.09822662,
          -0.07584982,
          0.060764987,
          -0.15651044,
          0.1560538,
          0.09197736,
          0.05648231,
          0.030992739,
          -0.02137059,
          0.12503715,
          -0.03523398,
          0.06455626,
          0.009259879,
          0.08736702
        ],
        [
          -0.09463544,
          0.24418564,
          0.15629002,
          0.24817595,
          0.09314987,
          0.10750726,
          -0.004849614,
          -0.013734369,
          -0.08805894,
          -0.046407923,
          0.011021333,
          0.10020023,
          0.1363865,
          0.061766896,
          0.047923494,
          0.08756734
        ],
        [
          0.04474318,
          0.12448205,
          0.13510287,
          0.19182232,
          0.058936734,
          -0.08160576,
          0.1299543,
          -0.07079472,
          0.06259542,
          0.059246205,
          0.048339013,
          0.05922017,
          0.10610968,
          0.18066105,
          0.1662767,
          0.09438256
        ],
        [
          -0.12961723,
          0.022971362,
          -0.09337656,
          0.15823773,
          -0.03908283,
          -0.003684321,
          0.19920646,
          0.061560947,
          0.02826429,
          0.15933074,
          -0.027140684,
          -0.0014186999,
          -0.056884266,
          -0.013314409,
          0.06576355,
          0.18671747
        ],
        [
          -0.034396008,
          0.006693435,
          -0.112717494,
          0.097049035,
          0.08861235,
          -0.13865188,
          0.22006594,
          0.15965843,
          -0.07502221,
          0.13075058,
          -0.06465044,
          0.16801609,
          -0.1402257,
          0.20469484,
          0.003120534,
          0.094143234
        ],
        [
          0.0613541,
          0.17808305,
          0.1335643,
          0.10320654,
          0.07999495,
          -0.017505629,
          0.114602536,
          0.04098174,
          0.15696731,
          0.044092588,
          -0.00765955,
          0.22393389,
          -0.12715986,
          0.17889309,
          0.120604135,
          0.19929402
        ],
        [
          0.001358982,
          0.10511182,
          -0.06110142,
          0.18132627,
          0.117339775,
          -0.0841607,
          0.022144353,
          0.0009943722,
          0.06900165,
          0.020350222,
          -0.11570947,
          0.13265978,
          -0.1696621,
          0.09254509,
          0.115324624,
          0.17433201
        ],
        [
          -0.084517285,
          0.20202391,
          -0.058666017,
          0.15750292,
          -0.068439454,
          -0.053978533,
          -0.012608069,
          0.036817692,
          -0.004739656,
          0.13557552,
          0.07911481,
          0.1504557,
          -0.16879545,
          0.17406699,
          0.088528,
          0.016420247
        ],
        [
          0.07075241,
          0.20857649,
          0.035628017,
          0.1314004,
          -0.057892684,
          -0.077171445,
          0.13591976,
          0.13799044,
          0.034559857,
          0.00014703097,
          -0.08742207,
          0.0054576644,
          -0.1672263,
          0.21831942,
          0.062109616,
          0.052688733
        ],
        [
          0.061857827,
          -0.0005731109,
          0.061456185,
          0.16252029,
          0.100014225,
          -0.14472884,
          0.06219335,
          0.10832058,
          -0.017487725,
          0.06411375,
          -0.11039725,
          0.083414294,
          0.005505041,
          0.1279245,
          0.23374194,
          0.19899468
        ],
        [
          -0.08392583,
          0.0021242744,
          -0.02757168,
          0.09626805,
          -0.05393969,
          -0.07842763,
          0.18789761,
          0.1253058,
          0.049845796,
          0.1448714,
          0.009556746,
          0.15241347,
          -0.09503329,
          0.14197558,
          0.13667461,
          0.17319347
        ],
        [
          -0.1579241,
          -0.01629354,
          0.0834901,
          -0.03666882,
          -0.07157566,
          -0.13548353,
          0.12272474,
          0.033756405,
          0.018098267,
          0.047070697,
          -0.028056893,
          0.12868102,
          0.0064077154,
          0.21333289,
          0.08106818,
          0.05762898
        ],
        [
          -0.14129373,
          0.2234496,
          -0.040742684,
          0.17820811,
          0.045280788,
          0.06940712,
          0.1912991,
          0.048698902,
          0.10038738,
          -0.037926666,
          -0.10262403,
          0.21688189,
          -0.11210427,
          -0.011244407,
          0.038821142,
          0.0012571913
        ],
        [
          -0.12622645,
          0.10810663,
          0.032848045,
          0.19264743,
          0.1430183,
          -0.042585447,
          0.17633687,
          -0.03171929,
          0.033573154,
          0.015112111,
          0.03259412,
          0.06304558,
          -0.16163208,
          0.055405486,
          0.06440179,
          0.17165314
        ],
        [
          -0.0014039117,
          -0.017789248,
          0.12880915,
          0.18021822,
          0.06548014,
          -0.15281114,
          0.118238926,
          0.043651998,
          -0.043638762,
          0.19118108,
          0.06496924,
          -0.0022616189,
          0.014514749,
          0.052172538,
          0.08136452,
          0.059918977
        ],
        [
          -0.007049269,
          -0.08728874,
          -0.043428946,
          0.03987466,
          0.17964506,
          0.105577916,
          0.15906139,
          0.3461752,
          0.162959,
          0.08863008,
          -0.06660536,
          0.18587987,
          -0.017954133,
          0.13979149,
          0.12959772,
          0.017065054
        ],
        [
          0.02412223,
          0.062248837,
          0.0662453,
          0.04091124,
          0.07922779,
          -0.041598186,
          0.031681444,
          0.13445783,
          0.2153507,
          0.08074713,
          0.12705891,
          0.10487642,
          0.104714066,
          0.09460917,
          0.018845826,
          0.10160413
        ],
        [
          -0.06956212,
          0.015549279,
          0.015891744,
          0.11491778,
          -0.0663542,
          -0.007374206,
          -0.022192111,
          -0.012015859,
          0.08098506,
          0.0062373225,
          -0.147108,
          0.15453605,
          0.015130501,
          0.102890894,
          0.12273689,
          0.18159871
        ],
        [
          0.020158667,
          0.10521285,
          0.042603638,
          0.09028638,
          0.12567647,
          -0.14435062,
          0.19838588,
          0.1525535,
          -0.02930173,
          0.17078613,
          -0.058818344,
          0.19189934,
          -0.21326752,
          0.14635396,
          -0.016942155,
          -0.018102862
        ],
        [
          -0.00046251164,
          0.08974671,
          -0.07165165,
          0.1619626,
          -0.079760775,
          -0.14321518,
          0.22425677,
          0.10200086,
          0.1530697,
          -0.038224854,
          -0.030167978,
          0.14988036,
          -0.11428185,
          0.18589246,
          0.1639213,
          0.047590517
        ],
        [
          -0.15917324,
          0.04811201,
          0.09457667,
          0.19255778,
          0.09638964,
          -0.15674698,
          0.07607128,
          -0.06377157,
          -0.027654009,
          0.03129185,
          -0.0939654,
          0.19193359,
          -0.18776019,
          0.003353394,
          0.22446224,
          0.005838056
        ],
        [
          -0.040602595,
          0.0478603,
          -0.058256652,
          0.085988574,
          0.031328063,
          0.065724894,
          0.17366476,
          0.06499563,
          -0.04132707,
          0.13424565,
          -0.16684313,
          0.035656273,
          -0.08315575,
          0.18682346,
          -0.004498311,
          0.14567225
        ],
        [
          -0.09389655,
          0.09696826,
          0.05588567,
          0.033146363,
          -0.028673328,
          -0.0756053,
          0.035678547,
          0.15159884,
          0.10781772,
          0.14555122,
          -0.08538169,
          0.2098809,
          -0.13813348,
          -0.012840938,
          0.03503299,
          0.15556897
        ],
        [
          -0.095641255,
          0.11259468,
          -0.04794235,
          0.025486298,
          -0.04045138,
          -0.052112922,
          0.17913099,
          -0.076742366,
          0.037100833,
          0.17595758,
          0.009018097,
          0.10302851,
          -0.14055146,
          0.12024821,
          0.20346993,
          0.13152243
        ],
        [
          -0.1618345,
          0.022395268,
          0.12803057,
          -0.036524314,
          -0.07012285,
          -0.10027379,
          0.17436714,
          -0.07812829,
          0.0018480591,
          0.18167062,
          -0.024757404,
          0.12780194,
          -0.1701032,
          0.166735,
          0.15287238,
          0.1420636
        ],
        [
          0.03144403,
          0.06060012,
          0.12144345,
          -0.010254966,
          -0.034436297,
          -0.061054777,
          0.11953312,
          0.0377988,
          0.095465384,
          0.19691278,
          0.07543731,
          0.19250788,
          0.021481302,
          0.20591143,
          0.1095962,
          -0.022583615
        ],
        [
          0.07052958,
          0.08966978,
          0.022352492,
          0.05806319,
          0.11970574,
          -0.14973721,
          0.051129732,
          -0.07670684,
          0.026007475,
          0.15317838,
          -0.06857352,
          0.1790237,
          -0.04228773,
          0.19413671,
          0.20672604,
          0.18305139
        ],
        [
          -0.0607239,
          0.14354311,
          0.03271206,
          0.16988164,
          -0.07989785,
          -0.17571011,
          0.061723754,
          0.17033094,
          0.13839081,
          0.077493265,
          -0.16666763,
          0.1187016,
          -0.13051371,
          0.23470357,
          -0.011268718,
          0.11170488
        ],
        [
          0.025053252,
          0.13733436,
          0.043511864,
          0.19145158,
          0.050866064,
          0.020667987,
          0.16540925,
          0.008085338,
          -0.033612575,
          -0.047586516,
          0.061669733,
          0.20970811,
          -0.1820177,
          0.1538907,
          0.03988063,
          0.18652509
        ],
        [
          0.037751522,
          0.19488631,
          -0.27230293,
          0.014541555,
          0.06169573,
          0.06337182,
          0.7797489,
          0.32746825,
          -0.76715106,
          0.3690154,
          -0.1599057,
          0.177698,
          -0.0042550843,
          0.27742982,
          -0.08000742,
          -0.96740675
        ],
        [
          0.2782793,
          0.50183654,
          -0.19890904,
          -0.7340253,
          -0.21062426,
          -0.13606173,
          -0.5657714,
          -0.03923822,
          0.7624698,
          0.3906923,
          -0.44031817,
          0.35605234,
          -0.28716722,
          -0.14809215,
          -0.5042467,
          0.64654726
        ],
        [
          0.14393856,
          -0.03925128,
          0.023665799,
          -0.20699073,
          -0.113098495,
          -0.123694755,
          -0.06890394,
          0.13045864,
          0.47225058,
          0.35958725,
          -0.31893355,
          0.25692353,
          -0.075715736,
          0.25320244,
          -0.19442005,
          0.17836778
        ],
        [
          -0.10331997,
          0.13824661,
          -0.10135776,
          0.17125124,
          -0.046926927,
          -0.07371566,
          0.0014962957,
          0.14399618,
          0.1596711,
          0.011947803,
          -0.06778851,
          0.13025616,
          0.011509343,
          0.013572179,
          0.22113091,
          0.08740481
        ],
        [
          0.04018145,
          0.09361267,
          0.053290036,
          0.028419964,
          0.03649116,
          -0.13045019,
          0.037989426,
          0.08918913,
          0.05460209,
          0.16986175,
          -0.045078,
          0.1385038,
          -0.132867,
          0.09103079,
          0.16466364,
          0.19157608
        ],
        [
          -0.0537623,
          0.15826808,
          0.10958518,
          0.1648863,
          0.05876324,
          0.011293863,
          0.20981605,
          -0.037844896,
          0.14489254,
          0.09895165,
          -0.0976105,
          0.005598119,
          -0.0349307,
          0.1367549,
          0.17494288,
          0.13218208
        ],
        [
          -0.31828022,
          0.14734648,
          0.062450472,
          0.2563828,
          -0.18285361,
          0.11783074,
          -0.21053882,
          -0.44696295,
          0.6464421,
          -0.017073484,
          -0.08996078,
          0.07145918,
          -0.23887183,
          0.16350079,
          0.40983844,
          0.56130123
        ],
        [
          -0.40166083,
          -0.16854793,
          0.41036016,
          0.44091868,
          -0.24878855,
          0.45760703,
          0.57322896,
          0.22853924,
          -0.3134894,
          -0.28269115,
          -0.12690863,
          0.2537278,
          -0.38844037,
          0.43337798,
          0.7448341,
          -0.38686946
        ],
        [
          -0.05791451,
          0.13603722,
          0.10080999,
          0.23058406,
          -0.023935582,
          -0.029846312,
          0.10938127,
          -0.028592803,
          -0.027155006,
          -0.005240391,
          -0.007568621,
          -0.06333291,
          -0.21647067,
          0.13425088,
          0.12001651,
          -0.049545757
        ],
        [
          0.0799894,
          0.09487744,
          0.07507722,
          0.0012079976,
          0.025124442,
          -0.008012646,
          -0.0068376283,
          -0.06550514,
          -0.060605187,
          -0.024342533,
          0.05570146,
          0.14380752,
          -0.17912255,
          0.14048994,
          0.008083047,
          0.20102794
        ],
        [
          -0.08105354,
          0.12087184,
          -0.03187576,
          0.067758776,
          0.16128057,
          -0.0012887949,
          0.15477438,
          0.008890463,
          0.043150518,
          0.18968682,
          -0.009606602,
          0.11455586,
          -0.0053432854,
          0.0055810115,
          0.024917953,
          0.117563285
        ],
        [
          0.06434442,
          0.06918225,
          -0.004978701,
          -0.034011085,
          0.12173322,
          -0.11829442,
          0.17200382,
          0.13232704,
          0.027922621,
          0.18995829,
          0.07775158,
          0.11556815,
          -0.1634263,
          0.16194835,
          0.13516119,
          0.18246542
        ],
        [
          -0.18351878,
          -0.5051083,
          -0.27743998,
          0.29211628,
          -0.06760247,
          0.26935148,
          0.48951057,
          0.16369748,
          -0.15302186,
          -0.048031308,
          0.31555992,
          0.39686176,
          -0.4506666,
          0.383568,
          -0.15869479,
          0.018288882
        ],
        [
          -0.3539405,
          -0.18670918,
          -1.2451867,
          0.26730844,
          -0.016442344,
          -0.21593148,
          1.3314648,
          1.4074068,
          -0.66209245,
          0.88631403,
          0.081720695,
          0.7654463,
          0.60393673,
          0.5454636,
          0.42935073,
          -0.86343956
        ],
        [
          0.024805203,
          -0.15758413,
          0.10694654,
          0.09421098,
          0.0151898395,
          0.15664855,
          0.04402064,
          0.10452133,
          -0.20291854,
          0.03002788,
          0.20060223,
          0.21271607,
          0.10081016,
          0.17032452,
          0.020385696,
          -0.20071848
        ],
        [
          -0.04713623,
          0.6334089,
          0.4428463,
          -0.29382697,
          -0.33101255,
          0.079048686,
          -0.21016757,
          -0.51409835,
          0.64349824,
          -0.23919179,
          -0.46603343,
          -0.73562634,
          0.20332576,
          -1.0030446,
          -0.7950416,
          0.63489443
        ],
        [
          0.88119423,
          1.3295761,
          -0.54672474,
          -1.3232622,
          0.43933418,
          0.104681395,
          -2.322284,
          -1.4617354,
          2.1433213,
          0.06255835,
          -0.088146344,
          -0.85538185,
          0.11969916,
          -1.0236522,
          -1.5438608,
          2.0172849
        ],
        [
          0.04510413,
          -0.096760936,
          0.075945035,
          0.07315015,
          -0.108145736,
          0.039563466,
          -0.11247057,
          0.106407635,
          0.010658291,
          -0.019952139,
          -0.054909136,
          0.09278461,
          0.024808558,
          -0.08657908,
          -0.04812112,
          -0.12259945
        ],
        [
          -0.5202461,
          -0.3658958,
          0.4006159,
          0.37734497,
          -0.40770236,
          0.37837303,
          0.12659855,
          0.18032165,
          -0.35801703,
          -0.6186037,
          0.5170433,
          0.21923803,
          0.5060019,
          0.23379709,
          0.5721623,
          -0.38016278
        ],
        [
          -0.16067132,
          0.44200143,
          0.124719456,
          0.14227897,
          -0.42597944,
          -0.07013157,
          -0.5110355,
          -0.060391877,
          0.31317645,
          -0.3840012,
          -0.23166706,
          -0.57712334,
          -0.274035,
          -0.20163336,
          -0.2623357,
          0.31818607
        ],
        [
          0.089081824,
          -0.07517601,
          0.02437309,
          -0.016579429,
          0.041983526,
          -0.22596712,
          -0.09877007,
          -0.17284687,
          -0.011939965,
          0.030230183,
          0.008186223,
          -0.23307864,
          -0.1655895,
          -0.18822755,
          -0.17649633,
          -0.14309579
        ],
        [
          0.08910236,
          -0.21558735,
          0.1936818,
          -0.027973088,
          -0.25099376,
          0.13641603,
          -0.15726188,
          -0.18142068,
          -0.0819159,
          -0.23243193,
          0.10485355,
          -0.17262626,
          0.0004863082,
          0.0217581,
          -0.13097773,
          -0.054284394
        ],
        [
          0.117873795,
          0.3068627,
          -0.8964497,
          -0.40096253,
          -0.23919092,
          -0.74863356,
          -0.24005009,
          -0.24069424,
          -0.11231349,
          0.30642486,
          -0.65607387,
          0.015132691,
          -0.747095,
          -0.42789817,
          -0.39339864,
          -0.10741353
        ],
        [
          -0.9194163,
          -0.677071,
          0.23109749,
          0.80737317,
          -0.34529233,
          0.35474357,
          0.4469789,
          0.3697432,
          -0.61094743,
          -0.8416585,
          -0.18665703,
          0.94141066,
          -1.0216861,
          0.86075246,
          0.3402374,
          -0.63195765
        ],
        [
          0.14949614,
          0.19367027,
          -0.17597942,
          -0.15406609,
          0.03064443,
          -0.34709135,
          -0.24394965,
          -0.33279312,
          0.14664026,
          0.1634109,
          -0.17358053,
          -0.34250537,
          -0.28960752,
          -0.4577605,
          -0.220755,
          0.16640793
        ],
        [
          0.13389774,
          0.028297473,
          0.021460466,
          -0.11220411,
          -0.14895436,
          -0.03641391,
          -0.15316409,
          -0.23864822,
          -0.11477093,
          -0.037245467,
          -0.084236436,
          -0.082315005,
          -0.14273778,
          -0.27313238,
          0.048150133,
          -0.07339587
        ],
        [
          0.0135030495,
          -0.06294633,
          -0.058865327,
          -0.011534547,
          0.054558698,
          0.14471349,
          -0.13924868,
          -0.08844334,
          -0.1415542,
          -0.14890163,
          0.11741558,
          -0.19583674,
          -0.032927707,
          -0.20051703,
          -0.12908494,
          0.05074276
        ],
        [
          -0.052401233,
          -0.064060315,
          -0.25005844,
          0.15746792,
          -0.05013782,
          -0.060270734,
          -0.10028308,
          -0.17039785,
          -0.1508529,
          -0.18644586,
          0.0041018394,
          -0.15270828,
          0.11438902,
          -0.077022895,
          -0.10242555,
          -0.03074083
        ],
        [
          0.20997852,
          -0.029366083,
          0.11626603,
          0.38903305,
          -0.21025367,
          0.11931435,
          0.3183994,
          0.33209625,
          -0.29546535,
          -0.05382162,
          0.31300187,
          -0.28010616,
          -0.22335468,
          -0.04600172,
          0.5593008,
          -0.35320333
        ],
        [
          0.16615856,
          0.025737265,
          0.3375969,
          0.0278213,
          0.06750096,
          0.14992549,
          0.27717698,
          0.38410968,
          0.0655337,
          0.025288722,
          0.34112734,
          0.024756575,
          -0.25465778,
          0.3088873,
          0.18947601,
          0.09365883
        ],
        [
          -0.27647477,
          -0.038486015,
          0.16043964,
          0.22877972,
          0.3418844,
          0.24289009,
          0.25825146,
          0.086767875,
          -0.16153237,
          -0.17024182,
          -0.030731654,
          0.2249588,
          -0.13622193,
          0.15272957,
          0.36838943,
          0.21295677
        ],
        [
          -0.15679653,
          0.036878202,
          -0.06456345,
          0.09876951,
          0.022564221,
          -0.10951036,
          0.024560241,
          0.13267784,
          0.12161182,
          -0.0050252844,
          -0.13161598,
          0.21236674,
          -0.014102035,
          0.1657382,
          0.015320683,
          0.10597665
        ],
        [
          -0.023448166,
          -0.08330317,
          0.06909758,
          0.0049551153,
          -0.059916858,
          -0.0114876,
          -0.13994284,
          -0.16358706,
          -0.12255623,
          -0.086898774,
          -0.03781965,
          0.040963784,
          0.06999031,
          -0.035985503,
          -0.15755457,
          -0.10780061
        ],
        [
          0.13926665,
          -0.3088363,
          -0.23200263,
          -0.14507028,
          -0.08298613,
          -0.049417865,
          -0.22508973,
          -0.03709124,
          0.3825406,
          0.0143262595,
          -0.056424,
          0.22902821,
          -0.027832028,
          0.074989095,
          -0.34031475,
          0.53803927
        ],
        [
          0.095470086,
          -0.19515735,
          0.14060394,
          0.49082944,
          0.31034213,
          0.008222436,
          1.1961151,
          0.41742602,
          -0.26952565,
          0.24191804,
          -0.17982276,
          0.2187063,
          0.05589263,
          0.76607776,
          0.78056914,
          -0.43067455
        ],
        [
          0.34529376,
          -0.11857516,
          -0.47754607,
          -0.049343318,
          0.3371308,
          0.18350331,
          0.16438405,
          -0.044666998,
          0.172288,
          0.304413,
          -0.2968849,
          0.117923126,
          -0.11941874,
          0.34000453,
          0.14670973,
          0.406105
        ],
        [
          0.25249135,
          0.34040135,
          0.05811042,
          -0.25223547,
          0.07520914,
          -0.06772565,
          0.0063226502,
          -0.08735707,
          -0.08526876,
          0.44551104,
          -0.52988666,
          -0.13548167,
          0.28788307,
          -0.10148329,
          -0.30086312,
          0.5270997
        ],
        [
          -0.09175885,
          0.14014627,
          0.12730455,
          0.1709311,
          -0.036319945,
          -0.16376829,
          0.11157097,
          0.11741035,
          0.11705222,
          0.0702865,
          -0.16408382,
          0.014377175,
          -0.012279547,
          0.023131179,
          0.15223238,
          0.015381563
        ],
        [
          -0.17084777,
          0.17461315,
          -0.092257865,
          -0.08647755,
          -0.2880488,
          -0.105254434,
          -0.5112045,
          -0.13384438,
          -0.27857405,
          -0.13629803,
          0.14616813,
          -0.18631129,
          -0.06991086,
          -0.020996295,
          -0.13250937,
          -0.29553387
        ],
        [
          -0.01584251,
          -0.051514577,
          -0.026021393,
          0.36599824,
          -0.20910864,
          0.10411214,
          -0.24191861,
          -0.14323302,
          -0.20320292,
          -0.35280207,
          -0.091906376,
          0.10398895,
          -0.15476796,
          0.28769097,
          -0.02577521,
          -0.17208204
        ],
        [
          -0.17412095,
          0.15967642,
          0.08129734,
          0.33504024,
          -0.34571368,
          -0.07895487,
          -0.64134556,
          -0.040466517,
          0.35383618,
          -0.12143655,
          0.1070335,
          -0.1484113,
          -0.15370043,
          0.34189248,
          -0.24016024,
          0.17335482
        ],
        [
          -0.13311484,
          0.30917323,
          -0.05142384,
          0.34152934,
          -0.07325851,
          -0.02671402,
          -0.46404845,
          -0.14896244,
          -0.43782032,
          -0.234621,
          0.14954601,
          0.010890843,
          -0.22047724,
          0.22047275,
          -0.0706734,
          -0.27146646
        ],
        [
          -0.11901867,
          0.24678208,
          0.18974121,
          -0.36865297,
          -0.04394206,
          -0.042446755,
          -0.8703078,
          -0.34211197,
          0.68272275,
          -0.1789032,
          -0.07776572,
          -0.027054014,
          0.22893126,
          0.007953372,
          -0.54269445,
          0.7163811
        ],
        [
          -0.009073765,
          0.089664675,
          0.27564526,
          0.14433733,
          -0.22198561,
          0.22365746,
          -0.3470262,
          -0.057169367,
          0.2950395,
          -0.23396854,
          0.14304125,
          -0.17218322,
          -0.19020455,
          0.16534072,
          -0.18091252,
          0.538927
        ],
        [
          -0.09883086,
          -0.034312714,
          -0.09423647,
          0.36062834,
          -0.17160065,
          -0.0628063,
          0.5986796,
          0.28408813,
          -0.5717497,
          0.116162546,
          -0.06789669,
          0.1661254,
          0.033566236,
          0.2167752,
          -0.017169593,
          -0.6647531
        ],
        [
          0.059334643,
          0.09336212,
          -0.09506326,
          0.12646946,
          0.0015468172,
          0.06964046,
          -0.22522967,
          0.099105805,
          0.22816594,
          0.25573418,
          -0.02265389,
          0.18429996,
          -0.1512653,
          0.066411525,
          0.11246339,
          0.6712691
        ],
        [
          0.010393477,
          0.2370191,
          0.19182484,
          -0.15838344,
          0.123329334,
          -0.052243933,
          -0.036978077,
          -0.24448884,
          0.687048,
          0.23565473,
          -0.04446929,
          0.006510401,
          -0.0672809,
          -0.059987623,
          -0.677868,
          0.7444467
        ],
        [
          -0.122403674,
          -0.09847854,
          -0.12353184,
          0.062498625,
          0.05715728,
          -0.13468143,
          0.31450555,
          0.28262272,
          -0.10191748,
          -0.06985539,
          -0.1746465,
          0.15927303,
          0.1059241,
          0.28045148,
          0.62680554,
          -0.35030776
        ],
        [
          -0.04216053,
          0.15265152,
          0.21601315,
          -0.058332667,
          0.037353013,
          -0.05882425,
          -0.3704022,
          -0.29973534,
          0.28043774,
          -0.053835083,
          -0.084941186,
          0.33301216,
          0.22625105,
          -0.043028258,
          -0.21013658,
          0.39559197
        ],
        [
          0.0048072087,
          0.21044165,
          -0.10618009,
          0.044132017,
          0.10061878,
          -0.07372379,
          -0.11603111,
          0.07413313,
          0.21717606,
          0.1664675,
          0.061154246,
          0.021067407,
          -0.0033190844,
          -0.092622906,
          0.058829397,
          0.14505006
        ],
        [
          0.042889588,
          -0.08710082,
          0.00031218526,
          -0.1031932,
          -0.009145993,
          -0.0026142742,
          -0.06288639,
          0.20076816,
          -0.057768296,
          -0.06507915,
          0.14847283,
          0.02100727,
          -0.13930245,
          0.09364745,
          -0.27944127,
          -0.1858099
        ],
        [
          0.0074334377,
          -0.039724965,
          -0.07659438,
          -0.03844602,
          -0.19368389,
          -0.15798688,
          0.002298698,
          -0.31796473,
          -0.17602463,
          -0.009433623,
          -0.099793375,
          -0.33633313,
          -0.048680007,
          -0.13408956,
          0.06396861,
          -0.03293829
        ],
        [
          0.012228356,
          -0.2578754,
          0.06003203,
          0.13734996,
          -0.07528622,
          0.023910182,
          -0.05702124,
          0.21398953,
          0.09791309,
          -0.04197206,
          0.16947791,
          0.17999318,
          -0.1976024,
          0.074957564,
          -0.2722243,
          -0.24038312
        ],
        [
          -0.09189846,
          -0.12818725,
          0.0473969,
          0.21653518,
          0.031574827,
          0.18734524,
          -0.11015907,
          -0.13828072,
          0.09937742,
          -0.115696646,
          0.06889262,
          0.10945667,
          -0.024249451,
          0.13480994,
          0.28814307,
          0.013557303
        ],
        [
          -0.02165598,
          0.26069182,
          0.0005536447,
          -0.24087574,
          0.106980346,
          -0.15665646,
          -0.8184484,
          -0.45126277,
          0.014022567,
          0.15802732,
          -0.5366305,
          -0.4864121,
          0.24465437,
          -0.38652474,
          -1.1280836,
          0.4793667
        ],
        [
          0.08228682,
          0.8529141,
          0.2635722,
          -0.34804642,
          0.07203895,
          -0.098335795,
          0.77228516,
          -0.40003687,
          -0.098542914,
          -0.7695225,
          0.17798568,
          -0.8816767,
          0.06528382,
          -0.7086907,
          0.26898748,
          -0.45463634
        ],
        [
          0.10150662,
          0.667693,
          0.023174614,
          -0.52386135,
          0.36662963,
          -0.15597558,
          -0.032375485,
          -1.0409524,
          0.54585767,
          0.21712059,
          0.22084682,
          -0.4726318,
          -0.07997141,
          -0.36421788,
          0.43893597,
          0.73683256
        ],
        [
          0.25561514,
          -0.22042812,
          -0.035988394,
          -0.05977687,
          0.4280668,
          0.26705962,
          0.08068348,
          0.15611257,
          -0.00065708486,
          0.1675581,
          0.19707172,
          -0.17228436,
          0.279548,
          0.090632275,
          -0.27058846,
          0.30170283
        ],
        [
          -0.021027513,
          0.007145952,
          -0.23010482,
          0.029804597,
          0.04693274,
          -0.0022148755,
          0.09965633,
          -0.10576347,
          -0.12899958,
          0.0016614547,
          0.026751567,
          -0.33673495,
          0.10649587,
          -0.2083173,
          0.01680103,
          -0.19927709
        ],
        [
          -0.026442086,
          0.16721243,
          -0.027168255,
          0.11199536,
          0.090493105,
          0.16573538,
          0.11283762,
          -0.2475535,
          -0.17403191,
          -0.088902466,
          -0.14615354,
          -0.49031705,
          0.124546126,
          -0.102460004,
          0.19012843,
          -0.0011666374
        ],
        [
          -0.048152212,
          -0.25003996,
          0.24674799,
          -0.027394474,
          -0.3635461,
          -0.040829603,
          -0.052199263,
          0.059191614,
          0.246628,
          -0.18210043,
          -0.0548986,
          0.34708825,
          -0.25988203,
          0.34279895,
          0.36004925,
          0.13713934
        ],
        [
          0.18093264,
          -0.38049144,
          0.25431263,
          -0.8775926,
          -0.2126019,
          0.36617997,
          -0.8575375,
          0.27958062,
          0.3561813,
          -0.49598238,
          -0.426742,
          1.0288384,
          0.20875882,
          0.071657926,
          -1.1620952,
          0.6785517
        ],
        [
          -0.24436289,
          -1.024559,
          -0.059794217,
          -1.0897058,
          -0.3920894,
          0.79174167,
          -0.5672025,
          1.4905938,
          -0.07670702,
          -0.23120773,
          0.44487604,
          1.3373642,
          -0.81062883,
          1.0771185,
          -2.657168,
          0.23233548
        ],
        [
          -0.27512303,
          -0.24119061,
          0.2131035,
          0.168865,
          0.13910018,
          0.032341283,
          0.38128212,
          0.056844912,
          -0.23789021,
          -0.33507794,
          -0.041384067,
          -0.0072687287,
          -0.29109275,
          -0.01342045,
          0.31805372,
          -0.11682252
        ],
        [
          -0.20029783,
          1.0378758,
          0.27453005,
          -0.50522035,
          0.55991405,
          0.3506633,
          -0.13619468,
          0.07064122,
          -0.81441706,
          -0.7215318,
          -0.6535001,
          -1.4311787,
          -0.0115162,
          -1.3059876,
          -0.49210325,
          -0.0027537881
        ],
        [
          -0.25754902,
          0.91531634,
          0.6037678,
          -0.5809652,
          0.74310434,
          0.9532937,
          -0.24475329,
          -0.14055616,
          0.4957163,
          0.09439596,
          -0.3002316,
          -1.0175802,
          0.5089435,
          -0.8367916,
          -0.0848322,
          0.5844321
        ],
        [
          -0.70010537,
          0.50612205,
          0.3308249,
          -0.82812107,
          0.8467349,
          0.41649777,
          -0.6191506,
          -0.64119834,
          -0.010371172,
          -0.53882277,
          -0.3008038,
          -0.34145486,
          0.36747643,
          -0.9420886,
          -0.24334845,
          0.55571365
        ],
        [
          -0.09336698,
          -0.44231436,
          0.39544773,
          -0.17751026,
          0.6862947,
          0.076364115,
          -0.030330494,
          0.39717743,
          -0.27327552,
          -0.08456143,
          0.042045344,
          0.1431276,
          0.07280057,
          -0.008960949,
          -0.10778421,
          0.13471659
        ],
        [
          -0.1552664,
          -0.44111982,
          0.61367315,
          0.25535578,
          0.46060905,
          0.9315518,
          0.69249845,
          0.32906333,
          -0.42662874,
          -0.3464092,
          0.5411352,
          -0.32649317,
          0.7688864,
          -0.17000231,
          0.5095891,
          -0.14384136
        ],
        [
          0.087950446,
          0.045965564,
          -0.009300632,
          0.06627372,
          -0.10401253,
          0.023486461,
          0.021333788,
          -0.10000879,
          0.08115827,
          0.10423635,
          0.056559585,
          0.009673347,
          -0.037313536,
          -0.111493394,
          -0.039320372,
          -0.121609874
        ],
        [
          -0.00955682,
          -0.85275435,
          -0.63215774,
          0.036934108,
          0.5378957,
          -0.056325473,
          0.21541509,
          1.0736858,
          -0.46566844,
          0.044791084,
          -0.79830116,
          0.8279193,
          -0.07256396,
          1.2310147,
          -0.7022289,
          -1.3582919
        ],
        [
          1.018483,
          0.03515486,
          -0.07299921,
          0.13922071,
          -0.5767717,
          -0.075575784,
          0.55193365,
          0.45423284,
          0.506438,
          0.8368949,
          -0.1593467,
          0.82320696,
          -0.35926455,
          0.92531854,
          0.008568692,
          -0.98594964
        ],
        [
          0.2815032,
          0.10718483,
          0.18801068,
          0.18798289,
          0.04199323,
          0.2708016,
          0.40993097,
          -0.6045472,
          0.5506451,
          -0.14824831,
          0.19969879,
          0.22370504,
          -0.29240972,
          0.35389996,
          1.2700588,
          -0.3916078
        ],
        [
          -0.25579223,
          -0.29938123,
          0.32054114,
          0.7030466,
          0.12230951,
          0.68074906,
          0.026013358,
          0.1441256,
          -0.081363045,
          -0.37825924,
          0.52619576,
          0.18972056,
          0.20682417,
          0.5514671,
          0.27569485,
          -0.8017161
        ],
        [
          0.37926042,
          0.085734494,
          -0.06852961,
          -0.03477584,
          0.39992693,
          0.09593723,
          0.15965356,
          -0.15285172,
          0.25973192,
          0.21685869,
          0.48161882,
          -0.14520507,
          0.2979745,
          -0.124377504,
          -0.09201645,
          -0.10725552
        ],
        [
          0.049143013,
          0.081179485,
          -0.05713924,
          0.018527998,
          0.019007564,
          0.00050663884,
          -0.04798835,
          0.0997349,
          -0.05780608,
          -0.03888681,
          0.07164807,
          -0.059646253,
          -0.09285771,
          -0.099882856,
          -0.09271959,
          0.039826214
        ],
        [
          0.030664528,
          -0.52982575,
          -0.20467213,
          -0.40035442,
          0.111592494,
          0.18728484,
          -0.19907594,
          0.31687298,
          0.553549,
          -0.06458693,
          0.19338466,
          0.79761726,
          -0.29211652,
          0.37636283,
          -0.75293106,
          0.28902537
        ],
        [
          -0.053940218,
          -0.376354,
          -0.081255205,
          0.027871074,
          -0.01383318,
          0.013454571,
          0.27031434,
          0.3645989,
          0.02473468,
          0.0020143879,
          0.108054325,
          0.36964667,
          -0.11029915,
          0.15049973,
          0.015676793,
          -0.17755556
        ],
        [
          0.12066357,
          -0.04501457,
          -0.13174331,
          0.11403329,
          0.040316433,
          -0.16558178,
          -0.23690973,
          0.2967701,
          -0.34273314,
          0.065333106,
          0.086337835,
          0.20454755,
          0.0135333715,
          -0.06964516,
          -0.25093168,
          -0.114403814
        ],
        [
          0.08296766,
          -0.021058286,
          -0.25177225,
          -0.1575255,
          -0.21934271,
          -0.08164015,
          -0.0895518,
          -0.046715803,
          0.1622041,
          0.004141305,
          -0.20868792,
          -0.03525578,
          0.16457723,
          -0.11614924,
          -0.42331207,
          0.26704082
        ],
        [
          0.2312521,
          0.10987479,
          -0.09393326,
          -0.34678128,
          -0.019206036,
          0.058264606,
          -0.46040216,
          -0.356534,
          0.301601,
          -0.16511647,
          -0.08825903,
          -0.0675788,
          0.03521799,
          -0.2677303,
          -0.35943753,
          0.4451515
        ],
        [
          0.06673788,
          -0.16666712,
          -0.06398441,
          -0.1135424,
          -0.057970557,
          0.07944699,
          -0.3808871,
          -0.024715861,
          -0.033121023,
          0.031462584,
          -0.028489733,
          0.04379162,
          -0.048618086,
          -0.03569587,
          -0.11288443,
          -0.015719695
        ],
        [
          0.062564276,
          0.0022577161,
          -0.15066838,
          -0.16074832,
          -0.081615806,
          0.06321602,
          0.27968544,
          -0.06389919,
          -0.33891416,
          -0.053160004,
          -0.00941045,
          -0.38976216,
          -0.09068303,
          -0.16129741,
          0.12800696,
          -0.4583922
        ],
        [
          -0.0025942414,
          -0.061320644,
          0.14877155,
          -0.27550226,
          0.120644964,
          0.05699836,
          -0.22681189,
          -0.22850128,
          0.15751906,
          0.1146181,
          -0.1771511,
          -0.17353173,
          0.17024517,
          -0.15067862,
          -0.56939226,
          0.33209687
        ],
        [
          0.088063195,
          0.039680995,
          -0.026624035,
          -0.13593124,
          -0.11415353,
          -0.16547804,
          -0.17907907,
          -0.013950422,
          -0.1780341,
          -0.08980186,
          0.12088476,
          0.004936267,
          0.020755626,
          -0.2356243,
          -0.03349839,
          -0.3791205
        ],
        [
          0.09191865,
          -0.0655033,
          0.06666367,
          0.13074204,
          -0.0018491586,
          -0.06710923,
          0.16716795,
          -0.10206763,
          -0.3745761,
          0.07811049,
          0.042786986,
          -0.15372603,
          0.10738577,
          -0.023822613,
          0.299061,
          -0.05886245
        ],
        [
          0.0016088885,
          -0.15875433,
          -0.0734867,
          -0.10531278,
          0.07527498,
          0.024253823,
          0.21562031,
          -0.047999337,
          -0.1589635,
          0.08886202,
          0.11864594,
          -0.35036647,
          -0.054105885,
          -0.25643766,
          0.13302904,
          -0.21963508
        ],
        [
          0.1330276,
          -0.12927386,
          -0.095111944,
          -0.0189441,
          0.045727756,
          0.021226944,
          -0.14483513,
          -0.20610511,
          -0.04494116,
          0.038806017,
          0.16740324,
          -0.25052148,
          -0.01795962,
          -0.10413968,
          0.0026298696,
          0.15851144
        ],
        [
          -0.06309744,
          0.064343125,
          0.07650471,
          -0.60325444,
          -0.13071968,
          -0.025560668,
          -0.715351,
          -0.51011795,
          0.42033988,
          -0.03874681,
          0.18479392,
          -0.22658285,
          0.10136143,
          -0.29030624,
          -0.8829416,
          0.7379244
        ],
        [
          0.098501116,
          -0.13580409,
          0.04344838,
          0.05413313,
          -0.044405993,
          0.022452477,
          -0.17026965,
          -0.3957701,
          -0.0033468914,
          -0.16057292,
          0.07545472,
          -0.08389744,
          0.16073482,
          -0.015582524,
          -0.1304852,
          0.24877416
        ],
        [
          -0.021625621,
          -0.03878225,
          -0.060309563,
          -0.07554617,
          -0.14491163,
          0.113216266,
          0.14690144,
          -0.20266293,
          -0.22132055,
          -0.04780694,
          0.13466015,
          -0.25043416,
          -0.00655533,
          -0.09402588,
          -0.04867734,
          -0.18097255
        ],
        [
          0.0344885,
          -0.09586376,
          -0.06129545,
          0.2458594,
          0.08908482,
          -0.04552924,
          0.14697905,
          0.172731,
          -0.15444691,
          -0.007728088,
          0.22918235,
          -0.32528323,
          0.13316795,
          -0.012151463,
          0.13279271,
          -0.07998397
        ],
        [
          0.07420536,
          -0.21735834,
          -0.1164734,
          0.001049534,
          -0.11353517,
          0.15075839,
          -0.056588206,
          -0.14352599,
          0.19825812,
          -0.22492675,
          0.1923777,
          0.10086934,
          0.026003968,
          0.008752306,
          -0.2273312,
          -0.093504824
        ],
        [
          0.18634777,
          -0.120018154,
          -0.05680452,
          0.041688368,
          -0.13061108,
          0.30930647,
          -0.11544917,
          0.008477315,
          -0.3855187,
          -0.0382588,
          0.0053772256,
          -0.4860032,
          0.13809071,
          -0.1792405,
          -0.17083961,
          -0.2762254
        ],
        [
          0.15855695,
          -0.13206606,
          -0.012036718,
          -0.14598294,
          -0.087324984,
          0.008586719,
          -0.09630279,
          -0.10337137,
          -0.096209556,
          -0.059409183,
          0.08204949,
          0.066985026,
          -0.0056459736,
          0.0402403,
          -0.3221393,
          -0.116568394
        ],
        [
          0.14857005,
          0.07365932,
          -0.06344344,
          0.115985274,
          -0.07290198,
          0.07060798,
          0.24728504,
          0.16999216,
          -0.39017925,
          -0.10262386,
          0.22874562,
          -0.30399927,
          -0.17485714,
          -0.09194276,
          0.12435399,
          -0.5674797
        ],
        [
          -0.020847663,
          -0.14185908,
          -0.108841926,
          -0.15239635,
          -0.056579724,
          0.18710771,
          -0.26678675,
          -0.29427,
          -0.09713854,
          -0.36514473,
          -0.023906007,
          -0.27157712,
          0.12999478,
          -0.174845,
          -0.09997412,
          0.04286177
        ],
        [
          0.17839257,
          -0.1378499,
          -0.158235,
          -0.07479897,
          0.025559625,
          0.22576478,
          -0.062549554,
          -0.045342002,
          -0.1806887,
          -0.0680487,
          -0.117821254,
          -0.12418989,
          0.35033974,
          -0.0431846,
          0.25860795,
          -0.58012694
        ],
        [
          0.035356335,
          -0.06161966,
          0.12463072,
          -0.27467534,
          -0.027125005,
          0.025779523,
          -0.4757521,
          -0.04918459,
          0.40301642,
          -0.06988067,
          -0.13557947,
          -0.06217268,
          0.10786996,
          -0.20561306,
          -0.26996097,
          0.34471232
        ],
        [
          0.24304938,
          -0.13119121,
          -0.024152666,
          -0.4041892,
          -0.11950841,
          0.23334356,
          0.1548967,
          -0.13574563,
          0.042651758,
          0.1064023,
          -0.062469646,
          0.013924151,
          0.025528943,
          -0.22837354,
          -0.035112236,
          0.0676508
        ],
        [
          -0.020542596,
          -0.41462284,
          0.35496604,
          -0.2570425,
          -0.08437534,
          0.08881659,
          0.27288106,
          0.16604517,
          0.33268675,
          0.097777426,
          0.17298964,
          0.10105886,
          0.016816141,
          0.0048087593,
          0.15586391,
          -0.13389914
        ],
        [
          0.12072446,
          -0.20215315,
          0.20951547,
          -0.47178632,
          -0.38371417,
          0.42640817,
          -0.3537529,
          -0.2691565,
          0.4072094,
          -0.2935935,
          -0.018325945,
          -0.28967974,
          -0.31770915,
          -0.17637248,
          -0.47958592,
          0.39192614
        ],
        [
          0.0071172747,
          -0.111227825,
          0.24001884,
          0.055151116,
          0.041111223,
          0.06300053,
          0.030072479,
          -0.012362896,
          0.13975321,
          -0.12018192,
          0.17771116,
          -0.12464812,
          0.10115865,
          -0.03606927,
          -0.07551494,
          0.26357445
        ],
        [
          0.110406294,
          -0.043075494,
          -0.055179186,
          -0.4637604,
          0.08325822,
          0.14873628,
          0.035016965,
          -0.0023420153,
          0.01858651,
          0.002990493,
          -0.18542618,
          -0.21821329,
          0.14709038,
          -0.28787088,
          -0.33275297,
          -0.14817148
        ],
        [
          0.035390735,
          -0.19256683,
          0.12035096,
          -0.22538503,
          0.01912731,
          -0.006780594,
          -0.34118703,
          0.050371174,
          0.08207994,
          0.07209752,
          -0.13382818,
          -0.049127437,
          0.20191225,
          -0.17925897,
          -0.4768308,
          0.31579357
        ],
        [
          -0.116409525,
          -0.030589536,
          -0.1108443,
          -0.0813259,
          -0.03942162,
          0.10013702,
          -0.1786562,
          0.046339117,
          -0.09180387,
          -0.109527595,
          0.11156257,
          -0.10636532,
          0.1924585,
          -0.10920077,
          0.0053293877,
          -0.077237226
        ],
        [
          0.07530265,
          -0.04058934,
          -0.1175412,
          -0.1472028,
          -0.13083953,
          -0.00072526827,
          0.028871577,
          -0.15536176,
          -0.30245364,
          -0.16645266,
          0.20646518,
          0.10334252,
          0.12062267,
          -0.04304736,
          0.14755112,
          0.112659596
        ],
        [
          0.014397727,
          -0.3629216,
          0.01869962,
          -0.09803832,
          -0.06889968,
          -0.011493466,
          0.21284446,
          0.14836603,
          -0.47794083,
          -0.28162304,
          -0.022075834,
          0.14539248,
          0.278546,
          0.10173901,
          0.36999148,
          -0.2447776
        ],
        [
          0.23941065,
          -0.15698008,
          -0.45543957,
          0.12675056,
          0.32660112,
          0.12562129,
          0.131532,
          0.2841658,
          -0.15673365,
          0.42482007,
          0.035874095,
          0.23675188,
          0.029101819,
          -0.054834943,
          -0.5357496,
          -0.695509
        ],
        [
          0.089614764,
          -0.2280855,
          -0.13951439,
          0.065713346,
          0.09682283,
          -0.018015066,
          -0.24177136,
          0.028215794,
          -0.30561754,
          0.02693357,
          0.033870377,
          0.20192371,
          0.09825694,
          0.015387567,
          0.28758574,
          -0.31445342
        ],
        [
          0.06286758,
          -0.21778323,
          -0.17681511,
          0.20624495,
          0.14936492,
          0.01697287,
          -0.3207904,
          0.057147175,
          -0.24148016,
          -0.31999698,
          0.2096199,
          0.24274775,
          0.10258192,
          0.01835801,
          -0.19427364,
          -0.13593072
        ],
        [
          -0.0079082325,
          0.0388192,
          -0.01712321,
          -0.39951304,
          0.23987004,
          -0.020892015,
          -0.33990985,
          -0.4886043,
          0.33784947,
          -0.11344495,
          -0.24848755,
          0.030986942,
          0.3863661,
          0.010230197,
          0.03646083,
          0.35430792
        ],
        [
          0.06699565,
          -0.13942751,
          -0.12122604,
          0.1476315,
          0.12607698,
          0.07735532,
          0.44538218,
          0.35093865,
          -0.53526664,
          0.06810944,
          -0.08917225,
          0.15477516,
          0.09446725,
          0.16003154,
          0.11901811,
          -1.0675988
        ],
        [
          0.14574784,
          -0.009851356,
          -0.029173134,
          -0.24124858,
          0.044652153,
          -0.016312834,
          0.10427009,
          0.07623035,
          -0.31149077,
          0.022584429,
          0.052601133,
          0.13229534,
          0.10274281,
          0.094013564,
          -0.10713856,
          -0.3555712
        ],
        [
          0.0036187032,
          -0.027094195,
          -0.041068144,
          -0.65558857,
          0.0679605,
          -0.06093662,
          -0.16953193,
          -0.2964209,
          0.029617168,
          -0.048002377,
          0.1879265,
          0.2736031,
          -0.08170262,
          -0.2015934,
          -0.43453452,
          0.0037491876
        ],
        [
          -0.028460834,
          -0.09272242,
          -0.042024992,
          -0.07364884,
          0.16501692,
          -0.009543862,
          -0.07118096,
          0.07097042,
          -0.1781637,
          -0.023511237,
          0.03727607,
          -0.02014659,
          -0.048127655,
          -0.0033006885,
          0.25771025,
          -0.07926205
        ],
        [
          -0.0013645125,
          -0.15134059,
          -0.118766226,
          -0.021388354,
          0.362516,
          0.108792566,
          0.37698975,
          0.0020981852,
          -0.45326233,
          0.05654861,
          -0.21875088,
          -0.24983725,
          0.036484126,
          -0.28403953,
          0.30699122,
          -0.24207117
        ],
        [
          -0.06707072,
          -0.16372591,
          -0.14623237,
          -0.2757199,
          0.057738483,
          0.041997887,
          -0.11666627,
          -0.19938575,
          0.1681131,
          -0.08853887,
          0.0018167897,
          -0.01970165,
          0.10195537,
          0.08169531,
          -0.092220336,
          0.47243166
        ],
        [
          0.010450898,
          -0.10858232,
          -0.012631975,
          -0.08588966,
          -0.04274482,
          -0.09152701,
          -0.062147018,
          0.19334468,
          -0.15076265,
          0.072225995,
          0.17147523,
          0.06198697,
          0.08659434,
          0.012105871,
          -0.16647345,
          -0.41057208
        ],
        [
          -0.017372893,
          -0.13140169,
          -0.006412368,
          -0.31201914,
          -0.13382028,
          0.05528645,
          -0.24237157,
          -0.12282405,
          0.14585577,
          -0.10368988,
          0.2942363,
          0.1286896,
          -0.07967757,
          0.1646367,
          -0.3878322,
          0.10506935
        ],
        [
          -0.19021009,
          -0.19913667,
          0.26053488,
          0.08463503,
          -0.2843812,
          0.18502662,
          -0.27100143,
          -0.27758995,
          0.32439497,
          -0.27277264,
          -0.05326937,
          -0.06845446,
          -0.020761577,
          -0.09137916,
          -0.37725332,
          0.3160662
        ],
        [
          -0.104707874,
          0.04031378,
          -0.0028788666,
          0.23398635,
          -0.2306357,
          -0.043161817,
          -0.28074357,
          -0.2737441,
          -0.42390558,
          -0.096974306,
          -0.009627917,
          0.07467869,
          0.06422623,
          -0.15527652,
          0.47983402,
          -0.56647825
        ],
        [
          0.024971683,
          0.11925871,
          0.034267947,
          -0.17293584,
          -0.123025924,
          -0.012276939,
          -0.044860795,
          -0.27193046,
          0.028720204,
          0.15636906,
          -0.039619405,
          -0.28499433,
          -0.104503445,
          -0.39630327,
          -0.12337603,
          -0.2924147
        ],
        [
          0.047635574,
          0.2917747,
          0.124659374,
          -0.12296844,
          -0.11889434,
          -0.09889559,
          -0.016610319,
          -0.6392277,
          -0.1869013,
          0.05676244,
          0.124819025,
          -0.6679522,
          -0.12343703,
          -0.5105671,
          0.28733274,
          -0.08919914
        ],
        [
          0.04381374,
          -0.54634386,
          0.026633393,
          -0.37796417,
          0.0418355,
          -0.07312285,
          0.2051388,
          0.4749314,
          -0.23508142,
          0.17761412,
          -0.02331471,
          0.8337414,
          -0.24726288,
          0.5791268,
          -0.31256887,
          -0.6270332
        ],
        [
          -0.006434379,
          -0.34283656,
          0.20800307,
          -0.31551048,
          -0.2579843,
          -0.124966234,
          -0.2551518,
          -0.36668694,
          0.35539186,
          0.11600631,
          -0.2561844,
          0.30176464,
          0.040027145,
          0.16910025,
          -0.4849572,
          0.50504214
        ],
        [
          0.19166023,
          0.16366528,
          -0.034626782,
          -0.23713523,
          -0.23811142,
          -0.049090177,
          -0.07158858,
          -0.045141216,
          -0.043374978,
          0.01675512,
          -0.19070503,
          -0.043773815,
          -0.052507315,
          -0.45277625,
          -0.20244366,
          -0.3887198
        ],
        [
          0.15597585,
          0.581876,
          -0.24281305,
          0.20695585,
          -0.05089574,
          -0.8080011,
          0.065292686,
          -0.102469705,
          0.03652475,
          0.16206646,
          0.3818522,
          0.28829312,
          0.033312146,
          0.07047536,
          0.27782813,
          -0.103969775
        ],
        [
          0.39945254,
          0.49099177,
          -0.21529242,
          -0.51954204,
          -0.2028663,
          -0.15256718,
          -0.33652607,
          -0.8469379,
          0.08577093,
          -0.07650405,
          -0.13232423,
          -0.6975684,
          0.10717098,
          -0.81835836,
          -0.22533092,
          0.3923652
        ],
        [
          0.18439946,
          0.21562508,
          -0.11404004,
          -0.06838575,
          0.10546443,
          -0.13513072,
          -0.12897281,
          -0.544113,
          0.10527852,
          -0.041808054,
          -0.22642009,
          -0.39093667,
          0.18093137,
          -0.42021394,
          0.3020236,
          0.21340962
        ],
        [
          0.09967626,
          0.5893833,
          -0.15651491,
          -0.0048146825,
          0.21667652,
          -0.42047048,
          0.6824639,
          -0.23259227,
          -0.060610913,
          0.26939636,
          -0.33836412,
          -0.4985581,
          -0.062080346,
          -0.73247194,
          0.31815565,
          -0.28226697
        ],
        [
          0.1401228,
          0.43447632,
          -0.16794553,
          0.25094125,
          -0.0944604,
          0.08167553,
          -0.55592066,
          -0.13188128,
          -0.27136242,
          0.32821882,
          -0.49749148,
          -0.34535602,
          0.24105695,
          -0.26089755,
          0.12595277,
          -0.030093022
        ],
        [
          0.105128236,
          0.4800411,
          -0.00019294971,
          -0.47982693,
          -0.10070761,
          -0.17489798,
          -0.78129345,
          -0.65774626,
          0.6621731,
          0.018201,
          -0.2026736,
          -0.9211703,
          0.15374687,
          -0.54691947,
          -0.490948,
          0.5226069
        ],
        [
          0.059903637,
          0.43571642,
          -0.05478285,
          0.17772274,
          0.1095278,
          -0.18113343,
          -0.13809869,
          0.036194593,
          0.05207161,
          0.11770402,
          -0.12533711,
          -0.52844983,
          -0.036748912,
          -0.38740957,
          -0.0053565563,
          0.043387048
        ],
        [
          0.23404346,
          0.20489977,
          -0.13108763,
          -0.021086207,
          -0.06889398,
          0.039944373,
          -0.30017668,
          -0.3225891,
          0.13194942,
          0.01925409,
          -0.09879649,
          -0.4633091,
          -0.30989906,
          -0.39663434,
          0.16386536,
          -0.16218339
        ],
        [
          0.14183101,
          0.03331083,
          -0.107188985,
          0.02716798,
          0.02974865,
          0.11005848,
          -0.07189318,
          -0.3234591,
          -0.36032423,
          0.16441129,
          -0.07339027,
          -0.4996529,
          0.04737208,
          -0.3198158,
          -0.07205157,
          -0.02067472
        ],
        [
          0.0638893,
          0.21350105,
          0.20790821,
          0.04532956,
          -0.17175016,
          0.051959027,
          0.016518598,
          -0.06729221,
          0.052272014,
          0.20981124,
          -0.13046265,
          -0.63199437,
          0.1459352,
          -0.4023184,
          0.2768263,
          -0.10064768
        ],
        [
          -0.02425876,
          -0.1820782,
          0.16068698,
          -0.026722595,
          0.00915434,
          0.023634829,
          -0.14511928,
          0.2326949,
          -0.076378375,
          -0.05963457,
          0.11915388,
          0.43606693,
          0.23155917,
          0.0502447,
          -0.07935936,
          -0.018262522
        ],
        [
          -0.073343754,
          -0.22518203,
          0.03762315,
          -0.12637506,
          0.00027158367,
          0.2477276,
          -0.18905757,
          -0.004151821,
          -0.005383191,
          -0.070897974,
          0.096144855,
          -0.18391906,
          0.23359081,
          -0.06283208,
          0.004362685,
          0.06922804
        ],
        [
          0.09950944,
          -0.15446092,
          0.00644231,
          -0.19355379,
          0.12738082,
          0.1536214,
          0.18533474,
          0.18827653,
          -0.021387799,
          0.055028196,
          0.2304082,
          0.11630927,
          0.23891376,
          -0.06534332,
          0.21444583,
          -0.4983865
        ],
        [
          0.07742917,
          -0.3686742,
          0.021622675,
          0.07832811,
          0.031901926,
          0.18056658,
          0.07332359,
          0.042892255,
          -0.05078425,
          -0.20709805,
          0.08155293,
          0.12305508,
          0.6186403,
          0.012873305,
          0.12310853,
          -0.026898805
        ],
        [
          0.09142965,
          -0.36621034,
          -0.17367452,
          -0.64661235,
          0.025364557,
          0.47172037,
          -0.6494199,
          0.18398361,
          0.14018327,
          -0.32462317,
          -0.109780684,
          -0.45652795,
          0.3312053,
          -0.5528832,
          -0.12574542,
          0.591865
        ],
        [
          0.037073433,
          -0.005732917,
          -0.11372563,
          0.10850984,
          -0.07488127,
          0.09001637,
          0.0147298025,
          -0.2011572,
          -0.15206924,
          0.042261504,
          0.029567204,
          -0.5736932,
          0.04667764,
          -0.4180964,
          0.19297469,
          -0.1846422
        ],
        [
          0.28935713,
          -0.08358992,
          -0.15983766,
          0.06456437,
          -0.19782983,
          -0.09147898,
          0.018094614,
          0.12363118,
          0.051157217,
          -0.011295648,
          0.123384535,
          0.19904694,
          -0.28083295,
          0.16937585,
          -0.017619181,
          -0.29536274
        ],
        [
          0.12489772,
          0.06791849,
          0.13230836,
          -0.0045390194,
          -0.08999674,
          0.27600014,
          -0.2901484,
          0.17821534,
          0.042763166,
          0.15028265,
          -0.083308905,
          0.115654,
          0.028764032,
          0.034183726,
          -0.47598016,
          0.32720783
        ],
        [
          0.053336993,
          -0.12443349,
          -0.06180717,
          -0.24561661,
          0.13209763,
          -0.13891843,
          -0.04875756,
          0.0207193,
          0.01949809,
          0.026580065,
          -0.029063327,
          0.00035611863,
          0.36366865,
          -0.32971486,
          -0.47652468,
          -0.16804911
        ],
        [
          0.1373572,
          -0.24778366,
          -0.027030298,
          -0.060584098,
          -0.07544099,
          0.12613682,
          -0.111528,
          -0.09200656,
          0.1322834,
          -0.19955857,
          0.23361894,
          0.18790294,
          0.29124606,
          0.1418708,
          -0.14507897,
          -0.034808237
        ],
        [
          0.09797921,
          -0.15716481,
          0.076830745,
          -0.029138835,
          0.07467333,
          0.17589712,
          -0.15031406,
          -0.046855196,
          0.034307327,
          -0.09887854,
          0.08029787,
          -0.16037513,
          0.18743493,
          0.057382617,
          -0.16273773,
          -0.039778404
        ],
        [
          0.17221665,
          0.077494405,
          -0.26331574,
          -0.29152104,
          0.08532674,
          -0.0051700356,
          -0.49282327,
          -0.043959312,
          0.26268205,
          0.09096624,
          0.06255704,
          -0.47923172,
          0.23145235,
          -0.14624286,
          -0.12995547,
          0.13599269
        ],
        [
          0.1718161,
          0.24585156,
          -0.06485933,
          -0.2678863,
          -0.057741508,
          0.04117841,
          -0.37484384,
          -0.28236294,
          0.17826751,
          0.081648275,
          0.17044143,
          -0.40179524,
          0.23130079,
          -0.28929558,
          -0.35598606,
          0.20279512
        ],
        [
          0.043912448,
          0.19613244,
          -0.075904734,
          -0.08870174,
          0.095922194,
          -0.16046107,
          -0.17067796,
          -0.22618409,
          0.047699142,
          0.05880001,
          -0.0149727315,
          -0.20635231,
          0.27396503,
          -0.25023302,
          0.21219167,
          0.08835814
        ],
        [
          -0.11317459,
          -0.18003829,
          0.3621156,
          0.22721794,
          -0.18808079,
          -0.0011756272,
          0.14684525,
          0.04326909,
          0.038721573,
          -0.21278903,
          0.21822752,
          -0.47319362,
          0.10886093,
          -0.2842005,
          0.5363654,
          -0.35715184
        ],
        [
          -0.2788187,
          -0.183101,
          0.12952492,
          0.48317167,
          -0.18511643,
          0.10324947,
          0.24048752,
          -0.025137613,
          -0.5053897,
          -0.09144354,
          0.09481236,
          -0.27773663,
          -0.20351607,
          0.27233967,
          0.29730698,
          -0.32645622
        ],
        [
          0.0466028,
          -0.11003437,
          -0.22301075,
          -0.27897465,
          -0.11418421,
          0.09591768,
          -0.2807424,
          0.18673219,
          0.064121254,
          0.1113698,
          0.16981761,
          0.21799864,
          0.074190035,
          0.17391935,
          -0.531848,
          0.023115605
        ],
        [
          0.1918157,
          -0.11943801,
          0.32619998,
          0.054514516,
          0.08700055,
          0.029385898,
          0.12420945,
          -0.17524843,
          0.11493983,
          0.236822,
          0.2851704,
          -0.052997738,
          0.14468373,
          0.44036472,
          -0.41350815,
          0.18039986
        ],
        [
          0.049034655,
          -0.08921767,
          0.16726223,
          0.06406957,
          -0.09236727,
          0.13998327,
          -0.06719038,
          -0.41066,
          -0.17593183,
          0.008122418,
          0.10678739,
          -0.3750525,
          0.17831393,
          -0.13217479,
          0.08319705,
          0.12993732
        ],
        [
          0.09908098,
          -0.11659582,
          0.040234223,
          -0.3606776,
          -0.099607326,
          0.10491779,
          -0.17588773,
          0.22828613,
          -0.0005691937,
          0.13432087,
          -0.059429273,
          -0.3032044,
          0.3511467,
          -0.15661469,
          -0.10623031,
          -0.2921957
        ],
        [
          0.24209766,
          -0.007621565,
          -0.12799636,
          -0.2066556,
          0.16562255,
          0.08407067,
          -0.41222152,
          -0.14131638,
          0.13999248,
          0.13346389,
          -0.05869569,
          -0.114284605,
          0.19847158,
          -0.23786359,
          -0.37760746,
          -0.056653958
        ],
        [
          0.016156944,
          0.083529904,
          -0.10822943,
          -0.074499525,
          0.01995305,
          0.09889048,
          -0.06966935,
          -0.20067318,
          -0.15967679,
          0.02141465,
          -0.03192278,
          -0.4500057,
          0.10717542,
          -0.3836406,
          -0.16261995,
          0.022455113
        ],
        [
          -0.1065342,
          -0.120771654,
          0.21832685,
          -0.10014513,
          0.0016717172,
          0.31685084,
          0.013468784,
          -0.14885376,
          -0.44171005,
          0.0036864749,
          -0.41959143,
          0.34477493,
          0.13539405,
          0.23441547,
          -0.5616796,
          -0.17225164
        ],
        [
          0.062193632,
          -0.2177753,
          0.1540411,
          -0.054058675,
          -0.07918545,
          0.07069037,
          0.010498849,
          -0.011656413,
          0.09993702,
          0.01807541,
          0.0024235568,
          -0.07045221,
          -0.16435845,
          0.056396183,
          -0.04549865,
          -0.016936487
        ],
        [
          0.10293672,
          -0.45311132,
          0.11024417,
          -0.48720548,
          -0.13728313,
          0.241082,
          0.20374115,
          0.38558802,
          -0.013014596,
          0.09886001,
          -0.15384988,
          0.5610086,
          -0.33940014,
          0.342595,
          -0.084223315,
          -0.3531778
        ],
        [
          -0.02052326,
          -0.30679256,
          0.15350196,
          -0.025662888,
          -0.24473685,
          0.10761894,
          0.30824846,
          0.15603234,
          0.22483882,
          -0.1551638,
          -0.032236204,
          0.659818,
          -0.0014758784,
          0.18677981,
          0.0030040152,
          -0.4068445
        ],
        [
          -0.13300681,
          -0.43547967,
          0.15797652,
          0.26052198,
          0.059390955,
          0.10626133,
          0.076749615,
          0.23875609,
          -0.31909183,
          -0.18675327,
          -0.093290634,
          0.66173273,
          0.113512695,
          0.4954187,
          0.10424319,
          -0.21779053
        ],
        [
          -0.09527448,
          0.07299894,
          0.30218494,
          0.835053,
          0.025277527,
          -0.011362401,
          0.30041665,
          0.81774247,
          -0.12773277,
          -0.085112095,
          0.1651534,
          -0.06519781,
          0.1451566,
          1.1181612,
          0.021158863,
          0.155292
        ],
        [
          -0.16011493,
          -0.2900188,
          0.12260536,
          0.24058615,
          -0.09078799,
          0.27019465,
          0.08369393,
          0.38299206,
          -0.23644575,
          -0.10729226,
          -0.15479134,
          0.40699512,
          -0.49208623,
          0.68450576,
          0.36618266,
          -0.35610923
        ],
        [
          -0.1332596,
          -0.11756899,
          0.3440297,
          -0.051010042,
          0.014315169,
          0.15665908,
          -0.11370876,
          0.26363954,
          0.38188854,
          -0.11431279,
          0.06695137,
          0.2847101,
          0.0021657092,
          0.25939286,
          -0.031279545,
          0.38130793
        ],
        [
          -0.2340475,
          -0.50440896,
          -0.3304593,
          -0.014957304,
          -0.19765724,
          -0.00061322347,
          0.27820054,
          0.108726814,
          0.31120127,
          0.6242639,
          0.3552228,
          0.80245125,
          -0.053839315,
          0.4959088,
          0.48939782,
          -0.17855136
        ],
        [
          -0.39614528,
          -0.58924544,
          -0.08427256,
          0.17407764,
          -0.14543399,
          -0.09017386,
          -0.24850866,
          -0.01034087,
          -0.24667615,
          -0.666068,
          0.21745783,
          0.14295061,
          -0.16159335,
          -0.12128257,
          -0.22577046,
          -0.3148086
        ],
        [
          -0.21698329,
          -0.10265791,
          -0.32640803,
          0.15638328,
          -0.07353786,
          -0.13654865,
          0.09727744,
          -0.031525705,
          -0.10379655,
          -0.22818695,
          0.21819681,
          0.06992321,
          -0.067289375,
          0.10501041,
          0.31221756,
          -0.4412435
        ],
        [
          -0.047828436,
          0.13599683,
          -0.19070111,
          -0.25910312,
          -0.20012482,
          -0.18910135,
          -0.68255985,
          -0.23773323,
          0.41855472,
          -0.49800405,
          0.1437631,
          -0.28499573,
          -0.22881125,
          -0.48756093,
          -0.21585222,
          0.42164513
        ],
        [
          -0.06225639,
          0.7752876,
          -0.08277003,
          0.12443473,
          -0.14012109,
          -0.10872451,
          -0.31217647,
          -0.46668822,
          -0.014994308,
          -0.41948336,
          0.021121832,
          -1.0969279,
          -0.26251692,
          -0.844498,
          -0.10833218,
          -0.052713767
        ],
        [
          0.8752003,
          -0.024887413,
          -0.060590103,
          -2.2247367,
          0.069050066,
          0.014935526,
          -1.2511603,
          0.49483573,
          0.52684945,
          0.49722913,
          0.17259793,
          -0.29396033,
          0.9078993,
          -0.5624057,
          -2.0927405,
          0.5530947
        ],
        [
          -0.18696743,
          -0.06926787,
          0.23528345,
          -1.4455415,
          -0.022896945,
          0.10978993,
          -0.5599983,
          0.0064508123,
          0.39880657,
          0.56278425,
          -0.22773603,
          -0.47556415,
          0.15081981,
          -0.5553602,
          -1.8770137,
          -0.010843095
        ],
        [
          0.33337536,
          0.09997027,
          0.02759224,
          -0.43446472,
          0.70163095,
          0.11540014,
          -0.37209654,
          -0.1538426,
          0.12122833,
          0.15074028,
          0.29482788,
          -0.10611082,
          0.7753136,
          -0.27631256,
          -0.4285103,
          0.15048337
        ],
        [
          -0.5439203,
          -0.26251078,
          0.38814688,
          0.27763805,
          0.06410585,
          0.040495638,
          0.034288738,
          -0.080215156,
          -0.34555998,
          -0.23501226,
          0.12463744,
          0.31944236,
          -0.43749622,
          0.23411378,
          0.055581212,
          -0.8106916
        ],
        [
          -0.4577939,
          -0.42095485,
          0.30655813,
          0.49232653,
          0.031177524,
          -0.16624708,
          0.23102158,
          0.45360842,
          -0.54424334,
          -0.10954311,
          0.08628173,
          0.71418756,
          -0.32818878,
          0.7820685,
          0.08652955,
          -0.33176935
        ],
        [
          0.0015933532,
          0.024789438,
          0.3764286,
          0.35793442,
          -0.017929291,
          -0.062592305,
          0.38880217,
          -0.004775837,
          -0.22755054,
          -0.26688367,
          0.10542867,
          -0.2384272,
          -0.07319625,
          0.41280186,
          0.3485737,
          -0.21361704
        ],
        [
          0.5809644,
          0.1763742,
          -0.8990751,
          -0.828978,
          -0.10398137,
          0.15992674,
          0.005363691,
          -0.68969804,
          0.613772,
          0.8047323,
          0.60347563,
          -0.9875839,
          0.20716985,
          -0.4209315,
          -0.7302296,
          0.66382754
        ],
        [
          0.71888566,
          0.7506423,
          0.031597614,
          -0.65538996,
          1.0005957,
          0.08281231,
          0.4985463,
          -0.21445405,
          -0.3722652,
          0.96059984,
          -0.9321825,
          -0.7384729,
          -0.046756867,
          -0.97551584,
          0.89021194,
          0.15289076
        ],
        [
          -0.16546647,
          1.0066074,
          0.071757644,
          0.37470734,
          0.64078265,
          -0.22410919,
          0.061899625,
          -1.0512173,
          0.4280171,
          0.20924062,
          0.12649123,
          -1.3617061,
          -0.24572238,
          -1.1850747,
          0.9274559,
          0.745156
        ],
        [
          -0.035184547,
          -0.40168774,
          -0.126129,
          0.4733227,
          0.113216065,
          0.003517046,
          0.27097636,
          0.45966583,
          0.104877986,
          -0.29165214,
          0.9887937,
          0.018422624,
          -0.43357947,
          -0.18261616,
          0.45677555,
          -0.26310635
        ],
        [
          -0.17675301,
          0.7684415,
          -0.5441073,
          0.99829346,
          0.26773506,
          -0.3423737,
          0.20779422,
          -0.6888254,
          -0.62518644,
          -0.96585125,
          -0.27562407,
          -0.55259556,
          -0.50689924,
          -0.847398,
          0.5992934,
          0.16272505
        ],
        [
          -0.21446532,
          0.096174344,
          0.13356818,
          0.42720366,
          -0.088351384,
          0.1049958,
          0.46219707,
          0.011357531,
          -0.20684241,
          -0.28355706,
          0.06934991,
          -0.123885676,
          -0.13172267,
          -0.02183163,
          0.4045547,
          -0.01332523
        ],
        [
          0.19598316,
          0.040037695,
          -0.3429836,
          -0.6126843,
          0.13542831,
          0.48645473,
          0.60252815,
          0.089790985,
          -0.8894641,
          0.8657099,
          -0.08235919,
          -0.9530885,
          0.14970835,
          -0.63014174,
          0.09810123,
          -0.28350672
        ],
        [
          0.17239518,
          0.45129552,
          -0.3682319,
          -1.0744717,
          -0.41294542,
          0.32915285,
          -1.6114776,
          -1.0791838,
          0.73050934,
          -0.027595324,
          -0.65815455,
          -0.2555079,
          0.17117469,
          -0.15198548,
          -1.5041139,
          1.1736513
        ],
        [
          0.10181905,
          -0.077123344,
          0.13052423,
          -0.35770184,
          -0.21365878,
          0.56431776,
          -0.28280818,
          -0.10960419,
          0.2017008,
          0.23583575,
          0.27989212,
          -0.79407096,
          0.72279495,
          -0.3973628,
          -0.41602755,
          0.48067164
        ],
        [
          0.018091159,
          -0.13225922,
          0.22435445,
          0.7266554,
          -0.31215936,
          -0.5553036,
          0.61022794,
          0.063702546,
          -0.388729,
          -0.6498967,
          -0.053789724,
          0.002085425,
          -0.5455495,
          -0.03313687,
          0.650136,
          -0.22275339
        ],
        [
          -0.1417413,
          0.18677026,
          0.035256367,
          -0.027764048,
          -0.18413584,
          -0.019800896,
          0.15294571,
          -0.22892822,
          0.22052744,
          -0.23497674,
          0.11142896,
          -0.25197184,
          -0.3022126,
          -0.4531063,
          0.25767162,
          -0.33247545
        ],
        [
          -0.10594113,
          0.1349069,
          0.059629023,
          0.014205787,
          -0.067280516,
          0.009793138,
          -0.037304033,
          -0.2488273,
          -0.13540977,
          -0.03615148,
          -0.063872725,
          -0.15681222,
          -0.060449358,
          -0.13277735,
          0.1979208,
          -0.06838543
        ],
        [
          -0.0053806608,
          0.12806372,
          -0.06095988,
          -0.4867652,
          0.061144948,
          0.14380895,
          0.43568814,
          0.32973874,
          -0.6698245,
          0.21216083,
          -0.18256918,
          -0.53717244,
          0.52766967,
          -0.34323668,
          -0.03809257,
          -0.4317766
        ],
        [
          0.3387573,
          0.25304365,
          0.380776,
          -0.031918626,
          0.045117,
          0.6476676,
          -0.8183668,
          -0.41115296,
          0.7750097,
          -0.53888106,
          -0.47542876,
          -1.0031843,
          0.46660155,
          -0.3840525,
          0.28752595,
          0.550158
        ],
        [
          -0.021032557,
          0.15867901,
          0.46154627,
          0.3939668,
          0.31072697,
          0.5049542,
          -0.13270788,
          -0.50043386,
          0.0866462,
          -0.28893718,
          0.38509542,
          -0.8892049,
          0.6973076,
          -0.5317652,
          0.5958951,
          -0.19499828
        ],
        [
          -0.46044996,
          -0.16192609,
          0.31583932,
          0.27829945,
          -0.6292967,
          0.29869625,
          -0.12615256,
          0.03454362,
          0.12087281,
          -0.5462304,
          -0.23904204,
          0.079146355,
          -0.1298376,
          0.9662201,
          -0.6763608,
          0.3385341
        ],
        [
          0.019355763,
          -1.0950288,
          -0.6927092,
          0.24381977,
          -0.48221213,
          0.18892524,
          0.29222986,
          0.5162137,
          0.42129046,
          0.1612999,
          -0.23805106,
          0.6703982,
          -0.012199253,
          0.50548685,
          -0.26197863,
          -0.68896675
        ],
        [
          -0.24376759,
          -0.5139789,
          0.2862817,
          0.2685741,
          -0.10438523,
          0.06413279,
          0.29827496,
          0.3639023,
          -0.67440224,
          0.47014505,
          1.0449129,
          -0.018863853,
          -0.57759076,
          0.10781211,
          0.3139394,
          -0.5161921
        ],
        [
          0.0149556,
          0.28071076,
          0.26398873,
          -0.13156132,
          0.2568644,
          0.3691703,
          0.28031635,
          0.002075068,
          0.475449,
          -0.12815686,
          -0.11699333,
          -0.20215537,
          0.22946863,
          -0.13049743,
          0.7108265,
          0.40244532
        ],
        [
          -0.02821838,
          0.32515755,
          -0.31292033,
          0.19722275,
          -0.03317262,
          0.017105648,
          0.421761,
          -0.5326678,
          0.36164743,
          0.6072847,
          0.44621336,
          -0.32305562,
          0.6670101,
          -0.5643423,
          0.031912882,
          0.41229972
        ],
        [
          -0.055695526,
          0.91735536,
          -0.7640811,
          -0.11670824,
          0.33808315,
          -0.16200595,
          -0.48441318,
          -0.65913016,
          0.21635981,
          -0.0005656879,
          -0.34543705,
          -1.1641957,
          0.02028655,
          -1.042798,
          -0.18046746,
          0.6293674
        ],
        [
          -0.11630634,
          -0.6117513,
          -0.11775596,
          0.5255625,
          -0.42531234,
          0.034948517,
          1.2861673,
          1.4701105,
          -1.2836276,
          -0.123495035,
          0.1801222,
          0.5293005,
          -0.42814842,
          0.41250116,
          0.87752277,
          -0.94414675
        ],
        [
          0.029450415,
          -0.9215013,
          -0.43662524,
          0.8680339,
          0.3062222,
          -0.25834122,
          1.0563813,
          1.0397228,
          -0.9259081,
          0.36568332,
          -0.55329317,
          0.80571353,
          -0.48027936,
          0.5322032,
          0.8923227,
          -0.67297816
        ],
        [
          0.07174149,
          0.34165272,
          0.26792195,
          -0.22131976,
          -0.3018497,
          0.4496452,
          -0.2048999,
          -0.012613328,
          0.69796973,
          -0.24627577,
          0.26645857,
          0.44251454,
          -0.08876244,
          -0.044702787,
          0.35006008,
          0.19334024
        ],
        [
          -0.16606867,
          -0.3369323,
          0.37836155,
          0.15439409,
          0.017233493,
          -0.027024124,
          0.26228198,
          0.36217916,
          0.07412541,
          -0.1862722,
          0.49818343,
          0.09828297,
          0.17519327,
          0.32327586,
          -0.18016191,
          -0.68960774
        ],
        [
          -0.09433603,
          0.1480462,
          -0.12445596,
          -0.18656096,
          -0.09348555,
          -0.12625003,
          -0.30230445,
          -0.36204815,
          0.29557052,
          -0.2722847,
          0.2900212,
          -0.33065233,
          0.160846,
          0.03599571,
          -0.24280551,
          0.5835488
        ],
        [
          0.060886648,
          0.4583408,
          -0.58606315,
          -0.056810133,
          0.02073441,
          -0.32585454,
          -0.23898031,
          -0.34497908,
          -0.11136773,
          0.11898572,
          0.26855445,
          0.17603932,
          0.17238909,
          -0.3362049,
          0.15157883,
          -0.22445257
        ],
        [
          -0.07935901,
          0.015521772,
          -0.09078033,
          0.14475855,
          -0.22870187,
          -0.026842136,
          0.16831322,
          0.1220743,
          0.3548605,
          -0.18260507,
          -0.11098887,
          0.024111638,
          -0.45996743,
          -0.15987875,
          0.3907093,
          0.089236446
        ],
        [
          -0.21088208,
          -0.27639,
          0.29425424,
          0.39983532,
          -0.43409333,
          -0.3092632,
          0.47571164,
          -0.022107905,
          -0.020757023,
          -0.5070641,
          0.37312472,
          -0.052165702,
          -0.39497817,
          -0.030241435,
          0.6412204,
          -0.12370858
        ],
        [
          0.10953223,
          0.05626388,
          -0.16653082,
          -0.16828293,
          -0.009671871,
          -0.09318044,
          0.104624055,
          -0.1793784,
          -0.060536988,
          -0.26314044,
          -0.005833728,
          -0.14918792,
          0.07500263,
          -0.05278628,
          0.19408527,
          0.105374224
        ],
        [
          0.0069006975,
          -0.31030497,
          -0.30063024,
          -0.1705015,
          0.4246406,
          -0.029412027,
          0.7911035,
          0.43326256,
          -0.07443101,
          0.27662668,
          0.13053824,
          -0.18455055,
          0.08414525,
          -0.09954932,
          0.08257338,
          0.11623655
        ],
        [
          -0.37670952,
          -0.39483443,
          -0.045660574,
          -0.48286384,
          -0.15240169,
          -0.26123855,
          -0.5482483,
          -0.44349015,
          0.16575843,
          0.2460859,
          0.4283439,
          0.08647514,
          0.5696271,
          -0.08730227,
          -0.35614946,
          0.88028854
        ],
        [
          -0.18703766,
          0.20847909,
          0.04030679,
          -0.04470231,
          0.10935965,
          -0.15189315,
          -0.3339832,
          -0.24875385,
          -0.0057302588,
          0.11591752,
          -0.37108874,
          -0.32760495,
          -0.022563312,
          -0.23070313,
          -0.39540288,
          0.13700385
        ],
        [
          -0.1922305,
          -0.7062979,
          0.47274366,
          0.32205257,
          -0.7924025,
          -0.21486652,
          1.6875688,
          1.4521054,
          -0.3918556,
          0.74365646,
          0.2828304,
          0.012791708,
          -0.23355547,
          0.83409065,
          0.52871346,
          -1.040104
        ],
        [
          -0.193302,
          -0.20209259,
          0.7631748,
          0.05111139,
          -0.22509508,
          -0.039078616,
          0.14414512,
          0.07538291,
          -0.3833364,
          -0.20308124,
          0.15561299,
          -0.0926867,
          -0.060979865,
          0.037106775,
          -0.4592563,
          -0.3333735
        ],
        [
          -0.3581293,
          -0.25906476,
          0.28472617,
          -0.030329183,
          -0.088498846,
          0.42767265,
          0.15368353,
          0.37438792,
          -0.4208398,
          -0.17671883,
          0.25940964,
          0.6197645,
          0.10206856,
          0.5355772,
          -0.057451487,
          -0.1804151
        ],
        [
          0.08235505,
          -0.20332807,
          -0.28967473,
          0.23611487,
          0.5462311,
          0.36311552,
          0.062028874,
          0.28125682,
          -0.3412866,
          -0.1980988,
          0.033169802,
          0.37981868,
          0.031563487,
          0.47203153,
          0.16188803,
          -0.42420787
        ],
        [
          0.11193385,
          -0.21065572,
          -0.24102175,
          0.22590478,
          -0.20918787,
          0.5096288,
          0.03329829,
          0.28704676,
          -0.6352344,
          0.117100455,
          0.10274781,
          -0.0114006745,
          -0.2613113,
          -0.013597462,
          0.34995624,
          -0.23798454
        ],
        [
          0.49727884,
          0.32716018,
          -1.0196867,
          -0.20108016,
          0.4040177,
          -0.12417619,
          -0.67756677,
          0.05565072,
          0.47339427,
          0.6302975,
          0.0048139635,
          0.60901076,
          0.37072802,
          0.44582874,
          -0.5065333,
          -0.2839493
        ],
        [
          0.1323754,
          0.053053435,
          0.26044813,
          0.4562903,
          -0.78318787,
          -0.007929613,
          0.5028747,
          0.07437041,
          -0.7392155,
          -0.455823,
          -0.27096865,
          0.050123546,
          -0.13053279,
          -0.13955235,
          -0.08177163,
          -0.3634462
        ],
        [
          -0.29465383,
          -0.36369795,
          0.43780783,
          -0.08220032,
          -0.16260384,
          -0.02184418,
          0.12762637,
          0.45688358,
          -0.32738996,
          -0.2798509,
          0.78474957,
          0.31474525,
          0.7644896,
          0.2785527,
          0.17274849,
          -0.1859923
        ],
        [
          0.053559717,
          -0.25779772,
          -0.007417417,
          -0.20327263,
          -0.08051409,
          0.045500077,
          0.034721915,
          0.28172323,
          -0.07910695,
          0.044021983,
          -0.07245804,
          0.28555337,
          -0.08131871,
          0.31177804,
          -0.072270505,
          0.027044928
        ],
        [
          -0.11969828,
          -0.060025383,
          -0.53143877,
          0.23950692,
          -0.49422985,
          -0.15095,
          0.6753321,
          0.5115526,
          -1.1117034,
          -0.1283937,
          0.69575,
          -0.046670936,
          0.5841969,
          -0.1713293,
          0.14010032,
          -0.35558197
        ],
        [
          0.0951941,
          0.8710652,
          0.093036495,
          0.1900631,
          0.54177654,
          -0.0189665,
          0.0779507,
          -1.1498833,
          0.011701231,
          0.12781379,
          -0.37355533,
          -0.63105696,
          0.41056874,
          -0.47541833,
          0.504148,
          -0.5996426
        ],
        [
          0.19138116,
          0.08306247,
          0.024224892,
          0.12761398,
          0.029162847,
          -0.17486008,
          0.00620312,
          0.009009445,
          0.2398598,
          0.06218924,
          0.06493029,
          0.068329275,
          -0.12776689,
          -0.19795597,
          0.12986186,
          -0.09114229
        ],
        [
          0.4153238,
          -0.055195216,
          0.35206467,
          0.38468182,
          -0.3382716,
          0.17871016,
          0.017015813,
