{
  "Layers": [
    {
      "_wInc": 1,
      "_wDec": 1,
      "_wNothing": 788384979474,
      "EnableNNUE": true,
      "Weights": [
        [
          0.017681599,
          -0.015174469,
          0.10165225,
          -0.119176954,
          0.07487465,
          -1.3116138,
          -0.044807915,
          0.12346881
        ],
        [
          -0.024352742,
          -0.6725911,
          1.2910383,
          -1.7568116,
          -0.11237412,
          -3.2311416,
          0.5157472,
          0.19707403
        ],
        [
          0.4661414,
          -0.063247226,
          2.9712057,
          -0.61862445,
          0.47387516,
          -4.978299,
          0.64816433,
          0.58979046
        ],
        [
          1.995929,
          0.5289693,
          0.30765474,
          2.0821447,
          0.75758547,
          0.92902195,
          -0.20286603,
          0.37119725
        ],
        [
          0.12425433,
          0.03469958,
          0.6491778,
          0.27605858,
          -0.26260394,
          1.010791,
          -0.09958791,
          -0.2423698
        ],
        [
          -0.027134564,
          0.43927342,
          -1.0830338,
          -1.4012928,
          0.36600038,
          -4.71348,
          -0.5342361,
          0.002212631
        ],
        [
          -0.05072384,
          0.4400818,
          -0.19258027,
          0.39782485,
          2.5775938,
          -2.0616949,
          -0.24324974,
          -0.47471288
        ],
        [
          -2.1830986,
          1.2676058,
          -0.10116023,
          2.0275338,
          1.2347254,
          2.3211584,
          3.8656225,
          -1.9167929
        ],
        [
          1.386577,
          3.4755464,
          -0.7111065,
          -1.1835339,
          -1.3256111,
          -1.6074061,
          1.2892307,
          -0.4840383
        ],
        [
          -2.7657745,
          1.5170047,
          -1.4661403,
          -0.016510854,
          -2.68933,
          1.7177218,
          0.1787694,
          -1.6612644
        ],
        [
          -3.140242,
          0.38834438,
          0.17170808,
          -7.1834593,
          1.7956085,
          -1.1145328,
          0.97106296,
          -2.1382902
        ],
        [
          0.29324093,
          0.055516474,
          -8.793399,
          1.0474014,
          1.2276378,
          -0.3126737,
          0.057306703,
          0.5744333
        ],
        [
          2.9540644,
          -0.5586908,
          -0.36773008,
          0.38416266,
          0.75249875,
          0.8837786,
          0.27027318,
          0.89325106
        ],
        [
          -0.57656026,
          -0.0098814275,
          0.07843294,
          -0.30823234,
          -0.13989405,
          2.8114805,
          -0.015414495,
          0.31857637
        ],
        [
          -0.31890547,
          -0.06344523,
          -0.30419666,
          -0.1400751,
          -0.12844604,
          1.3372439,
          -0.0649965,
          0.27066803
        ],
        [
          -0.23481765,
          -0.020561198,
          -0.4894472,
          -0.11601494,
          -0.13356163,
          2.6358914,
          -0.02814501,
          0.25748873
        ],
        [
          -0.28128284,
          -0.03947507,
          -0.77717763,
          -0.035929665,
          -0.12921785,
          0.68751657,
          0.056236424,
          0.25875872
        ],
        [
          -0.16190866,
          -0.024603365,
          -0.7379539,
          0.0381839,
          -0.15051447,
          0.3165777,
          0.05982723,
          0.24353303
        ],
        [
          -0.18868761,
          0.023505272,
          -0.6680022,
          0.061987344,
          -0.14260484,
          -0.19054906,
          0.030134177,
          0.23320569
        ],
        [
          -0.29687586,
          0.2879951,
          0.43239185,
          0.14977421,
          -0.12824269,
          0.6867341,
          0.5564417,
          -0.43259528
        ],
        [
          -0.22829446,
          0.0653136,
          0.13738996,
          -0.06298905,
          -0.11962084,
          1.42246,
          0.26001167,
          -0.38814086
        ],
        [
          -0.15587018,
          0.12713014,
          -0.047390115,
          0.0608436,
          -0.104314,
          0.2586622,
          0.2276903,
          -0.27840972
        ],
        [
          -0.34130037,
          0.02573438,
          -0.17799766,
          -0.010991323,
          -0.074731246,
          -0.10718729,
          0.05459463,
          -0.1225509
        ],
        [
          -0.13575193,
          0.087336145,
          -0.30279186,
          -0.15070586,
          -0.02147104,
          0.7054214,
          0.018258842,
          -0.23613343
        ],
        [
          -0.18112172,
          -0.0015326553,
          0.4308633,
          -0.07349466,
          -0.20541725,
          0.07176249,
          0.074486494,
          -0.2918051
        ],
        [
          -0.32907775,
          -0.13132845,
          0.5416716,
          -0.059812017,
          0.13375866,
          0.8836695,
          0.15327151,
          -0.50931746
        ],
        [
          -0.24760352,
          0.021370897,
          -0.069279656,
          -0.3253019,
          -0.26086402,
          0.7951499,
          -0.15654254,
          -0.28614107
        ],
        [
          -0.33818588,
          0.0013592838,
          0.19298582,
          -0.07000815,
          -0.19808154,
          0.65727055,
          -0.11882093,
          -0.31892657
        ],
        [
          -0.02496772,
          -0.034595527,
          0.07155283,
          -0.21029642,
          -0.10337322,
          0.6510396,
          -0.3556968,
          -0.3396469
        ],
        [
          0.03760658,
          -0.07435657,
          -0.06661797,
          -0.059959263,
          0.04841342,
          -0.43675232,
          -0.31829622,
          -0.35474625
        ],
        [
          -0.1703312,
          -0.44586754,
          0.38741612,
          -0.05631423,
          0.12750375,
          0.2406323,
          -0.38666388,
          -0.32040617
        ],
        [
          -0.30713588,
          0.19856298,
          0.38825288,
          -0.17061408,
          -0.2099213,
          1.5724939,
          -0.045646377,
          -0.421878
        ],
        [
          -0.2634233,
          0.08176825,
          0.30102023,
          -0.16313152,
          -0.06837259,
          -0.002500389,
          -0.17983858,
          -0.1330532
        ],
        [
          -0.2204427,
          0.13788216,
          -0.069581985,
          -0.14442581,
          0.0062017865,
          0.73375106,
          -0.13119571,
          0.035359826
        ],
        [
          0.16259469,
          0.14421019,
          0.12583478,
          -0.36811054,
          0.00609263,
          0.11322543,
          -0.2077079,
          -0.042661328
        ],
        [
          -0.15587929,
          -0.19483347,
          0.36608076,
          -0.3613167,
          0.10159549,
          0.27298093,
          -0.13602819,
          0.17632174
        ],
        [
          -0.5014873,
          -0.26990417,
          0.4304057,
          -0.2640619,
          -0.21581225,
          0.4919351,
          -0.11318615,
          0.12082559
        ],
        [
          -0.2580977,
          -0.24502331,
          -0.06401935,
          0.16258445,
          0.03313818,
          0.6471031,
          0.17103282,
          0.12506582
        ],
        [
          0.10817583,
          0.07900179,
          -0.031183593,
          -0.23764943,
          0.05094237,
          0.48792568,
          -3.005729E-05,
          -0.107603416
        ],
        [
          -0.2493252,
          -0.06203163,
          -0.0024391483,
          -0.033765044,
          -0.41399387,
          0.082784444,
          -0.015243489,
          -0.122724615
        ],
        [
          -0.1295448,
          -0.25417078,
          0.1487667,
          -0.10976038,
          -0.30921966,
          1.0647488,
          -0.15384196,
          -0.29760253
        ],
        [
          -0.23411274,
          -0.21707301,
          0.34395987,
          -0.3715635,
          -0.11060354,
          1.2452396,
          0.030856958,
          -0.16479312
        ],
        [
          -0.61186624,
          -0.20892093,
          0.20107543,
          -1.0718856,
          0.11008868,
          1.0677756,
          0.07181336,
          0.06909487
        ],
        [
          -0.18639635,
          -0.23135012,
          0.08929883,
          -0.059753124,
          -0.48596844,
          0.7763702,
          -0.283654,
          -0.1972169
        ],
        [
          0.21921162,
          -0.2435109,
          0.050252605,
          0.0022465365,
          -0.35041898,
          0.58290434,
          -0.11032377,
          -0.049644176
        ],
        [
          0.3031608,
          -0.25261983,
          0.079630025,
          -0.02578887,
          -0.23137257,
          0.8537725,
          -0.09964368,
          -0.07467814
        ],
        [
          -0.14896117,
          -0.27466398,
          0.10270195,
          -0.039765008,
          -0.28024307,
          0.49072513,
          -0.15020894,
          -0.1639013
        ],
        [
          0.06991717,
          -0.033690277,
          0.10187911,
          -0.04969951,
          -0.21258475,
          -0.18635228,
          0.033122867,
          -0.12045365
        ],
        [
          0.20811927,
          0.051770676,
          0.19084097,
          -0.025268583,
          -0.20157135,
          0.083982326,
          -0.054297063,
          -0.20134333
        ],
        [
          -0.17595772,
          0.22331133,
          0.20401365,
          0.0006963586,
          -0.2167497,
          0.18243363,
          0.0632919,
          -0.22113232
        ],
        [
          -0.086098395,
          -0.08431224,
          0.100441836,
          0.09121804,
          -0.17614955,
          1.148962,
          -0.05034948,
          0.04006659
        ],
        [
          -0.21590954,
          -0.015844204,
          0.03936422,
          0.030755164,
          -0.1499925,
          0.85976166,
          -0.016031396,
          -0.073731706
        ],
        [
          -0.10686378,
          0.09337775,
          0.08800844,
          -0.032353103,
          -0.06640217,
          -0.071350545,
          -0.014605796,
          -0.007267068
        ],
        [
          0.022003971,
          0.19951037,
          0.04108529,
          -0.114604555,
          -0.03817382,
          -0.08157205,
          0.025852006,
          -0.07465318
        ],
        [
          -0.20811468,
          0.4790361,
          0.08000594,
          -0.050701216,
          -0.16500047,
          -1.275193,
          0.24251013,
          -0.16166662
        ],
        [
          -0.042373568,
          0.012942285,
          -0.037940152,
          -0.04971424,
          0.3737322,
          1.4725586,
          0.11268406,
          0.13755369
        ],
        [
          -0.0005269614,
          0.052683532,
          -0.02601023,
          -0.061258,
          0.23693135,
          0.5255207,
          0.031552393,
          0.021627448
        ],
        [
          0.030504407,
          0.027599819,
          -0.11382292,
          -0.10269873,
          0.27013794,
          1.795018,
          -0.008919712,
          0.070091695
        ],
        [
          0.2556299,
          -0.038251698,
          -0.10283112,
          -0.09422503,
          0.29821947,
          1.8283612,
          -0.038180523,
          -0.080775715
        ],
        [
          -0.05194836,
          -0.035172116,
          -0.06685016,
          -0.051735528,
          0.14512825,
          -1.7655418,
          -0.049266767,
          0.11377339
        ],
        [
          0.11596192,
          -0.0024260767,
          -0.059904575,
          -0.07346931,
          0.14661883,
          -1.4229242,
          -0.08524091,
          0.06952971
        ],
        [
          -0.11364272,
          0.04045092,
          0.18714412,
          -0.07819856,
          -0.10379958,
          2.1174417,
          -0.08257171,
          0.110997126
        ],
        [
          0.05637979,
          -0.059908394,
          -0.15465665,
          0.01100227,
          0.15928033,
          -0.120057546,
          0.119896464,
          -0.16466652
        ]
      ],
      "Biases": [
        0.21142863,
        0.013762306,
        -0.23020008,
        0.080402076,
        0.17151682,
        -0.51065314,
        0.10429798,
        0.11718921
      ],
      "Activations": [
        9.290286,
        1.4368525,
        1.018157,
        6.4190106,
        5.0628695,
        -0.3280129,
        1.6861011,
        5.4667444
      ],
      "_ActivationsHistory": [
        [
          3.4779506,
          5.5804777,
          5.309164,
          7.406688,
          4.454562,
          5.3065085,
          5.5343804,
          5.532962,
          5.304057,
          5.579348,
          5.5353003,
          5.305953,
          5.909822,
          6.80033,
          5.53134,
          5.532015,
          4.4584126,
          5.5370502,
          5.530012,
          7.652681
        ],
        [
          2.7434158,
          -0.003501668,
          -0.00323322,
          0.7896966,
          -0.0021377965,
          -0.003204413,
          2.802847,
          2.803358,
          -0.0031793294,
          -0.0034963535,
          2.8018024,
          -0.0031992986,
          3.5793617,
          2.513547,
          2.8053606,
          2.8053834,
          -0.0021805933,
          2.799433,
          2.8064122,
          2.7832239
        ],
        [
          -0.11897569,
          1.7245432,
          0.6942106,
          -0.00046866282,
          -0.010957475,
          0.6912538,
          -0.10256301,
          -0.10258207,
          0.6887154,
          1.7224386,
          -0.10256275,
          0.6901289,
          -0.12295914,
          -0.056759905,
          -0.102593385,
          -0.10255917,
          -0.010915301,
          -0.1025592,
          -0.10260104,
          -0.07355506
        ],
        [
          4.401428,
          1.2080393,
          1.3066392,
          4.005571,
          1.5505376,
          1.3090556,
          7.609143,
          7.6106195,
          1.3111837,
          1.2092578,
          7.6082973,
          1.3088837,
          9.528929,
          1.9940685,
          7.612168,
          7.6117945,
          1.545711,
          7.606676,
          7.6133976,
          2.14856
        ],
        [
          4.1670065,
          3.7642698,
          3.759168,
          4.9743767,
          3.6032991,
          3.7619548,
          4.774476,
          4.7743263,
          3.7642455,
          3.7652054,
          4.7731075,
          3.7616303,
          5.59397,
          1.1335639,
          4.776082,
          4.777304,
          3.5970032,
          4.770866,
          4.777003,
          1.5815675
        ],
        [
          -0.118076675,
          -0.40155327,
          -0.28942594,
          -0.32365853,
          -0.2168182,
          -0.28939962,
          -0.18352646,
          -0.18346946,
          -0.28937933,
          -0.40154722,
          -0.18352474,
          -0.28941193,
          -0.1796861,
          -0.12740424,
          -0.18348244,
          -0.18349287,
          -0.21689174,
          -0.18350022,
          -0.18346643,
          -0.23415287
        ],
        [
          4.2524943,
          2.9104633,
          2.6829467,
          1.8099349,
          2.325298,
          2.6808383,
          0.18298146,
          0.17032552,
          2.6789632,
          2.9081943,
          0.1818217,
          2.6814973,
          0.9394737,
          3.0057492,
          0.17619833,
          0.18768935,
          2.3309293,
          0.17351365,
          0.17330511,
          2.8113427
        ],
        [
          3.4593263,
          5.5704536,
          5.497847,
          4.950924,
          5.4832487,
          5.4952846,
          4.413362,
          4.4114275,
          5.4927244,
          5.5694537,
          4.4143486,
          5.4943495,
          3.7153468,
          5.4253078,
          4.410439,
          4.4115486,
          5.485556,
          4.415308,
          4.4090104,
          5.3469996
        ]
      ],
      "ForwardCount": 1384007,
      "NumberOfOutputs": 8,
      "ActivationFunction": {
        "$type": "Backgammon.Models.NeuralNetwork.ActivationFunctions.LeakyReluActivationFunction, Backgammon",
        "_alpha": 0.01
      },
      "ForwardTime": 42596823,
      "ForwardTimeNNUE": 41082951,
      "IncvsDec": 1.0,
      "UpdateVsNoUpdate": 2.5368316901907155E-12,
      "FirstForwardPass": false
    },
    {
      "_wInc": 1,
      "_wDec": 1,
      "_wNothing": 101795507421,
      "EnableNNUE": false,
      "Weights": [
        [
          0.7535423,
          -0.34303567,
          0.7759885,
          0.5692481,
          0.077571176,
          0.66726905
        ],
        [
          -0.41232976,
          -0.7551786,
          -0.5562667,
          0.6546031,
          -0.015929142,
          -0.84361994
        ],
        [
          1.4545629,
          3.0305192,
          2.8515365,
          -3.543394,
          1.0771595,
          -2.2197852
        ],
        [
          -0.72187984,
          -3.4755144,
          0.40141296,
          0.64141446,
          1.4891324,
          -0.015440425
        ],
        [
          0.43565574,
          0.30621415,
          -0.49855253,
          1.0169717,
          1.2162938,
          -0.8344521
        ],
        [
          -1.2066903,
          -1.9034371,
          1.4361018,
          -0.6942039,
          1.491066,
          -1.3014318
        ],
        [
          0.9260056,
          1.2232786,
          0.81994987,
          -0.7950858,
          -2.015018,
          0.22644493
        ],
        [
          0.48721263,
          -0.29465565,
          1.0828247,
          0.48383877,
          -0.5967867,
          0.14800219
        ]
      ],
      "Biases": [
        0.209296,
        -0.3108334,
        0.18104018,
        -0.2035621,
        1.0251436,
        0.11099461
      ],
      "Activations": [
        10.290966,
        -0.21180196,
        16.377787,
        13.215929,
        11.387233,
        0.1318194
      ],
      "_ActivationsHistory": [
        [
          10.255354,
          10.290966,
          10.237651,
          10.290966,
          10.237651,
          7.726418,
          10.290966,
          7.7264185,
          7.7264185,
          7.7264185,
          8.205256,
          7.726419,
          10.211437,
          10.462472,
          10.211437,
          10.15043,
          10.255353,
          10.290966,
          10.237651,
          10.15043
        ],
        [
          -0.21277326,
          -0.21180196,
          -0.21106763,
          -0.21180196,
          -0.21106763,
          -0.26022562,
          -0.21180196,
          -0.26022556,
          -0.26022556,
          -0.26022556,
          -0.2525552,
          -0.26022556,
          -0.21545276,
          -0.21619828,
          -0.21545276,
          -0.21444386,
          -0.21277326,
          -0.21180196,
          -0.21106763,
          -0.21444386
        ],
        [
          16.437094,
          16.377785,
          16.363264,
          16.377787,
          16.363264,
          12.115198,
          16.377787,
          12.115198,
          12.115198,
          12.115198,
          13.543362,
          12.115199,
          16.529488,
          16.704298,
          16.529488,
          16.362318,
          16.437092,
          16.377785,
          16.363264,
          16.362318
        ],
        [
          13.17778,
          13.215929,
          13.013946,
          13.215929,
          13.013946,
          17.4443,
          13.215929,
          17.444302,
          17.444302,
          17.444302,
          16.628637,
          17.444302,
          13.222535,
          13.446237,
          13.222534,
          13.210478,
          13.17778,
          13.21593,
          13.013946,
          13.210478
        ],
        [
          11.386513,
          11.387235,
          11.279927,
          11.387235,
          11.279927,
          12.425185,
          11.387233,
          12.425186,
          12.425186,
          12.425186,
          10.953907,
          12.425186,
          11.299724,
          11.187939,
          11.299724,
          11.312896,
          11.386514,
          11.387235,
          11.279929,
          11.312895
        ],
        [
          0.16514048,
          0.1318191,
          -0.00060242385,
          0.13181916,
          -0.00060242385,
          1.741641,
          0.1318194,
          1.7416424,
          1.7416424,
          1.7416424,
          2.4162762,
          1.7416425,
          0.37744865,
          0.51672804,
          0.37744793,
          0.29906568,
          0.16514042,
          0.1318191,
          -0.00060242444,
          0.29906598
        ]
      ],
      "ForwardCount": 1384007,
      "NumberOfOutputs": 6,
      "ActivationFunction": {
        "$type": "Backgammon.Models.NeuralNetwork.ActivationFunctions.LeakyReluActivationFunction, Backgammon",
        "_alpha": 0.01
      },
      "ForwardTime": 24646868,
      "ForwardTimeNNUE": 0,
      "IncvsDec": 1.0,
      "UpdateVsNoUpdate": 1.964723248275108E-11,
      "FirstForwardPass": false
    },
    {
      "_wInc": 1,
      "_wDec": 1,
      "_wNothing": 77789235902,
      "EnableNNUE": false,
      "Weights": [
        [
          0.29730615,
          0.75041854,
          1.3038732,
          -0.29786733,
          -2.075738,
          -9.554877
        ],
        [
          0.31035855,
          5.30851,
          5.164025,
          -0.28667182,
          -0.50879586,
          -1.3767254
        ],
        [
          0.7217574,
          -0.23644096,
          -2.3679833,
          -0.72158784,
          -1.9755635,
          0.87435174
        ],
        [
          -0.79017735,
          -1.4269876,
          -0.06405118,
          0.79080695,
          0.12848046,
          -0.2778634
        ],
        [
          0.1301123,
          -8.544625,
          -6.5270343,
          -0.13025913,
          1.0582952,
          0.21942395
        ],
        [
          0.038084216,
          2.4482062,
          2.9600005,
          -0.03803064,
          -0.850734,
          -0.68400896
        ]
      ],
      "Biases": [
        0.39576954,
        -0.44750658,
        -0.697407,
        -0.39669135,
        0.39374113,
        0.25581154
      ],
      "Activations": [
        0.9980811,
        0.0,
        0.0,
        0.0019144973,
        6.4768056E-18,
        1.6005215E-37
      ],
      "_ActivationsHistory": [
        [
          0.99819857,
          0.9980811,
          0.99828833,
          0.9980811,
          0.99828833,
          0.32196867,
          0.9980811,
          0.32196832,
          0.32196832,
          0.32196832,
          0.71291214,
          0.32196853,
          0.99822396,
          0.9982495,
          0.99822396,
          0.99797744,
          0.99819857,
          0.9980811,
          0.99828833,
          0.99797744
        ],
        [
          0.0,
          0.0,
          0.0,
          0.0,
          0.0,
          0.0,
          0.0,
          0.0,
          0.0,
          0.0,
          0.0,
          0.0,
          0.0,
          0.0,
          0.0,
          0.0,
          0.0,
          0.0,
          0.0,
          0.0
        ],
        [
          0.0,
          0.0,
          0.0,
          0.0,
          0.0,
          0.0,
          0.0,
          0.0,
          0.0,
          0.0,
          0.0,
          0.0,
          0.0,
          0.0,
          0.0,
          0.0,
          0.0,
          0.0,
          0.0,
          0.0
        ],
        [
          0.0017973661,
          0.0019144991,
          0.0017076114,
          0.0019144973,
          0.0017076114,
          0.6780062,
          0.0019144973,
          0.67800635,
          0.67800635,
          0.67800635,
          0.28704256,
          0.67800635,
          0.0017720725,
          0.0017465474,
          0.001772071,
          0.0020180745,
          0.0017973696,
          0.0019145008,
          0.0017076114,
          0.0020180745
        ],
        [
          5.998252E-18,
          6.476855E-18,
          7.245326E-18,
          6.47683E-18,
          7.245326E-18,
          8.1164485E-12,
          6.4768056E-18,
          8.116464E-12,
          8.116464E-12,
          8.116464E-12,
          1.9041102E-14,
          8.116433E-12,
          4.198571E-18,
          1.4342524E-18,
          4.198587E-18,
          7.1720695E-18,
          5.9982977E-18,
          6.476855E-18,
          7.2453536E-18,
          7.1720695E-18
        ],
        [
          2.34302E-37,
          1.6005215E-37,
          2.971905E-37,
          1.6005215E-37,
          2.971905E-37,
          2.3278842E-29,
          1.6005215E-37,
          2.3278842E-29,
          2.3278842E-29,
          2.3278842E-29,
          4.7369827E-31,
          2.3278842E-29,
          3.2505546E-37,
          2.8711975E-38,
          3.2505546E-37,
          5.3337236E-37,
          2.34302E-37,
          1.6005215E-37,
          2.971905E-37,
          5.3337236E-37
        ]
      ],
      "ForwardCount": 1384007,
      "NumberOfOutputs": 6,
      "ActivationFunction": {
        "$type": "Backgammon.Models.NeuralNetwork.ActivationFunctions.SigmoidActivationFunction, Backgammon"
      },
      "ForwardTime": 26248948,
      "ForwardTimeNNUE": 0,
      "IncvsDec": 1.0,
      "UpdateVsNoUpdate": 2.571049807610437E-11,
      "FirstForwardPass": false
    }
  ],
  "Description": "Leaky16,8,6Lin",
  "LogfilePath": "C:\\Users\\Dennis\\Source\\Repos\\Backgammon\\Backgammon\\data\\logs",
  "DetfaultfilePath": "C:\\Users\\denni\\Repos\\Backgammon\\Data\\neuralnets\\NoContactNN.json",
  "LogFile": "C:\\Users\\Dennis\\Source\\Repos\\Backgammon\\Backgammon\\data\\logs\\Leaky16,8,6Lin.log"
}