{
  "Layers": [
    {
      "_wInc": 1,
      "_wDec": 1,
      "_wNothing": 353482522186,
      "EnableNNUE": true,
      "Weights": [
        [
          0.17566279,
          -0.05550518,
          -1.0398605,
          0.23583396,
          0.46622917,
          -0.3575008,
          -0.65286946,
          -0.06268159,
          0.31271875,
          0.14027141,
          0.6679173,
          0.029303618,
          0.6162112,
          -0.20959982,
          -0.87980884,
          -0.350005
        ],
        [
          -0.26537275,
          0.15530407,
          0.3035568,
          -0.11833378,
          -0.5049403,
          0.052216515,
          0.040512387,
          -0.07128064,
          0.115828596,
          0.13302566,
          -0.58379424,
          0.21231818,
          -0.8009141,
          0.6542555,
          0.010092235,
          -0.081192754
        ],
        [
          0.23102589,
          0.13647266,
          -0.24141599,
          -0.06767068,
          0.46191746,
          0.38833198,
          -0.09374994,
          0.6504274,
          0.08506814,
          0.16761735,
          0.45592952,
          -0.59940654,
          0.32746753,
          0.434835,
          -0.82424515,
          0.58105046
        ],
        [
          0.5339385,
          0.44877216,
          -1.5985233,
          -0.05740294,
          1.3050904,
          -0.43280166,
          0.171237,
          0.74653846,
          0.5926516,
          0.25950754,
          0.6707564,
          0.5421256,
          0.6827749,
          0.43163854,
          -2.130443,
          1.0720497
        ],
        [
          -0.025753919,
          -0.058204867,
          -1.3247092,
          -0.818631,
          0.6282105,
          -0.18558621,
          -0.7221964,
          0.5761475,
          0.3094932,
          0.1457692,
          1.0496294,
          0.29200718,
          1.534557,
          -0.17166594,
          -1.1265807,
          0.24417067
        ],
        [
          -0.5536134,
          0.15420824,
          -0.54103434,
          -0.031456947,
          0.48979613,
          -0.26956677,
          -1.1033065,
          0.7846128,
          -0.1292094,
          0.23111546,
          0.09325952,
          -0.16580485,
          0.41497687,
          0.11544007,
          0.1357233,
          -0.18797167
        ],
        [
          -0.05341766,
          -0.08909062,
          -0.17638318,
          -0.1339213,
          0.20429078,
          -9.007588E-05,
          -0.13339444,
          -0.17272332,
          -0.08409233,
          0.030397581,
          0.01807913,
          -0.2737561,
          -0.3917746,
          -0.10551182,
          -0.298489,
          -0.24173315
        ],
        [
          -0.09935824,
          -0.08565714,
          -0.18732192,
          0.09877754,
          -0.035891037,
          -0.123335935,
          -0.10679393,
          -0.12028344,
          -0.066129684,
          0.122949615,
          -0.13119201,
          -0.2082094,
          -0.2818748,
          0.027074322,
          0.018020455,
          -0.2297687
        ],
        [
          -0.4132625,
          0.4650503,
          0.21174999,
          2.5983858,
          0.86558855,
          2.2343655,
          -0.39669737,
          -0.35179102,
          0.27420437,
          -5.845059,
          -0.7698441,
          -0.78868663,
          -1.0141077,
          0.075378306,
          -0.35194248,
          -2.3204625
        ],
        [
          0.092206,
          0.18789874,
          0.3434177,
          0.06356288,
          0.13124256,
          0.18249877,
          -0.20205298,
          0.22948328,
          0.33166838,
          -0.16316606,
          0.14524625,
          0.15093899,
          0.0018462986,
          0.18199681,
          0.25124535,
          0.11975663
        ],
        [
          0.12762626,
          0.060382962,
          0.33325824,
          -0.04811645,
          -0.026789973,
          -0.00832925,
          -0.019823937,
          0.15227866,
          0.035275742,
          0.10184227,
          -0.058651533,
          0.11593857,
          0.252681,
          0.15732092,
          0.46743292,
          0.15633462
        ],
        [
          0.8929281,
          -0.095047586,
          0.5774286,
          0.39920563,
          0.045359302,
          0.45224515,
          0.030949835,
          0.2333637,
          0.25588244,
          -0.37396172,
          -0.00652902,
          -0.0113585815,
          0.053162567,
          0.00497192,
          0.02005378,
          0.08331651
        ],
        [
          -0.11206279,
          0.10351191,
          0.49179226,
          0.25495675,
          0.098665625,
          0.060520217,
          -0.28111807,
          0.25776243,
          0.052559115,
          0.0025386806,
          -0.11378849,
          6.9330315E-05,
          0.13488252,
          0.11302889,
          0.26597872,
          -0.003680749
        ],
        [
          0.08698015,
          0.15286526,
          0.34039852,
          0.12159003,
          -0.08706076,
          0.100656375,
          -0.066204846,
          -0.12410179,
          0.15926537,
          0.03389091,
          0.10834416,
          0.15095052,
          0.0073710703,
          -0.20594956,
          0.22448993,
          0.1332504
        ],
        [
          -0.09022182,
          0.05254966,
          0.16872862,
          0.119665936,
          -0.03666592,
          -0.02890982,
          -0.31541026,
          0.03041569,
          0.08962674,
          -0.14288937,
          0.0645773,
          0.29139656,
          -0.009676926,
          0.13270833,
          0.12062277,
          0.14160435
        ],
        [
          0.0052524665,
          0.08028329,
          0.30166414,
          0.05865597,
          -0.032833908,
          -0.032526985,
          -0.21634895,
          0.10898633,
          0.16454136,
          -0.07072117,
          0.0937277,
          0.22410549,
          0.0718517,
          0.021492941,
          0.065730214,
          0.3021535
        ],
        [
          -0.014987364,
          0.03188391,
          0.30959556,
          0.09693214,
          0.11335554,
          0.16455704,
          -0.20863554,
          0.13050212,
          0.22169709,
          -0.086794354,
          0.10552057,
          0.11696759,
          0.07534626,
          -0.0454169,
          0.09067531,
          0.26218238
        ],
        [
          -0.06367208,
          0.007912112,
          0.2787597,
          0.05652619,
          0.046453018,
          0.05326859,
          -0.15313852,
          0.09398605,
          0.14925107,
          -0.10763525,
          0.027547592,
          0.109423146,
          0.050936047,
          0.049826518,
          0.06001942,
          0.18222795
        ],
        [
          -0.2491712,
          0.021330249,
          0.16778678,
          0.08711079,
          -0.020920733,
          -0.00889613,
          0.07712646,
          0.22079425,
          0.08304409,
          -0.0103823645,
          0.058868732,
          0.18669637,
          0.05621348,
          -0.018332085,
          0.14706533,
          0.24563389
        ],
        [
          -0.088699535,
          0.05089999,
          0.40775833,
          -0.15064372,
          0.17723145,
          -0.03061808,
          -0.08812611,
          0.032276772,
          0.21973336,
          -0.1542105,
          0.24772264,
          0.18809895,
          0.17312832,
          0.026067344,
          0.22267023,
          0.33562306
        ],
        [
          -0.09219657,
          0.17904106,
          0.33942434,
          -0.06571713,
          0.07237462,
          0.060869247,
          -0.079520464,
          0.23523991,
          0.12298667,
          0.12616034,
          0.28234527,
          0.1384458,
          0.14851637,
          0.058730535,
          0.15768373,
          0.17968498
        ],
        [
          -0.027780676,
          0.0998654,
          0.2909064,
          -0.19863202,
          0.002485283,
          -0.13375345,
          -0.048578165,
          0.07256876,
          0.1409199,
          -0.11643859,
          0.16296138,
          0.13828205,
          0.14273745,
          0.12852085,
          0.077243015,
          0.23192717
        ],
        [
          -0.16857648,
          0.23213643,
          0.25286332,
          -0.17087646,
          0.0083983205,
          -0.09095538,
          -0.06457335,
          0.15457122,
          -0.021774933,
          0.10687322,
          0.13844793,
          0.14299272,
          0.25200677,
          0.038920414,
          0.02258913,
          0.51359737
        ],
        [
          -0.05357261,
          0.1229418,
          0.45373508,
          -0.22309433,
          -0.022071047,
          -0.17684615,
          -0.057060942,
          0.15178703,
          0.1272096,
          -0.19824408,
          0.17667504,
          0.20679204,
          0.06184986,
          0.18463118,
          0.13975526,
          0.037080683
        ],
        [
          -0.05460024,
          0.20360473,
          0.30607286,
          -0.19817953,
          -0.039545763,
          -0.02537846,
          -0.17942253,
          0.19275846,
          0.16321594,
          -0.10613232,
          0.01909556,
          0.22839724,
          0.15781458,
          0.14436866,
          0.103810415,
          0.07104841
        ],
        [
          1.2663736,
          -0.08313074,
          0.2509048,
          0.07403692,
          -0.22154517,
          0.13550778,
          0.0212105,
          0.30656803,
          -0.33482462,
          0.5212282,
          -0.06593288,
          0.008482617,
          0.24150279,
          0.29515114,
          0.35607255,
          0.26630118
        ],
        [
          -0.24133427,
          -0.06501334,
          0.3854294,
          0.006891097,
          -0.10341452,
          -0.11415268,
          -0.070820704,
          0.1816554,
          -0.19996433,
          0.13411573,
          0.05933796,
          -0.06718156,
          0.2795662,
          0.3026821,
          0.16004625,
          0.23009881
        ],
        [
          -0.0054346854,
          0.0066824704,
          0.24550346,
          -0.051518843,
          0.0044663562,
          -0.067834094,
          0.03177295,
          0.06057102,
          -0.14710358,
          -0.035886236,
          0.20809363,
          -0.051813044,
          0.24857117,
          0.13631414,
          0.3766245,
          0.17681761
        ],
        [
          0.07129976,
          0.12988739,
          0.31404343,
          -0.13042168,
          -0.055553544,
          0.008682,
          0.09884617,
          0.24523242,
          0.09955432,
          0.047527626,
          -0.08448515,
          0.0323556,
          0.15949364,
          0.13222855,
          0.48666093,
          0.08122289
        ],
        [
          0.045663975,
          0.09853766,
          0.2578881,
          -0.022513812,
          0.01951602,
          -0.06206206,
          -0.110724226,
          0.25567228,
          -0.06738158,
          0.06792981,
          0.1274444,
          0.028534077,
          0.26367342,
          0.17807622,
          0.5166078,
          0.13278474
        ],
        [
          0.053107113,
          -0.11650299,
          0.30303624,
          0.059991144,
          -0.077650286,
          -0.04612959,
          -0.15904075,
          0.31694996,
          -0.13060331,
          0.27649933,
          0.20548631,
          0.009332409,
          0.08367957,
          0.22364737,
          0.59278554,
          0.21504743
        ],
        [
          0.10819174,
          0.055507667,
          0.19863719,
          -0.102079034,
          -0.017688634,
          0.050031096,
          -0.07034391,
          0.1684786,
          -0.13685322,
          0.1339541,
          0.013817656,
          0.057953946,
          0.07418497,
          0.07594473,
          0.41211382,
          0.2063144
        ],
        [
          0.06947857,
          0.004741188,
          0.27604333,
          -0.09242529,
          -0.053255323,
          -0.0049474393,
          -0.056683473,
          0.03092464,
          -0.065476604,
          0.11645589,
          0.10733036,
          0.08199455,
          0.23553225,
          0.002507612,
          0.56227034,
          0.10840112
        ],
        [
          -0.0014925541,
          0.1236925,
          0.3861507,
          -0.18520851,
          0.025440754,
          -0.12608814,
          -0.078020185,
          0.05026719,
          -0.06382454,
          0.08962021,
          0.083978795,
          0.04549051,
          0.06649332,
          0.024551159,
          0.4930602,
          0.046510182
        ],
        [
          -0.0050844005,
          -0.04526253,
          0.17949453,
          0.033164307,
          -0.09484624,
          -0.10678688,
          -0.14499733,
          0.10312688,
          -0.011264245,
          0.21855675,
          0.14084114,
          0.24682923,
          0.20269187,
          0.059523195,
          0.18134505,
          0.24776281
        ],
        [
          0.056893945,
          -0.050249554,
          0.24842553,
          -0.08470017,
          0.046824265,
          -0.10797864,
          -0.05574069,
          0.11793153,
          -0.109923966,
          0.0449915,
          0.1699359,
          0.2677391,
          0.118558265,
          -0.017264068,
          0.14096014,
          0.15914409
        ],
        [
          -0.0058046235,
          0.0034103482,
          0.20543215,
          -0.15352456,
          0.025080828,
          0.021553269,
          -0.08601752,
          -0.06872922,
          -0.10792079,
          0.017459076,
          0.1668558,
          0.22747146,
          0.109197564,
          0.12936313,
          0.25187665,
          0.0434172
        ],
        [
          -0.0411257,
          0.019199431,
          0.22241813,
          -0.14458476,
          -0.00911689,
          -0.030246874,
          0.023183897,
          0.25331238,
          -0.103811435,
          0.04224202,
          0.091763385,
          0.16510908,
          0.24504393,
          0.11613983,
          0.35940042,
          0.12146564
        ],
        [
          -0.03983517,
          0.21740884,
          0.27103576,
          -0.2610925,
          -0.0988261,
          -0.12827036,
          -0.13304359,
          0.21541108,
          -0.059422206,
          -0.09185485,
          0.09536531,
          0.07749179,
          0.03114328,
          -0.009218151,
          0.35324588,
          0.12839927
        ],
        [
          0.12286811,
          -0.22745234,
          -0.86857575,
          -0.017048981,
          0.2916519,
          -0.10152581,
          0.07338046,
          0.2979037,
          -0.015662976,
          -0.07740471,
          0.36203396,
          -0.5243494,
          0.9310663,
          -1.2065171,
          -2.292818,
          1.7155582
        ],
        [
          0.39898705,
          -0.48039678,
          0.26149863,
          -0.014915638,
          0.3820433,
          -0.285636,
          0.4739574,
          -0.29437667,
          0.23061457,
          0.1640441,
          0.5054357,
          0.08021561,
          1.244771,
          -0.60002047,
          -0.76359737,
          0.67363447
        ],
        [
          0.058222853,
          -0.07746238,
          0.25393972,
          0.03921547,
          -0.14363688,
          0.09914537,
          0.12302861,
          0.25491467,
          -0.028887792,
          -0.006424806,
          0.1848312,
          0.2815378,
          0.6381009,
          -0.0056199054,
          0.8919006,
          0.23428765
        ],
        [
          -0.13697854,
          0.062214836,
          0.16017413,
          -0.113313526,
          0.044956047,
          -0.20282343,
          -0.015785601,
          0.2680318,
          0.07312601,
          0.06145992,
          0.106920086,
          0.20569204,
          0.33706474,
          0.1150313,
          0.035352148,
          0.32242838
        ],
        [
          0.09607023,
          0.12026488,
          0.28747615,
          -0.08672592,
          0.012491735,
          -0.11582625,
          0.0014965264,
          0.16623135,
          0.08596543,
          -0.15241061,
          0.12140648,
          0.09233832,
          0.2428393,
          0.05304447,
          0.27462378,
          0.2625319
        ],
        [
          0.011626286,
          0.07453249,
          0.29417232,
          -0.048405662,
          0.040776905,
          -0.1420429,
          0.09654552,
          0.17632528,
          0.09795033,
          0.030315671,
          0.03272232,
          0.23774333,
          0.29149675,
          0.04442153,
          0.12433342,
          0.25667658
        ],
        [
          -0.37941983,
          0.16437693,
          1.1496339,
          -0.061657358,
          0.008945651,
          -0.0137146395,
          0.15412849,
          -0.9504332,
          0.27330276,
          -0.38140583,
          0.42688504,
          -0.14465295,
          1.0736656,
          -0.25476995,
          0.21196538,
          0.23184656
        ],
        [
          0.4688714,
          0.39505777,
          0.75310117,
          -0.04395799,
          0.1332552,
          0.13659838,
          0.17807806,
          0.14912066,
          0.0024988367,
          -0.4002028,
          0.8418592,
          0.012831576,
          0.7994441,
          0.032996196,
          0.104577854,
          -0.42035505
        ],
        [
          0.031663876,
          0.24116766,
          1.4314898,
          0.056888223,
          0.11793007,
          -0.13189793,
          0.030904355,
          -0.5736677,
          -0.13621546,
          -0.075722955,
          -0.028429497,
          -0.077399746,
          -0.13188139,
          -0.27182302,
          0.12875718,
          -0.37668386
        ],
        [
          0.097202435,
          0.21493104,
          0.34458503,
          -0.018296188,
          -0.13692774,
          0.019297658,
          -0.009895343,
          0.23609771,
          -0.0019063507,
          -0.15677457,
          0.083701216,
          0.21506827,
          0.09368439,
          0.095550954,
          0.023451734,
          0.21562614
        ],
        [
          0.09038909,
          0.12095468,
          0.23218817,
          -0.0764693,
          0.04949518,
          -0.13563162,
          0.06816696,
          0.19150455,
          -0.05549257,
          -0.11156344,
          0.03919406,
          0.29302272,
          0.20057149,
          0.20895572,
          0.18390492,
          0.15433793
        ],
        [
          0.040504206,
          -0.02845443,
          0.18533933,
          0.04836455,
          -0.018596133,
          0.0072274185,
          0.06991097,
          0.1361085,
          0.02532046,
          -0.023992319,
          0.065334134,
          0.0801252,
          0.09611423,
          0.010634329,
          0.26553002,
          0.08772719
        ],
        [
          0.14010188,
          -0.034361564,
          0.0807317,
          -0.016375838,
          0.14520231,
          0.004393756,
          -0.23368528,
          -0.37835938,
          0.18087932,
          0.17229798,
          0.6384608,
          -0.45243686,
          0.32701513,
          -0.09395072,
          -0.013436585,
          -0.54326797
        ],
        [
          -0.015087354,
          -0.37956515,
          -0.48867086,
          -0.6940444,
          0.35456353,
          0.19179551,
          -0.86539024,
          -0.17458339,
          0.24213141,
          0.0327222,
          -0.62275165,
          -0.0021037497,
          -0.61783653,
          -0.14108668,
          0.18348692,
          -0.46542794
        ],
        [
          0.14540222,
          -0.30471224,
          -0.4479972,
          -0.31007603,
          0.47340807,
          0.5623727,
          -1.5681899,
          0.16019782,
          0.3057023,
          0.25373065,
          -0.032133825,
          0.071522236,
          -0.0057970355,
          0.11116736,
          -0.2568905,
          -0.11912244
        ],
        [
          -0.14602658,
          0.106182836,
          0.14233257,
          -0.11005758,
          -0.0019948424,
          -0.033013385,
          0.26780698,
          -0.54826707,
          -0.16415687,
          -0.0017970481,
          -0.789022,
          -0.49729922,
          -0.36474705,
          -0.09958193,
          0.5745204,
          -0.61403584
        ],
        [
          0.111009315,
          -0.147989,
          0.09585847,
          0.26735103,
          -0.69762117,
          -0.032957293,
          0.29774866,
          -0.4980825,
          -0.37451756,
          -0.092500694,
          -0.30524433,
          -0.20483017,
          -0.084112175,
          -0.18493281,
          -0.29058132,
          -0.11032382
        ],
        [
          0.11501553,
          -0.12890159,
          -0.031733405,
          0.32487735,
          -1.3122896,
          -0.17536086,
          0.32959127,
          -0.33924446,
          -0.6478179,
          -0.08977971,
          -0.5700938,
          -0.20840165,
          -0.107598305,
          -0.04571462,
          0.030347714,
          0.094132714
        ],
        [
          0.80511045,
          0.31303638,
          -0.705183,
          -0.31071422,
          0.10286799,
          0.664878,
          -0.8147513,
          0.33927715,
          0.27259108,
          -0.25496063,
          -0.12603882,
          0.090990484,
          -0.16147144,
          -0.7769705,
          -1.0703195,
          -0.61265177
        ],
        [
          0.2590002,
          -0.55110496,
          0.029151434,
          0.29919517,
          -0.43753713,
          0.23691007,
          0.42059058,
          -1.1928889,
          -0.17289346,
          0.02704854,
          0.25855684,
          -0.30485934,
          -0.13688053,
          -0.2542307,
          -0.30499315,
          0.0799522
        ],
        [
          -1.0113145,
          0.09733304,
          -1.0716432,
          -0.44676423,
          0.38378128,
          -0.55124503,
          -0.0829271,
          -0.31482443,
          -0.40934962,
          0.020353189,
          0.45323095,
          -0.13000144,
          1.092425,
          -1.2546239,
          -1.3773535,
          0.15826516
        ],
        [
          -0.67225796,
          0.3001009,
          1.0154941,
          -0.4211268,
          -0.048743837,
          -0.21945255,
          -0.119229905,
          -0.8476797,
          0.113478765,
          -0.5743423,
          0.52492636,
          -0.2197035,
          -0.15767811,
          -0.5743251,
          -0.022878563,
          -0.3342776
        ],
        [
          -2.1404083,
          0.52217734,
          -1.3190565,
          -0.87189525,
          -0.30229723,
          -0.8085316,
          0.09080082,
          -0.082804084,
          -0.7415823,
          0.082192555,
          0.040646013,
          -0.66436917,
          0.4632014,
          -1.123084,
          -1.4257786,
          0.6393945
        ],
        [
          -1.842661,
          0.47399545,
          0.64339805,
          -0.8112549,
          0.11842559,
          0.17817861,
          -0.70610094,
          -0.98943925,
          -0.015074877,
          -0.6719317,
          0.09786525,
          0.75497794,
          1.0476512,
          -0.68499535,
          -1.226955,
          -0.2761711
        ],
        [
          0.37962538,
          -0.1426355,
          -1.0841409,
          -0.42452025,
          0.439899,
          -0.6275501,
          0.2136888,
          -0.4279963,
          -0.40807092,
          0.17200576,
          0.14110795,
          -0.25610015,
          0.641174,
          -1.0353898,
          -1.196765,
          0.6558789
        ],
        [
          -0.21442822,
          0.37863028,
          0.38737008,
          -0.042072672,
          0.4070522,
          -0.038003534,
          -0.11985821,
          -0.5442556,
          0.2824298,
          -0.65570724,
          0.45975763,
          -0.15870525,
          -0.050279062,
          0.06947419,
          -0.34437206,
          -0.175928
        ],
        [
          -0.1349247,
          -0.027681094,
          -0.28464928,
          0.036757,
          -0.063592866,
          0.09998576,
          0.025332328,
          -0.08381432,
          -0.037452478,
          -0.08493198,
          -0.03161126,
          -0.018298332,
          -0.19309278,
          -0.0921054,
          -0.1557129,
          -0.503487
        ],
        [
          0.09318754,
          -0.08197302,
          -0.28431028,
          0.02628869,
          -0.0021500401,
          0.10363178,
          -0.12347217,
          -0.06074008,
          -0.025055494,
          -0.09927248,
          -0.31654856,
          -0.028557152,
          -0.42245802,
          -0.013152938,
          -0.25008547,
          -0.22966637
        ],
        [
          -0.16210869,
          0.09236441,
          -0.33303156,
          -0.11500973,
          -0.04354508,
          0.13857783,
          -0.04149938,
          -0.114868194,
          -0.20583352,
          -0.22218202,
          -0.084015965,
          -0.13428426,
          -0.52310306,
          0.032443173,
          -0.26172003,
          -0.45107073
        ],
        [
          0.24049248,
          0.2837073,
          0.4918656,
          -0.07403292,
          0.06848412,
          0.12779157,
          -0.017694477,
          -0.2049422,
          -0.2171839,
          0.0053593465,
          0.060584255,
          -0.6827068,
          -0.18736307,
          0.09486429,
          0.6805634,
          -0.26536652
        ],
        [
          0.22645605,
          -0.3363422,
          -0.009305335,
          -0.05742602,
          -0.066252455,
          0.120821856,
          -0.1440119,
          -0.6259387,
          0.43657196,
          0.06569471,
          -0.48219982,
          0.1352914,
          -0.85037297,
          0.52778757,
          -0.08959843,
          -0.4647904
        ],
        [
          0.038471244,
          0.045470502,
          0.38120776,
          0.08036704,
          0.026463492,
          -0.2258898,
          0.14182346,
          0.07651756,
          0.14776976,
          0.06508772,
          0.08894897,
          0.43846354,
          0.25404632,
          0.027023578,
          0.12819673,
          0.08434344
        ],
        [
          -0.09580593,
          0.083870985,
          -0.09797309,
          -0.11564033,
          0.020986633,
          0.020474708,
          -0.03855017,
          -0.1435814,
          -0.028239105,
          0.22207566,
          -0.14542569,
          -0.19485225,
          -0.12864335,
          -0.19649257,
          -0.06803209,
          -0.27053586
        ],
        [
          0.019448495,
          -0.1814056,
          -0.15821713,
          0.062377237,
          -0.049048495,
          -0.033609714,
          -0.09193133,
          -0.08028488,
          -0.2198574,
          -0.04337355,
          -0.027499903,
          -0.025406096,
          -0.17362376,
          -0.2840849,
          -0.12680969,
          -0.22774105
        ],
        [
          -0.05847074,
          -0.015084634,
          -0.43218908,
          -0.059317116,
          0.015322084,
          -0.012509718,
          0.034386273,
          -0.07294522,
          -0.05424355,
          0.08169256,
          0.39508456,
          -0.18282476,
          -0.3980586,
          0.08353014,
          -0.19388913,
          0.13873138
        ],
        [
          -0.47289726,
          0.38062823,
          -0.45545006,
          0.04892279,
          0.2937617,
          -0.13513355,
          0.09292625,
          0.03015201,
          0.07420261,
          0.06821287,
          -0.04308837,
          -0.009728985,
          -0.645462,
          0.5867154,
          0.18871291,
          0.26857072
        ],
        [
          -0.15042566,
          -0.1992372,
          -0.16479842,
          0.20873024,
          -0.0024208413,
          0.21292736,
          0.4662386,
          0.0028935354,
          0.049400937,
          -0.051405173,
          -0.22443464,
          1.6405455,
          0.50404936,
          0.0099385185,
          -0.07487957,
          0.8969703
        ],
        [
          0.020689048,
          0.085512,
          0.107562706,
          -0.0011225261,
          -0.23407781,
          -0.06459693,
          0.1925705,
          -0.038191482,
          -0.067068934,
          0.11674279,
          0.026652155,
          0.18210456,
          0.35942098,
          0.36480525,
          0.35490936,
          0.23380864
        ],
        [
          -0.1842581,
          -0.10013742,
          -0.038613036,
          0.036048662,
          -0.080985464,
          -0.11086544,
          -0.018759489,
          -0.86402535,
          -0.2423133,
          -0.20710088,
          -0.37807184,
          0.82806,
          0.03221335,
          -0.96657985,
          -0.2472563,
          -0.35294265
        ],
        [
          -0.123354666,
          -0.1735456,
          -0.15558395,
          -0.1292856,
          0.09899127,
          -0.24155581,
          0.020521328,
          0.04841696,
          -0.03819058,
          -0.14786041,
          0.21685423,
          -0.5045108,
          -0.64818716,
          -0.35027763,
          -0.09098284,
          -0.30108187
        ],
        [
          0.023271522,
          0.221523,
          0.013826238,
          -0.016436392,
          -0.16100034,
          -0.046799358,
          0.09555703,
          -0.32245624,
          0.29862687,
          0.05659185,
          0.61178905,
          -0.16518855,
          0.16544548,
          -0.099359676,
          -0.08319535,
          -0.60472846
        ],
        [
          -0.096382186,
          -0.17462914,
          -0.14007069,
          -0.03437145,
          0.20421876,
          0.08719778,
          0.11416531,
          -0.60347885,
          -0.106780976,
          -0.08347687,
          0.418077,
          0.019407341,
          -0.6816714,
          -0.008200732,
          -0.64591545,
          0.19473362
        ],
        [
          -0.0019432891,
          0.06376573,
          -0.555025,
          -0.036334645,
          0.105871335,
          -0.05645457,
          -0.12498318,
          0.052917797,
          0.1342551,
          -0.20538607,
          0.2605115,
          -0.04990482,
          -0.38815844,
          0.08906746,
          -0.4668951,
          -0.5299535
        ],
        [
          0.23215355,
          0.076256126,
          -0.03465858,
          -0.03639163,
          0.21402168,
          -0.09603746,
          -0.113959834,
          -0.19981846,
          0.083876446,
          0.017437154,
          0.9736853,
          -0.27464488,
          -0.4177292,
          0.037530206,
          0.06644371,
          -0.036617912
        ],
        [
          0.27534297,
          -0.37270185,
          0.30786657,
          -0.13232651,
          -0.0494764,
          0.10101608,
          -0.043765776,
          -0.4657603,
          -0.09147739,
          0.047633793,
          -0.21309555,
          0.47647116,
          0.6362485,
          -0.58137417,
          0.23389369,
          0.52396584
        ],
        [
          -0.010191267,
          -0.22770807,
          -0.014399156,
          -0.076044224,
          0.16665284,
          -0.039578505,
          -0.020291593,
          0.2419364,
          -0.14899404,
          -0.11570703,
          -0.15276769,
          -0.46981198,
          -0.19933517,
          0.07879507,
          -0.15769854,
          0.3731608
        ],
        [
          0.006263619,
          0.13435557,
          -0.5706838,
          0.044716906,
          0.06704421,
          -0.018959535,
          0.16475779,
          0.8433486,
          -0.21874051,
          -0.14057595,
          0.47387037,
          -0.17276879,
          0.6589195,
          -0.006639372,
          0.08035206,
          0.4906857
        ],
        [
          -0.2234225,
          -0.031093229,
          -0.22692783,
          -0.18728374,
          0.14047965,
          -0.065962024,
          0.1547476,
          0.4881926,
          0.07107048,
          -0.00212656,
          -0.01826692,
          0.017383892,
          -0.31573838,
          -0.15959409,
          -0.41753468,
          0.17460912
        ],
        [
          -0.01219214,
          0.015772419,
          -0.7302604,
          0.07915502,
          -0.2152439,
          -0.0012102681,
          0.051424313,
          0.13308136,
          0.13897473,
          -0.08310303,
          -0.7507695,
          -0.20024522,
          -0.45234576,
          -0.39434278,
          -0.35221636,
          0.06504123
        ],
        [
          -0.12778957,
          -0.016923036,
          -0.5623182,
          0.037291493,
          -0.16310841,
          -0.13569409,
          0.019797593,
          0.261313,
          0.055604618,
          -0.034002025,
          0.04191578,
          -0.25758052,
          -0.666192,
          0.07478658,
          0.16493441,
          0.3378136
        ],
        [
          -1.1062822,
          0.0015706598,
          -0.7224884,
          -0.48993683,
          0.0017563049,
          -0.40098014,
          -0.17919384,
          -0.17720301,
          -0.050219525,
          0.6357848,
          0.014161665,
          0.018683312,
          -0.10639472,
          -0.35361686,
          -0.018487087,
          -0.00078355515
        ],
        [
          -1.2667,
          0.1394236,
          0.06879635,
          -0.068425454,
          0.16566367,
          -0.3085779,
          0.20185953,
          -0.5129235,
          0.2285354,
          -0.68656874,
          0.075075686,
          -0.044429805,
          -0.13483013,
          -0.22336683,
          -0.25373894,
          -0.5208754
        ],
        [
          0.037635628,
          0.16641875,
          -0.06488021,
          -0.017472273,
          0.011456604,
          0.066161856,
          -0.03187576,
          0.079936095,
          -0.0075588687,
          0.005835309,
          0.24046408,
          -0.7946334,
          -0.31231746,
          -0.15368164,
          -0.09947101,
          -0.32973325
        ],
        [
          -0.037171602,
          0.09688067,
          0.021742715,
          -0.07036607,
          0.11551319,
          0.010782785,
          -0.22123553,
          -0.20329194,
          0.09634251,
          -0.019597743,
          0.3192945,
          -0.50748664,
          0.2670604,
          -0.09343843,
          0.3272948,
          -0.690711
        ],
        [
          -0.043789845,
          -0.28954533,
          0.057434477,
          -0.25287628,
          0.1747851,
          0.11225594,
          -0.25664252,
          -0.42564806,
          0.20430402,
          0.036259297,
          -0.6187283,
          -0.09776475,
          0.26147237,
          -0.07108963,
          0.3834277,
          -0.6175324
        ],
        [
          -0.12960103,
          0.08111792,
          -0.041085377,
          -0.48317593,
          0.33204606,
          0.03650011,
          -0.2926453,
          -0.28396073,
          0.1758726,
          0.00093277387,
          -0.007975073,
          -0.45335135,
          -0.0744444,
          -0.0071409633,
          0.23325086,
          -0.64041275
        ],
        [
          0.5392444,
          -0.6029614,
          0.25586894,
          -0.11437106,
          0.25145596,
          0.65644664,
          -0.26392692,
          -0.8184912,
          0.07661571,
          -0.022815982,
          -0.5711423,
          0.10313093,
          -0.1559333,
          0.16357274,
          -0.24847774,
          -0.3202306
        ],
        [
          0.045222986,
          -0.58934426,
          -1.018283,
          0.56467617,
          -0.12905158,
          0.08130369,
          0.03535961,
          -0.1460725,
          0.046491545,
          0.0053858785,
          -0.62068605,
          1.8820127,
          0.051389582,
          0.5904372,
          -0.7291282,
          -0.36919436
        ],
        [
          0.0016131868,
          -0.1579728,
          -0.23558183,
          0.06561056,
          -0.030512758,
          0.013906316,
          0.23332834,
          -0.069440804,
          -0.08506659,
          0.06780288,
          0.0027936986,
          -0.093045875,
          -0.51542145,
          -0.20166697,
          0.014131092,
          -0.08339021
        ],
        [
          -0.16846916,
          -0.10689028,
          -0.33230045,
          0.007835724,
          -0.019973326,
          -0.13706416,
          0.20842317,
          -0.02644774,
          0.28817368,
          0.04710742,
          0.0549959,
          -0.06494966,
          -0.6284666,
          0.011454753,
          0.49418747,
          -0.023248086
        ],
        [
          -0.107088834,
          0.059423923,
          0.110217445,
          0.008974332,
          -0.26169655,
          -0.12830189,
          0.029569022,
          -0.45015967,
          0.1132316,
          -0.06430268,
          0.07483295,
          -0.30798346,
          -0.4281038,
          -0.39088434,
          0.20602469,
          -0.18594666
        ],
        [
          -0.25206718,
          -0.13487504,
          -0.3839527,
          -0.18321393,
          -0.09454079,
          -0.044975843,
          0.13200225,
          -0.03761406,
          0.22348048,
          -0.063443534,
          0.14995745,
          0.448518,
          0.26193106,
          -0.2235001,
          -0.22246066,
          -0.35747156
        ],
        [
          0.6838219,
          -0.441833,
          -0.58912593,
          0.119239904,
          0.22126704,
          -0.06635647,
          0.03019151,
          -0.11021297,
          -0.63971335,
          0.020705665,
          -0.48223305,
          0.89213586,
          0.58582145,
          -0.20020667,
          -0.33345926,
          0.10289151
        ],
        [
          -1.0283867,
          0.34198263,
          0.37128723,
          0.6393758,
          1.4262031,
          0.05528802,
          -0.37716404,
          -0.2871994,
          -0.63391054,
          0.02821894,
          0.02490757,
          -0.90118545,
          -0.88044673,
          0.22985873,
          0.47399572,
          -0.60707235
        ],
        [
          0.17084606,
          -0.09354148,
          -0.6997287,
          0.054511733,
          -0.27534908,
          -0.08000527,
          0.1120599,
          0.23735717,
          -0.2361001,
          -0.0777872,
          0.45974216,
          0.5085469,
          0.6025106,
          0.064487755,
          -0.41401914,
          0.41315973
        ],
        [
          0.038999766,
          0.18818274,
          -0.721648,
          0.17820323,
          -0.5952609,
          -0.09380634,
          -0.1860622,
          0.33688638,
          -0.27352503,
          -0.11468468,
          0.21203211,
          0.030170187,
          0.9310016,
          0.1913456,
          0.09720113,
          0.18887082
        ],
        [
          0.037764303,
          -0.06652091,
          -0.06474878,
          0.13829495,
          -0.14451256,
          0.16968867,
          -0.21935561,
          0.65013564,
          -0.13821042,
          0.20872928,
          0.24492253,
          -0.098343365,
          0.6069356,
          -0.17599268,
          -0.32350948,
          0.86740327
        ],
        [
          0.15615988,
          0.16393906,
          -0.5060289,
          0.24147682,
          -0.30548283,
          0.13120736,
          -0.23114248,
          0.72252244,
          0.031449217,
          0.38779482,
          -0.25733268,
          -0.13657925,
          0.5387123,
          0.2811716,
          -0.41782337,
          0.5353374
        ],
        [
          -0.30521128,
          0.35593873,
          -1.4554653,
          0.119873255,
          -0.4112699,
          0.2424455,
          -0.21738191,
          0.94316155,
          -0.26988426,
          0.81490076,
          -0.118943,
          0.3769997,
          0.18583268,
          0.18412963,
          -0.83912766,
          0.027250605
        ],
        [
          0.05960063,
          -0.012054449,
          0.06773924,
          0.034208458,
          0.096342176,
          0.05805,
          -0.07006307,
          0.048365828,
          0.10067535,
          -0.06844977,
          -0.0421415,
          -0.0657627,
          0.12267208,
          0.11810362,
          0.06734645,
          0.08983456
        ],
        [
          0.125824,
          0.013659464,
          1.5127556,
          0.35402608,
          0.09282283,
          0.0023035384,
          -0.8986329,
          -0.23510985,
          -0.5746978,
          0.13031445,
          -0.08823086,
          0.1742823,
          -2.8982563,
          -0.074524246,
          1.1751479,
          -0.26622155
        ],
        [
          0.020753738,
          -0.063382044,
          1.3186911,
          -0.03957203,
          0.3081163,
          -0.27885956,
          -0.70545185,
          -0.40015608,
          -0.22840762,
          0.09602641,
          -0.45658073,
          -0.16726689,
          -2.3601844,
          -0.40361303,
          1.1296836,
          -0.8003515
        ],
        [
          -0.02553219,
          -0.16965592,
          0.30645838,
          0.2772232,
          -0.107346505,
          0.018642046,
          -0.32753536,
          -0.15285257,
          0.047182493,
          0.2273947,
          -0.022104675,
          0.01653936,
          -0.3748164,
          -0.22629833,
          0.7065218,
          -0.42914265
        ],
        [
          0.5679001,
          -0.28098455,
          0.56518203,
          0.14251243,
          -0.16301848,
          -0.023918897,
          0.2162409,
          -0.09825167,
          0.11340004,
          0.22318368,
          -0.48949084,
          -0.5068255,
          -2.0447142,
          0.13634773,
          1.202744,
          0.012049421
        ],
        [
          0.17746587,
          0.0046375343,
          0.46089926,
          -0.3454886,
          0.43048868,
          -0.13341919,
          -0.050144117,
          0.012436756,
          0.11979795,
          0.3813052,
          -0.5582091,
          -0.9831162,
          -1.0034858,
          0.73563147,
          0.74299324,
          -0.15419315
        ],
        [
          -0.099887945,
          -0.058298327,
          0.0930789,
          -0.07019036,
          0.088657245,
          0.002691046,
          0.07279115,
          -0.056402322,
          0.09646175,
          0.07039471,
          0.04337206,
          -0.078983694,
          -0.09326909,
          -0.059845287,
          -0.087618954,
          -0.082437664
        ],
        [
          0.03662412,
          0.2303516,
          -0.49003184,
          -0.0984287,
          0.12909383,
          0.051995102,
          -0.32085872,
          0.18874398,
          -0.08476839,
          -0.102094844,
          -0.20242785,
          0.121635765,
          0.48954102,
          -0.39565822,
          -0.93793803,
          -0.34173244
        ],
        [
          -0.12855451,
          0.34338462,
          -0.5559028,
          0.089046314,
          0.21479262,
          -0.0233193,
          0.027388101,
          -0.30545315,
          0.031898655,
          -0.09132455,
          0.09989527,
          -0.40794346,
          0.26544777,
          -0.25043714,
          -0.7395925,
          0.20531256
        ],
        [
          -0.14249735,
          -0.1482084,
          -0.74010444,
          0.14469565,
          0.067993,
          0.095460266,
          -0.045636255,
          -0.002044719,
          0.071061246,
          -0.014828945,
          -0.22555213,
          -0.0030517057,
          -0.35747254,
          -0.060390607,
          0.020024076,
          -0.047907908
        ],
        [
          -0.09899743,
          -0.15555736,
          -0.06845681,
          0.05534217,
          0.16363478,
          0.08718509,
          0.21721518,
          -0.32141915,
          -0.060874492,
          -0.0063901413,
          -0.024276974,
          -0.33974922,
          0.21044908,
          -0.32293424,
          0.05556432,
          -0.24953997
        ],
        [
          0.18340904,
          -0.08046584,
          -0.21070795,
          0.07099563,
          -0.027226573,
          -0.052511487,
          0.1052537,
          -0.12792978,
          0.016399585,
          0.11582896,
          -0.054202963,
          -0.042412743,
          -0.21553174,
          -0.005672735,
          0.16267255,
          0.051081732
        ],
        [
          0.3364879,
          0.001327738,
          0.07611112,
          -0.00094176194,
          0.0053716945,
          0.029757986,
          -0.06953719,
          0.18491656,
          0.112384915,
          -0.060645763,
          -0.10399196,
          0.11186712,
          0.25785068,
          -0.190702,
          0.2537566,
          -0.18277605
        ],
        [
          0.04792759,
          0.010630776,
          0.72360176,
          -0.029551776,
          0.014920262,
          0.069461204,
          0.048760913,
          -0.6376963,
          -0.09938964,
          0.109524354,
          0.27979383,
          -0.3427973,
          0.488991,
          -0.14574586,
          0.23043677,
          -0.18147226
        ],
        [
          0.05009704,
          0.1502973,
          0.07404925,
          0.078932144,
          -0.007209734,
          0.034357585,
          0.1560706,
          0.6007427,
          0.18658614,
          0.016598836,
          0.51032454,
          -0.7259777,
          0.068490975,
          -0.17548226,
          0.15070012,
          0.09969802
        ],
        [
          -0.008613282,
          -0.190884,
          -0.7388366,
          0.101372495,
          0.030634023,
          -0.06856257,
          0.046661958,
          0.1448273,
          -0.086798646,
          0.03532393,
          -0.3415478,
          0.90210474,
          0.26966223,
          -0.2347537,
          -0.23909065,
          0.08124969
        ],
        [
          -0.2609917,
          -0.18872046,
          0.23460643,
          0.0216205,
          -0.08056118,
          -0.016818509,
          0.16535892,
          -0.060368415,
          0.127455,
          0.04584027,
          -0.55273575,
          -0.15393168,
          -0.23766279,
          -0.022096941,
          -0.16440909,
          0.11936999
        ],
        [
          -0.12589419,
          -0.051395707,
          -0.1741091,
          0.049076352,
          -0.101967916,
          -0.021297399,
          0.12375681,
          -0.09305271,
          0.058483258,
          -0.033838425,
          0.40842763,
          -0.4413971,
          0.4542344,
          0.075196646,
          -0.004444148,
          -0.16572966
        ],
        [
          0.015004583,
          -0.12086139,
          0.45555016,
          -0.106131256,
          -0.14848754,
          0.12055461,
          -0.0036458422,
          -0.6057249,
          -0.037345596,
          0.011139685,
          0.24557526,
          0.12084266,
          -0.39185008,
          -0.32469636,
          0.30854082,
          0.16675797
        ],
        [
          -0.27671176,
          -0.08175196,
          -0.056036968,
          0.114917435,
          -0.04526204,
          0.084517226,
          0.1735364,
          -0.12835266,
          -0.12566993,
          0.023949785,
          0.027854815,
          -0.39088047,
          -0.2087426,
          -0.19827187,
          0.17096083,
          -0.27312842
        ],
        [
          0.054803073,
          -0.16235806,
          -0.4131903,
          0.087032,
          -0.02655599,
          -0.094000906,
          0.13498832,
          -0.50672305,
          -0.014935719,
          0.018984027,
          0.053614963,
          0.064777896,
          -0.57348704,
          0.118544936,
          -0.024646455,
          -0.23908216
        ],
        [
          -0.23879176,
          -0.32193464,
          -0.32279682,
          0.131831,
          -0.064299144,
          -0.024131853,
          0.04069732,
          -0.16407736,
          0.2682512,
          0.03840938,
          -0.5670651,
          -0.35187843,
          -0.18465725,
          -0.083780244,
          -0.31273142,
          -0.06976816
        ],
        [
          -0.23142758,
          -0.089290455,
          0.50398135,
          0.08728556,
          -0.18749481,
          0.07587334,
          0.15822087,
          -0.570779,
          -0.38178578,
          0.057976685,
          -0.3210795,
          -0.61396694,
          -0.9061635,
          -0.036766987,
          0.26244676,
          -0.2941475
        ],
        [
          0.07576262,
          -0.09867247,
          0.39799416,
          0.18362683,
          -0.08685381,
          0.12581892,
          -0.10737025,
          -0.3911073,
          -0.42187762,
          -0.049370468,
          -0.3447252,
          -0.32376593,
          -0.74561036,
          0.12166143,
          0.20338607,
          -0.8702118
        ],
        [
          -0.12003901,
          0.02011847,
          -0.29209572,
          -0.03693127,
          -0.12832437,
          0.025212133,
          0.09983952,
          -0.04870958,
          -0.003896621,
          0.0064450484,
          -0.080754526,
          0.06396916,
          -0.3576606,
          0.10892357,
          -0.002174283,
          -0.099566005
        ],
        [
          -0.04882629,
          -0.08305451,
          -0.5501945,
          0.114408985,
          -0.12767334,
          0.017699253,
          0.10033573,
          -0.051072873,
          0.03435896,
          0.034783956,
          -0.46125183,
          0.14963663,
          0.034471594,
          0.009857688,
          -0.45806986,
          -0.2795108
        ],
        [
          -0.33945578,
          -0.23521306,
          -0.51747507,
          0.03874465,
          0.053251803,
          0.0051650614,
          -0.017827075,
          -0.24744767,
          -0.07463922,
          0.14334224,
          -0.22852409,
          -0.47974372,
          -0.1361711,
          -0.09756249,
          0.14001586,
          -0.086022526
        ],
        [
          -0.155298,
          -0.1252912,
          -0.050284825,
          -0.070502415,
          -0.020470487,
          0.12611005,
          -0.07308452,
          0.30000094,
          -0.3015838,
          0.035869215,
          0.25095278,
          -0.2605335,
          -0.04956301,
          0.06718773,
          0.0650999,
          -0.05280684
        ],
        [
          0.023036022,
          -0.101160444,
          -0.38547134,
          0.09236811,
          0.010418689,
          0.12897599,
          -0.053863738,
          0.35657403,
          -0.1317895,
          0.10767917,
          -0.39200413,
          -0.42617345,
          -0.38544372,
          0.33522677,
          0.367079,
          -0.26814207
        ],
        [
          0.21115673,
          0.0795525,
          0.3906813,
          -0.028993184,
          -0.08711839,
          0.047562625,
          0.10755159,
          -0.21777928,
          -0.11093801,
          0.029810697,
          -0.21378343,
          -0.05767957,
          -0.44890794,
          -0.1283517,
          -0.5078336,
          -0.5279155
        ],
        [
          0.13165404,
          -0.015052325,
          0.4286722,
          -0.06555692,
          -0.005296759,
          -0.011723384,
          0.03205133,
          -0.36731556,
          0.13732766,
          0.06295188,
          0.009058825,
          0.062528096,
          -0.16838224,
          0.0714833,
          -0.039684173,
          -0.25422597
        ],
        [
          0.16645648,
          -0.13297254,
          -0.25915173,
          -0.011424108,
          0.12073955,
          0.087078154,
          0.0019837965,
          -0.4084505,
          0.19379824,
          -0.09464282,
          0.10378664,
          -0.23163626,
          0.60261416,
          0.10220794,
          -0.1430525,
          -0.16961515
        ],
        [
          -0.24155942,
          0.4680648,
          0.09053228,
          -0.1142601,
          -0.024992185,
          0.1399402,
          0.039386176,
          -0.17207725,
          -0.4149918,
          0.024586555,
          -0.33887407,
          -0.077704586,
          -0.42850515,
          -0.09162159,
          -0.31560826,
          0.0518225
        ],
        [
          0.23837276,
          -0.06637521,
          -0.7406333,
          0.063942425,
          0.18368186,
          0.15289213,
          -0.0686745,
          -0.010159553,
          0.20090519,
          0.105883196,
          -0.7398663,
          -0.3537072,
          -0.27184215,
          -0.07058061,
          -0.6081874,
          -0.30672956
        ],
        [
          0.15135942,
          -0.0490357,
          -0.17298913,
          0.01416493,
          -0.10724262,
          -0.08432233,
          -0.078943625,
          0.02097511,
          -0.11099963,
          0.06797143,
          -0.24160726,
          -0.2721333,
          -0.7157816,
          -0.02945662,
          -0.26111922,
          -0.079983935
        ],
        [
          -0.18756786,
          0.2269548,
          0.028585898,
          0.020773863,
          0.0015757902,
          0.13714042,
          0.18204659,
          0.07520807,
          0.09426658,
          0.0054462156,
          0.44808087,
          -0.5765947,
          0.019341834,
          -0.19528787,
          -0.055200163,
          -0.72090816
        ],
        [
          -0.14142647,
          -0.11955876,
          -0.6839407,
          0.06494314,
          0.10281124,
          0.20015314,
          -0.18374972,
          -0.1414369,
          -0.0610342,
          0.030811304,
          -0.62562615,
          0.18350771,
          0.4064066,
          0.11083686,
          -0.23743258,
          0.1975748
        ],
        [
          -0.0048153643,
          -0.07870592,
          0.09189616,
          0.049140077,
          0.025869526,
          0.08424916,
          -0.09006215,
          -0.15898952,
          -0.003609561,
          0.05345035,
          0.2394141,
          -0.15241955,
          0.4383182,
          -0.02961353,
          -0.3118997,
          -0.58540225
        ],
        [
          0.07079264,
          0.010859518,
          -0.3016383,
          0.123496175,
          0.07123192,
          0.15807681,
          -0.056026172,
          0.26003516,
          -0.119226135,
          0.1795422,
          -0.2701717,
          -0.53839284,
          0.5133317,
          0.14001149,
          -0.38561937,
          -0.18204796
        ],
        [
          0.1115933,
          -0.1010586,
          -0.53067327,
          0.05059776,
          0.04157896,
          0.15881452,
          -0.002263457,
          0.10207428,
          -0.0010575941,
          0.11459374,
          0.4485872,
          0.21735778,
          -0.34997424,
          -0.0758635,
          -0.4482259,
          -0.08275075
        ],
        [
          -0.060441125,
          -0.15889978,
          -0.15252839,
          0.14624327,
          0.0033134776,
          0.196664,
          0.068411574,
          -0.033342857,
          0.041728046,
          0.082784556,
          0.05844403,
          0.21536218,
          -0.07727165,
          0.063459694,
          -0.2688341,
          0.040018525
        ],
        [
          -0.2716396,
          0.26758105,
          0.016352182,
          -0.05734333,
          0.27889702,
          0.09126622,
          -0.028032437,
          0.062566996,
          0.0060932827,
          -0.03807325,
          0.05222493,
          0.20968598,
          0.09302152,
          0.06070984,
          0.046590075,
          -0.2320635
        ],
        [
          -0.12965608,
          -0.1418689,
          -1.2972319,
          0.01184486,
          0.08662613,
          0.059126023,
          -0.0492089,
          0.18838629,
          0.250875,
          0.0076538115,
          -0.12065435,
          0.063269265,
          0.13777538,
          0.53358686,
          0.10857859,
          -0.4172245
        ],
        [
          -0.034339994,
          -0.06484696,
          -0.13816452,
          0.03027228,
          -0.06430983,
          0.030109966,
          -0.04267177,
          0.060393404,
          -0.11567879,
          0.14548492,
          0.100897074,
          -0.19711208,
          -0.24857545,
          0.19485554,
          -0.2337537,
          -0.111844674
        ],
        [
          -0.04415018,
          -0.14645901,
          -0.19897878,
          -0.06426529,
          0.19562596,
          0.07693739,
          -0.15684617,
          -0.57026553,
          -0.0909912,
          -0.060806736,
          -0.3210628,
          0.48083407,
          0.27921167,
          -0.14481664,
          -0.63186663,
          0.20355374
        ],
        [
          -0.20944563,
          0.18164742,
          -0.014466992,
          -0.016819939,
          -0.07865418,
          -0.030983092,
          -0.14236489,
          -0.029880255,
          -0.010347252,
          0.07751315,
          -0.24347751,
          0.29266793,
          0.05972117,
          -0.28331158,
          0.089416355,
          -0.483112
        ],
        [
          -0.20890167,
          -0.27180135,
          -0.2340684,
          -0.026568096,
          0.029561386,
          0.11549747,
          -0.040937334,
          0.17598766,
          -0.014452366,
          0.026106635,
          -0.34735224,
          -0.29134884,
          -0.32495844,
          -0.12879404,
          -0.76631427,
          0.3381916
        ],
        [
          0.30437246,
          0.12614779,
          -0.16830587,
          -0.16034846,
          0.19363403,
          0.024935538,
          -0.0012870262,
          -0.42668384,
          0.037080076,
          -0.13663945,
          -0.5231528,
          0.16000652,
          -0.3275934,
          -0.08087439,
          -0.17889187,
          -0.38203505
        ],
        [
          0.044422265,
          -0.05629754,
          0.107747786,
          -0.09657482,
          0.3168624,
          -0.009964692,
          0.11743843,
          -0.25781003,
          -0.05055967,
          0.08627448,
          -0.16062516,
          -0.24074832,
          -0.4081401,
          -0.034731526,
          0.42116654,
          -0.30697617
        ],
        [
          0.2799416,
          -0.15460968,
          -0.22009125,
          0.22984068,
          0.3339348,
          -0.035951898,
          -0.020699019,
          0.29908365,
          0.26554984,
          0.20276436,
          0.18938671,
          -0.69095373,
          -0.33703923,
          -0.20475781,
          0.35061494,
          -0.14704886
        ],
        [
          0.05622788,
          0.3224037,
          -0.39397842,
          -0.02179669,
          0.23271139,
          0.10567018,
          -0.03817401,
          0.08121251,
          0.16872333,
          0.024645712,
          -0.34085545,
          -0.10931772,
          -0.055757534,
          -0.2258561,
          0.16880694,
          -0.08465625
        ],
        [
          -0.092901185,
          -0.15588163,
          -0.3627753,
          0.00454918,
          0.042643886,
          -0.06382697,
          0.01609712,
          -0.48682904,
          0.020730004,
          0.030802693,
          -0.35296968,
          -0.06670296,
          -0.95004517,
          -0.27654874,
          -0.15093374,
          0.057939984
        ],
        [
          0.23580304,
          0.0010938074,
          0.4093983,
          0.07023963,
          -0.10145885,
          0.122086436,
          -0.032715898,
          -0.036893245,
          -0.12818712,
          0.07378278,
          -0.39365542,
          -0.3473323,
          -0.4676906,
          0.09271523,
          0.4359626,
          -0.40396628
        ],
        [
          0.008051476,
          -0.29957563,
          0.6262553,
          -0.068165,
          -0.06599912,
          0.02108559,
          0.13278466,
          -0.25958985,
          -0.017623717,
          -0.01728734,
          0.006421743,
          -0.089038126,
          -0.06044931,
          -0.54674745,
          -0.41031298,
          0.03980616
        ],
        [
          0.22193052,
          -0.04743386,
          0.22122742,
          -0.08546258,
          -0.022328997,
          -0.05920461,
          -0.041740555,
          -0.010779063,
          -0.16806638,
          -0.10104671,
          0.27618036,
          -0.63793015,
          -0.8128014,
          0.09690682,
          0.91711414,
          -0.13979663
        ],
        [
          0.10262365,
          0.5830203,
          -0.7854036,
          -0.19450276,
          0.024758423,
          -0.17196532,
          -0.5132286,
          0.07718228,
          0.045891907,
          0.03595088,
          0.68800795,
          -0.39065793,
          0.37534395,
          -0.10484456,
          -1.2097172,
          -0.14081515
        ],
        [
          -0.54645705,
          0.0556978,
          -0.332802,
          -0.063898265,
          0.23473346,
          -0.21031855,
          -0.27502516,
          0.47417542,
          -0.07403869,
          -0.0043125255,
          0.8140841,
          -0.27570158,
          0.82978594,
          0.14028244,
          0.08450174,
          -0.23792374
        ],
        [
          -0.29084682,
          -0.18170308,
          0.17466992,
          0.10594476,
          -0.12411664,
          0.015015291,
          -0.11476729,
          0.4329065,
          -0.27312738,
          0.019644927,
          0.08253663,
          0.44281635,
          0.12819736,
          -0.11136161,
          0.27328214,
          0.41920894
        ],
        [
          -0.12282025,
          -0.027446192,
          0.15596777,
          0.1359752,
          -0.05306932,
          -0.14511292,
          0.12209273,
          -0.2591497,
          0.011082874,
          0.069337435,
          -0.074400045,
          0.19913447,
          -0.32752693,
          -0.06364866,
          0.82495016,
          0.31713316
        ],
        [
          0.30188644,
          -0.28673282,
          0.49811557,
          0.18885942,
          -0.20349623,
          0.014041674,
          0.18039402,
          0.1019694,
          0.11401213,
          0.14237407,
          -0.15401314,
          -0.20270826,
          0.50806344,
          -0.14700876,
          -0.27793357,
          0.41661093
        ],
        [
          0.029530177,
          -0.5030063,
          -0.060494334,
          -0.018707735,
          -0.25514618,
          0.55027646,
          0.0014710642,
          -0.043243095,
          -0.12840907,
          0.11177901,
          -0.42464224,
          0.6932652,
          0.66468763,
          -0.028171724,
          -0.3594289,
          0.7255157
        ],
        [
          0.061634324,
          0.21143542,
          0.1753906,
          -0.051095255,
          -0.61972904,
          0.15578584,
          0.41101712,
          -0.1557086,
          -0.31762144,
          0.06497573,
          0.26929662,
          -0.38970912,
          0.21496181,
          -0.12118304,
          -0.7024595,
          0.2406182
        ],
        [
          0.278443,
          -0.41610074,
          -0.18261713,
          0.10763141,
          -0.18811645,
          -0.18650664,
          0.16772132,
          -0.46259478,
          0.034777727,
          -0.12855776,
          -0.39680314,
          0.47768873,
          -0.5797447,
          -0.030525062,
          -1.0423714,
          0.043622106
        ],
        [
          0.014791818,
          -0.045543168,
          -0.13306844,
          -0.053734016,
          -0.058657635,
          0.16618484,
          0.20799665,
          -0.34424552,
          -0.06262955,
          -0.018145563,
          -0.23845465,
          -0.21188383,
          -0.17507714,
          -0.25880212,
          -0.1355132,
          0.13702606
        ],
        [
          -0.023486588,
          0.12654442,
          -0.38312787,
          0.06580089,
          -0.13222726,
          -0.0032008481,
          -0.0060032713,
          0.3022066,
          -0.12606277,
          -0.10196332,
          -0.24016553,
          -0.24431828,
          -0.34517708,
          -0.07023267,
          -0.0036491628,
          -0.14112225
        ],
        [
          -0.07255131,
          0.06362392,
          0.0071232095,
          0.038822025,
          -0.06824515,
          0.20670056,
          0.0080691725,
          -0.11030136,
          0.09452147,
          -0.054900885,
          -0.26661417,
          -0.32485098,
          -0.36842263,
          -0.05456508,
          -0.079197526,
          -0.23853193
        ],
        [
          0.15681899,
          0.016571853,
          0.19611594,
          0.091695115,
          -0.05389021,
          0.13008878,
          0.044468977,
          -0.5197368,
          0.025277112,
          0.033375725,
          0.13892742,
          -0.22306718,
          -0.013158731,
          -0.36969492,
          -0.024706244,
          -0.60206556
        ],
        [
          0.08527355,
          -0.17407656,
          0.3196737,
          0.042328216,
          0.1307798,
          -0.030943543,
          0.22678599,
          -1.0307541,
          0.079497054,
          0.09436897,
          -1.3574347,
          -0.10550684,
          -0.19106317,
          0.08864776,
          0.48989275,
          -0.5151399
        ],
        [
          0.077174425,
          -0.104529716,
          -0.060402177,
          -0.019895827,
          0.10380068,
          0.1364601,
          0.17412546,
          -0.16575266,
          -0.003106386,
          0.015432927,
          -0.15389223,
          -0.27298105,
          -0.25107795,
          -0.059375823,
          0.008308976,
          -0.14400603
        ],
        [
          -0.044229973,
          -0.20830011,
          0.32732865,
          0.20710708,
          -0.07315492,
          0.20963752,
          0.007188849,
          -0.57687527,
          -0.21050633,
          -0.013836459,
          -0.5641896,
          -0.42695978,
          -0.5793875,
          -0.1099986,
          0.22211061,
          -0.2266178
        ],
        [
          -0.04195393,
          -0.014368311,
          -0.19382593,
          0.12571459,
          -0.1052501,
          0.21879816,
          0.12678677,
          -0.1664591,
          0.08806919,
          0.041664325,
          -0.25781664,
          -0.47794467,
          -0.12900224,
          -0.11663076,
          0.12362892,
          -0.18171243
        ],
        [
          -0.098050326,
          -0.16778639,
          0.046995305,
          0.113872916,
          0.09089596,
          0.053347766,
          0.11596015,
          -0.18342037,
          -0.16319701,
          0.12560825,
          -0.1974241,
          -0.2896196,
          -0.30428052,
          -0.21975411,
          -0.0809145,
          -0.21876796
        ],
        [
          0.07844968,
          -0.09595783,
          -0.16789901,
          0.13101923,
          -0.09452349,
          0.14455132,
          -0.109543726,
          -0.1738296,
          -0.085500605,
          0.16129377,
          -0.21182218,
          -0.20914428,
          -0.34225354,
          -0.07341515,
          0.034970902,
          -0.2042999
        ],
        [
          0.06359344,
          -0.13647409,
          0.07578934,
          -0.053622533,
          -0.5059905,
          -0.0061058495,
          0.026545018,
          -0.44819012,
          -0.17312169,
          0.009685167,
          -0.18212225,
          -0.16845742,
          -0.35274044,
          -0.12609328,
          0.21483012,
          -0.008677694
        ],
        [
          0.049766924,
          -0.024374435,
          0.18109947,
          -0.16062178,
          -0.30611295,
          0.11190036,
          0.1454072,
          -0.29860485,
          -0.00011741083,
          0.029235356,
          -0.12277129,
          -0.18459688,
          -0.2353241,
          -0.1465574,
          0.007318579,
          -0.16848885
        ],
        [
          -0.058139794,
          -0.20147431,
          0.033211388,
          0.054908805,
          -0.01655933,
          0.18384457,
          0.064675644,
          -0.32640618,
          0.030632753,
          0.054254852,
          -0.34945977,
          -0.33204243,
          -0.38601217,
          -0.08717124,
          -0.008154867,
          -0.20595573
        ],
        [
          0.07496449,
          -0.13653615,
          -0.50098366,
          0.24969709,
          0.054653745,
          0.1556435,
          -0.037922245,
          0.32442725,
          0.10225726,
          0.059385717,
          0.01975713,
          -0.3761323,
          0.13470511,
          0.11671562,
          -0.438526,
          0.028260432
        ],
        [
          0.18298726,
          -0.27810398,
          -0.7791779,
          0.19113302,
          0.3341467,
          0.1746995,
          0.2560443,
          0.15678436,
          0.28860977,
          0.19289464,
          -0.08475004,
          -0.10294988,
          -0.20458843,
          -0.3357271,
          -0.54643697,
          -0.04974352
        ],
        [
          0.30971226,
          -0.23516575,
          -0.62294614,
          0.0141047435,
          0.30876583,
          0.65456724,
          0.07778801,
          0.25131655,
          0.13148145,
          0.35170594,
          0.54688746,
          0.28199917,
          0.96879137,
          -0.010470899,
          0.20760676,
          -0.6482507
        ],
        [
          0.46075955,
          -0.16685754,
          1.5613735,
          0.6151286,
          -0.019938294,
          0.043372437,
          0.47923046,
          -0.9982087,
          0.3978666,
          0.25558823,
          0.70440465,
          -0.7971327,
          -1.1037985,
          -0.056842208,
          1.7861435,
          -0.3028377
        ],
        [
          0.32039994,
          -0.3630808,
          -0.21549904,
          0.29353416,
          -0.0017050973,
          0.17199896,
          0.2886453,
          -0.43251994,
          0.28827634,
          0.011590184,
          -0.513643,
          0.37055033,
          -0.5066875,
          -0.15191321,
          0.13039748,
          -0.6842618
        ],
        [
          0.1102249,
          -0.11106708,
          0.003860735,
          0.38621384,
          0.008093968,
          0.12124418,
          0.24015075,
          -0.56836146,
          -0.032181665,
          -0.033731446,
          0.16422068,
          -0.26992738,
          -0.021254836,
          -0.5804732,
          -0.16042921,
          0.12462065
        ],
        [
          -0.033073638,
          -0.050941676,
          -0.32413697,
          0.14663507,
          -0.068151765,
          0.0820113,
          0.14547993,
          -0.4774378,
          -0.22835675,
          0.03382313,
          -0.27452987,
          0.14690797,
          0.16863716,
          -0.34354958,
          -0.1766664,
          0.085152864
        ],
        [
          0.049837805,
          0.0006313987,
          -0.09471269,
          0.02177893,
          0.06714326,
          0.029228842,
          -0.07236299,
          0.06724624,
          0.16845326,
          0.107281335,
          -0.19847007,
          -0.1915002,
          -0.24497294,
          -0.26347128,
          -0.26338995,
          -0.061259087
        ],
        [
          0.098522834,
          0.110633425,
          -0.32480162,
          0.012790177,
          0.007666287,
          0.2566479,
          -0.12938891,
          0.023226542,
          -0.08532535,
          0.021810234,
          -0.09078172,
          0.0003058976,
          0.039990902,
          0.0066576065,
          -0.29970545,
          -0.17857206
        ],
        [
          -0.05921236,
          -0.15346552,
          -0.8238356,
          0.002421929,
          -0.04427979,
          0.2751877,
          -0.103241734,
          -0.073658034,
          0.04637317,
          0.08732302,
          0.094211325,
          -0.05266463,
          -0.6703583,
          0.113706626,
          -0.5607281,
          0.031535387
        ],
        [
          -0.084640935,
          -0.034095876,
          -0.25983095,
          -0.007915082,
          0.06852693,
          0.10526644,
          0.04740946,
          -0.1431107,
          0.0005826354,
          -0.031799823,
          -0.27779242,
          -0.08258949,
          -0.25662303,
          -0.21916546,
          -0.29188788,
          -0.315056
        ],
        [
          0.10404064,
          -0.1379228,
          -0.56284386,
          0.12167564,
          -0.11759471,
          0.13727391,
          -0.16093853,
          -0.034937,
          0.1262594,
          0.15957208,
          -0.4476919,
          -0.18830206,
          -0.30866027,
          -0.02721083,
          -0.28140482,
          -0.04516661
        ],
        [
          -0.06741455,
          -0.047134675,
          -0.27766776,
          0.10415076,
          -0.06922046,
          0.09332219,
          0.030494168,
          -0.13022517,
          -0.00055348576,
          0.18986629,
          -0.0685078,
          -0.28339702,
          -0.052223887,
          0.032167293,
          -0.24326515,
          -0.003844277
        ],
        [
          -0.057121642,
          -0.26458067,
          -0.2496784,
          -0.05885785,
          0.1802099,
          -0.030687653,
          0.05876948,
          -0.12367252,
          -0.13718939,
          0.03902328,
          -0.063779734,
          -0.11517918,
          0.025144791,
          -0.24639846,
          -0.5168883,
          0.058694214
        ],
        [
          0.20099393,
          -0.030129297,
          -0.59844184,
          -0.045233034,
          0.29434294,
          0.2730812,
          0.22082038,
          0.55324703,
          0.3391334,
          0.07718653,
          -0.3259399,
          -0.29168698,
          0.03558297,
          0.31097648,
          -0.8468995,
          -0.24994117
        ],
        [
          -0.04074572,
          -0.054516666,
          -0.066802606,
          0.083425745,
          0.14390774,
          0.068077266,
          0.06840271,
          -0.26426852,
          0.019439973,
          -0.035826415,
          -0.21396373,
          -0.1622429,
          -0.22077946,
          -0.22110577,
          0.09776731,
          -0.07359083
        ],
        [
          -0.13597536,
          -0.0015372505,
          -0.54265326,
          -0.07482517,
          0.009890689,
          0.09724893,
          -0.007172931,
          0.16702615,
          0.17431939,
          0.1484438,
          0.17234866,
          -0.07678704,
          0.12293391,
          0.057456113,
          -0.53105867,
          0.026859995
        ],
        [
          -0.21990839,
          -0.30199197,
          -0.10538818,
          -0.028410396,
          0.099314004,
          0.09436363,
          0.1540361,
          -0.2800155,
          0.33079886,
          0.19648069,
          0.0046952134,
          -0.4144692,
          -0.37741384,
          0.023165103,
          0.13873771,
          -0.3268035
        ],
        [
          -0.060461726,
          -0.037160035,
          0.34428316,
          -0.13032238,
          0.30547327,
          0.21747531,
          0.12440265,
          -0.5406633,
          -0.30801892,
          0.2421472,
          -0.095340826,
          0.23120213,
          0.4276961,
          -0.15159917,
          -0.73590505,
          -0.20977734
        ],
        [
          -0.016615883,
          -0.27109256,
          -0.33435547,
          -0.19380565,
          0.19912672,
          0.32115516,
          -0.15052295,
          -0.61852247,
          0.050153863,
          -0.06637069,
          -0.42368233,
          1.0711788,
          0.874299,
          -0.43802086,
          -0.99551576,
          0.23014286
        ],
        [
          0.1458575,
          -0.10393567,
          -0.4592369,
          -0.08481393,
          0.3840529,
          0.27768108,
          -0.23480229,
          0.20533125,
          -0.053703234,
          -0.09976344,
          0.56047916,
          0.1772929,
          1.3738263,
          -0.23641665,
          -0.4244316,
          0.25543055
        ],
        [
          0.2960716,
          -0.2856682,
          0.2662375,
          0.07032025,
          0.2818097,
          0.1354292,
          -0.1796109,
          0.05826821,
          -0.05596362,
          0.014506362,
          -0.4269183,
          -0.0018919558,
          0.508943,
          -0.036881436,
          -0.07262388,
          0.04949616
        ],
        [
          0.54487395,
          -0.032130357,
          -0.09986072,
          -0.060898595,
          0.17945196,
          0.23762085,
          -0.07876556,
          0.010701887,
          -0.043067142,
          -0.018686911,
          0.104039386,
          0.5994353,
          1.1648024,
          -0.36308905,
          -0.8507794,
          -0.21352346
        ],
        [
          -0.28498426,
          0.090876214,
          0.35647488,
          0.016316483,
          0.5688315,
          0.12852193,
          0.0256956,
          0.02545849,
          -0.31094822,
          -0.08874997,
          0.28597322,
          0.010438862,
          0.15476356,
          0.097298145,
          0.32604408,
          0.006042504
        ],
        [
          -0.35846597,
          -0.13529311,
          -0.33884993,
          0.009894192,
          0.0852051,
          0.11328872,
          -0.09289732,
          -0.085650966,
          0.06885435,
          -0.11089172,
          0.22765931,
          -0.33083126,
          -0.533051,
          -0.104582556,
          -0.063773096,
          0.3809515
        ],
        [
          -0.31742966,
          0.4180124,
          0.7691737,
          -0.07031488,
          -0.051730383,
          -0.103140816,
          -0.076324075,
          0.07337545,
          0.25734904,
          -0.09544807,
          0.65871716,
          -0.8100384,
          -0.31430483,
          -0.065018766,
          0.85903126,
          -0.7240004
        ],
        [
          0.17398976,
          -0.16189961,
          0.28889358,
          0.012356964,
          -0.3049007,
          -0.28743535,
          -0.18398003,
          -0.05079729,
          0.11004261,
          -0.19093408,
          -0.15918344,
          -0.73809487,
          -0.47403225,
          0.033493523,
          0.27255404,
          0.09024955
        ],
        [
          0.02558794,
          -0.3841263,
          -0.3093632,
          -0.048139345,
          -0.2324038,
          0.019580228,
          0.21641572,
          -0.37491193,
          -0.19708213,
          -0.13561612,
          -0.5492516,
          0.4958465,
          0.6438571,
          0.1574618,
          1.0986767,
          0.2583685
        ],
        [
          -0.08024747,
          -1.0401559,
          -0.19037718,
          0.11406323,
          0.13256772,
          0.045885004,
          0.07233182,
          -0.54417086,
          -0.2760148,
          0.07708081,
          0.16976874,
          0.6078268,
          0.35106787,
          -0.5388034,
          1.1061294,
          0.6872328
        ],
        [
          -0.7079096,
          -1.019978,
          -0.37492353,
          -0.20689018,
          -0.30658945,
          0.18807688,
          0.07260445,
          0.19709682,
          -0.2525375,
          0.3157222,
          -0.26652372,
          -0.4572691,
          0.2681282,
          -0.5599539,
          0.5617801,
          1.040884
        ],
        [
          -1.086793,
          0.87614805,
          -0.016756766,
          -1.040867,
          -0.12136473,
          0.425435,
          0.9831128,
          -0.98227346,
          -0.07308467,
          -0.73156005,
          -0.24009903,
          1.0681766,
          1.1631851,
          -1.0054897,
          -2.1147165,
          -0.577406
        ],
        [
          -0.57519627,
          1.0087833,
          -0.040735535,
          -2.0626607,
          -0.20626622,
          0.562069,
          0.85148114,
          -0.9960034,
          0.41787446,
          -0.57275045,
          0.5118145,
          1.4485912,
          1.2666225,
          -0.8923091,
          -1.7419561,
          -1.0358248
        ],
        [
          -0.87771446,
          0.48037958,
          1.1454227,
          -2.0290058,
          0.6170171,
          -1.1499949,
          0.033048525,
          -1.5681274,
          0.17792499,
          -0.30640894,
          1.1520565,
          -0.40384886,
          0.37379733,
          -1.2568847,
          -1.3008981,
          -1.1995988
        ],
        [
          -0.40399903,
          -0.32330388,
          0.40215147,
          0.067463435,
          -0.18380886,
          -0.12959802,
          0.2686267,
          -0.8136513,
          0.5714201,
          0.18163788,
          -0.511493,
          0.26570326,
          0.31987238,
          0.09743523,
          0.25563318,
          0.35234338
        ],
        [
          0.23549993,
          -0.39137244,
          0.32176682,
          0.047808465,
          -1.2838103,
          -0.17031758,
          0.30293238,
          -0.7135935,
          0.3003193,
          0.0028968535,
          -1.108999,
          0.85803545,
          0.8097735,
          0.47775,
          0.3676904,
          0.27811247
        ],
        [
          0.3822482,
          -0.60477835,
          1.4581198,
          0.17515674,
          -0.65966046,
          -0.34383807,
          0.18084306,
          -1.8086421,
          -0.6013901,
          -0.0045810835,
          -0.71093726,
          0.06358816,
          0.658217,
          -1.0917294,
          0.30780923,
          -0.6126423
        ],
        [
          -0.7382851,
          1.4756999,
          -0.9223123,
          0.25180936,
          0.4271087,
          -0.19824687,
          -0.024344144,
          -0.09192044,
          0.39178702,
          0.08192149,
          0.8043377,
          0.2729024,
          -1.1457515,
          0.23520575,
          0.29260254,
          -0.14787798
        ],
        [
          -0.47741216,
          0.6815911,
          0.2401154,
          -0.506515,
          0.43412313,
          -0.17806552,
          0.9741518,
          -0.59076905,
          0.50599396,
          -0.5243771,
          -0.18601158,
          -0.7302657,
          -0.7688354,
          0.3929929,
          1.093626,
          -0.46110535
        ],
        [
          0.012806935,
          0.006526235,
          0.06533091,
          -0.24668917,
          -0.031792983,
          0.19596125,
          0.028432613,
          -0.32070276,
          0.29546836,
          -0.336384,
          0.16904089,
          -0.1138961,
          -0.03383878,
          -0.09430186,
          -0.25417212,
          -0.24815708
        ],
        [
          0.27211863,
          0.56096613,
          0.6210383,
          -0.010330628,
          -0.49062455,
          0.04064102,
          0.25830752,
          -0.9767872,
          0.19218378,
          -0.15898743,
          -0.65270776,
          -0.8348225,
          -0.4824016,
          0.06402522,
          0.039255265,
          -0.5929138
        ],
        [
          0.098335385,
          -0.47989514,
          0.28226614,
          0.04429023,
          -0.43586686,
          -0.08349368,
          0.2407562,
          -0.2616956,
          -0.32622916,
          0.15278846,
          -0.53004384,
          0.31287536,
          0.5495119,
          0.20321038,
          0.71519244,
          1.0801308
        ],
        [
          -0.013133689,
          -0.08357511,
          0.5916431,
          0.04148481,
          -0.73913753,
          0.0024996712,
          0.9519831,
          -1.3748254,
          0.4158369,
          -0.39056766,
          0.8906872,
          -0.629915,
          -0.35401848,
          -0.44411618,
          0.5901605,
          -0.66113716
        ],
        [
          -0.7591608,
          1.0357984,
          0.6754352,
          -1.4324188,
          0.29323253,
          -0.0021114303,
          1.323648,
          -0.18975276,
          -0.567816,
          -0.33774573,
          1.0687076,
          0.25107577,
          1.8478874,
          0.071884975,
          -0.8153041,
          0.46721256
        ],
        [
          -0.118332826,
          1.037381,
          0.1939485,
          -0.83982354,
          0.0404444,
          0.8394751,
          0.15946223,
          -0.40016565,
          0.89505047,
          -0.4343501,
          0.7575147,
          0.6485773,
          -0.109068096,
          0.104326166,
          -0.4164336,
          -0.29901308
        ],
        [
          -0.7176358,
          0.83905935,
          0.48217756,
          -0.43160474,
          0.25892437,
          0.068202004,
          0.86056924,
          -0.9437755,
          0.7624176,
          -0.7890604,
          0.6676994,
          0.53478354,
          0.558054,
          -0.34620586,
          -0.19655234,
          -1.0089513
        ],
        [
          0.49839318,
          0.0074081267,
          -0.19080572,
          -0.09994806,
          -0.58677024,
          0.29352355,
          0.27303025,
          -0.48180652,
          0.22585352,
          -0.3033684,
          0.6429517,
          -0.80925053,
          -0.4750545,
          -0.28298435,
          0.25064686,
          -0.6740127
        ],
        [
          -1.0338463,
          0.4261489,
          1.5227691,
          -0.19359171,
          0.18013419,
          -0.10241558,
          0.17614792,
          -1.0460184,
          -0.18063007,
          -0.42703262,
          -0.0651223,
          -1.0829468,
          0.041078467,
          -0.008954227,
          1.9283125,
          -1.682461
        ],
        [
          -0.86825126,
          -0.6138062,
          0.039704736,
          -0.0697907,
          -0.800018,
          -0.02406817,
          0.2504763,
          1.3383292,
          0.8073269,
          0.0023416972,
          -0.059021994,
          -0.99125516,
          1.2464428,
          -0.14844483,
          0.103776634,
          -0.5602616
        ],
        [
          0.28456962,
          -0.3560671,
          0.19847737,
          0.39103928,
          -0.19458719,
          -0.6298177,
          -0.34968662,
          0.010406386,
          -0.23716275,
          0.22037208,
          0.3346512,
          0.15845475,
          0.15037535,
          0.24733089,
          -0.24860737,
          0.076451816
        ],
        [
          -0.3165425,
          -0.0510631,
          0.12785798,
          -0.21907197,
          -0.08002593,
          0.13614357,
          -0.09729966,
          -0.11325011,
          0.122591026,
          -0.24851267,
          -0.07342878,
          0.29903856,
          0.2855868,
          0.107063,
          -0.3447504,
          -0.08494519
        ],
        [
          -0.18367152,
          0.045000955,
          0.1635245,
          -0.18192491,
          -0.28458542,
          0.09707961,
          -0.040990315,
          -0.2024687,
          0.11960722,
          -0.08835347,
          0.035275567,
          -0.000475628,
          -0.29011813,
          0.03887575,
          -0.12746547,
          -0.08553813
        ],
        [
          0.59556496,
          -0.10422809,
          -1.0711783,
          -0.32947144,
          -0.28254926,
          0.049730077,
          -0.34532833,
          -0.24946484,
          0.56646454,
          -0.28977147,
          -0.5569184,
          0.8989827,
          -1.2003235,
          0.9701071,
          0.4019817,
          -0.7073092
        ],
        [
          0.3372458,
          0.5159257,
          1.7143654,
          0.119256,
          -0.30845967,
          -0.22966962,
          -0.32622853,
          -1.5215386,
          -0.02689195,
          0.1808469,
          -0.26209235,
          -0.8622975,
          -1.7470332,
          -0.12434576,
          1.0101447,
          -0.24001643
        ],
        [
          -0.60919267,
          -1.2368805,
          1.4139639,
          0.11198656,
          -1.5027765,
          0.076435,
          0.4009127,
          -1.8633416,
          -0.33205304,
          -0.7976187,
          -1.1079571,
          -0.26263925,
          -1.0325519,
          -0.74595714,
          0.44575393,
          -0.13566872
        ],
        [
          -0.27244422,
          -0.21515758,
          -0.60567075,
          -0.22979878,
          0.31660503,
          -0.21594714,
          0.34832624,
          -0.0040193438,
          -0.07784372,
          0.41236332,
          0.46305096,
          0.3906924,
          0.5133539,
          -0.26374254,
          -0.62408376,
          0.17987895
        ],
        [
          -0.113768846,
          0.027979521,
          -0.19146556,
          -0.14181043,
          0.09555554,
          -0.09528882,
          0.1906755,
          -0.06808328,
          0.048517283,
          0.15763287,
          0.0910932,
          0.16391823,
          0.0014244256,
          -0.15639408,
          -0.122738086,
          0.051940363
        ],
        [
          0.12544833,
          -0.12171606,
          -0.104446605,
          0.12090508,
          0.07983263,
          0.04188188,
          -0.020866908,
          0.11224723,
          -0.08990039,
          0.035438683,
          -0.11992513,
          0.12527052,
          0.052599072,
          0.04655515,
          0.124964446,
          0.06841736
        ],
        [
          0.3632719,
          -0.2218887,
          0.11691525,
          -0.08188282,
          0.33572188,
          0.049525816,
          -0.15107022,
          -0.60040885,
          0.2335051,
          -0.18471722,
          0.82130384,
          0.121627174,
          1.8201643,
          -0.1538548,
          -0.29799625,
          0.44312382
        ],
        [
          0.844395,
          0.94582874,
          1.2363086,
          -0.17528568,
          -0.3790282,
          0.2473189,
          0.3660564,
          -0.3983084,
          0.19925676,
          -0.07703201,
          -0.39280966,
          0.55809313,
          -0.029725743,
          -0.6475371,
          0.17256957,
          -0.3080834
        ],
        [
          0.30226642,
          -0.4982235,
          0.5034032,
          0.04733058,
          1.5429877,
          -0.38907614,
          -0.43683857,
          -0.35771918,
          -0.9989252,
          0.09598444,
          -0.15438886,
          -0.004577031,
          -0.68576616,
          -0.469276,
          0.81393,
          1.3078358
        ],
        [
          -0.013066484,
          0.03504661,
          -0.29568213,
          -0.020102166,
          -0.16150205,
          -0.10116435,
          0.2256778,
          0.5723223,
          -0.06547905,
          0.2768149,
          0.38522324,
          -0.0025684794,
          0.17295732,
          0.021893261,
          -0.35106108,
          0.029350556
        ],
        [
          -0.124434434,
          -0.067418106,
          0.09999683,
          0.073688105,
          -0.04887644,
          -0.06656882,
          -0.0012312814,
          0.05596575,
          0.005794088,
          -0.002727792,
          0.099124394,
          -0.08252713,
          -0.026286656,
          -0.11589673,
          0.016055057,
          -0.03083708
        ],
        [
          -0.04514901,
          -0.011964312,
          0.1009796,
          -0.1102896,
          -0.10083075,
          0.05143827,
          0.073671006,
          -0.056092132,
          0.087793425,
          0.024915002,
          0.07659225,
          0.045045115,
          0.0019701521,
          0.11006002,
          0.076569304,
          0.020989925
        ],
        [
          0.26333454,
          0.021981541,
          1.0022277,
          -0.37961,
          0.44503736,
          -0.33215415,
          -1.0289334,
          -0.6366211,
          -0.5236826,
          0.15407847,
          1.562871,
          -0.23875062,
          0.49892938,
          -0.17927568,
          1.1566886,
          2.209741
        ],
        [
          -0.2229501,
          0.05244467,
          -0.6146994,
          -0.44165486,
          -0.6283992,
          0.44197264,
          0.34127522,
          -0.19913208,
          -0.7000135,
          0.48101935,
          1.032886,
          0.9918346,
          1.0582752,
          -1.0355537,
          -0.4218331,
          0.6544083
        ],
        [
          -0.81248176,
          0.2728612,
          0.09616902,
          -0.34955788,
          -0.4741086,
          0.041094333,
          -0.33423293,
          0.17544663,
          0.45964074,
          -0.32389542,
          0.28563058,
          -0.32879248,
          0.65052295,
          0.32795855,
          0.15161566,
          -0.11234516
        ],
        [
          0.43316323,
          0.865136,
          -0.24562739,
          0.039848816,
          0.30089295,
          0.29208064,
          0.021403948,
          0.2211978,
          0.11935506,
          -0.0086269975,
          0.031954404,
          -0.06905015,
          0.15922575,
          0.12789634,
          -0.06827344,
          -0.23338017
        ],
        [
          0.12094499,
          -0.14482635,
          -0.022997282,
          0.20430811,
          -0.046531096,
          0.07304006,
          0.21346948,
          0.19799975,
          -0.13258322,
          -0.08124619,
          -0.05241588,
          -0.09626951,
          -0.034751095,
          -0.009262602,
          0.20406324,
          0.09943718
        ],
        [
          0.124071226,
          0.037420984,
          0.094623186,
          -0.0043396126,
          -0.061456636,
          -0.123662114,
          0.075082995,
          0.07053493,
          0.045989968,
          -0.03757937,
          0.06764398,
          -0.11882558,
          0.010280471,
          0.038757183,
          0.12486032,
          0.12556174
        ],
        [
          -0.22790504,
          0.14678556,
          -1.4059709,
          0.14305454,
          0.5847581,
          0.12995465,
          0.18789001,
          1.8313931,
          -1.2027494,
          -0.14522968,
          0.51463306,
          0.4595255,
          1.3306404,
          -0.57994735,
          -0.12942451,
          -0.24679017
        ],
        [
          0.30680454,
          -0.32118368,
          0.26916674,
          -0.40423894,
          -0.9630174,
          -0.31976715,
          0.078514405,
          0.18115285,
          -0.03447488,
          -0.099610865,
          0.37008077,
          -0.36701936,
          0.35094452,
          0.098960705,
          0.8467008,
          -0.6112225
        ],
        [
          -0.48463973,
          0.112466924,
          -0.23411566,
          -0.027280586,
          0.12390846,
          -0.35041976,
          0.0060464293,
          0.015890049,
          -0.19475469,
          -0.27901188,
          0.37618062,
          0.109275684,
          0.22272913,
          -0.08823585,
          0.025201652,
          0.16791724
        ],
        [
          0.061195377,
          0.09233401,
          0.10594687,
          -0.046048883,
          0.088865735,
          -0.013745974,
          -0.11384264,
          0.10138482,
          -0.034256928,
          -0.014901086,
          0.12621139,
          -0.098179735,
          -0.0931031,
          -0.0075899884,
          0.08103401,
          -0.010223987
        ],
        [
          -0.047191665,
          0.09777706,
          -0.096375525,
          -0.08744523,
          -0.03452523,
          0.11698635,
          -0.011642768,
          0.045295604,
          0.108677916,
          0.00047273567,
          0.042021338,
          0.0547019,
          -0.10257014,
          0.03943942,
          -0.017324468,
          0.030168667
        ],
        [
          -0.02251575,
          -0.055504803,
          0.120082565,
          -0.057883944,
          0.10059578,
          0.01392074,
          -0.09376648,
          0.025461223,
          0.026386753,
          -0.05659257,
          0.110776156,
          0.101740815,
          -0.066447034,
          -0.11164248,
          -0.011459604,
          0.08900062
        ],
        [
          0.43347043,
          0.22150029,
          0.5468185,
          0.54119545,
          -0.35568312,
          -0.047091603,
          -0.154094,
          -0.63622224,
          0.28986242,
          -0.2803244,
          0.5240528,
          -0.033728853,
          -0.08288125,
          -0.5827681,
          -0.67819446,
          0.8267229
        ],
        [
          -0.10325341,
          -0.0072106114,
          0.02627826,
          -0.08185443,
          -0.12432201,
          0.11841072,
          -0.07136194,
          0.0872316,
          -0.048533987,
          -0.03405945,
          0.08092084,
          -0.005726263,
          -0.11355033,
          0.08819466,
          0.0058682025,
          -0.10095425
        ],
        [
          -0.064043105,
          0.06777118,
          -0.04209686,
          0.009486573,
          0.06056648,
          0.06440491,
          0.056509025,
          0.05657507,
          0.00071436673,
          0.054578528,
          0.029160853,
          0.08117273,
          -0.06340824,
          0.015095625,
          -0.041843627,
          -0.03326509
        ],
        [
          0.16462809,
          0.18916887,
          -0.1250938,
          0.19524895,
          0.09017118,
          0.10894054,
          -0.17828305,
          0.250628,
          0.2353539,
